svm_type c_svc
kernel_type rbf
gamma 0.01098901098901099
nr_class 5
total_sv 619
rho 0.061175441973302935 0.070352792739868164 0.067723959684371948 0.28268417716026306 -0.036003440618515015 0.058781160248854207 0.2628438584665192 0.07443535327911377 0.43038429284090896 -0.11973952924138248
label 1 2 3 4 5
nr_sv 100 151 155 77 136
SV
1 1 1 1 1:0.004627757 2:-0.27727243 3:0.46626589 4:-0.006720659 5:0.085407041 6:0.11042985 7:-0.035779241 8:0.021988157 9:0.004637938 10:-0.020523736 11:0.10780506 12:0.006552419 13:0.005727082 14:-0.005335492 15:0.32775027 16:-0.26719382 17:-0.091458842 18:-0.067956321 19:-0.03831245 20:0.028644323 21:-0.006332508 22:-0.008743572 23:0.033548091 24:0.001648263 25:0.002780993 26:0.032742981 27:0.033989392 28:0.094724081 29:0.10441258 30:0.031156059 31:-0.06936802 32:-0.020997724 33:-0.030002939 34:-0.023252783 35:0.006116542 36:-0.006223769 37:0.012127358 38:-0.007125717 39:0.00860713 40:-0.029633818 41:-0.012223593 42:-0.04199899 43:-0.000911137 44:-0.054794457 45:0.016670126 46:-0.014105393 47:-0.023325497 48:0.059963938 49:0.11235944 50:-0.052118681 51:0.018981339 52:0.031455111 53:-0.017856423 54:0.00316441 55:0.012010058 56:0.046357427 57:0.060264345 58:0.064202592 59:0.045690592 60:0.016969148 61:0.12784114 62:-0.008914746 63:0.038269781 64:-0.001740529 65:0.22956395 66:-0.057712309 67:0.037120435 68:-0.032675859 69:-0.006175066 70:0.030073795 71:-0.006873135 72:-0.076620102 73:-0.010795213 74:0.030351834 75:-0.030695466 76:-0.001151397 77:-0.016172083 78:-0.043573953 79:0.038149875 80:-0.026092432 81:-0.021906512 82:-0.003850294 83:-0.035290062 84:-0.032823313 85:-0.05761569 86:0.041583624 87:-0.017383093 88:0.093288191 89:0.010079321 90:0.089801095 91:0.011665582 
1 1 1 1 1:0.025233194 2:-0.36186472 3:0.5280931 4:-0.040346615 5:0.062193315 6:0.012963404 7:-0.019936534 8:-0.044850066 9:-0.026627572 10:0.007679022 11:0.059685372 12:-0.009534215 13:0.009434468 14:0.005485141 15:0.030930653 16:-0.16893116 17:-0.067101248 18:-0.061321549 19:-0.021052079 20:-0.003501866 21:-0.007314169 22:0.006741616 23:-0.031146972 24:-0.000368453 25:0.008998277 26:0.077060059 27:0.10675434 28:-0.049852662 29:0.055129286 30:0.00159728 31:-0.010244359 32:-0.007209087 33:0.004693327 34:-0.010260894 35:0.006673765 36:0.003248028 37:-0.030951658 38:-0.027794521 39:-0.000212563 40:-0.049322098 41:-0.016631747 42:-0.040007096 43:-0.020209067 44:0.020487279 45:0.006183862 46:-0.016996995 47:-0.024658253 48:0.014612646 49:0.16775169 50:-0.034200624 51:0.015595653 52:-0.016158396 53:0.009072393 54:0.002776184 55:0.017400011 56:0.010440505 57:0.049706433 58:0.040602256 59:0.004018128 60:0.0244505 61:0.040668484 62:0.006570391 63:0.006116864 64:0.029603107 65:0.12055444 66:0.017057801 67:0.065501288 68:-0.060018901 69:-0.010339115 70:0.041062191 71:0.01884597 72:-0.005162728 73:-0.15913661 74:0.016825676 75:0.00306117 76:-0.000658893 77:-0.006952349 78:-0.0844284 79:-0.017331704 80:-0.032091603 81:-0.011757066 82:-0.040773477 83:0.027979124 84:0.038283367 85:-0.068435267 86:0.026488693 87:0.030327972 88:0.14961442 89:0.009476719 90:0.018239442 91:0.024919458 
1 1 1 0 1:0.027750492 2:-0.46768379 3:0.44839898 4:-0.07660871 5:0.1441032 6:-0.000695142 7:-0.036506277 8:-0.016488522 9:-0.004057479 10:-0.013373312 11:0.03265712 12:0.008244718 13:0.023253081 14:0.01188008 15:0.23740211 16:-0.2134618 17:0.080848008 18:-0.032360476 19:0.005876458 20:0.016816197 21:-0.022047225 22:0.021285014 23:-0.005041689 24:0.015901858 25:-0.004582396 26:0.10858196 27:0.06480512 28:-0.28805271 29:0.025934439 30:-0.013020464 31:-0.032188572 32:-0.02591797 33:-0.014674919 34:0.002894765 35:0.006142758 36:0.017675236 37:-0.030581307 38:-0.20074335 39:0.00621753 40:-0.007631234 41:-0.005394839 42:-0.023393847 43:-0.013089961 44:-0.007933177 45:0.002683504 46:-0.021446444 47:-0.080771588 48:0.055183515 49:0.076476492 50:-0.048599783 51:0.056259993 52:0.006550583 53:0.007298824 54:0.000557231 55:-0.021447677 56:0.018091392 57:0.022910347 58:0.090081982 59:0.062862724 60:0.035886411 61:0.0551336 62:0.001371742 63:0.014142359 64:0.012263072 65:0.21173514 66:-0.065826699 67:0.0781473 68:-0.067486539 69:0.017136225 70:0.02178527 71:-0.000144958 72:-0.099331684 73:-0.12155827 74:0.013532329 75:0.00061845 76:0.015502318 77:-0.018600577 78:-0.12035003 79:-0.047266714 80:-0.002433378 81:-0.090029888 82:-0.023595067 83:-0.091611296 84:-0.051932868 85:-0.080263861 86:0.023267848 87:-0.01523522 88:0.16801514 89:0.003231836 90:0.12176343 91:0.039027255 
1 1 0 1 1:0.016675292 2:-0.60072655 3:0.34588507 4:0.001255006 5:0.068516128 6:0.033403624 7:-0.032087334 8:-0.01178266 9:-0.012465989 10:-0.005673506 11:0.06522689 12:-0.008097548 13:-0.007488232 14:-0.052602835 15:0.043417022 16:-0.30982149 17:0.05356304 18:-0.051601086 19:-0.030954113 20:0.029009605 21:-0.003602189 22:0.008596029 23:-0.008719935 24:0.019512661 25:0.00972556 26:0.089849912 27:0.042132378 28:-0.28737459 29:0.12020169 30:-0.013571985 31:-0.039321203 32:-0.037124079 33:-0.016458193 34:-0.024714468 35:0.016330965 36:0.036849137 37:-0.013766977 38:-0.077244021 39:-0.08154206 40:-0.022399738 41:0.001716986 42:-0.024311814 43:-0.000639339 44:0.001232888 45:-0.001704807 46:-0.0163259 47:-0.072870098 48:-0.088950858 49:0.093232743 50:-0.071469307 51:0.031002618 52:-0.001681362 53:0.0118394 54:0.010513019 55:-0.004920212 56:0.016745189 57:0.057389569 58:0.1128604 59:0.0712009 60:0.064487852 61:0.084121503 62:0.009298268 63:0.003654305 64:0.007604271 65:0.23154111 66:-0.048853144 67:0.10335081 68:-0.079312868 69:0.026454514 70:0.033376556 71:0.002639111 72:-0.064866677 73:-0.15017551 74:0.065625519 75:-0.005936133 76:0.001736631 77:-0.024345119 78:-0.069749489 79:-0.000438162 80:0.004692973 81:-0.042311527 82:-0.039630365 83:-0.10048733 84:-0.019284824 85:-0.091965333 86:0.035992853 87:0.00955552 88:0.13062084 89:0.009361424 90:0.051683985 91:0.028960548 
1 1 0 1 1:0.013721678 2:-0.65185654 3:0.37295514 4:-0.064943843 5:0.11008698 6:0.036314771 7:-0.01650539 8:-0.020431852 9:-0.030984525 10:-0.015046579 11:0.030691888 12:0.00115471 13:-0.00158255 14:0.008514193 15:0.16142976 16:-0.17799725 17:0.058377717 18:-0.024162585 19:-0.018762043 20:0.018239006 21:-0.010686106 22:0.012796008 23:-0.025283296 24:0.013027993 25:0.009460981 26:0.079426065 27:0.093841285 28:-0.19789179 29:0.11838663 30:-0.035102688 31:-0.01435501 32:-0.041912798 33:-0.013148932 34:-0.007173836 35:0.01018064 36:0.034991372 37:0.0146505 38:-0.098897345 39:-0.001335444 40:-0.042306829 41:-0.033802193 42:-0.002358138 43:-0.015275141 44:0.016539691 45:-0.001198287 46:-0.018681969 47:-0.052247491 48:0.025272258 49:0.13641317 50:-0.058052845 51:-0.00153305 52:0.015841793 53:0.018700568 54:0.000813358 55:0.002489249 56:0.027845468 57:0.064125344 58:0.1044395 59:0.058396623 60:0.050395049 61:0.063731909 62:0.000891023 63:0.005453229 64:0.021164011 65:0.21361861 66:-0.050415028 67:0.096719317 68:-0.045485187 69:-0.003055549 70:0.050689202 71:0.014390865 72:-0.041753497 73:-0.16161779 74:0.045448821 75:0.015394354 76:0.009340676 77:-0.013846332 78:-0.14202802 79:0.020974899 80:-0.013981111 81:-0.043652933 82:-0.035035633 83:-0.041075028 84:-0.000814306 85:-0.080128215 86:0.033005834 87:0.028638918 88:0.12664819 89:0.010637324 90:0.072873712 91:0.028661231 
0 0 1 0 1:0.016699085 2:-0.0701942 3:0.46057877 4:-0.071030416 5:0.23832054 6:0.013146101 7:-0.021664919 8:0.017453717 9:-0.02471113 10:0.005348479 11:0.034739349 12:0.006857077 13:0.009211184 14:0.013691433 15:0.42172867 16:-0.21369979 17:0.074232712 18:-0.058237921 19:-0.035141952 20:0.036787465 21:-0.02067023 22:0.011924819 23:-0.013474188 24:0.003344186 25:-0.003773022 26:0.076272383 27:-0.083451167 28:-0.28377026 29:0.035738762 30:0.00331344 31:-0.060263637 32:-0.020718375 33:-0.036017485 34:-0.020150568 35:0.004074602 36:0.028294073 37:-0.00706677 38:-0.19256541 39:0.039946679 40:-0.039481904 41:-0.0349847 42:-0.018316967 43:-0.020370262 44:0.022549415 45:0.004366376 46:-0.006190164 47:-0.084189601 48:-0.036141455 49:0.11696763 50:-0.14475262 51:0.030469779 52:0.009931144 53:0.018091211 54:-0.00304152 55:0.005772143 56:0.03409503 57:0.076271363 58:0.25964773 59:0.06208127 60:0.028476709 61:0.048258279 62:0.016857201 63:0.009750501 64:0.009016309 65:0.35876736 66:-0.037349708 67:0.096947551 68:-0.052048676 69:-0.016254772 70:0.017244093 71:0.021954058 72:-0.049857836 73:-0.13984942 74:-0.015768684 75:0.029942779 76:0.029343516 77:-0.01732493 78:-0.11698823 79:0.03705021 80:-0.030569358 81:-0.09334065 82:-0.023454215 83:-0.00978054 84:-0.036353506 85:-0.05090376 86:0.027577797 87:-0.007217088 88:0.10371041 89:0.001370882 90:0.049885385 91:0.034709357 
1 1 0 0 1:0.02228404 2:-0.57980299 3:0.30663326 4:0.023990875 5:0.2566011 6:0.10415715 7:-0.039882768 8:0.028059976 9:-0.007959768 10:7.5545e-05 11:0.069786124 12:0.014555902 13:-0.002077094 14:0.031290635 15:0.12828089 16:-0.27293521 17:0.11582607 18:-0.052238218 19:-0.016523251 20:0.041593783 21:0.00409743 22:0.016295725 23:-0.007319223 24:-0.006879539 25:-0.001078918 26:0.074938528 27:0.15385667 28:-0.39390451 29:0.11454027 30:-0.025459506 31:-0.071552932 32:-0.031919748 33:-0.03591286 34:-0.04017644 35:0.009216239 36:0.017773401 37:-0.028940108 38:-0.36601311 39:-0.099695809 40:-0.009319962 41:-0.084638581 42:-0.021612184 43:-0.022682944 44:-0.008326466 45:-0.008979879 46:-0.020829754 47:-0.11117646 48:0.067058936 49:0.082623504 50:-0.080779426 51:0.057317868 52:0.049251594 53:0.008844222 54:0.001913821 55:-0.00264354 56:0.034811962 57:0.02377487 58:0.23048621 59:0.1344219 60:0.057881024 61:0.11648335 62:0.017130867 63:0.023281293 64:0.008559222 65:0.31920865 66:-0.061470766 67:0.14625022 68:-0.088637501 69:-0.019671971 70:0.028136134 71:0.027165664 72:-0.054485943 73:-0.21580322 74:-0.006520271 75:0.05464353 76:0.007182168 77:-0.036228519 78:-0.11472406 79:-0.072988912 80:-0.026721919 81:-0.078014627 82:-0.042849008 83:-0.03848245 84:-0.042302851 85:-0.065376647 86:0.032997355 87:-0.001760334 88:0.12744421 89:-0.012542158 90:0.088902652 91:0.028686726 
1 1 0 0 1:0.013081647 2:-0.46210837 3:0.35330892 4:0.052279383 5:0.25399211 6:0.082634501 7:0.073559821 8:-0.029503915 9:-0.01477272 10:0.010706317 11:0.097004227 12:2.9815e-05 13:0.009347619 14:-0.00858836 15:0.1030151 16:-0.35739759 17:0.15325332 18:-0.008731671 19:-0.11391342 20:-0.007280165 21:-0.006772853 22:0.012902473 23:-0.046930954 24:0.003824664 25:0.003317734 26:0.075212561 27:0.055348154 28:-0.34023875 29:0.13087671 30:-0.0375599 31:-0.012095431 32:-0.045802105 33:-0.01786256 34:-0.040216289 35:0.010778492 36:0.042847224 37:-0.024774965 38:-0.3123973 39:-0.091164254 40:-0.10104255 41:-0.04219481 42:-0.015260588 43:-0.005820267 44:0.011741305 45:-0.003985966 46:-0.018649258 47:-0.08457955 48:-0.023689507 49:0.17507882 50:-0.065157562 51:0.044221491 52:-0.007281393 53:0.027400766 54:-0.006425899 55:0.013540491 56:0.023219658 57:0.17902543 58:0.087135859 59:0.094088234 60:0.095285028 61:0.058932304 62:0.007116481 63:0.013169752 64:-0.001675876 65:0.19440965 66:-0.059872631 67:0.13152845 68:-0.12346698 69:0.013887692 70:0.023171552 71:0.020557517 72:-0.087409109 73:-0.17609131 74:-0.056274913 75:0.022179276 76:0.011419486 77:-0.0234723 78:-0.088483438 79:0.12177674 80:-0.019922566 81:-0.062511869 82:-0.047917694 83:0.055996925 84:-0.009283337 85:-0.078256622 86:0.048123617 87:-0.002286179 88:0.14451149 89:0.011912239 90:0.052024491 91:0.035109706 
1 1 1 1 1:-0.022713453 2:-0.2416794 3:0.080808386 4:-0.064022586 5:0.17651252 6:0.17517014 7:0.070232593 8:0.017387688 9:-0.001797281 10:0.078257747 11:0.049934942 12:0.018805049 13:-0.011764938 14:-0.07203754 15:0.15239666 16:-0.19381264 17:0.16295837 18:0.17299286 19:-0.1587683 20:0.058629669 21:-0.025447726 22:0.032148413 23:-0.055137638 24:0.017510006 25:0.002595975 26:-0.033884689 27:0.14126602 28:-0.38572028 29:0.15563971 30:-0.14449586 31:-0.054228734 32:-0.055625141 33:-0.020948799 34:-0.006103188 35:0.027651021 36:-0.018550398 37:0.011111143 38:-0.31196091 39:-0.24086681 40:-0.094285026 41:-0.06484133 42:-0.018544022 43:-0.08505591 44:-0.030316781 45:-0.017796116 46:-0.027403343 47:-0.022976546 48:-0.27116695 49:0.26262665 50:-0.05270857 51:0.047293313 52:0.098808721 53:0.029996043 54:-0.018700115 55:0.004106372 56:0.005009058 57:0.16546975 58:0.15033512 59:0.084249556 60:0.14721151 61:-0.026986176 62:-0.029030485 63:0.031765118 64:0.004106178 65:0.22723989 66:-0.031750455 67:0.21491869 68:-0.037651278 69:0.052839018 70:0.038960133 71:0.010896028 72:0.062527433 73:-0.29699355 74:-0.054371867 75:0.028590923 76:-0.008749803 77:-0.016087295 78:-0.15299042 79:0.025914606 80:-0.000192655 81:-0.02443799 82:-0.048327498 83:0.003163847 84:-0.062137354 85:-0.059047014 86:0.002957358 87:-0.093696788 88:0.043885522 89:0.014934674 90:-0.034078587 91:0.003298751 
1 1 0 1 1:0.033356842 2:-0.55438864 3:0.41359666 4:-0.11948881 5:0.12925352 6:0.050525498 7:-0.043421675 8:-0.019147757 9:-0.017885948 10:-0.010394763 11:0.066270046 12:-0.000224041 13:0.0283098 14:0.011420082 15:0.18424147 16:-0.076447695 17:0.061997131 18:-0.017766602 19:-0.019617772 20:-0.001261957 21:0.001010707 22:0.012614132 23:-0.01332877 24:0.016581276 25:0.000844312 26:0.1073839 27:0.17769043 28:-0.377076 29:0.10045473 30:-0.032102503 31:-0.024337335 32:-0.020885313 33:-0.013196384 34:-0.031059723 35:0.0153677 36:0.054221824 37:0.018822972 38:-0.19729426 39:0.044308521 40:0.00045278 41:-0.026754446 42:-0.056227889 43:0.006690863 44:-0.003816886 45:-0.002619488 46:-0.006812902 47:-0.091697469 48:0.056033835 49:0.048334725 50:-0.033770718 51:0.010365338 52:-0.01486064 53:0.005155314 54:-0.007106377 55:0.004803934 56:0.039243829 57:0.014248858 58:0.10195126 59:0.006540428 60:0.028062191 61:0.072128594 62:0.004027321 63:0.018144827 64:0.001000941 65:0.2011605 66:-0.003251209 67:0.033458512 68:-0.079090707 69:0.00195075 70:0.016333174 71:0.008185563 72:-0.002244506 73:-0.07073471 74:0.017409442 75:0.000132563 76:0.033088375 77:-0.022460753 78:-0.052982528 79:0.075314067 80:-0.023550924 81:-0.11053219 82:-0.017602028 83:-0.040847976 84:-0.005987656 85:-0.046635251 86:0.059202202 87:0.026831308 88:0.15074264 89:0.011704929 90:0.078301184 91:0.051299829 
0 0 1 0 1:0.002705251 2:-0.16666929 3:0.4185648 4:-0.043540277 5:0.11434928 6:0.036461763 7:-0.054217674 8:-0.009501792 9:-0.029360384 10:0.013022734 11:0.074685641 12:-0.00616577 13:-0.003693386 14:-0.007220525 15:0.43176004 16:-0.29815349 17:0.028609453 18:-0.051062163 19:-0.008517245 20:0.019661661 21:0.008602382 22:0.00672381 23:-0.02594729 24:0.016853273 25:0.00613745 26:0.063136928 27:-0.13544749 28:-0.25293502 29:0.074175581 30:0.002127002 31:-0.055493362 32:-0.007369508 33:-0.032680809 34:-0.019127671 35:0.016502231 36:0.036613956 37:4.1168e-05 38:-0.081466302 39:-0.008791451 40:0.023735527 41:-0.028077684 42:-0.035795148 43:0.000549123 44:0.025789352 45:0.008484516 46:-0.007922892 47:-0.05826249 48:-0.10719339 49:0.040731441 50:-0.12034949 51:0.014341912 52:0.005374794 53:0.010125249 54:0.007392796 55:0.019035622 56:0.025794253 57:0.032223921 58:0.23436597 59:0.024117727 60:0.04150217 61:0.055056937 62:0.00206006 63:0.02368488 64:0.004212621 65:0.31830931 66:0.014141364 67:0.098938979 68:-0.070479892 69:-0.010701127 70:0.021556716 71:0.027541516 72:0.029687162 73:-0.18884106 74:-0.0293204 75:0.007408683 76:0.013144547 77:-0.010551939 78:-0.17019229 79:0.10197183 80:-0.030692723 81:-0.063400388 82:-0.028857891 83:-0.025831122 84:0.021799937 85:-0.052949596 86:0.038324304 87:0.04842015 88:0.10295806 89:0.008349057 90:0.061011758 91:0.023389081 
1 1 0 1 1:0.005137095 2:-0.69455993 3:0.45416153 4:-0.1320336 5:0.028007256 6:-0.034664199 7:0.017910125 8:-0.010990369 9:-0.033587407 10:0.006462642 11:0.053197127 12:-0.004972511 13:0.000263954 14:-0.00185132 15:0.087200627 16:-0.18811274 17:0.05592094 18:0.0157969 19:-0.040135045 20:0.030003199 21:-0.006866682 22:-0.002021513 23:-0.016239904 24:0.014685079 25:0.005431234 26:0.09698303 27:0.12021536 28:-0.24077763 29:0.019096004 30:-0.003715658 31:-0.044208616 32:-0.028816022 33:-0.016375951 34:0.006538116 35:0.012292409 36:0.023785016 37:-0.006419268 38:-0.099692993 39:0.051592242 40:-0.003799083 41:-0.029204952 42:0.001490998 43:0.026017603 44:0.012867321 45:0.001195486 46:-0.008330544 47:-0.033390258 48:0.056831699 49:0.044487748 50:-0.10166354 51:0.002424904 52:-0.002654375 53:-0.014060025 54:-0.00380555 55:0.014991557 56:0.010373046 57:0.006380415 58:0.17798668 59:0.037062623 60:0.047851387 61:0.044901349 62:0.003364662 63:0.02027077 64:-0.004935321 65:0.21815771 66:-0.006184421 67:0.07138738 68:-0.03257522 69:0.005237864 70:0.034713656 71:0.021829851 72:0.003609334 73:-0.1180886 74:0.005228622 75:0.002948239 76:-0.000923339 77:-0.002890728 78:-0.062684253 79:0.12147547 80:-0.016222328 81:-0.033818007 82:-0.026336174 83:-0.021912284 84:0.016992176 85:-0.059973195 86:0.030830557 87:-0.001764901 88:0.11729989 89:0.013195815 90:0.050529022 91:0.020091655 
1 1 0 0 1:0.008778218 2:-0.51776183 3:0.36186382 4:0.017441738 5:-0.023416592 6:0.10474179 7:0.07459607 8:-0.004721474 9:-0.017857855 10:0.016028276 11:0.18369016 12:0.007985739 13:9.8874e-05 14:-0.004762657 15:0.17520535 16:-0.25693044 17:0.000907087 18:-0.019412186 19:-0.10601146 20:0.061365083 21:-0.012908109 22:-0.008555688 23:-0.04009629 24:0.045235921 25:0.00280617 26:0.086653814 27:0.10699222 28:-0.22250482 29:0.19072367 30:0.023185637 31:-0.072325334 32:-0.017417606 33:-0.018390009 34:-0.027358433 35:-0.008166742 36:0.008966098 37:0.006653382 38:-0.12332799 39:-0.10929517 40:-0.097086385 41:0.008007477 42:0.020120366 43:0.00994239 44:-0.021297023 45:-0.005466121 46:0.002208358 47:-0.038514841 48:-0.055326045 49:0.11107317 50:-0.13959855 51:0.025667518 52:-0.010361184 53:-0.083587691 54:-0.004144453 55:0.003566338 56:0.011379051 57:0.047634844 58:0.15065879 59:0.075945936 60:0.036625259 61:0.10864762 62:-0.017945256 63:0.029051162 64:-0.003583659 65:0.23195119 66:-0.092870772 67:0.089007139 68:-0.10582318 69:-0.010409132 70:0.056324456 71:0.013107989 72:-0.095237918 73:-0.10233015 74:0.064347237 75:-0.024342764 76:-0.035541091 77:-0.016915541 78:-0.01653186 79:0.13838029 80:-0.05566325 81:-0.011528426 82:-0.031813242 83:-0.020207895 84:0.092084222 85:-0.09551923 86:0.06158451 87:0.029040607 88:0.14710841 89:0.028384605 90:0.097370394 91:0.019709351 
1 1 1 1 1:-0.011481953 2:-0.45853272 3:0.44197491 4:-0.017955894 5:0.011122184 6:0.051740862 7:-0.015611162 8:-0.006583197 9:-0.030927971 10:0.002830037 11:0.063660063 12:0.002652188 13:-0.006756257 14:-0.022327989 15:0.19289181 16:-0.26358074 17:-0.026100602 18:-0.011636203 19:-0.055271011 20:0.010382659 21:-0.001661589 22:-0.016407628 23:-0.037028916 24:0.034500238 25:0.000684025 26:0.052450575 27:-0.000957172 28:-0.19172934 29:0.10967058 30:-0.006821386 31:-0.051960368 32:-0.035928935 33:-0.017758235 34:0.004978585 35:-0.001993753 36:0.023437245 37:0.009775835 38:-0.040372219 39:-0.026406098 40:-0.004429948 41:-0.023130588 42:0.005066663 43:0.023713158 44:-0.004741141 45:0.003051211 46:-0.011739367 47:-0.023667587 48:-0.044839382 49:-0.010495296 50:-0.070809864 51:-0.032527879 52:-0.019177193 53:-0.037883278 54:-0.008473661 55:0.018877834 56:0.00519857 57:-0.006511357 58:0.14325011 59:0.048439026 60:0.043893624 61:0.0825442 62:-0.018849432 63:0.011276886 64:-0.00319772 65:0.22307113 66:0.00912026 67:0.065479003 68:-0.020600222 69:0.042363916 70:0.015329388 71:0.014897326 72:-0.026500719 73:-0.16534598 74:0.02027343 75:-0.011576821 76:-0.007348251 77:0.00152227 78:-0.078400239 79:0.058567595 80:-0.008909657 81:-0.026510159 82:-0.030841812 83:-0.048868865 84:0.014082788 85:-0.070998944 86:0.012165507 87:-0.00068732 88:0.12956396 89:0.012758181 90:0.066591382 91:0.017268671 
1 1 0 1 1:0.013593965 2:-0.71613884 3:0.29776478 4:0.026290448 5:0.21452363 6:-0.037968315 7:-0.020930462 8:-0.009598886 9:-0.042006992 10:-0.011171289 11:0.12229986 12:-0.005313645 13:0.028630378 14:-0.0212237 15:0.041437589 16:-0.35495892 17:0.10477021 18:-0.001828062 19:-0.017978009 20:0.030557515 21:-0.005795586 22:0.001087263 23:0.003931108 24:0.027005691 25:0.00998644 26:0.10703746 27:0.006722844 28:-0.31704509 29:0.10493627 30:0.01157931 31:-0.04682612 32:-0.040160023 33:-0.030491104 34:-0.021488659 35:0.002360018 36:0.035247389 37:-0.0475212 38:-0.093289539 39:-0.049724292 40:-0.029747359 41:0.004637907 42:-0.008670866 43:-0.017063778 44:-0.038465079 45:-0.003663751 46:-0.021902777 47:-0.085453577 48:-0.00865234 49:0.087296061 50:-0.06564717 51:0.029619411 52:0.016697096 53:0.003181935 54:-0.003611055 55:0.00818641 56:-0.011687525 57:0.08303225 58:0.055863421 59:0.083662964 60:0.039797291 61:0.036408294 62:0.013674665 63:0.015305039 64:0.003798098 65:0.2184764 66:-0.066201881 67:0.081525885 68:-0.11046477 69:0.000721202 70:0.022174275 71:-0.006446251 72:-0.078187838 73:-0.088556834 74:-0.044861473 75:-0.014952461 76:-0.025596205 77:-0.024113309 78:-0.10381462 79:0.13423625 80:-0.048601341 81:-0.09550757 82:-0.017930297 83:-0.081094287 84:0.067448907 85:-0.1484398 86:0.055736683 87:0.034186944 88:0.18450815 89:0.023239667 90:0.059930101 91:0.04288502 
1 1 0 1 1:0.007838784 2:-1.0942405 3:0.25362235 4:-0.070846103 5:0.02634974 6:-0.036269311 7:-0.039701447 8:-0.05081629 9:-0.04062755 10:0.004555077 11:0.15898769 12:0.002084741 13:0.053618312 14:-0.053991139 15:-0.23383908 16:-0.26336768 17:0.11151726 18:0.028294936 19:-0.039972942 20:0.032748435 21:0.003307639 22:0.005674826 23:0.056138348 24:0.010545587 25:0.011354497 26:0.091010638 27:0.2846365 28:-0.36696878 29:0.057334427 30:-0.073511034 31:-0.036832791 32:-0.028109517 33:-0.012063595 34:-0.00642857 35:-0.000253464 36:0.012873416 37:-0.026319129 38:-0.085528657 39:-0.01205033 40:-0.055984348 41:-0.02180611 42:-0.005267056 43:-0.044532947 44:-0.002846796 45:0.004262051 46:-0.043996915 47:-0.047722235 48:0.072281428 49:0.12202703 50:-0.056424767 51:0.024401937 52:0.045194212 53:-0.045309834 54:0.006947621 55:-0.011086501 56:0.007532838 57:-0.01183281 58:0.11895692 59:0.097741202 60:0.037994035 61:0.093176752 62:0.013528128 63:0.015577098 64:0.014655715 65:0.20181023 66:-0.067437127 67:0.13029172 68:-0.048882976 69:-0.00229416 70:0.075072937 71:0.007047134 72:-0.006067206 73:-0.16434941 74:0.030571451 75:-0.016783819 76:-0.022842301 77:-0.030581435 78:-0.056694508 79:-0.001890043 80:-0.056628037 81:-0.089638099 82:-0.019661719 83:-0.099404916 84:0.044321544 85:-0.16539489 86:0.047087029 87:-0.00221352 88:0.28788149 89:0.017410617 90:0.057565674 91:0.04918649 
1 1 0 1 1:0.019717902 2:-0.63877296 3:0.48517183 4:-0.18469757 5:0.00743307 6:0.001997914 7:-0.011234911 8:-0.024166139 9:-0.027893163 10:0.003527126 11:0.040343896 12:0.000943432 13:0.022793729 14:0.011935956 15:0.10898659 16:-0.1027521 17:0.037985075 18:0.006662459 19:-0.026421517 20:0.013583454 21:-0.008106682 22:0.009003159 23:-0.003800089 24:0.02713052 25:0.016095009 26:0.12762743 27:0.13927682 28:-0.2381426 29:0.018808449 30:-0.040007599 31:-0.011075797 32:-0.025289457 33:-0.018628882 34:0.005723839 35:0.003586165 36:0.052558787 37:0.00326609 38:-0.10578681 39:-0.002945039 40:-0.014762223 41:-0.03861101 42:0.002148494 43:-0.019632917 44:0.00598835 45:-0.001135403 46:-0.012309847 47:-0.036411725 48:-0.001695324 49:0.09620326 50:-0.051944308 51:0.008741368 52:0.01730448 53:0.0209898 54:0.001249617 55:0.017767178 56:0.012618438 57:0.032059353 58:0.076882549 59:0.031066323 60:0.047343057 61:0.011433803 62:0.011405475 63:0.011098954 64:0.013900354 65:0.13849506 66:0.026964631 67:0.059377916 68:-0.018350277 69:-0.006138863 70:0.02187754 71:0.012050602 72:-9.4304e-05 73:-0.093050845 74:-0.009661447 75:-0.019692445 76:0.026055459 77:-0.000418741 78:-0.070507452 79:0.14173462 80:-0.028789932 81:-0.051715605 82:-0.017486261 83:-0.001416889 84:0.089989074 85:-0.051921938 86:0.040683925 87:0.052936923 88:0.18661591 89:0.025239361 90:0.060301334 91:0.04500046 
0 1 1 0 1:0.004716746 2:-0.4369851 3:0.59207898 4:-0.010187094 5:0.055049591 6:0.013833175 7:-0.020675294 8:-0.007495207 9:-0.00991008 10:-0.008212134 11:0.047464073 12:0.012816292 13:0.026700914 14:-0.015953699 15:0.20313479 16:-0.31907204 17:0.009616367 18:-0.004052424 19:-0.030885272 20:0.0165448 21:-0.01001902 22:0.007840896 23:-0.018593181 24:0.031788364 25:0.018707784 26:0.068601131 27:-0.006070704 28:-0.038553346 29:0.056731552 30:0.000481846 31:-0.054268755 32:-0.0237686 33:-0.007362807 34:-1.9645e-05 35:-0.004248969 36:0.026377387 37:-0.020862041 38:0.023738805 39:-0.0801697 40:-0.022880215 41:-0.01720201 42:0.011209803 43:0.001345634 44:-0.009328983 45:-0.002769637 46:-0.019724902 47:-0.021574764 48:-0.04992478 49:0.10830032 50:-0.07253056 51:-0.013403937 52:0.00672674 53:0.016227731 54:0.004185878 55:0.008627667 56:0.00248485 57:0.057624917 58:0.089832932 59:0.05163493 60:0.038629174 61:0.029075485 62:0.017471047 63:0.021701323 64:0.008730386 65:0.12495336 66:-0.073471069 67:0.054734681 68:-0.010193706 69:0.001435964 70:0.029061407 71:0.009462198 72:-0.046787128 73:-0.085060649 74:-0.023221282 75:-0.007143268 76:-0.012225861 77:-0.003265803 78:-0.043280933 79:0.10707995 80:-0.036512334 81:-0.029252093 82:-0.024136236 83:-0.000795436 84:0.094701484 85:-0.098779172 86:0.021775259 87:0.061028522 88:0.16874482 89:0.020509277 90:0.05448959 91:0.030121809 
1 1 0 0 1:0.019984266 2:-0.5756399 3:0.42352164 4:0.042428702 5:0.066122591 6:0.067570873 7:-0.053794231 8:-0.004979816 9:-0.006670638 10:0.015887365 11:0.10496142 12:-0.007593805 13:0.003252387 14:-0.001507514 15:0.15019795 16:-0.28429016 17:0.000487109 18:-0.095309399 19:-0.028156569 20:-0.008400586 21:-0.029024143 22:0.015173645 23:-0.040900454 24:0.017688483 25:0.011473675 26:0.096051216 27:0.060768597 28:-0.19173913 29:0.030140961 30:0.009304157 31:-0.032857653 32:-0.018335048 33:-0.019403189 34:-0.015071613 35:-0.000821486 36:0.043944046 37:-0.006652373 38:-0.11487197 39:0.18480048 40:0.01824077 41:-0.033735845 42:-0.007820977 43:0.001239242 44:0.011994406 45:0.002484511 46:-0.023653394 47:-0.056791097 48:0.1364132 49:-0.032720182 50:-0.092102349 51:0.014449339 52:-0.019177083 53:-0.009536431 54:0.00420055 55:-0.012885115 56:0.067406014 57:-0.062312793 58:0.13661064 59:0.13369726 60:0.048423409 61:0.13500594 62:-0.008101007 63:0.029758813 64:-0.011177183 65:0.21758613 66:-0.12250513 67:0.091166303 68:-0.085278943 69:0.026400216 70:0.009060922 71:0.018435715 72:-0.096262582 73:-0.13489848 74:-0.037108742 75:-0.018648604 76:0.024260052 77:-0.016113449 78:-0.062249035 79:0.19204159 80:-0.025870236 81:-0.039198447 82:-0.037903875 83:0.019884102 84:0.045531012 85:-0.10018168 86:0.063702993 87:0.036416836 88:0.15882647 89:0.021316428 90:0.083324209 91:0.027471771 
1 1 0 1 1:0.010705667 2:-0.93638474 3:0.17672662 4:-0.22261383 5:0.19463384 6:0.032328721 7:0.001639231 8:-0.02089742 9:-0.02200016 10:0.028248051 11:0.036155816 12:0.006604108 13:-0.007104068 14:-0.00779243 15:0.069097079 16:-0.15705481 17:0.10290227 18:-0.10480588 19:-0.063705899 20:0.012622335 21:-0.022690082 22:0.018964203 23:-0.051052999 24:0.009858625 25:-0.0071012 26:0.077034682 27:0.20285617 28:-0.35910574 29:-0.007265325 30:0.057030022 31:-0.054870229 32:-0.062686391 33:-0.041896444 34:-0.013042356 35:-6.1851e-05 36:0.032447547 37:-0.006133267 38:-0.25868648 39:0.054036319 40:0.074762657 41:-0.069904819 42:0.011766409 43:0.023276672 44:0.020021316 45:-0.01775286 46:-0.034062769 47:-0.091394179 48:0.023487726 49:-0.057812896 50:-0.13799478 51:0.021262638 52:-0.037665009 53:-0.048488408 54:-0.003493291 55:0.010804796 56:0.043901406 57:-0.034373593 58:0.19824402 59:0.077359207 60:0.13725539 61:0.073949397 62:0.011924815 63:0.041142568 64:-0.043208633 65:0.31376094 66:-0.14655295 67:0.12228379 68:-0.088086858 69:-0.030097853 70:0.002762632 71:0.029913634 72:-0.11374382 73:-0.2094581 74:-0.008216153 75:0.019169915 76:0.033237532 77:-0.023279153 78:-0.14531794 79:0.070825949 80:-0.052150745 81:-0.091264702 82:-0.055128474 83:-0.059868533 84:0.05365869 85:-0.092006996 86:0.041415971 87:0.006229369 88:0.13226336 89:0.010440506 90:0.087811433 91:0.032565042 
1 1 1 0 1:-0.001565576 2:-0.39517468 3:0.48840162 4:-0.13987985 5:0.11071502 6:0.076522894 7:-0.018479826 8:0.020373346 9:0.003557223 10:-0.003950277 11:0.050778229 12:-0.000484026 13:0.036343683 14:0.012714594 15:0.28282884 16:-0.17129257 17:-0.005233429 18:-0.046503354 19:-0.041136019 20:0.031784974 21:-0.020320943 22:0.015291803 23:-0.025002744 24:0.013942719 25:0.006990648 26:0.063972823 27:0.05395668 28:-0.12082587 29:0.042955063 30:-0.001631786 31:-0.035829421 32:-0.04078494 33:-0.019113084 34:-0.013951895 35:0.001793107 36:0.02593188 37:0.007557879 38:-0.11775782 39:0.056190308 40:-0.017706607 41:-0.055495199 42:-0.011613809 43:0.003082429 44:-0.004491576 45:-0.00099527 46:-0.023502059 47:-0.033766713 48:0.076900437 49:0.10566314 50:-0.065636136 51:0.019769236 52:-0.020462422 53:-0.00376759 54:-0.000243884 55:-0.018023564 56:0.029157963 57:0.073220432 58:0.11405191 59:0.077525526 60:0.065654583 61:0.075321361 62:-0.002146431 63:0.049678877 64:0.004024943 65:0.22098728 66:-0.14427358 67:0.039539535 68:-0.033414766 69:0.008666632 70:0.040232401 71:0.019929774 72:-0.12427992 73:-0.072246417 74:0.002504352 75:-0.021906128 76:0.013032446 77:-0.021149637 78:-0.071642637 79:0.10268518 80:-0.028580703 81:-0.056043446 82:-0.025765097 83:0.000608103 84:0.031564698 85:-0.083594292 86:0.023142291 87:0.022744063 88:0.19586158 89:0.016240107 90:0.11824571 91:0.031487625 
1 1 1 1 1:-0.01001827 2:-0.39645556 3:0.43557701 4:-0.009884541 5:0.058846477 6:0.016409645 7:-0.031503197 8:0.01284161 9:-0.040441912 10:0.00674805 11:0.032724049 12:0.008538187 13:-4.3879e-05 14:-0.043878272 15:0.21145119 16:-0.19169018 17:0.1059115 18:-0.028695388 19:-0.040605139 20:0.014433083 21:0.00190275 22:-0.003119608 23:-0.014295573 24:0.016541617 25:0.010988272 26:0.017381268 27:0.21283263 28:-0.19825628 29:0.047696222 30:0.007260061 31:-0.072483569 32:-0.033178426 33:-0.029663205 34:0.005269594 35:-0.006119875 36:0.011848549 37:-0.005707884 38:-0.025488375 39:-0.038953621 40:0.028559614 41:-0.030024499 42:0.001563077 43:0.006468084 44:-0.021636313 45:-0.004926881 46:-0.020416465 47:-0.038054727 48:-0.010454101 49:0.064510442 50:-0.10194121 51:-0.013432452 52:0.004914485 53:-0.006111492 54:0.008850916 55:0.023704965 56:0.016084917 57:0.039641485 58:0.10767804 59:0.035929624 60:0.076688454 61:0.075438708 62:0.013924861 63:0.024391254 64:-0.012839627 65:0.1694098 66:-0.033634309 67:0.10764427 68:-0.031479087 69:0.005411572 70:0.004524181 71:0.006507357 72:-0.023258518 73:-0.1676577 74:0.046786532 75:-0.016073396 76:0.008719699 77:-0.00178326 78:-0.070693292 79:0.003295129 80:-0.044679437 81:-0.047064956 82:-0.032741975 83:-0.050088018 84:0.11954541 85:-0.063111402 86:0.007921599 87:0.058451924 88:0.077177495 89:0.016779277 90:0.043101054 91:0.015782528 
0 0 1 0 1:-0.002216022 2:0.27877122 3:0.45482567 4:0.028320771 5:-0.008658077 6:0.032411359 7:-0.016081279 8:0.044440541 9:-0.013250785 10:0.025989326 11:0.026061786 12:0.005084199 13:0.021181025 14:-0.004940613 15:0.37239197 16:-0.27361429 17:-0.001231615 18:-0.013774962 19:-0.013100642 20:0.008407856 21:-0.033441756 22:0.01490273 23:-0.023371786 24:0.009187804 25:0.001112211 26:0.057748932 27:-0.068656527 28:-0.12257671 29:0.036800086 30:-0.026071776 31:-0.041012026 32:-0.021124698 33:-0.015783094 34:-0.000655582 35:0.001660984 36:0.023610558 37:-0.006875863 38:-0.073950998 39:0.026155612 40:-0.022645663 41:-0.031005319 42:-0.002594987 43:-0.028754873 44:-0.000523014 45:0.006528537 46:-0.031486079 47:-0.009481974 48:0.006408619 49:0.080167845 50:-0.067198545 51:0.016387755 52:-0.009402567 53:0.008316236 54:-0.006568878 55:-0.011685842 56:0.013541437 57:-0.02768445 58:0.13769689 59:0.07398805 60:0.038060654 61:0.041862883 62:-0.00040204 63:0.030759577 64:0.014615761 65:0.29297811 66:-0.0961904 67:0.071245439 68:-0.003844366 69:-0.000653022 70:0.035712585 71:0.006085556 72:-0.096288942 73:-0.13680831 74:-0.034915347 75:0.006978914 76:0.000279913 77:-0.01177146 78:-0.028186478 79:0.08493191 80:-0.013537258 81:-0.032869272 82:-0.027885128 83:0.018675284 84:0.014914542 85:-0.081210919 86:0.01534564 87:0.002400081 88:0.15325545 89:0.00878598 90:0.10120058 91:0.021253483 
0 1 1 0 1:0.003568553 2:-0.3697494 3:0.49818924 4:-0.12860642 5:0.081710346 6:0.030334096 7:-0.034040894 8:-0.022546586 9:-0.006376978 10:0.011552865 11:0.023774678 12:-6.9681e-05 13:0.012719384 14:-0.019096717 15:0.25485417 16:-0.17704506 17:0.009437177 18:-0.065761782 19:-0.007704873 20:0.012188742 21:-0.009620834 22:0.02251506 23:-0.027847238 24:0.001458478 25:0.00218679 26:0.069900356 27:0.023656616 28:-0.21039982 29:0.029609486 30:-0.013392719 31:-0.033901151 32:-0.040394533 33:-0.013751603 34:-0.002755059 35:0.00635266 36:0.027696762 37:0.009859288 38:-0.064143397 39:0.02922417 40:-0.011931485 41:-9.0345e-05 42:-0.023369892 43:-0.008323594 44:0.00022897 45:0.009715962 46:-0.030002678 47:-0.047915641 48:-0.059138317 49:0.077933192 50:-0.066320993 51:0.021162212 52:-0.041337818 53:-0.003490562 54:0.006817304 55:-0.012028587 56:0.024990467 57:0.058881503 58:0.043137122 59:0.057615407 60:0.062475652 61:0.043613944 62:-0.005122377 63:0.009545912 64:0.001727818 65:0.14901821 66:-0.11298106 67:0.057169039 68:-0.071559578 69:-0.003604944 70:0.028148195 71:0.003915583 72:-0.086423747 73:-0.1312948 74:0.01169898 75:0.001286202 76:0.022869894 77:-0.016149191 78:-0.075403571 79:0.065613717 80:-0.027727377 81:-0.052668568 82:-0.032869652 83:-0.058915984 84:0.011727164 85:-0.067078568 86:0.022227837 87:0.01200184 88:0.14698485 89:0.009575593 90:0.073434785 91:0.027623791 
0 1 1 0 1:0.009694309 2:-0.40074679 3:0.41401985 4:-0.010283186 5:0.14619523 6:0.14926475 7:-0.067185946 8:-0.008925908 9:-0.026570115 10:0.029994331 11:0.050616607 12:-0.001167589 13:0.002503641 14:0.003336986 15:0.28457281 16:-0.30818412 17:-0.053511847 18:-0.10390734 19:0.015506783 20:0.005233566 21:-0.002394423 22:0.018086324 23:-0.036145531 24:0.000913234 25:-0.00375043 26:0.064340614 27:0.029137846 28:-0.14462973 29:0.20072557 30:-0.041567393 31:-0.052228797 32:-0.023439122 33:-0.01444287 34:-0.023616925 35:0.021548983 36:0.03164418 37:0.001806377 38:-0.10298374 39:-0.26024711 40:0.025005419 41:-0.032525215 42:-0.050934605 43:-0.016630281 44:0.02655711 45:0.004533796 46:-0.010301056 47:-0.06565737 48:-0.093730666 49:-0.007275811 50:-0.10284727 51:0.032694578 52:-0.069951229 53:0.009055383 54:-0.00727331 55:0.011806588 56:-0.003842965 57:-0.051846929 58:0.19320884 59:0.013443247 60:0.10082909 61:0.065674588 62:-0.006530321 63:0.02794479 64:0.00838406 65:0.24634926 66:0.058694772 67:0.013825279 68:-0.10378351 69:-0.008793462 70:0.020549944 71:0.033691019 72:0.013046897 73:-0.013414305 74:0.0406565 75:0.021421077 76:-0.014159323 77:-0.002159307 78:-0.00844 79:-0.00715674 80:-0.022258008 81:-0.034600601 82:-0.032244436 83:0.002132986 84:0.001388462 85:-0.084928334 86:0.017758856 87:-0.004501348 88:0.15930393 89:0.004912423 90:0.10986777 91:0.026391184 
1 1 1 1 1:0.003410729 2:-0.38064519 3:0.40896305 4:-0.14506494 5:0.16161375 6:0.049304578 7:-0.024578916 8:-0.015984962 9:-0.00788197 10:0.042490363 11:0.017562285 12:0.004446824 13:-0.016432939 14:0.010929021 15:0.24098223 16:-0.11039678 17:-0.018281665 18:-0.10174492 19:-0.018108208 20:0.002879828 21:0.012677591 22:0.034969799 23:-0.047191843 24:0.024776127 25:0.006551083 26:0.097710006 27:0.036090676 28:-0.32203707 29:0.047710784 30:0.010396195 31:-0.033964586 32:-0.015648104 33:0.008534234 34:-0.024888534 35:-0.001554495 36:0.008818195 37:0.006834547 38:-0.069920667 39:0.078182906 40:-0.024671169 41:-0.023301097 42:-0.055769805 43:0.006129041 44:-0.001313611 45:-0.004290017 46:-0.009839157 47:-0.058492467 48:-0.039356578 49:0.046791784 50:-0.034365349 51:0.016130541 52:-0.051602699 53:0.006407005 54:0.01002761 55:0.02393203 56:0.022047378 57:0.086627953 58:0.059807993 59:0.035432693 60:0.098829202 61:0.078460999 62:0.001411278 63:0.004831247 64:0.009176411 65:0.20192407 66:0.033466622 67:0.062798865 68:-0.051805373 69:0.037332669 70:0.023674637 71:0.005548867 72:0.087611742 73:-0.17255065 74:0.024949735 75:-0.042278383 76:0.006966488 77:-0.008988621 78:-0.053782281 79:0.025576077 80:-0.032409083 81:-0.02753821 82:-0.046005934 83:-0.092354447 84:0.072330721 85:-0.04184746 86:0.01416015 87:0.062465589 88:0.10180521 89:0.025508741 90:0.070826769 91:0.013493196 
1 1 1 0 1:0.027208373 2:-0.42855611 3:0.46502903 4:-0.10962197 5:0.12996264 6:0.056115404 7:-0.04615327 8:-0.020269584 9:-0.012649192 10:0.022813499 11:0.033869244 12:0.007221691 13:-0.004444478 14:0.017369119 15:0.27493009 16:-0.19310337 17:0.072400808 18:-0.058174975 19:0.01114366 20:0.006107531 21:-0.001397476 22:0.022704056 23:-0.042029396 24:0.018806931 25:0.012349131 26:0.11205111 27:0.059388265 28:-0.17796002 29:0.03605248 30:-0.042385947 31:-0.036771078 32:-0.025998039 33:-0.008718945 34:-0.017173693 35:0.018198611 36:0.034106046 37:-0.039439794 38:-0.065821029 39:-0.12737292 40:-0.00996444 41:0.002278055 42:-0.044439565 43:-0.014710345 44:-0.000266416 45:0.00192611 46:-0.006403746 47:-0.07455691 48:-0.090193041 49:0.091497004 50:-0.03735156 51:0.028588293 52:-0.057410572 53:0.033166323 54:-0.006561287 55:0.010971585 56:0.000457804 57:0.011482239 58:0.10014921 59:0.031519484 60:0.08641395 61:0.036180593 62:-0.002857915 63:-0.001913965 64:0.026214594 65:0.18364735 66:0.040350899 67:0.038939685 68:-0.08277604 69:-0.022433413 70:0.029197883 71:0.007651715 72:-0.010803547 73:-0.039582897 74:-0.051471636 75:-0.006062965 76:-0.008754926 77:-0.007251512 78:-0.042237017 79:0.050909426 80:-0.048304219 81:-0.039840918 82:-0.033981655 83:-0.034991004 84:0.058163509 85:-0.067907333 86:0.039743923 87:0.060812239 88:0.10843614 89:0.021150738 90:0.047107968 91:0.026312886 
0 0.99399720295201377 1 0 1:0.014152285 2:-0.17420511 3:0.53953934 4:0.058462765 5:0.020805782 6:0.11704114 7:-0.046037514 8:-0.012715798 9:-0.020402133 10:-0.001195666 11:0.028577479 12:0.004603405 13:-0.005202851 14:0.068251707 15:0.38495138 16:-0.33170983 17:0.003705051 18:-0.095112652 19:0.002809758 20:-2.0826e-05 21:0.015701508 22:0.001601908 23:-0.011695934 24:-0.005455649 25:0.008452648 26:0.10968816 27:-0.11709279 28:-0.13214144 29:0.086381547 30:-0.01739924 31:-0.06965214 32:-0.019425994 33:-0.000663185 34:-0.007593007 35:0.002392391 36:0.023119124 37:-0.038599409 38:-0.13597138 39:-0.084508143 40:0.000162292 41:0.03103919 42:-0.035936859 43:-0.000777378 44:-0.006480603 45:0.008839983 46:-0.004994424 47:-0.03659096 48:-0.015930958 49:0.03650682 50:-0.045615852 51:0.016144518 52:-0.014409854 53:0.009691647 54:0.019366961 55:0.013933399 56:0.015193786 57:0.008920976 58:0.10543367 59:0.040155318 60:0.023253744 61:0.065784156 62:0.002466547 63:0.004610017 64:0.009069939 65:0.13904725 66:0.020231267 67:0.046356186 68:-0.06587825 69:-0.034601942 70:0.016827233 71:0.007216903 72:-0.021049555 73:-0.068424076 74:-0.019726783 75:0.006292582 76:0.007366489 77:-0.006174525 78:-0.045812249 79:0.031872801 80:-0.066285618 81:-0.021868791 82:-0.018225662 83:0.035590433 84:0.072407827 85:-0.059361912 86:0.024962017 87:0.050171465 88:0.11894304 89:0.014814172 90:0.073078029 91:0.023656452 
1 1 1 1 1:0.017374108 2:-0.56931824 3:0.33485028 4:-0.12033813 5:-0.008200079 6:-0.019158727 7:-0.059371188 8:-0.005835663 9:-0.024791563 10:0.00447773 11:0.007695429 12:0.003419269 13:-0.013530796 14:-0.001834349 15:0.2142124 16:-0.20295306 17:0.058297254 18:0.042513367 19:-0.003784794 20:0.042565968 21:0.009568068 22:0.00839618 23:-0.051082622 24:-0.001262175 25:0.024374189 26:0.11107176 27:0.087894693 28:-0.19493191 29:0.03806594 30:-0.021431092 31:-0.049477544 32:-0.01975303 33:0.002001559 34:-0.020325463 35:0.002928721 36:0.01499949 37:-0.038146835 38:0.001342105 39:-0.066581421 40:0.015923636 41:0.010405798 42:-0.027509103 43:0.005972364 44:0.014992432 45:-0.000869651 46:-0.00744235 47:-0.041393798 48:-0.015319883 49:0.047390234 50:-0.054635301 51:-0.007248277 52:-0.016540568 53:0.015653316 54:0.032547776 55:0.022049079 56:-0.017309273 57:0.036974911 58:0.15817274 59:0.072336435 60:0.066396497 61:0.020622049 62:0.011545097 63:0.019887608 64:0.005303019 65:0.26535112 66:0.007709323 67:0.083963282 68:-0.016979393 69:-0.004561627 70:0.031986665 71:0.010584934 72:-0.023635797 73:-0.14120664 74:-0.059300128 75:0.009740698 76:-0.01374696 77:-0.010492154 78:-0.08792837 79:0.054656968 80:-0.043043703 81:-0.000531185 82:-0.049182806 83:-0.026681382 84:0.07119891 85:-0.062467024 86:0.023896381 87:0.095899232 88:0.12361843 89:0.013200306 90:0.067839712 91:0.018329212 
1 1 1 1 1:0.02445776 2:-0.53939259 3:0.41977388 4:-0.087250724 5:-0.004953181 6:-0.010372208 7:-0.045320846 8:-0.031469885 9:-0.004245137 10:0.007856711 11:0.10393041 12:0.032586906 13:-0.003551379 14:0.001152631 15:0.15845838 16:-0.21690084 17:0.019810833 18:-0.033339653 19:0.009032706 20:0.000176567 21:-0.010754455 22:0.006295184 23:-0.025006656 24:0.036337394 25:0.025342219 26:0.12911472 27:0.066062316 28:-0.143148 29:0.027622683 30:-0.027893344 31:-0.043299586 32:-0.020788878 33:-0.014916698 34:-0.003744002 35:0.004644286 36:0.016410027 37:-0.028146768 38:-0.044525169 39:-0.019113343 40:-0.019006638 41:0.008874554 42:0.007893703 43:-0.008685263 44:-0.011897446 45:-0.005051276 46:-0.009714577 47:-0.032985844 48:-0.047902189 49:0.075714812 50:-0.047227725 51:0.017282158 52:-0.016940402 53:0.029434839 54:0.002360062 55:0.008421604 56:0.008981108 57:-0.008509095 58:0.065691069 59:0.084441148 60:0.046972487 61:0.057937417 62:0.024149962 63:0.012410431 64:0.019641694 65:0.17997688 66:-0.002456885 67:0.067932293 68:-0.075342238 69:-0.011971011 70:0.026779797 71:-0.00072054 72:-0.05324256 73:-0.10272402 74:-0.048057806 75:-0.007041246 76:-0.019812366 77:-0.005659543 78:-0.053092014 79:0.13667049 80:-0.099849679 81:-0.000623327 82:-0.029442815 83:-0.024254009 84:0.17926413 85:-0.07240282 86:0.061154868 87:0.11006734 88:0.14143081 89:0.043578148 90:0.074284561 91:0.021470038 
1 1 1 0.87462012152709867 1:0.003836366 2:-0.30455226 3:0.42780018 4:-0.056414761 5:-0.019198976 6:0.046564065 7:-0.058831505 8:-0.02042719 9:0.01643046 10:0.017360542 11:0.066089004 12:0.006027934 13:0.019758593 14:0.01926312 15:0.31966272 16:-0.17846046 17:-0.042827521 18:-0.048815418 19:-0.001885974 20:0.015759462 21:0.023216521 22:0.024586443 23:-0.041395206 24:0.032305978 25:0.024209801 26:0.065509975 27:0.15392658 28:-0.095583946 29:0.049994487 30:-0.031580154 31:-0.059453368 32:-0.002285958 33:0.021318553 34:-0.025588261 35:0.007259915 36:0.042870726 37:0.019736238 38:-0.055445787 39:-0.007958616 40:0.020440403 41:0.003463508 42:-0.007627014 43:0.014852832 44:-0.00133679 45:-0.011887351 46:-0.000276427 47:-0.028199958 48:0.011703721 49:0.013273189 50:-0.028385429 51:-0.022517063 52:-0.039860502 53:0.010221254 54:0.007759787 55:0.008496954 56:0.023354512 57:-0.000317982 58:0.086682811 59:0.11805443 60:0.045282792 61:0.078739889 62:0.006260127 63:0.022037135 64:0.009831108 65:0.22795315 66:-0.12156826 67:0.05752198 68:-0.045832217 69:0.011813146 70:0.028054524 71:0.014802173 72:-0.043911919 73:-0.063798934 74:-0.02430892 75:-0.008995225 76:0.004739996 77:-0.007712946 78:-0.035377622 79:0.11014444 80:-0.064027146 81:-0.016483808 82:-0.025056483 83:-0.007373259 84:0.12105381 85:-0.049270768 86:0.03532071 87:0.10049892 88:0.19669485 89:0.026808845 90:0.15165363 91:0.032800458 
1 1 1 0 1:0.014926169 2:-0.33768597 3:0.35472277 4:0.002308668 5:-0.012774985 6:0.028893698 7:-0.033216186 8:-0.03952428 9:-0.02102281 10:-0.002714782 11:0.077173248 12:0.022179689 13:0.006892128 14:0.04524013 15:0.28242448 16:-0.26028392 17:-0.009314737 18:-0.034624688 19:-0.030182457 20:0.021928821 21:-0.021562276 22:0.004323698 23:-0.028098492 24:0.024609812 25:0.035921253 26:0.084110096 27:0.098258682 28:-0.082446553 29:0.098773703 30:0.020201651 31:-0.05218764 32:-0.021474203 33:-0.00031726 34:-0.01469679 35:0.005931673 36:0.041400023 37:-0.02358531 38:-0.11687069 39:-0.048137277 40:-0.03175528 41:0.040609207 42:-0.00982505 43:0.006623158 44:0.001029406 45:-0.007066636 46:-0.00219463 47:-0.034660906 48:0.013529505 49:0.088252641 50:-0.065319449 51:0.017949887 52:-0.027898761 53:-0.000842527 54:0.021364195 55:0.00844435 56:0.008254799 57:-0.009138437 58:0.12365447 59:0.071542703 60:0.045060471 61:0.048861954 62:0.033688333 63:0.012804308 64:0.002853371 65:0.2351816 66:-0.031013114 67:0.049232785 68:-0.060751136 69:-0.028749447 70:0.031195171 71:-0.001288563 72:-0.074934497 73:-0.066714041 74:-0.053770173 75:-0.001555901 76:-0.022068663 77:-0.012580963 78:-0.094603918 79:0.12076791 80:-0.11449397 81:-0.004560311 82:-0.028473683 83:0.056752205 84:0.15639639 85:-0.091083534 86:0.053318903 87:0.11755016 88:0.17410243 89:0.035007372 90:0.14281827 91:0.028421059 
1 1 1 1 1:0.00756478 2:-0.57085645 3:0.372614 4:0.065921068 5:0.003823339 6:0.012010437 7:-0.049341924 8:-0.028559333 9:0.033628359 10:0.025975406 11:0.066484451 12:0.035897281 13:0.028109357 14:-0.023305925 15:0.1386897 16:-0.34845734 17:-0.004019622 18:-0.048162326 19:-0.017935544 20:0.023316588 21:-0.012717592 22:0.028885046 23:-0.036070775 24:0.025465025 25:0.045977253 26:0.084263995 27:0.10361248 28:-0.034890641 29:0.03402565 30:-0.00931059 31:-0.044166639 32:-0.043650519 33:-0.011878038 34:-0.018006971 35:0.007320016 36:0.0272421 37:-0.034803331 38:0.041545626 39:0.034156971 40:-0.015585627 41:0.008847431 42:0.016898246 43:-0.009788129 44:-0.018732779 45:-0.006165493 46:-0.023034755 47:-0.018136768 48:-0.004567627 49:0.057643361 50:-0.042482112 51:-0.007059372 52:-0.04180963 53:-0.006871117 54:0.011399684 55:-0.027807523 56:0.030995941 57:0.027841771 58:0.018283365 59:0.19031791 60:0.06482055 61:0.058024496 62:0.021078378 63:0.00922406 64:0.005787699 65:0.15870869 66:-0.18674672 67:0.10009792 68:-0.039374359 69:-0.009116577 70:0.052809678 71:-0.005215334 72:-0.10139152 73:-0.1193868 74:-0.07572303 75:0.003821222 76:-0.010831824 77:-0.031410459 78:-0.053982582 79:0.12272859 80:-0.075155042 81:0.011553524 82:-0.043772798 83:-0.054272689 84:0.14649595 85:-0.11856586 86:0.044406671 87:0.11297346 88:0.19740661 89:0.031143263 90:0.12900741 91:0.026230739 
1 1 1 0 1:0.001845529 2:-0.43170053 3:0.36644274 4:0.067100696 5:0.082871549 6:0.022113884 7:-0.046252567 8:-0.03914433 9:0.00642695 10:-0.005090088 11:0.03171039 12:-0.003970691 13:-0.010351392 14:-0.030075645 15:0.12835197 16:-0.407231 17:-0.015978191 18:-0.10435154 19:-0.020379081 20:0.009405848 21:-0.010398454 22:0.008483631 23:-0.055784807 24:-0.007573839 25:0.010399708 26:0.069070056 27:-0.01229238 28:-0.07475993 29:0.095911078 30:0.011569006 31:-0.01978923 32:-0.022470502 33:0.002177279 34:-0.030110441 35:0.012720419 36:0.012977337 37:-0.039395235 38:0.029226543 39:-0.077556834 40:0.011796268 41:0.005440595 42:0.026900647 43:0.006190588 44:0.014261719 45:-0.002884353 46:-0.008732952 47:-0.043423139 48:-0.067420237 49:0.047666147 50:-0.02273643 51:-0.022110941 52:-0.019693203 53:-0.002135352 54:0.002911727 55:0.001340814 56:0.008740155 57:-0.016728368 58:0.039914146 59:0.14242643 60:0.057904199 61:0.02669237 62:0.013727028 63:0.008371214 64:0.004871293 65:0.18003826 66:-0.1185359 67:0.095510609 68:-0.075761251 69:-0.019300047 70:0.030347366 71:0.005429006 72:-0.14019464 73:-0.15030797 74:-0.089258738 75:0.006478397 76:-0.015578358 77:-0.015817283 78:-0.068347372 79:0.067353457 80:-0.059071679 81:0.011870891 82:-0.043595809 83:-0.034521423 84:0.06099711 85:-0.079199269 86:0.024252692 87:0.052294064 88:0.11699736 89:0.016411046 90:0.094538279 91:0.010599388 
1 1 1 1 1:0.013692554 2:-0.4476403 3:0.51754946 4:-0.084867947 5:-0.030251898 6:0.001726341 7:-0.050384436 8:-0.045221109 9:-0.016528785 10:0.000880489 11:0.031979788 12:0.005050597 13:-0.00324799 14:0.015563704 15:0.23488735 16:-0.24629472 17:-0.026677407 18:-0.028535355 19:0.014058888 20:0.003857695 21:-0.007030949 22:0.011275592 23:-0.031010581 24:0.01961913 25:0.018857479 26:0.10560822 27:-0.005160952 28:-0.035842236 29:0.00744022 30:-0.014397627 31:-0.033753395 32:-0.022752119 33:0.001034864 34:-0.012108563 35:0.00488782 36:0.029245434 37:-0.020329993 38:-0.021858508 39:-0.001597433 40:-0.001426603 41:0.010978518 42:-0.013891676 43:0.002669466 44:0.021013087 45:-0.006589412 46:0.002408265 47:-0.005244169 48:0.022738682 49:0.04288736 50:-0.04600016 51:0.00276973 52:-0.024868278 53:0.026453065 54:0.010325045 55:0.003289641 56:0.011772807 57:0.013614478 58:0.071790479 59:0.072887778 60:0.040866036 61:0.036509041 62:0.007222184 63:0.004186284 64:0.013018545 65:0.14341527 66:-0.071493477 67:0.036770374 68:-0.02180624 69:-0.005124621 70:0.01945976 71:0.008105421 72:-0.065382488 73:-0.052715961 74:-0.049316023 75:0.005178026 76:-0.007654681 77:-0.013253749 78:-0.054825775 79:0.11943233 80:-0.061535776 81:0.007166309 82:-0.020088349 83:0.029980065 84:0.09860003 85:-0.069779404 86:0.031874239 87:0.063924171 88:0.13943249 89:0.023390023 90:0.069564492 91:0.021901654 
1 1 1 1 1:0.00857942 2:-0.45073309 3:0.16165422 4:0.13347277 5:0.10722447 6:0.09057343 7:-0.067472674 8:-0.057825688 9:-0.004792201 10:-0.019474782 11:0.078159504 12:0.019192398 13:0.025061501 14:0.014377674 15:0.10474184 16:-0.38619035 17:-0.026653484 18:-0.10322911 19:-0.058184016 20:0.021159172 21:-0.010852518 22:0.009658483 23:-0.057836078 24:0.010990916 25:0.03433596 26:0.025461117 27:-0.10577189 28:-0.027679749 29:0.17089702 30:0.040889103 31:-0.093193181 32:-0.022866907 33:0.003841029 34:-0.054431744 35:0.017857995 36:0.04400995 37:-0.005542728 38:-0.24460697 39:-0.14988664 40:-0.013493638 41:0.030033687 42:-0.009628682 43:0.017951326 44:0.003405692 45:-0.023053385 46:-0.012704424 47:-0.050490763 48:-0.075530566 49:0.070776723 50:-0.086395413 51:0.031182118 52:-0.045856006 53:-0.029965186 54:0.014117594 55:-0.012114542 56:0.024882009 57:-0.090736397 58:0.1494019 59:0.15360065 60:0.074291863 61:0.10264514 62:0.007003128 63:0.010107685 64:-0.007932816 65:0.22584207 66:-0.13908446 67:0.052595899 68:-0.13519613 69:-0.045035314 70:0.017412832 71:0.011483151 72:-0.14265536 73:-0.067856126 74:-0.033913039 75:-0.000925165 76:-0.011157949 77:-0.036543082 78:-0.10135581 79:-0.04510675 80:-0.12671284 81:-0.054410066 82:-0.034257513 83:0.034518577 84:0.14693099 85:-0.13862747 86:0.032351125 87:0.13303436 88:0.17429146 89:0.03430666 90:0.16489156 91:0.048035804 
0 1 1 0 1:0.009706707 2:-0.18081786 3:0.40569469 4:-0.068773128 5:-0.00347304 6:-0.011071315 7:-0.062054146 8:-0.032256354 9:-0.023535918 10:-0.024945175 11:0.042212214 12:-0.002853975 13:0.018135073 14:0.010081436 15:0.34439322 16:-0.27227464 17:0.006176689 18:-0.029681019 19:-0.012925312 20:0.017527511 21:-0.014234703 22:0.008049184 23:-0.025510944 24:-0.007754899 25:0.014024232 26:0.090785295 27:0.019471191 28:-0.12761281 29:0.048730303 30:-0.011236088 31:-0.045089744 32:-0.012201281 33:-0.005500394 34:-0.011932269 35:0.006375543 36:0.013456114 37:-0.01730652 38:-0.02393621 39:-0.020331047 40:-0.001072621 41:0.012787726 42:-0.031847965 43:0.004295341 44:0.005695332 45:0.014217488 46:-0.008746926 47:-0.028312521 48:0.006828795 49:0.082343109 50:-0.072925307 51:0.030988978 52:-0.004928047 53:0.007422232 54:0.011923396 55:0.00994237 56:0.005531688 57:0.057045974 58:0.15362847 59:0.066844642 60:0.03132958 61:0.061334927 62:0.011908655 63:0.027267102 64:0.018686686 65:0.26751965 66:-0.059484251 67:0.065360479 68:-0.062790565 69:-0.011018904 70:0.04497597 71:0.018500457 72:-0.054093979 73:-0.10360827 74:-0.001564321 75:0.012757218 76:-0.010229105 77:-0.016479706 78:-0.067647099 79:0.010317237 80:-0.043164052 81:-0.005801655 82:-0.029737672 83:-0.07364063 84:0.046569053 85:-0.084283046 86:0.022330638 87:0.053351104 88:0.18653339 89:0.013912686 90:0.15164033 91:0.03126391 
1 1 1 0 1:0.010654499 2:-0.32821694 3:0.48467648 4:-0.004663215 5:0.021350935 6:0.008944736 7:-0.055157982 8:-0.027504694 9:-0.006697563 10:-0.006105846 11:0.017406018 12:0.007869511 13:-0.004468075 14:0.011360978 15:0.28756988 16:-0.24727289 17:-0.030692011 18:-0.036188591 19:-0.013498451 20:0.017679179 21:-0.012515083 22:-0.013913926 23:-0.017931161 24:0.015056849 25:0.011659314 26:0.097670548 27:-0.040441453 28:-0.067745127 29:0.087049775 30:-0.016867911 31:-0.04970862 32:-0.014812404 33:0.003229905 34:0.004588861 35:0.010076911 36:0.010506974 37:-0.00591613 38:0.010130798 39:-0.086588986 40:-0.007743509 41:0.02882145 42:0.005160783 43:-0.000468633 44:-0.001768262 45:0.009423123 46:0.000617094 47:-0.024309851 48:-0.045534644 49:0.061859902 50:-0.076278366 51:-0.026664943 52:-0.020116678 53:0.004385978 54:-0.002607345 55:0.018688304 56:-0.002169154 57:0.032742102 58:0.10563435 59:0.0816494 60:0.050542787 61:0.029052645 62:0.002764 63:0.003965374 64:0.011586557 65:0.20758644 66:0.024424635 67:0.03069297 68:-0.034954637 69:-0.009339608 70:0.022505876 71:0.006222015 72:-0.030652741 73:-0.054073609 74:-0.007742216 75:-0.002149037 76:-0.014165922 77:0.010019297 78:-0.036584783 79:0.034065995 80:-0.052038766 81:0.010473479 82:-0.025544347 83:-0.047413886 84:0.095772788 85:-0.055258818 86:0.016183104 87:0.03006774 88:0.12950404 89:0.02719331 90:0.064274207 91:0.019941226 
1 1 1 0 1:0.021175353 2:-0.46337193 3:0.37110439 4:0.005011002 5:0.20311967 6:0.036107499 7:-0.027574804 8:-0.019422654 9:-0.051301893 10:-0.005663063 11:0.011773571 12:0.01658437 13:0.012265379 14:0.02440127 15:0.20162421 16:-0.35320124 17:0.05408816 18:-0.025952904 19:-0.053044751 20:0.001347194 21:-0.0100188 22:0.002447335 23:-0.035914756 24:0.010202019 25:0.004892641 26:0.11223298 27:0.083707616 28:-0.26793295 29:0.13839373 30:0.046753742 31:-0.005519566 32:-0.02160126 33:-0.005429003 34:0.000796505 35:0.015917204 36:0.031694505 37:-0.053168889 38:-0.15064077 39:-0.19217016 40:-0.003302135 41:-0.029436223 42:0.008788466 43:0.007362729 44:-0.000922773 45:-0.001535009 46:-0.012783065 47:-0.089249231 48:-0.079927884 49:0.05232583 50:-0.000602535 51:0.019350454 52:-0.004919134 53:-0.013138223 54:-0.010827328 55:0.005000423 56:-0.027094876 57:0.030623458 58:0.010650173 59:0.055840265 60:0.071248725 61:-0.00667169 62:0.001539651 63:0.016861277 64:-0.011878108 65:0.18799734 66:-0.039054751 67:0.070178628 68:-0.07888528 69:-0.038101282 70:0.013577679 71:0.003847115 72:-0.046894997 73:-0.11275755 74:-0.06389387 75:0.001808622 76:-0.013230275 77:-0.015505254 78:-0.082446337 79:0.07200899 80:-0.066118814 81:-0.087447695 82:-0.035842516 83:-0.05683583 84:0.049298875 85:-0.073786423 86:0.032563061 87:0.021009961 88:0.14244227 89:0.017606195 90:0.125633 91:0.036687039 
1 1 1 0 1:0.00836135 2:-0.37774885 3:0.48402143 4:-0.092858769 5:0.025008902 6:0.019966794 7:-0.05448924 8:-0.032288104 9:0.01884518 10:0.015276521 11:0.086044751 12:0.003772523 13:0.013471144 14:-0.010952679 15:0.24769728 16:-0.2134856 17:-0.016895304 18:-0.056548882 19:-0.006460578 20:0.013123488 21:0.000861732 22:0.00383976 23:-0.004324344 24:0.004103685 25:0.017059842 26:0.065993764 27:0.043697219 28:-0.089727029 29:0.054283217 30:-0.023582336 31:-0.041688383 32:-0.009225857 33:-0.016089989 34:-0.02005199 35:0.002994554 36:0.016033541 37:0.000629056 38:-0.06729167 39:-0.044680595 40:-0.003043098 41:-0.004916898 42:0.006958335 43:-0.003558898 44:0.008198597 45:0.010033836 46:-0.021221204 47:-0.037701689 48:-0.00331784 49:0.04918037 50:-0.073551327 51:-0.008336862 52:0.019491185 53:0.013001617 54:0.017017301 55:0.009667945 56:0.016306141 57:0.011594598 58:0.083514675 59:0.051571406 60:0.025903283 61:0.064287886 62:0.005355372 63:0.024029858 64:0.01201006 65:0.16569878 66:-0.1051327 67:0.07151559 68:-0.064446308 69:-0.012150852 70:0.032076571 71:0.012528979 72:-0.1131802 73:-0.092798963 74:-0.023246266 75:-0.008236936 76:-0.015883425 77:-0.005567573 78:-0.060539365 79:0.13651554 80:-0.051268365 81:-0.015632415 82:-0.025137946 83:0.048530303 84:0.06190262 85:-0.076711155 86:0.036537096 87:0.055790201 88:0.13215075 89:0.014346069 90:0.071303606 91:0.019750867 
1 1 1 1 1:-0.007356606 2:-0.4827604 3:0.28570095 4:-0.19784406 5:0.10385649 6:-0.009237215 7:-0.030212669 8:-0.051772505 9:-0.029088508 10:-0.033714421 11:0.009780034 12:0.016407518 13:0.006639599 14:-0.006147872 15:0.27084848 16:-0.17654292 17:-0.049799502 18:-0.066026554 19:-0.002843721 20:-0.026186844 21:0.022023991 22:-0.002349405 23:-0.020515814 24:-0.000506726 25:0.039986119 26:0.049812015 27:0.061793063 28:-0.054526519 29:0.066089772 30:-0.015124981 31:-0.033018053 32:-0.050955456 33:0.017990306 34:-0.018927645 35:0.008569236 36:-0.009205985 37:0.00827401 38:0.076072581 39:-0.076512188 40:-0.016626846 41:0.033504322 42:-0.002763425 43:-0.003319001 44:-0.00851998 45:-0.016242817 46:0.00768797 47:-0.035723995 48:-0.075789578 49:0.18544218 50:-0.000629807 51:0.002142537 52:-0.0277435 53:0.03362209 54:-0.009678571 55:0.006374376 56:-0.002637561 57:0.10940948 58:-0.06486734 59:0.099043466 60:0.041392028 61:0.031496838 62:0.032204635 63:-0.008877556 64:0.031100638 65:0.10321664 66:-0.13128737 67:0.024420902 68:-0.042451564 69:-0.028283536 70:0.039784338 71:-0.01676384 72:-0.10913263 73:-0.048010122 74:-0.005125753 75:-0.003317466 76:-0.024661236 77:-0.031817336 78:-0.036127515 79:0.005787271 80:-0.079629786 81:-0.001254809 82:-0.021049563 83:-0.082728289 84:0.17970429 85:-0.061603084 86:0.012775087 87:0.14883673 88:0.12514047 89:0.03679049 90:0.10156214 91:0.015218218 
0 1 1 0 1:0.000361931 2:-0.26592052 3:0.46117026 4:-0.019129258 5:0.063958749 6:0.02697802 7:-0.037796412 8:-0.040903814 9:-0.02077489 10:-0.013394341 11:0.056735199 12:0.002490529 13:-0.004580357 14:-0.001044466 15:0.29046863 16:-0.27419409 17:-0.012206757 18:-0.058786854 19:-0.012797223 20:0.015727397 21:-0.000998048 22:-0.003862001 23:-0.017650837 24:0.00487466 25:0.023414306 26:0.058613367 27:-0.027204623 28:-0.14432728 29:0.10053779 30:0.002833122 31:-0.042997319 32:-0.027343797 33:0.002505094 34:-0.024286503 35:0.004468296 36:0.02737586 37:0.001659606 38:-0.049230672 39:-0.07931722 40:-0.008559822 41:0.047240075 42:-0.009033192 43:0.010453553 44:0.000746356 45:0.010924976 46:0.007900744 47:-0.043215126 48:-0.071252219 49:0.074793719 50:-0.051809926 51:0.003972447 52:-0.022043861 53:0.01980547 54:0.014634179 55:0.011009688 56:0.000198223 57:0.057886831 58:0.086590447 59:0.055516955 60:0.025849245 61:0.040171571 62:0.007189323 63:-0.001699313 64:0.002327855 65:0.17645793 66:-0.068417683 67:0.033768732 68:-0.080948107 69:-0.019496279 70:0.02040799 71:0.003560043 72:-0.063644297 73:-0.057231124 74:-0.022874387 75:-0.015205803 76:-0.028605212 77:-0.006731313 78:-0.007037854 79:0.12419655 80:-0.069069646 81:0.000260921 82:-0.016353069 83:0.021518802 84:0.11550926 85:-0.080778673 86:0.026546746 87:0.07774394 88:0.13751191 89:0.025077615 90:0.078165874 91:0.018020926 
1 1 1 1 1:0.006361725 2:-0.098537624 3:0.29699978 4:0.013647727 5:0.035922077 6:0.069118053 7:-0.024389921 8:-0.029742572 9:-0.045375526 10:-0.006197991 11:0.024189977 12:0.011219804 13:-0.000172931 14:0.026717573 15:0.25056037 16:-0.18341588 17:-0.074093863 18:-0.056474153 19:-0.017862661 20:-0.006334866 21:-0.002975639 22:-0.00034147 23:-0.032617837 24:-0.004209499 25:0.022660196 26:0.078367636 27:-0.03006489 28:-0.05336415 29:0.15556279 30:0.017423719 31:-0.043784749 32:-0.038529504 33:0.016840367 34:0.007076004 35:0.000976536 36:0.007415915 37:0.001137277 38:-0.084697805 39:0.005257003 40:-0.054270551 41:0.023564616 42:-0.001594408 43:-0.007865616 44:-0.010709857 45:-0.003225019 46:0.002718925 47:-0.022826089 48:-0.021406027 49:0.14842343 50:-0.033659853 51:-0.015671866 52:-0.026433684 53:0.009927524 54:0.018616537 55:0.023515182 56:0.016253581 57:0.10559751 58:0.020485884 59:0.053089004 60:0.01954052 61:0.065991312 62:0.013482107 63:0.01789655 64:0.023662142 65:0.13788819 66:-0.03036722 67:0.024096573 68:-0.062567525 69:-0.035730124 70:0.005276054 71:-0.001996019 72:-0.057594258 73:-0.12966615 74:0.039461941 75:-0.004866473 76:-0.005008139 77:-0.007735826 78:-0.10873993 79:0.040138535 80:-0.081768341 81:-0.005460918 82:-0.029044641 83:-0.014462123 84:0.09782698 85:-0.031280097 86:0.025766486 87:0.10981844 88:0.024656637 89:0.022610309 90:-0.02402647 91:0.007776236 
1 1 0 1 1:-0.021381438 2:-0.79486513 3:0.016602201 4:-0.077423789 5:0.037201393 6:-0.062667221 7:-0.083362259 8:0.034803793 9:0.040244605 10:0.074440181 11:0.1979875 12:0.063735507 13:0.017805742 14:0.007638997 15:0.2443807 16:-0.17817828 17:-0.10865201 18:-0.012137108 19:-0.044840056 20:0.046921697 21:-0.046566833 22:0.052938052 23:-0.034257639 24:0.077237025 25:-0.036938831 26:-0.052872993 27:0.051762968 28:-0.047759525 29:0.11909341 30:-0.013743472 31:-0.055481702 32:-0.084791824 33:-0.10241322 34:-0.13675404 35:0.02540029 36:-0.015034538 37:-0.017449904 38:-0.031676102 39:-0.075559691 40:-0.0320342 41:-0.11445508 42:0.039555449 43:-0.060081765 44:0.033816308 45:-0.027001567 46:-0.041118324 47:0.025999568 48:0.022046767 49:0.15164541 50:-0.15103027 51:-0.092403047 52:0.064397775 53:0.046207637 54:-0.046114288 55:0.007150795 56:-0.014285035 57:0.052114293 58:0.30706257 59:0.25096357 60:0.046523143 61:-0.052880399 62:0.010337563 63:0.073963352 64:0.011430378 65:0.37731338 66:-0.26539758 67:0.15446003 68:0.13911434 69:-0.051925972 70:0.035686295 71:0.041756228 72:-0.2665866 73:-0.31546748 74:-0.20385489 75:0.11100239 76:0.021179499 77:-0.058699265 78:-0.25119174 79:0.048583642 80:-0.071889825 81:-0.082627714 82:-0.024096644 83:0.15269403 84:0.037128188 85:-0.051146284 86:0.055828094 87:0.062258299 88:0.14948603 89:0.012049282 90:0.12537424 91:0.008723804 
1 1 1 1 1:0.012851922 2:-0.47798482 3:0.37142217 4:-0.15527005 5:0.2799696 6:-0.044848818 7:-0.046444505 8:-0.015109043 9:-0.018123008 10:-0.013074407 11:0.077718392 12:0.006804826 13:0.022364801 14:-0.021794196 15:0.12365096 16:-0.12510104 17:0.071440965 18:-0.04829615 19:-0.000466681 20:-0.007052676 21:-0.004084304 22:0.005832991 23:-0.01394488 24:0.010505858 25:-0.019563407 26:0.067586116 27:0.20420636 28:-0.29237872 29:-0.009504075 30:0.063338615 31:-0.021229992 32:-0.016342413 33:-0.019086139 34:-0.033651691 35:0.03084583 36:0.038532965 37:-0.005048988 38:-0.24143165 39:0.086548902 40:0.067015223 41:-0.07046438 42:-0.024692308 43:0.008803843 44:0.0168919 45:0.007558968 46:-0.023822889 47:-0.093420118 48:0.081891276 49:-0.05225243 50:-0.036753997 51:0.016128441 52:0.003203674 53:-0.020256102 54:-0.022600077 55:0.000256197 56:0.024787506 57:-0.091611274 58:0.12560759 59:0.065452054 60:0.034606546 61:0.054088317 62:0.001962213 63:0.035072591 64:-0.017597053 65:0.24166165 66:-0.074009255 67:0.053863242 68:-0.12816912 69:0.0064892 70:-0.006589822 71:0.022326725 72:-0.087574802 73:-0.15291694 74:-0.043539699 75:0.032561615 76:0.024295716 77:-0.01513528 78:-0.13356133 79:0.083544262 80:0.008925041 81:-0.10448182 82:-0.025017345 83:0.029215891 84:-0.081639282 85:-0.053671304 86:0.039742738 87:-0.024267456 88:0.13726014 89:0.00051595 90:0.10406131 91:0.034713566 
1 1 0 1 1:0.00428904 2:-0.85132474 3:0.34459925 4:-0.26151168 5:0.20916592 6:-0.007977017 7:-0.02910478 8:-0.003677236 9:-0.044768322 10:0.047125772 11:0.039312854 12:0.010237024 13:-0.015957072 14:-0.020209443 15:-0.018369723 16:0.10740095 17:-0.042728022 18:-0.030432684 19:0.009831558 20:0.014235045 21:-0.001773432 22:-0.012044715 23:-0.016236529 24:0.021992717 25:-0.01240517 26:0.034027956 27:0.3347275 28:-0.24699937 29:0.042732839 30:-0.065705128 31:-0.062593855 32:-0.008490113 33:-0.057683986 34:0.008404175 35:0.038861789 36:-0.001345511 37:0.063602053 38:-0.13780244 39:0.089304388 40:0.018958496 41:-0.021912716 42:-0.014793188 43:-0.012597778 44:0.010042291 45:0.002098666 46:-0.023733884 47:-0.083583124 48:0.10845067 49:0.11802738 50:-0.073566571 51:-0.044397283 52:0.01865858 53:0.034697581 54:-0.020309547 55:0.015238458 56:0.033327643 57:-0.022357108 58:0.21844105 59:0.020345841 60:0.090868175 61:0.060608841 62:0.014307235 63:0.028684134 64:0.031619575 65:0.2339393 66:0.017918896 67:0.067680053 68:-0.09782771 69:0.00875599 70:0.012464835 71:0.015594906 72:-0.003286955 73:-0.24636042 74:0.085371822 75:0.011268168 76:-0.00677451 77:0.007172089 78:-0.13032277 79:0.011857727 80:-0.006915966 81:0.004382465 82:-0.038262114 83:-0.02535142 84:-0.04069154 85:-0.026248844 86:0.025949631 87:-0.009434901 88:0.064017326 89:0.008008036 90:0.046696402 91:-0.0057225 
1 1 0 1 1:0.007672886 2:-0.59984696 3:0.37516064 4:-0.19680911 5:0.047559723 6:-0.022825768 7:-0.04021699 8:-0.000518563 9:0.018253844 10:0.015263625 11:0.067187585 12:0.015399945 13:-0.00426907 14:-0.022720214 15:0.17229205 16:-0.074174054 17:0.029701063 18:0.042971104 19:-0.029436966 20:0.029677171 21:-0.035822652 22:0.003649677 23:-0.034453005 24:0.025621014 25:-0.001440456 26:0.05996066 27:0.12033527 28:-0.24293344 29:0.04845212 30:-0.034097154 31:-0.080929801 32:-0.05480383 33:-0.050299343 34:-0.008120297 35:0.036344405 36:0.006955742 37:0.023859804 38:-0.15126589 39:-0.075952783 40:-0.019473029 41:-0.049714863 42:0.017770028 43:-0.004529484 44:0.03157977 45:0.029365651 46:-0.008979453 47:-0.046526555 48:-0.032253157 49:0.070708469 50:-0.099034503 51:0.000205597 52:0.035486769 53:0.020108361 54:-0.031994648 55:0.0011644 56:0.003642483 57:0.05230432 58:0.23748387 59:0.090063855 60:0.084458038 61:0.033158958 62:-0.011329466 63:0.018070456 64:0.005484931 65:0.29267862 66:-0.066972196 67:0.060924213 68:-0.070410825 69:0.035487495 70:0.023047777 71:0.022151282 72:-0.1345901 73:-0.18129595 74:-0.008493805 75:0.008169144 76:-0.018069005 77:0.001449925 78:-0.15203534 79:0.10011792 80:0.006244182 81:0.011105978 82:-0.034044862 83:-0.00202726 84:-0.03977444 85:-0.027405839 86:0.045362961 87:-0.057284061 88:0.090547167 89:0.021695107 90:0.058386721 91:-0.000730464 
1 1 0 1 1:0.005871984 2:-0.79751635 3:0.30902439 4:-0.002917064 5:0.10496407 6:0.057545859 7:0.008019769 8:-0.057102371 9:-0.032100305 10:0.022947526 11:0.10141407 12:0.032458756 13:-0.027297551 14:-0.034803845 15:-0.01395522 16:-0.2174235 17:0.025873711 18:-0.008940067 19:0.002857202 20:-0.000437446 21:0.000838452 22:0.012623862 23:-0.030586675 24:0.044945553 25:-0.002761942 26:0.0574493 27:0.2575604 28:-0.32206857 29:0.15857603 30:0.046021651 31:-0.070992254 32:-0.015779007 33:-0.013530022 34:-0.019331258 35:0.014809088 36:0.002670025 37:0.021425735 38:-0.13255419 39:-0.11233408 40:0.039561655 41:0.009050446 42:-0.036825899 43:-0.010492397 44:0.002154725 45:-0.01293557 46:0.015448344 47:-0.077866495 48:0.073405385 49:-0.13208514 50:-0.087288059 51:-0.000795292 52:0.021419611 53:-0.029286269 54:-0.019358495 55:0.024667043 56:0.006120048 57:-0.11320363 58:0.13669454 59:0.049883872 60:0.043633707 61:0.063059881 62:0.021808492 63:0.002171041 64:-0.017059587 65:0.19569655 66:-0.016673151 67:0.13595453 68:-0.1324309 69:0.008092362 70:0.013800408 71:0.009147526 72:-0.043345604 73:-0.19984809 74:0.029870208 75:0.006861097 76:0.000210722 77:-0.011140883 78:-0.076521039 79:0.051133767 80:-0.032757889 81:0.018236207 82:-0.041376866 83:0.008060195 84:0.004182687 85:-0.00619732 86:0.045678824 87:0.038381595 88:0.01103392 89:0.01747961 90:0.018201696 91:-0.007397023 
1 1 1 0 1:0.005970183 2:-0.40973076 3:0.45313126 4:-0.066372812 5:-0.007451855 6:-0.043897189 7:-0.04553213 8:-0.002919655 9:-0.022405956 10:-0.006071691 11:0.081239775 12:0.026459014 13:-0.012258246 14:0.043765571 15:0.27588472 16:-0.22398457 17:0.014456604 18:0.019529685 19:0.003870807 20:-0.019866807 21:-0.001957058 22:-0.002022272 23:-0.013457359 24:0.033355236 25:-0.000831311 26:0.10552937 27:0.11257562 28:-0.20336567 29:0.041465931 30:-0.001141112 31:-0.039250094 32:-0.006781761 33:-0.021559404 34:-0.032860681 35:0.012347651 36:0.033723455 37:-0.021048456 38:-0.17580958 39:0.024902809 40:0.071661584 41:-0.047535472 42:-0.021896457 43:0.022837751 44:0.02189164 45:-0.006323937 46:0.000985987 47:-0.007680213 48:0.088319048 49:-0.083750471 50:-0.10245643 51:-0.001499482 52:0.009298049 53:-0.005146435 54:-0.027575105 55:0.004609229 56:-0.001721091 57:-0.070408121 58:0.23500788 59:0.049288481 60:0.016372841 61:0.03290467 62:0.014829407 63:0.012545957 64:-0.008687085 65:0.2586239 66:-0.050833538 67:0.073587447 68:-0.000905812 69:0.027474254 70:0.005339362 71:0.033960808 72:-0.048880357 73:-0.11113141 74:-0.04677109 75:0.020899013 76:0.007343533 77:-0.019958083 78:-0.077092186 79:0.13469262 80:0.003507529 81:-0.008082377 82:-0.018451577 83:0.039964065 84:-0.0232802 85:-0.05408835 86:0.03771561 87:0.001510605 88:0.11651894 89:0.009903464 90:0.066431858 91:0.022294614 
0 1 0 1 1:0.003529217 2:-0.50291252 3:0.56995267 4:-0.013501992 5:0.1815919 6:-0.024901602 7:-0.041118614 8:0.011603491 9:-0.007071933 10:0.011760275 11:0.036724888 12:0.015263538 13:0.002079412 14:-0.038273089 15:0.037383698 16:-0.24873342 17:0.10974183 18:-0.033433128 19:0.004214449 20:-0.010949451 21:-0.006039245 22:0.004717859 23:-0.034783732 24:-0.006605121 25:-0.017685805 26:0.074934967 27:0.1079281 28:-0.36992335 29:0.016061682 30:0.020917028 31:-0.018175822 32:-0.011492988 33:-0.029649129 34:-0.01981956 35:0.030765636 36:0.039045416 37:-0.00985752 38:-0.11453406 39:0.012136672 40:0.037446447 41:-0.051069789 42:-0.021638336 43:0.013083629 44:0.025499051 45:0.002434061 46:-0.023985641 47:-0.068955645 48:0.030834697 49:-0.052720092 50:-0.092134885 51:0.03551076 52:-0.013939829 53:-0.003765565 54:-0.034290399 55:0.003988774 56:0.008097153 57:-0.036082361 58:0.18251099 59:0.048499376 60:0.077237152 61:0.01500426 62:0.007945492 63:0.020110102 64:-0.008422169 65:0.20073748 66:0.007865172 67:0.08275146 68:-0.10721725 69:0.020613225 70:-0.003730901 71:0.018940037 72:-0.004512811 73:-0.16803294 74:-0.055303026 75:0.027962897 76:0.012680779 77:-0.00731365 78:-0.066890866 79:0.10262394 80:0.048645895 81:-0.073241286 82:-0.033138122 83:-0.041125361 84:-0.12171297 85:-0.065105125 86:0.022985069 87:-0.040231366 88:0.14290631 89:-0.003435945 90:0.037442539 91:0.023640037 
1 1 0 1 1:-0.002458914 2:-0.63151848 3:0.52833533 4:-0.007399302 5:0.037562367 6:0.000634147 7:-0.010760364 8:0.0163949 9:-0.025241528 10:0.026011381 11:0.0608969 12:0.005208971 13:-0.01792888 14:-0.018017327 15:0.054252125 16:-0.2299376 17:0.024681469 18:-0.011432311 19:-0.023496471 20:-0.02477023 21:0.012510827 22:-0.015613652 23:-0.038306195 24:0.019001633 25:-0.010896477 26:0.068632349 27:0.084552482 28:-0.27947429 29:0.060407884 30:0.043725979 31:-0.056874964 32:-0.017816359 33:-0.029385993 34:0.004434064 35:0.012579557 36:0.00141271 37:0.020141443 38:-0.10775004 39:0.049906109 40:0.081151791 41:-0.01681436 42:-0.018256072 43:0.052868754 44:0.003144446 45:-0.00392192 46:0.000660351 47:-0.039825857 48:0.015381852 49:-0.18682933 50:-0.13309762 51:-0.014775792 52:-0.005503019 53:-0.035944201 54:-0.027108958 55:0.011046669 56:0.0161575 57:-0.078756616 58:0.19626778 59:0.00298264 60:0.048819765 61:0.044673286 62:0.001544907 63:0.015614839 64:-0.023504891 65:0.20107472 66:0.027773766 67:0.09800069 68:-0.070096567 69:0.01598352 70:0.009991887 71:0.016670559 72:0.016908789 73:-0.20377879 74:0.004081178 75:0.008626382 76:0.003517912 77:-0.001037615 78:-0.082635693 79:0.12385916 80:0.012430516 81:-0.006634896 82:-0.029634519 83:-0.042782508 84:-0.026774388 85:-0.025523983 86:0.027124446 87:-0.015759319 88:0.035234693 89:0.004811193 90:0.020467816 91:0.002196125 
1 1 0 1 1:-0.012620727 2:-0.8576504 3:0.32668746 4:-0.10221811 5:0.18055408 6:0.13876933 7:-0.053450059 8:-0.005707117 9:-0.027901081 10:0.099175438 11:0.063292839 12:0.045001548 13:-0.028204743 14:-0.032263387 15:0.063476622 16:-0.16122438 17:0.093229547 18:-0.083153643 19:-0.022728669 20:-0.021202205 21:0.007561845 22:0.005500391 23:-0.10524502 24:-0.000762224 25:-0.002356819 26:0.022154745 27:0.2103556 28:-0.3118422 29:0.000590498 30:0.052042019 31:-0.055759598 32:-0.014217711 33:-0.055408601 34:-0.029667478 35:0.061307076 36:0.003939691 37:0.015557753 38:-0.1768817 39:0.10575038 40:0.067049757 41:-0.050098687 42:-0.044866923 43:0.060633074 44:0.041539561 45:-0.016649215 46:0.00521049 47:-0.058633044 48:0.08785855 49:-0.11967621 50:-0.13965099 51:0.000802218 52:-0.081095934 53:-0.024949051 54:-0.048572171 55:0.017069776 56:0.047392916 57:-0.088823505 58:0.2623775 59:0.026658632 60:0.1532598 61:0.11072189 62:0.030420562 63:0.002253144 64:-0.01367902 65:0.27390057 66:-0.011717436 67:0.17289098 68:-0.11453369 69:0.026538752 70:0.013325444 71:0.026842635 72:-0.027344963 73:-0.31315535 74:-0.043474045 75:0.041067027 76:-0.015831599 77:-0.01017539 78:-0.16648935 79:0.090028584 80:0.022750633 81:-0.002655181 82:-0.058282912 83:-0.026975185 84:-0.13777016 85:-0.018755862 86:0.024774043 87:-0.061081346 88:0.036643881 89:0.000226317 90:0.0255922 91:-0.00194043 
0 1 0 1 1:0.00419284 2:-0.53766298 3:0.53424972 4:-0.10350289 5:0.073015176 6:0.001113545 7:-0.015060821 8:0.008403689 9:-0.020951074 10:0.05199803 11:0.049166467 12:0.019564569 13:-0.014679955 14:-0.015393808 15:0.17342184 16:-0.20839114 17:0.07461118 18:-0.018080505 19:0.005056954 20:-0.031540763 21:0.004091428 22:-0.000579715 23:-0.05214826 24:-0.001457888 25:-0.010519028 26:0.058638934 27:0.053666376 28:-0.2868152 29:-0.028304581 30:0.044661891 31:-0.003479042 32:-0.018910553 33:-0.030430468 34:0.000191064 35:0.021832876 36:0.030332793 37:-0.006087177 38:-0.13967499 39:0.081841089 40:0.053014006 41:-0.055894509 42:-0.011889151 43:0.031746887 44:0.044561874 45:-0.002129635 46:-0.010524886 47:-0.048543148 48:0.026781024 49:-0.095762193 50:-0.087709859 51:-0.00207755 52:-0.059723604 53:-0.00397651 54:-0.039956223 55:0.010053609 56:0.009887609 57:-0.073020555 58:0.24228303 59:0.033595182 60:0.070278309 61:0.028263161 62:0.019136457 63:0.01839114 64:-0.017707899 65:0.2108604 66:-0.006301104 67:0.09236379 68:-0.071812823 69:0.008440141 70:0.002630112 71:0.032338008 72:-0.025752561 73:-0.18886833 74:-0.054303002 75:0.024868889 76:0.008468871 77:0.003563775 78:-0.076253206 79:0.12928414 80:0.009678305 81:-0.025748475 82:-0.038612965 83:-0.003245857 84:-0.11099248 85:-0.050730892 86:0.031338114 87:-0.04720518 88:0.10984664 89:-0.002862402 90:0.041059565 91:0.01300183 
1 1 0 1 1:0.000340027 2:-0.59236366 3:0.53522092 4:-0.067664437 5:0.12266 6:0.026314504 7:-0.010000846 8:-0.012897199 9:-0.006528878 10:0.014945495 11:0.054026771 12:0.015610822 13:0.000389069 14:-0.028715899 15:-0.00386899 16:-0.15500161 17:0.027850745 18:-0.02542283 19:-0.017309424 20:-0.009759835 21:0.005980599 22:0.006367996 23:-0.043914612 24:0.028417718 25:-0.002540263 26:0.070301101 27:0.19095211 28:-0.20890573 29:0.036697429 30:0.023479844 31:-0.040433932 32:0.003074379 33:-0.011674222 34:0.00139965 35:0.008552106 36:0.027385041 37:0.011438141 38:-0.093595408 39:-0.005465978 40:0.037475422 41:-0.036051709 42:-0.013905132 43:0.024787722 44:0.026248718 45:-0.000904083 46:0.012311959 47:-0.042270038 48:0.012584656 49:0.017394215 50:-0.066449225 51:-0.007130838 52:-0.024722591 53:0.01160978 54:-0.022244552 55:0.020880556 56:0.015662514 57:-0.010170436 58:0.16282068 59:0.04800164 60:0.058662463 61:0.046045728 62:0.009180062 63:0.012804408 64:0.003761572 65:0.16530706 66:0.034893777 67:0.073675692 68:-0.082232386 69:0.039390732 70:0.024092704 71:0.02172257 72:0.007104953 73:-0.11726876 74:-0.017351778 75:-0.018881747 76:-0.009860936 77:0.006980523 78:-0.026427075 79:0.13250111 80:0.005302086 81:-0.020556953 82:-0.027020136 83:-0.017324559 84:-0.025144678 85:-0.027740566 86:0.029578183 87:-0.006990771 88:0.1105587 89:0.015549128 90:0.053319953 91:0.013440183 
1 1 0 1 1:0.008738152 2:-0.94855553 3:0.16282612 4:-0.11362626 5:0.17107919 6:0.007683896 7:-0.057136677 8:0.053000964 9:-0.05362979 10:0.044145804 11:0.11617434 12:0.01960583 13:-0.001942602 14:-0.04846812 15:-0.011170381 16:-0.28589076 17:0.17826857 18:-0.079893202 19:-0.021135766 20:-0.023943584 21:-0.035340931 22:0.021800565 23:-0.06943465 24:0.028371634 25:-0.018291565 26:0.068835065 27:0.15426356 28:-0.38696036 29:0.000443031 30:0.055855289 31:-0.007673998 32:-0.006530073 33:-0.08189787 34:-0.021824569 35:0.052566767 36:0.017684722 37:-0.037716746 38:-0.19733669 39:0.015780851 40:0.12622803 41:-0.082962707 42:-0.019088853 43:0.053013291 44:0.036168415 45:0.008699731 46:-0.02445687 47:-0.10182422 48:0.047152314 49:-0.15809248 50:-0.18247305 51:0.048138581 52:-0.044500947 53:-0.050278407 54:-0.050235447 55:0.005346121 56:0.017863695 57:-0.077018313 58:0.30243817 59:0.09953405 60:0.14531749 61:0.050012141 62:0.010152036 63:0.05740444 64:-0.037099659 65:0.41718852 66:-0.088102371 67:0.18090074 68:-0.17550229 69:-0.007616026 70:0.006291537 71:0.039363578 72:-0.074046597 73:-0.25371188 74:-0.074378639 75:0.019080529 76:-0.006084164 77:-0.026245138 78:-0.1606904 79:0.11114023 80:0.016498467 81:-0.04195464 82:-0.067149363 83:-0.059272703 84:-0.055056155 85:-0.10124025 86:0.064292125 87:-0.012040186 88:0.13945359 89:0.008919485 90:0.10520145 91:0.016111145 
0 1 0 0 1:0.010483358 2:-0.49668789 3:0.42229566 4:-0.074674442 5:0.17842796 6:0.08152879 7:-0.028139777 8:0.03910353 9:-0.020223754 10:0.041540116 11:0.083380133 12:0.015225844 13:-0.009805104 14:-0.041354693 15:0.15203558 16:-0.23907945 17:0.13286784 18:-0.042368818 19:-0.030501509 20:-0.02919485 21:-0.00781442 22:0.030204784 23:-0.064310253 24:0.017422955 25:-0.01306198 26:0.066112392 27:0.11553965 28:-0.30500334 29:0.021697689 30:0.042657498 31:-0.033814214 32:-0.008618717 33:-0.038376488 34:-0.042671088 35:0.031118039 36:0.024235792 37:-0.024271758 38:-0.13054334 39:0.031012502 40:0.063738845 41:-0.07342039 42:-0.061675083 43:0.052131224 44:0.021988209 45:0.000835769 46:-0.012385168 47:-0.06858626 48:0.045205474 49:-0.048926547 50:-0.10740402 51:0.056149896 52:-0.064355507 53:0.004155801 54:-0.041838601 55:0.011451481 56:0.021910183 57:-0.061062954 58:0.24037811 59:0.053845711 60:0.11976304 61:0.078672782 62:0.022745933 63:0.027640255 64:-0.003417942 65:0.28548154 66:-0.028028037 67:0.11097478 68:-0.10836631 69:0.018356441 70:0.011908182 71:0.017599802 72:-0.014104576 73:-0.17160633 74:-0.043509364 75:0.028958378 76:-0.012714102 77:-0.02682239 78:-0.080063157 79:0.10067566 80:0.024613403 81:-0.046070244 82:-0.045782287 83:-0.006521523 84:-0.081201814 85:-0.073892161 86:0.043904595 87:-0.025742752 88:0.10935731 89:0.005893763 90:0.044600185 91:0.01425505 
1 1 0 1 1:0.01606122 2:-0.59359473 3:0.4700847 4:-0.045717943 5:0.11158029 6:-0.003761848 7:-0.010136392 8:0.024820125 9:-0.009395181 10:0.024969259 11:0.10343155 12:0.01648006 13:-0.004409492 14:-0.010508992 15:0.048879471 16:-0.26829401 17:0.083843671 18:0.026336547 19:-0.010472081 20:-0.017349046 21:0.00233438 22:-0.010514698 23:-0.063390553 24:0.007438695 25:-0.014749972 26:0.10173989 27:0.12126038 28:-0.30850485 29:0.047033556 30:0.037543632 31:-0.043004971 32:0.00451641 33:-0.028807519 34:0.004206764 35:0.018089401 36:0.022652013 37:-0.024545697 38:-0.18692671 39:0.002273769 40:0.094976492 41:-0.078324981 42:-0.013750809 43:0.04504827 44:0.02763392 45:0.005694814 46:-0.004461352 47:-0.058596402 48:0.029508308 49:-0.14529194 50:-0.098025531 51:-0.001093525 52:0.000423219 53:-0.04682605 54:-0.04230326 55:0.013292975 56:0.002799066 57:-0.068238772 58:0.21566029 59:0.023847632 60:0.048180252 61:0.032344464 62:0.008012776 63:0.025319753 64:-0.026739992 65:0.2434957 66:0.002577325 67:0.10239249 68:-0.088089004 69:0.020633301 70:-0.000559181 71:0.027553855 72:-0.017568776 73:-0.19817592 74:-0.084022857 75:0.036530472 76:-0.013269046 77:0.002249513 78:-0.066769563 79:0.190538 80:0.015117264 81:-0.043875758 82:-0.041658256 83:-0.016638441 84:-0.07554099 85:-0.055401277 86:0.060063064 87:-0.036650639 88:0.10063192 89:0.003512793 90:0.048538104 91:0.015809957 
1 0 1 1 1:-0.016809873 2:-0.27161252 3:0.23557413 4:0.11704958 5:0.1796211 6:0.000424423 7:0.013987537 8:0.039493654 9:-0.038065419 10:0.023458868 11:0.14898351 12:0.016510703 13:-0.005751121 14:-0.090596266 15:0.071056016 16:-0.30151254 17:0.12933049 18:-0.025882158 19:0.008189269 20:0.009081216 21:0.009132337 22:-0.010770862 23:-0.050398342 24:0.047253802 25:-0.019728219 26:-0.005546825 27:0.023033386 28:-0.31629083 29:0.042850543 30:0.08050327 31:-0.046640649 32:-0.005732029 33:-0.064206004 34:-0.007433679 35:0.031448733 36:0.015666399 37:0.029856052 38:-0.29174969 39:0.067122146 40:0.10657224 41:-0.05049542 42:-0.021283573 43:0.022768138 44:0.001771545 45:0.000870724 46:-0.022624539 47:-0.045821033 48:0.055219319 49:-0.098542489 50:-0.14656997 51:0.003454724 52:-0.003891676 53:-0.04838166 54:-0.04407258 55:0.017817147 56:0.025969626 57:-0.15536265 58:0.27510199 59:0.056708451 60:0.10993449 61:0.10970386 62:0.010665779 63:0.030800465 64:-0.009144191 65:0.36436677 66:0.047859278 67:0.14462011 68:-0.14676367 69:0.053456958 70:-0.009941654 71:0.016751643 72:-0.059917722 73:-0.20537873 74:-0.057818137 75:0.005601582 76:-0.007240084 77:0.004226502 78:-0.20355696 79:0.089672595 80:0.045017604 81:-0.060176291 82:-0.032034539 83:-0.064230241 84:-0.056271624 85:-0.081039824 86:0.03679534 87:-0.097718962 88:0.10131241 89:0.02173358 90:0.11279686 91:0.00447444 
1 1 0 1 1:0.004863825 2:-0.71641839 3:0.069555037 4:-0.10468931 5:0.41245088 6:0.1266216 7:-0.023562856 8:0.025501806 9:-0.046147157 10:0.12588413 11:0.13662142 12:0.03081518 13:0.00330089 14:-0.11161294 15:-0.21927393 16:-0.27003071 17:0.10945596 18:-0.2082435 19:-0.078111283 20:-0.018741757 21:-0.008269807 22:0.022057306 23:-0.13196215 24:-0.026501976 25:-0.025405636 26:0.000725396 27:0.2711474 28:-0.27111328 29:0.062267717 30:0.082924046 31:-0.070382841 32:0.005343315 33:-0.015209107 34:-0.045362826 35:0.026895691 36:0.006772009 37:0.008002272 38:-0.2718946 39:0.004798371 40:0.04489179 41:-0.021531366 42:-0.069327258 43:0.022174325 44:-0.023833662 45:0.034064908 46:-0.01955111 47:-0.12784822 48:0.015343307 49:-0.00333495 50:-0.11719813 51:0.081891395 52:-0.13082455 53:-0.047132242 54:-0.045203693 55:0.037279699 56:0.063742109 57:-0.15727367 58:0.18779671 59:0.052937679 60:0.21570413 61:0.15334319 62:0.012905881 63:0.050068166 64:-0.00855343 65:0.42039496 66:0.011051865 67:0.16295639 68:-0.27320984 69:0.019087845 70:0.036790751 71:-0.004627673 72:-0.066380039 73:-0.25528511 74:-0.047572758 75:0.044900823 76:-0.034602098 77:-0.025263252 78:-0.017616089 79:0.003528208 80:0.03052373 81:-0.046488132 82:-0.09695518 83:-0.10248191 84:-0.1146654 85:-0.11108171 86:0.0706589 87:-0.13675667 88:0.15696859 89:0.007013451 90:0.1018768 91:0.010534982 
0.56841869751281315 1 0 1 1:0.009072635 2:-0.54874021 3:0.50301671 4:-0.08647012 5:0.042886153 6:0.007328996 7:-0.029979173 8:0.052762493 9:-0.033085257 10:0.032111149 11:0.09410993 12:0.012863738 13:-0.005167102 14:-0.023687791 15:0.15915318 16:-0.22817907 17:0.050535437 18:-0.006428943 19:-0.020838482 20:-0.01405153 21:-0.006251129 22:0.005075896 23:-0.036917415 24:0.024045669 25:-0.015705368 26:0.071855038 27:0.071897514 28:-0.1824701 29:0.034152322 30:0.007692166 31:-0.049766533 32:-0.007792336 33:-0.051447239 34:-0.010676302 35:0.01649932 36:0.002460321 37:9.0617e-05 38:-0.057571728 39:-0.006489938 40:0.043003161 41:-0.047744282 42:-0.019344104 43:0.033582397 44:0.009949522 45:0.003518464 46:-0.002060635 47:-0.041568246 48:0.000124116 49:-0.015520176 50:-0.1501725 51:0.01539894 52:-0.005589403 53:-0.001930082 54:-0.030905126 55:0.021432435 56:0.022035597 57:-0.007796443 58:0.25796998 59:0.030202923 60:0.05828872 61:0.056331586 62:0.014677937 63:0.037745003 64:-0.004962354 65:0.24322973 66:-0.006720684 67:0.10262246 68:-0.070920445 69:0.025257202 70:0.019158503 71:0.026450772 72:-0.010697538 73:-0.15468375 74:-0.007986282 75:0.010990879 76:-0.010763144 77:-0.011198668 78:-0.063635916 79:0.12207455 80:0.023440201 81:-0.02006462 82:-0.037036452 83:-0.031781405 84:-0.022953872 85:-0.043827195 86:0.050016366 87:-0.002923805 88:0.073170044 89:0.009026201 90:0.050014913 91:0.003040391 
1 1 0 1 1:-0.001361606 2:-0.69818777 3:0.20506164 4:-0.014642696 5:0.27293563 6:-0.008766381 7:0.010256759 8:0.11242218 9:-0.043740466 10:0.010784761 11:0.083361246 12:0.058567367 13:-0.002524402 14:-0.073497303 15:-0.020671412 16:-0.2178501 17:0.15203664 18:-0.020469837 19:0.006636763 20:-0.062736996 21:-0.005130194 22:0.003376374 23:-0.033327181 24:0.00082 25:-0.03129594 26:0.059773218 27:0.000754823 28:-0.40584904 29:0.062333662 30:0.12364923 31:-0.065806895 32:-0.006419686 33:-0.087841213 34:-0.01239844 35:0.056529254 36:0.006236801 37:0.011144425 38:-0.037980009 39:0.077897638 40:0.21123128 41:-0.10764779 42:-0.047326352 43:0.05502316 44:0.005726225 45:0.014933779 46:-0.025027053 47:-0.096780181 48:0.035024423 49:-0.197951 50:-0.24375272 51:0.028253706 52:-0.013690307 53:-0.038625978 54:-0.095005497 55:0.023807321 56:0.019468097 57:-0.15333173 58:0.39370966 59:0.056215186 60:0.11215219 61:0.098407969 62:0.0495307 63:0.067306422 64:-0.038790803 65:0.39736888 66:-0.00871357 67:0.13578863 68:-0.13029693 69:0.016116999 70:-0.027651459 71:0.046859652 72:-0.035387456 73:-0.23134194 74:0.050533779 75:0.083880372 76:-0.013850337 77:-0.012903421 78:-0.13506278 79:0.007987778 80:0.078554481 81:-0.069025308 82:-0.049505673 83:-0.17234142 84:-0.15832895 85:-0.11260199 86:0.033881731 87:-0.057376955 88:0.13273282 89:-0.011972659 90:0.10369001 91:0.016949413 
0 1 0 0 1:0.013921555 2:-0.5335834 3:0.57076401 4:-0.044533961 5:0.095392384 6:-0.022937277 7:-0.027952729 8:0.03388996 9:-0.018670546 10:0.012586502 11:0.093674324 12:0.011261033 13:-0.001811696 14:-0.005740323 15:0.1127555 16:-0.24129859 17:0.070643291 18:-0.023897896 19:-0.003235391 20:-0.02156671 21:0.0120001 22:-0.008280113 23:-0.044236917 24:0.019887932 25:-0.005229614 26:0.1022307 27:0.051558059 28:-0.20698947 29:0.016219646 30:0.020172982 31:-0.019604387 32:-0.00781087 33:-0.039691657 34:-0.010061576 35:0.015225335 36:0.029949 37:-0.016841099 38:-0.066554725 39:0.036885146 40:0.034908757 41:-0.041772973 42:-0.017701106 43:0.023861874 44:0.03697554 45:-0.000655117 46:-0.016947323 47:-0.053623609 48:0.040178522 49:0.006851417 50:-0.12272456 51:0.004273158 52:-0.004371012 53:0.005022478 54:-0.01794376 55:0.01636201 56:0.015615338 57:-0.01876224 58:0.20268118 59:0.004260251 60:0.054950524 61:0.038016945 62:0.012485416 63:0.024429623 64:0.001821225 65:0.18932295 66:0.021598283 67:0.091183327 68:-0.081401773 69:0.023140591 70:0.016195791 71:0.029659947 72:-0.012917308 73:-0.15779066 74:-0.04371988 75:-0.003210358 76:-0.001816546 77:-0.003017505 78:-0.086752452 79:0.21116511 80:0.009684714 81:-0.022178384 82:-0.031783208 83:0.017420603 84:-0.002604358 85:-0.068670534 86:0.049664993 87:-0.001432493 88:0.12344199 89:0.014509777 90:0.048265409 91:0.017161552 
0 1 0 1 1:0.005187749 2:-0.57875276 3:0.47404614 4:-0.072450116 5:0.12795724 6:0.018324118 7:-0.042561725 8:0.053655747 9:-0.037281111 10:0.003882477 11:0.056257047 12:0.041790262 13:-0.008384725 14:-0.024669368 15:0.16943029 16:-0.23027922 17:0.041268576 18:-0.007760674 19:0.003554038 20:-0.033845372 21:0.020422269 22:-0.016370682 23:-0.024296051 24:0.001877825 25:-0.012942307 26:0.053524327 27:0.061060123 28:-0.29342487 29:0.060880348 30:0.010851928 31:-0.037441842 32:-0.020938592 33:-0.044484656 34:-0.011076636 35:0.02812795 36:0.016717393 37:0.013108049 38:-0.15498927 39:-0.028066712 40:0.040308762 41:-0.069397576 42:-0.015869467 43:0.014309781 44:0.018698884 45:-0.006797973 46:-0.003112075 47:-0.060861781 48:0.003194194 49:-0.034898344 50:-0.11070748 51:-0.006827741 52:-0.017156174 53:0.01099312 54:-0.060660183 55:0.022846665 56:0.01139471 57:-0.07270968 58:0.25730494 59:0.021495044 60:0.0465139 61:0.030437773 62:0.018196078 63:0.026175436 64:0.006693942 65:0.26710123 66:0.042712532 67:0.060021784 68:-0.08355207 69:0.015504169 70:0.007918197 71:0.022117592 72:0.022037489 73:-0.14663418 74:-0.029088488 75:0.033195652 76:-0.021637527 77:-0.002090812 78:-0.094060376 79:0.09460897 80:0.009368078 81:-0.027690306 82:-0.025031414 83:-0.024851706 84:-0.10405458 85:-0.065486632 86:0.031437982 87:-0.053282555 88:0.12336697 89:0.004097978 90:0.057789765 91:0.011812253 
1 1 1 1 1:0.006449321 2:-0.48575628 3:0.58332157 4:-0.00134564 5:0.0703521 6:-0.011334248 7:-0.021024024 8:0.024330629 9:-0.016055778 10:0.013831264 11:0.06906192 12:0.01380393 13:-0.007667327 14:-0.01897485 15:0.10472315 16:-0.26969919 17:0.023264876 18:-0.000321751 19:0.005008572 20:-0.009499922 21:0.014429973 22:-0.005554171 23:-0.021495515 24:-0.001169157 25:-0.001575551 26:0.086453378 27:0.048162244 28:-0.1569457 29:0.042543676 30:0.03569949 31:-0.031064825 32:-0.0090592 33:-0.030498598 34:-0.012259789 35:0.014646208 36:0.022167154 37:-0.012819947 38:-0.09249045 39:-0.013881134 40:0.056992091 41:-0.049040336 42:-0.016369617 43:0.014231412 44:0.015351603 45:0.0004016 46:-0.014672761 47:-0.02966922 48:0.006646486 49:-0.067388952 50:-0.076942801 51:-0.005642762 52:0.004549794 53:-0.02504098 54:-0.020732388 55:0.01252564 56:0.003191327 57:-0.051360302 58:0.18548347 59:0.022078801 60:0.033019882 61:0.032571487 62:0.007747089 63:0.018325055 64:-0.016094424 65:0.20309168 66:0.041082185 67:0.068601653 68:-0.051173504 69:0.015602451 70:0.004457445 71:0.020333318 72:0.015020465 73:-0.12869798 74:-0.040358085 75:0.011851329 76:-0.003412271 77:0.000778525 78:-0.080496691 79:0.12489738 80:0.011794491 81:-0.018339744 82:-0.019568358 83:-0.025051827 84:-0.063093744 85:-0.059381194 86:0.033975396 87:-0.038487401 88:0.099703208 89:0.002698542 90:0.032101419 91:0.012238788 
1 1 0.44664243884897226 1 1:0.005950257 2:-0.51744515 3:0.46675563 4:0.017249225 5:0.076594785 6:-0.028892392 7:-0.035920355 8:0.010013442 9:-0.027061423 10:0.017366128 11:0.071447566 12:0.004826071 13:0.000658316 14:-0.041101247 15:0.035024934 16:-0.29412621 17:0.063241616 18:0.000179549 19:0.007226009 20:-0.008018832 21:-0.004854037 22:0.015041527 23:-0.056279324 24:0.000153307 25:-0.011734497 26:0.079648241 27:0.084261313 28:-0.252377 29:0.060699496 30:0.028892281 31:-0.033514552 32:0.006556484 33:-0.012980841 34:-0.026914807 35:0.00962532 36:0.026675535 37:-0.004687469 38:-0.091569476 39:0.015488767 40:0.060622688 41:-0.020131052 42:-0.014946127 43:0.027133482 44:0.023814954 45:0.012860613 46:-0.016787428 47:-0.052865222 48:0.028230701 49:-0.037561305 50:-0.090105399 51:0.044733241 52:0.006633823 53:-0.00890588 54:-0.019411884 55:0.01132683 56:0.007688134 57:-0.044832211 58:0.19182305 59:0.05483415 60:0.056770571 61:0.028505875 62:0.010907535 63:0.036168069 64:-0.005974683 65:0.22994247 66:-0.035347674 67:0.12039556 68:-0.10572736 69:0.011947338 70:0.006623261 71:0.02575992 72:-0.006218084 73:-0.18248098 74:-0.055769689 75:0.01005564 76:-0.002900303 77:-0.016681416 78:-0.074227817 79:0.14917445 80:0.001082607 81:-0.03324084 82:-0.038316753 83:-0.039112866 84:-0.031255238 85:-0.069124877 86:0.040278472 87:-0.0035171 88:0.12974536 89:0.003758867 90:0.054866757 91:0.019812994 
1 1 0 1 1:0.003116395 2:-0.6583724 3:0.46316907 4:-0.096253276 5:0.15208729 6:-0.043463927 7:-0.061543792 8:0.004047167 9:-0.010838213 10:0.020803289 11:0.034475777 12:0.001670115 13:-0.016215021 14:-0.028407149 15:0.030187029 16:-0.18401645 17:0.039769948 18:-0.017239895 19:0.00273974 20:-0.016446531 21:0.028747704 22:-0.02345572 23:-0.038417466 24:0.028564937 25:0.011439324 26:0.059928194 27:0.17184483 28:-0.24380413 29:0.028118478 30:-0.003887976 31:-0.014178813 32:-0.025632195 33:-0.03374828 34:-0.015274945 35:0.011118241 36:0.021973347 37:0.001481376 38:-0.12670469 39:0.012981923 40:0.042272523 41:-0.039732095 42:-0.007016417 43:0.014272181 44:0.015118211 45:-0.017307347 46:-0.011232262 47:-0.061741296 48:0.060776725 49:-0.000253906 50:-0.097562186 51:-0.016800098 52:0.004345824 53:0.01666088 54:-0.02382111 55:0.013880492 56:0.009053068 57:-0.019003281 58:0.19938824 59:-0.004333319 60:0.08898928 61:0.022846483 62:0.008921665 63:0.001776983 64:0.002467061 65:0.21651043 66:0.077749342 67:0.10304415 68:-0.07428202 69:0.013544172 70:0.02154677 71:0.023259768 72:0.032136302 73:-0.22993244 74:0.024404354 75:-0.017078951 76:0.007871884 77:0.002110272 78:-0.10503333 79:0.040517841 80:0.002301162 81:-0.020318536 82:-0.045321539 83:-0.054771975 84:0.018365713 85:-0.046991095 86:0.021810116 87:0.015045661 88:0.082737185 89:0.017478075 90:0.032174427 91:0.01329538 
1 1 0 1 1:0.008198441 2:-0.7573241 3:0.35042554 4:-0.15678001 5:0.22005251 6:0.026646912 7:-0.070210643 8:0.086594097 9:-0.029863304 10:0.000329664 11:0.12141156 12:0.028237984 13:-0.013758609 14:-0.013991026 15:0.056069773 16:-0.21043722 17:0.10732723 18:-0.017800624 19:0.00585472 20:-0.019981714 21:-0.007862146 22:-0.003202558 23:-0.024506159 24:0.019660965 25:-0.012297716 26:0.076853685 27:0.084484249 28:-0.32289419 29:0.005888127 30:0.043888181 31:-0.050089844 32:-0.010476523 33:-0.063340731 34:-0.030573806 35:0.039906431 36:0.026774302 37:-0.006203085 38:-0.29104528 39:0.10600529 40:0.060015604 41:-0.087925024 42:-0.039217379 43:0.024116352 44:0.019388178 45:0.009168067 46:-0.010111046 47:-0.064539477 48:0.034548573 49:-0.040773608 50:-0.17805962 51:0.057703432 52:-0.013482127 53:-0.009871379 54:-0.064701363 55:0.017248154 56:0.031280089 57:-0.072160393 58:0.34978795 59:0.037484638 60:0.066030242 61:0.098064698 62:0.011120852 63:0.04246176 64:-0.008680725 65:0.3300285 66:-0.021728128 67:0.086624958 68:-0.14277928 69:0.023133883 70:0.007144446 71:0.040291969 72:-0.028283443 73:-0.1485901 74:-0.019274959 75:0.043135237 76:-0.007007642 77:-0.013070133 78:-0.10739987 79:0.1160321 80:0.029793415 81:-0.049417593 82:-0.030069016 83:-0.008362329 84:-0.090552889 85:-0.071657963 86:0.054498482 87:-0.037879478 88:0.10575808 89:0.001060342 90:0.070445247 91:0.015163971 
1 1 0 1 1:0.009015599 2:-0.65026814 3:0.44482905 4:0.00252679 5:0.15241279 6:0.038723007 7:-0.053340517 8:0.020936294 9:-0.020376176 10:-3.3946e-05 11:0.076001488 12:0.004874047 13:-0.003001838 14:-0.007769268 15:0.029964946 16:-0.3640596 17:0.037409686 18:-0.072033592 19:-0.01338463 20:-0.005866773 21:-0.003218901 22:0.005676092 23:-0.037305579 24:-0.007117325 25:-0.01169263 26:0.068240054 27:0.12384865 28:-0.23541158 29:0.061657999 30:0.03018917 31:-0.041796822 32:0.000573748 33:-0.033203255 34:-0.048381411 35:0.02837857 36:0.02410437 37:-0.018073998 38:-0.14799027 39:-0.029426511 40:0.054650139 41:-0.033415027 42:-0.039756753 43:0.0194383 44:0.028100699 45:0.008757224 46:-0.009478478 47:-0.079209343 48:0.090468451 49:-0.076145492 50:-0.166106 51:0.040511094 52:-0.004682984 53:-0.02856954 54:-0.03432972 55:0.007456276 56:0.020793404 57:-0.070019998 58:0.27357557 59:0.040977359 60:0.057743922 61:0.078737371 62:0.005927224 63:0.033195417 64:-0.019332828 65:0.21778913 66:-0.054974593 67:0.10915564 68:-0.10955951 69:0.014519716 70:0.002728296 71:0.040224545 72:-0.059229035 73:-0.17024612 74:-0.004967066 75:0.019865319 76:-0.00152535 77:-0.020948825 78:-0.073159054 79:0.073814884 80:0.04822956 81:-0.031020487 82:-0.039690107 83:0.01525765 84:-0.093607083 85:-0.081661783 86:0.030853933 87:-0.016094938 88:0.13821478 89:-0.008440233 90:0.070420757 91:0.019096203 
1 1 1 1 1:0.003566396 2:-0.39611381 3:0.37598792 4:-0.10254363 5:0.039113298 6:-0.0208434 7:0.034877274 8:0.022657791 9:-0.019303581 10:-0.029752566 11:0.079019472 12:0.023644546 13:-0.021297149 14:0.007078501 15:0.230241 16:-0.18556896 17:-0.064925365 18:-0.00039692 19:-0.025546635 20:-0.025697591 21:0.018644636 22:-0.006048707 23:-0.004002627 24:0.048645452 25:0.015756004 26:0.080436267 27:0.05821218 28:0.000560932 29:0.040555857 30:0.063278161 31:-0.030030552 32:-0.013792658 33:0.006862268 34:0.030670946 35:0.003594669 36:0.027031707 37:0.00407287 38:0.12213158 39:0.047534317 40:-0.071698867 41:-0.061307922 42:-0.004360128 43:-0.025337202 44:-0.039266791 45:-0.009918651 46:0.005556011 47:0.000501986 48:0.046631426 49:0.18415301 50:-0.055691354 51:-0.043895599 52:0.016610784 53:0.020228304 54:-0.033483304 55:0.018535875 56:0.01826651 57:0.22361852 58:0.01799448 59:0.011085294 60:-0.010707071 61:0.053881019 62:0.009313265 63:0.002753975 64:0.020554697 65:0.059259653 66:0.12997948 67:0.065493979 68:0.0241284 69:0.04165788 70:0.018874852 71:0.002952388 72:0.038140163 73:-0.077314258 74:0.018488796 75:0.018289935 76:0.027938768 77:0.020773092 78:-0.1171701 79:0.12285721 80:-0.022108259 81:-0.00223475 82:-0.009794571 83:0.030225098 84:0.070336282 85:-0.033865131 86:0.034768265 87:0.07749299 88:0.047372866 89:0.024217475 90:0.007572529 91:0.012837813 
1 1 0 1 1:0.001575074 2:-0.58521402 3:0.27616054 4:0.046342019 5:-0.047941089 6:-0.01101214 7:-0.013020503 8:-0.004043263 9:-0.034408361 10:0.000473692 11:0.06994573 12:-0.001773376 13:0.004576576 14:-0.048439842 15:0.051220536 16:-0.32361928 17:0.083885357 18:0.017182335 19:-0.033521492 20:0.016740737 21:0.00674123 22:-0.002038064 23:-0.011179223 24:0.025094429 25:0.024387373 26:0.062054735 27:0.12071592 28:-0.22310509 29:0.072722778 30:-0.029092344 31:-0.070063636 32:-0.047069412 33:-0.011526102 34:-0.010030611 35:-0.00031607 36:0.04115529 37:-0.032919399 38:-0.17230628 39:-0.060877413 40:-0.062180378 41:0.019241692 42:-0.020285318 43:-0.005780997 44:-0.046730835 45:0.006323725 46:-0.018324826 47:-0.028887231 48:-0.012010264 49:0.08577732 50:-0.033581112 51:0.015132568 52:-0.00646148 53:-0.000132874 54:-0.004606674 55:0.006156085 56:0.003485809 57:0.081797659 58:0.080221601 59:0.081094809 60:0.024845721 61:0.052078497 62:0.00051637 63:0.001314638 64:-0.001773443 65:0.30497658 66:-0.016842565 67:0.088228859 68:-0.025731703 69:0.008826929 70:0.044336542 71:-0.011713811 72:-0.030730926 73:-0.13811274 74:-0.043865729 75:0.001953987 76:-0.019468322 77:-0.012236721 78:-0.11137103 79:0.058771312 80:-0.047669135 81:-0.016585553 82:-0.028356766 83:-0.15405609 84:0.058676098 85:-0.12198322 86:0.034475874 87:-0.024554193 88:0.19470566 89:0.019573687 90:0.067954943 91:0.024867477 
1 1 1 0 1:0.009432362 2:-0.31080231 3:0.4771401 4:-0.008552237 5:-0.020019516 6:-0.001078332 7:-0.02650483 8:-0.009254402 9:-0.017764078 10:-0.013544378 11:0.037765872 12:0.007027858 13:0.020143259 14:0.013916053 15:0.33694711 16:-0.22162336 17:-0.021956738 18:-0.016765919 19:-0.010019394 20:0.02936827 21:0.00014283 22:0.009882554 23:-0.000557926 24:0.037830364 25:0.033221722 26:0.084959865 27:0.027748235 28:-0.034862023 29:0.047650065 30:-0.007141122 31:-0.053249147 32:-0.027208729 33:0.004631046 34:0.000501691 35:0.000904073 36:0.053414673 37:-0.014073198 38:-0.021752641 39:-0.034915648 40:-0.038734451 41:0.00833141 42:-0.001202121 43:-0.001828146 44:0.005037186 45:-0.008802935 46:0.004270803 47:-0.013768388 48:0.003691775 49:0.14846131 50:-0.064955421 51:-0.013552081 52:0.000893751 53:0.023115544 54:-0.000965091 55:-0.001135404 56:0.006874876 57:0.10369503 58:0.14935556 59:0.067453459 60:0.006423953 61:0.029830826 62:0.008353224 63:0.014677801 64:0.019440755 65:0.22858027 66:0.009917424 67:0.035207413 68:-0.020230105 69:0.00918748 70:0.042586356 71:0.012293285 72:-0.008933896 73:-0.001000963 74:-0.048106894 75:-0.018598359 76:0.007273379 77:-0.001739776 78:-0.033174627 79:0.10815749 80:-0.059423383 81:-0.010622608 82:-0.003653178 83:0.010940577 84:0.10079692 85:-0.07382419 86:0.035495881 87:0.053572215 88:0.16871503 89:0.033728085 90:0.10805246 91:0.032698229 
1 1 1 1 1:0.013931441 2:-0.53176856 3:0.44125941 4:-0.073053159 5:-0.026920468 6:0.000770305 7:-0.04545258 8:-0.024782764 9:-0.022227544 10:-0.019832322 11:0.034559764 12:0.002371033 13:0.01750342 14:-0.003599116 15:0.17917305 16:-0.25540572 17:-0.026710866 18:-0.041637138 19:0.018592736 20:0.007550639 21:0.005951907 22:0.010197506 23:-0.006282317 24:0.014980643 25:0.023066321 26:0.11276419 27:-0.006700475 28:-0.072250575 29:0.022798799 30:-0.026888624 31:-0.027174544 32:-0.025977502 33:0.000991196 34:-0.009583785 35:0.01004071 36:0.030355893 37:-0.027009619 38:0.020275261 39:-0.033566087 40:-0.005645428 41:0.015083061 42:-0.034378242 43:-0.003253264 44:-0.0006412 45:0.018654479 46:-0.00842081 47:-0.015238166 48:-0.012138982 49:0.070551082 50:-0.007294955 51:0.019247552 52:-0.005794303 53:0.024565494 54:0.01643794 55:0.011847825 56:0.005899217 57:0.051698558 58:0.039716292 59:0.044301894 60:0.014832624 61:0.038663458 62:0.00731629 63:0.010468834 64:0.016535044 65:0.17038854 66:0.023078656 67:0.025070149 68:-0.0324529 69:-0.006818134 70:0.028183876 71:-0.00207308 72:-0.02843136 73:-0.032823078 74:-0.059630368 75:-0.001114902 76:0.001990388 77:-0.006003982 78:-0.072257891 79:0.10337719 80:-0.051259045 81:-0.012901559 82:-0.007997531 83:-0.01948769 84:0.12763445 85:-0.06310568 86:0.036602903 87:0.07897754 88:0.1549193 89:0.030259078 90:0.079231158 91:0.027459867 
