svm_type c_svc
kernel_type rbf
gamma 0.01098901098901099
nr_class 5
total_sv 618
rho 0.060918084523780856 0.059216827154159546 0.067690759897232056 0.28283002972602844 -0.025247097015380859 0.058975134801178636 0.26289633891883224 0.075921595096588135 0.43112266930995907 -0.11981326060814045
label 1 2 3 4 5
nr_sv 100 151 155 76 136
SV
1 1 1 1 1:0.004635838 2:-0.27851012 3:0.46603969 4:-0.006965015 5:0.085374594 6:0.11046423 7:-0.035733938 8:0.021921216 9:0.004626643 10:-0.020564847 11:0.10773332 12:0.006541222 13:0.005759069 14:-0.005401673 15:0.32725099 16:-0.26696554 17:-0.091485739 18:-0.067928948 19:-0.038345061 20:0.028664624 21:-0.00634502 22:-0.008746831 23:0.033541717 24:0.001580943 25:0.00278327 26:0.032722693 27:0.034429051 28:0.095040411 29:0.10448699 30:0.031167051 31:-0.069312505 32:-0.020979295 33:-0.02997913 34:-0.023259392 35:0.006089445 36:-0.006227989 37:0.012128392 38:-0.007061935 39:0.008282173 40:-0.029605804 41:-0.0122292 42:-0.042050201 43:-0.000928869 44:-0.054753095 45:0.016702553 46:-0.014123221 47:-0.023270031 48:0.059834152 49:0.11235113 50:-0.052162107 51:0.018962478 52:0.031424727 53:-0.017899433 54:0.0031742 55:0.011972282 56:0.046290033 57:0.06013326 58:0.064246066 59:0.045770984 60:0.016948691 61:0.12777696 62:-0.00888506 63:0.038252767 64:-0.001767594 65:0.22976454 66:-0.057631038 67:0.037146173 68:-0.032643147 69:-0.006176247 70:0.030061688 71:-0.006872691 72:-0.076582491 73:-0.010830468 74:0.030358326 75:-0.030702453 76:-0.001083483 77:-0.016194491 78:-0.043588433 79:0.03798129 80:-0.026055666 81:-0.021920633 82:-0.00383577 83:-0.03546913 84:-0.032932125 85:-0.057655238 86:0.041589741 87:-0.017474309 88:0.093147591 89:0.010042684 90:0.089716502 91:0.011645801 
1 1 1 1 1:0.025240334 2:-0.36295876 3:0.52789325 4:-0.040562604 5:0.062164843 6:0.01299383 7:-0.019896483 8:-0.044909246 9:-0.026637524 10:0.007642667 11:0.059621837 12:-0.009544151 13:0.009462725 14:0.005426613 15:0.030489234 16:-0.1687292 17:-0.067125075 18:-0.061297346 19:-0.021080919 20:-0.003483928 21:-0.007325276 22:0.006738681 23:-0.03115258 24:-0.000427955 25:0.009000326 26:0.07704211 27:0.10714329 28:-0.04957284 29:0.055195089 30:0.001607041 31:-0.01019527 32:-0.007192783 33:0.00471439 34:-0.010266702 35:0.006649781 36:0.003244258 37:-0.03095074 38:-0.027738139 39:-0.000499795 40:-0.049297325 41:-0.016636722 42:-0.040052395 43:-0.020224746 44:0.020523861 45:0.006212525 46:-0.017012741 47:-0.024609193 48:0.014498004 49:0.16774423 50:-0.034239061 51:0.015578985 52:-0.016185246 53:0.009034333 54:0.00278485 55:0.017366607 56:0.010380919 57:0.04959039 58:0.040640827 59:0.004089175 60:0.024432382 61:0.04061171 62:0.006596676 63:0.006101816 64:0.029579159 65:0.12073187 66:0.017129581 67:0.065523997 68:-0.059989937 69:-0.010340181 70:0.04105144 71:0.018846376 72:-0.005129634 73:-0.15916763 74:0.016831484 75:0.003054988 76:-0.000598824 77:-0.006972161 78:-0.084441036 79:-0.017480876 80:-0.032059181 81:-0.011769587 82:-0.040760618 83:0.027820643 84:0.038187355 85:-0.068470165 86:0.02649408 87:0.030247439 88:0.14949001 89:0.009444337 90:0.018164534 91:0.024901951 
1 1 1 0 1:0.027758842 2:-0.46896267 3:0.44816524 4:-0.076861151 5:0.14406976 6:-0.000659585 7:-0.036459472 8:-0.016557666 9:-0.004069102 10:-0.013415798 11:0.032582894 12:0.008233131 13:0.023286091 14:0.011811681 15:0.23688625 16:-0.21322578 17:0.080820203 18:-0.032332204 19:0.005842781 20:0.016837144 21:-0.022060217 22:0.021281632 23:-0.005048244 24:0.01583232 25:-0.004580022 26:0.10856099 27:0.065259732 28:-0.28772575 29:0.026011385 30:-0.013009073 31:-0.032131195 32:-0.025898924 33:-0.014650289 34:0.002887986 35:0.006114725 36:0.017670833 37:-0.030580217 38:-0.20067753 39:0.005881763 40:-0.007602208 41:-0.005400723 42:-0.023446802 43:-0.01310825 44:-0.007890428 45:0.002717012 46:-0.02146483 47:-0.080714248 48:0.055049576 49:0.076467723 50:-0.048644755 51:0.056240551 52:0.006519218 53:0.007254338 54:0.00056737 55:-0.021486731 56:0.018021734 57:0.022774689 58:0.090127118 59:0.062945813 60:0.035865251 61:0.055067219 62:0.001402474 63:0.014124786 64:0.012235085 65:0.2119426 66:-0.06574291 67:0.078173868 68:-0.067452736 69:0.017135017 70:0.021772666 71:-0.000144464 72:-0.099293061 73:-0.12159459 74:0.013539165 75:0.000611211 76:0.01557251 77:-0.018623751 78:-0.12036483 79:-0.047441151 80:-0.002395467 81:-0.090044513 82:-0.023580041 83:-0.091796555 84:-0.05204514 85:-0.08030466 86:0.023274153 87:-0.015329353 88:0.16786967 89:0.003193991 90:0.12167584 91:0.039006796 
1 1 0 1 1:0.016685195 2:-0.60224307 3:0.345608 4:0.000955588 5:0.06847661 6:0.033445776 7:-0.032031823 8:-0.011864633 9:-0.012479796 10:-0.005723868 11:0.065138884 12:-0.008111331 13:-0.007449069 14:-0.052683961 15:0.042805195 16:-0.30954161 17:0.053529963 18:-0.051567595 19:-0.03099411 20:0.029034456 21:-0.003617584 22:0.008591976 23:-0.008727761 24:0.019430188 25:0.00972839 26:0.089825101 27:0.042671479 28:-0.28698683 29:0.12029295 30:-0.013558487 31:-0.039253149 32:-0.037101496 33:-0.016428974 34:-0.024722507 35:0.016297707 36:0.036843937 37:-0.013765668 38:-0.077165924 39:-0.081940182 40:-0.022365386 41:0.001710099 42:-0.0243746 43:-0.00066108 44:0.001283568 45:-0.001665088 46:-0.016347723 47:-0.072802126 48:-0.089109726 49:0.093222402 50:-0.071522571 51:0.030979473 52:-0.001718572 53:0.011786658 54:0.010525049 55:-0.004966526 56:0.016662601 57:0.057228744 58:0.11291385 59:0.071299329 60:0.064462751 61:0.08404278 62:0.009334663 63:0.003633451 64:0.00757109 65:0.23178703 66:-0.048753668 67:0.10338231 68:-0.079272784 69:0.026453072 70:0.033361655 71:0.002639667 72:-0.064820834 73:-0.15021858 74:0.065633558 75:-0.005944713 76:0.001819862 77:-0.024372578 78:-0.069767013 79:-0.000644878 80:0.004737983 81:-0.042328902 82:-0.03961255 83:-0.10070693 84:-0.019417999 85:-0.092013754 86:0.036000319 87:0.009443878 88:0.13044842 89:0.009316534 90:0.051580202 91:0.028936302 
1 1 0 1 1:0.013731168 2:-0.65331036 3:0.3726894 4:-0.065230928 5:0.11004917 6:0.03635522 7:-0.016452186 8:-0.020510424 9:-0.030997733 10:-0.015094917 11:0.03060754 12:0.001141478 13:-0.001545037 14:0.008436444 15:0.16084328 16:-0.17772895 17:0.058346033 18:-0.024130428 19:-0.018800359 20:0.01826285 21:-0.010700883 22:0.012792131 23:-0.02529078 24:0.012948943 25:0.009463741 26:0.079402268 27:0.094358042 28:-0.19752008 29:0.11847416 30:-0.035089757 31:-0.014289742 32:-0.041891132 33:-0.013120893 34:-0.007181549 35:0.010148753 36:0.034986384 37:0.014651769 38:-0.098822504 39:-0.001717123 40:-0.042273887 41:-0.033808876 42:-0.00241837 43:-0.015295938 44:0.016588278 45:-0.001160207 46:-0.018702855 47:-0.052182328 48:0.025119936 49:0.13640326 50:-0.05810393 51:-0.001555122 52:0.015806137 53:0.018650014 54:0.000824896 55:0.002444842 56:0.027766282 57:0.063971207 58:0.10449075 59:0.058491014 60:0.050370984 61:0.063656427 62:0.000925964 63:0.005433234 64:0.021132203 65:0.21385443 66:-0.050319687 67:0.096749522 68:-0.045446746 69:-0.003056929 70:0.050674926 71:0.014391416 72:-0.041709572 73:-0.161659 74:0.045456555 75:0.015386117 76:0.009420453 77:-0.013872675 78:-0.14204478 79:0.020776683 80:-0.013937999 81:-0.043669544 82:-0.035018545 83:-0.041285574 84:-0.000941907 85:-0.080174632 86:0.033013001 87:0.028531959 88:0.12648283 89:0.010594305 90:0.072774194 91:0.028637988 
0 0 1 0 1:0.016707251 2:-0.071444854 3:0.46035027 4:-0.071277313 5:0.23828778 6:0.013180802 7:-0.021619176 8:0.017386118 9:-0.02472249 10:0.005306903 11:0.034666784 12:0.006845731 13:0.009243486 14:0.013624533 15:0.42122421 16:-0.21346894 17:0.074205488 18:-0.058210179 19:-0.035174888 20:0.036807958 21:-0.020682948 22:0.011921505 23:-0.013480623 24:0.003276179 25:-0.003770684 26:0.076251909 27:-0.083006673 28:-0.28345051 29:0.035813935 30:0.003324519 31:-0.060207535 32:-0.020699754 33:-0.035993375 34:-0.020157203 35:0.004047174 36:0.028289782 37:-0.007065721 38:-0.19250095 39:0.039618295 40:-0.039453514 41:-0.034990404 42:-0.018368747 43:-0.020388158 44:0.022591185 45:0.004399131 46:-0.006208133 47:-0.084133528 48:-0.036272574 49:0.11695904 50:-0.14479655 51:0.03045072 52:0.009900462 53:0.018047707 54:-0.003031598 55:0.005733954 56:0.034026895 57:0.076138765 58:0.25969178 59:0.062162511 60:0.028456021 61:0.04819338 62:0.016887238 63:0.009733295 64:0.008988947 65:0.35897014 66:-0.037267759 67:0.096973479 68:-0.052015573 69:-0.016255964 70:0.017231787 71:0.021954522 72:-0.049820069 73:-0.13988481 74:-0.015762029 75:0.02993571 76:0.02941218 77:-0.017347582 78:-0.11700268 79:0.036879648 80:-0.030532261 81:-0.09335497 82:-0.023439515 83:-0.009961741 84:-0.03646329 85:-0.050943647 86:0.027583964 87:-0.007309144 88:0.1035682 89:0.001333868 90:0.049799733 91:0.034689356 
1 1 0 0 1:0.022294536 2:-0.58141059 3:0.30633956 4:0.02367349 5:0.25655913 6:0.10420178 7:-0.039823912 8:0.027973086 9:-0.007974384 10:2.2136e-05 11:0.069692843 12:0.014541319 13:-0.0020356 14:0.031204619 15:0.1276322 16:-0.27263847 17:0.11579097 18:-0.052202649 19:-0.01656561 20:0.041620106 21:0.004081071 22:0.016291425 23:-0.007327506 24:-0.006966969 25:-0.00107591 26:0.074912228 27:0.15442826 28:-0.39349341 29:0.11463693 30:-0.025445208 31:-0.071480781 32:-0.031895794 33:-0.035881851 34:-0.040184915 35:0.009180991 36:0.017767904 37:-0.028938733 38:-0.36593035 39:-0.10011783 40:-0.009283538 41:-0.084645934 42:-0.021678755 43:-0.022705955 44:-0.008272764 45:-0.00893779 46:-0.020852862 47:-0.11110438 48:0.066890478 49:0.082612574 50:-0.080835804 51:0.057293382 52:0.04921215 53:0.008788324 54:0.001926589 55:-0.002692603 56:0.034724385 57:0.023604406 58:0.2305427 59:0.13452625 60:0.057854444 61:0.11639988 62:0.017169476 63:0.023259183 64:0.008524061 65:0.31946942 66:-0.061365277 67:0.14628361 68:-0.088594951 69:-0.019673508 70:0.028120337 71:0.027166246 72:-0.05443731 73:-0.21584882 74:-0.006511765 75:0.054634437 76:0.007270422 77:-0.03625761 78:-0.11474254 79:-0.073208019 80:-0.026674261 81:-0.078033 82:-0.042830117 83:-0.038715363 84:-0.042443991 85:-0.065427892 86:0.033005293 87:-0.00187858 88:0.1272614 89:-0.012589742 90:0.088792607 91:0.02866102 
1 1 0 0 1:0.013091438 2:-0.46360767 3:0.353035 4:0.051983267 5:0.25395301 6:0.08267615 7:0.073614746 8:-0.029585006 9:-0.014786346 10:0.010656497 11:0.096917167 12:1.6204e-05 13:0.009386326 14:-0.008668569 15:0.10241037 16:-0.35712084 17:0.15322058 18:-0.008698552 19:-0.11395297 20:-0.007255603 21:-0.006788085 22:0.012898453 23:-0.046938621 24:0.003743151 25:0.003320544 26:0.075187989 27:0.055881176 28:-0.33985528 29:0.13096693 30:-0.037546504 31:-0.012028165 32:-0.045779776 33:-0.017833686 34:-0.040224224 35:0.01074562 36:0.04284206 37:-0.024773654 38:-0.31232008 39:-0.091557942 40:-0.10100856 41:-0.042201657 42:-0.015322681 43:-0.005841751 44:0.011791443 45:-0.003946698 46:-0.018670818 47:-0.084512331 48:-0.02384666 49:0.17506859 50:-0.065210231 51:0.044198647 52:-0.007318131 53:0.027348597 54:-0.006414031 55:0.013494701 56:0.023138007 57:0.17886651 58:0.087188706 59:0.094185561 60:0.095260181 61:0.058854491 62:0.007152467 63:0.01314914 64:-0.001708696 65:0.19465281 66:-0.059774268 67:0.13155961 68:-0.12342732 69:0.013886292 70:0.023156844 71:0.020558085 72:-0.087363809 73:-0.17613384 74:-0.056266882 75:0.022170801 76:0.011501759 77:-0.023499452 78:-0.08850079 79:0.12157226 80:-0.01987808 81:-0.062529027 82:-0.047900062 83:0.055779785 84:-0.009414978 85:-0.078304477 86:0.048131004 87:-0.002396577 88:0.14434105 89:0.011867867 90:0.051921874 91:0.035085727 
1 1 1 1 1:-0.022703065 2:-0.24327047 3:0.080517903 4:-0.064336687 5:0.17647101 6:0.1752142 7:0.070290871 8:0.017301651 9:-0.001811766 10:0.078204922 11:0.049842637 12:0.01879058 13:-0.011723842 14:-0.072122648 15:0.15175493 16:-0.19351906 17:0.16292378 18:0.17302801 19:-0.15881023 20:0.058655761 21:-0.02546386 22:0.032144159 23:-0.055145863 24:0.017423494 25:0.002598964 26:-0.033910774 27:0.14183149 28:-0.38531348 29:0.15573546 30:-0.14448175 31:-0.054157361 32:-0.055601478 33:-0.020918109 34:-0.006111632 35:0.027616119 36:-0.018555848 37:0.011112507 38:-0.31187892 39:-0.24128438 40:-0.094249077 41:-0.06484855 42:-0.018609889 43:-0.085078694 44:-0.030263603 45:-0.017754417 46:-0.027426263 47:-0.022905223 48:-0.27133372 49:0.26261586 50:-0.052764464 51:0.047269054 52:0.098769642 53:0.029940728 54:-0.018687522 55:0.004057785 56:0.004922409 57:0.16530101 58:0.15039115 59:0.084352836 60:0.1471851 61:-0.027068749 62:-0.028992279 63:0.031743236 64:0.004071375 65:0.22749791 66:-0.031646136 67:0.21495181 68:-0.037609261 69:0.052837472 70:0.038944516 71:0.010896608 72:0.062575504 73:-0.29703867 74:-0.054363452 75:0.028581945 76:-0.008662476 77:-0.016116107 78:-0.1530087 79:0.025697734 80:-0.000145455 81:-0.024456222 82:-0.048308805 83:0.002933477 84:-0.062277049 85:-0.059097819 86:0.002965211 87:-0.093813844 88:0.043704592 89:0.014887583 90:-0.034187578 91:0.003273313 
1 1 0 1 1:0.033365715 2:-0.55574811 3:0.41334832 4:-0.11975722 5:0.12921815 6:0.050563291 7:-0.043371908 8:-0.019221233 9:-0.017898306 10:-0.010439918 11:0.066191196 12:-0.000236402 13:0.028344911 14:0.011347339 15:0.18369283 16:-0.076196752 17:0.061967514 18:-0.017736536 19:-0.019653609 20:-0.001239705 21:0.000996911 22:0.012610505 23:-0.01333579 24:0.016507342 25:0.000846877 26:0.10736165 27:0.17817368 28:-0.37672848 29:0.10053651 30:-0.032090418 31:-0.024276331 32:-0.020865057 33:-0.01317018 34:-0.03106693 35:0.015337879 36:0.054217171 37:0.018824134 38:-0.19722418 39:0.043951549 40:0.000483587 41:-0.026760656 42:-0.056284174 43:0.006671369 44:-0.003771453 45:-0.002583859 46:-0.006832448 47:-0.091636531 48:0.05589138 49:0.04832533 50:-0.033818472 51:0.010344625 52:-0.014894009 53:0.005108063 54:-0.007095585 55:0.004762418 56:0.039169762 57:0.014104641 58:0.10199911 59:0.006628692 60:0.028039714 61:0.072058029 62:0.004059976 63:0.018126125 64:0.000971197 65:0.20138092 66:-0.003162033 67:0.033486754 68:-0.079054751 69:0.001949432 70:0.016319802 71:0.008186074 72:-0.002203364 73:-0.070773356 74:0.017416658 75:0.000124857 76:0.033163004 77:-0.022485362 78:-0.052998252 79:0.075128689 80:-0.023510607 81:-0.11054776 82:-0.017586065 83:-0.041044928 84:-0.006107004 85:-0.046678625 86:0.059208907 87:0.026731243 88:0.15058802 89:0.011664689 90:0.078208096 91:0.051278092 
0 0 1 0 1:0.002714053 2:-0.16801712 3:0.41831845 4:-0.043806516 5:0.11431412 6:0.036499206 7:-0.054168306 8:-0.009574728 9:-0.029372636 10:0.012977926 11:0.074607454 12:-0.00617804 13:-0.003658561 14:-0.007292648 15:0.43121639 16:-0.29790452 17:0.028580114 18:-0.051032353 19:-0.008552784 20:0.019683763 21:0.008588693 22:0.006720209 23:-0.025954245 24:0.016779969 25:0.006139985 26:0.063114837 27:-0.1349683 28:-0.2525903 29:0.074256606 30:0.002138992 31:-0.05543286 32:-0.007349407 33:-0.032654822 34:-0.019134816 35:0.016472651 36:0.036609344 37:4.2337e-05 38:-0.081396788 39:-0.009145372 40:0.023766059 41:-0.028083844 42:-0.035850998 43:0.000529795 44:0.025834406 45:0.008519844 46:-0.00794229 47:-0.058202066 48:-0.10733473 49:0.040722296 50:-0.12039682 51:0.014321388 52:0.005341717 53:0.010078375 54:0.007403476 55:0.018994458 56:0.025720848 57:0.03208109 58:0.2344134 59:0.024205241 60:0.041479845 61:0.05498698 62:0.002092437 63:0.023666346 64:0.004183128 65:0.31852788 66:0.014229771 67:0.098966978 68:-0.070444234 69:-0.010702429 70:0.02154348 71:0.027542016 72:0.02972798 73:-0.18887933 74:-0.029313229 75:0.007401043 76:0.013218564 77:-0.010576356 78:-0.17020789 79:0.10178804 80:-0.030652728 81:-0.063415855 82:-0.028842051 83:-0.026026331 84:0.021681584 85:-0.052992601 86:0.038330939 87:0.048320945 88:0.10280474 89:0.008309155 90:0.060919497 91:0.023367533 
1 1 0 1 1:0.005145359 2:-0.6958257 3:0.45393017 4:-0.13228351 5:0.027974263 6:-0.034629017 7:0.017956456 8:-0.011058811 9:-0.03359893 10:0.006420593 11:0.053123724 12:-0.004984015 13:0.000296609 14:-0.001919006 15:0.086690061 16:-0.18787909 17:0.055893328 18:0.015824888 19:-0.040168431 20:0.030023931 21:-0.00687953 22:-0.002024893 23:-0.016246425 24:0.014616278 25:0.005433618 26:0.096962303 27:0.12066529 28:-0.24045399 29:0.019172182 30:-0.003704388 31:-0.044151843 32:-0.028797165 33:-0.016351584 34:0.006531399 35:0.012264652 36:0.023780668 37:-0.006418177 38:-0.099627845 39:0.05125995 40:-0.003770464 41:-0.029210728 42:0.001438599 43:0.025999444 44:0.012909628 45:0.001228649 46:-0.008348754 47:-0.033333529 48:0.056699131 49:0.044479068 50:-0.10170801 51:0.002405632 52:-0.002685398 53:-0.014104053 54:-0.003795519 55:0.014952902 56:0.010304131 57:0.006246174 58:0.17803131 59:0.037144791 60:0.047830433 61:0.044835683 62:0.003395051 63:0.020253377 64:-0.004963021 65:0.21836293 66:-0.006101403 67:0.071413681 68:-0.032541752 69:0.005236662 70:0.034701224 71:0.021830335 72:0.003647621 73:-0.11812456 74:0.005235346 75:0.00294109 76:-0.000853878 77:-0.002913652 78:-0.062698901 79:0.12130299 80:-0.016184807 81:-0.033832498 82:-0.026321309 83:-0.022095596 84:0.016881103 85:-0.060013592 86:0.030836815 87:-0.001858025 88:0.11715595 89:0.013158368 90:0.05044239 91:0.020071412 
1 1 0 0 1:0.008787877 2:-0.51924133 3:0.36159363 4:0.017149678 5:-0.023455158 6:0.10478296 7:0.074650228 8:-0.004801479 9:-0.017871296 10:0.015979141 11:0.18360425 12:0.007972286 13:0.000137068 14:-0.004841787 15:0.17460838 16:-0.25665733 17:0.0008748 18:-0.019379493 19:-0.10605047 20:0.061389305 21:-0.012923119 22:-0.008559628 23:-0.040103909 24:0.045155466 25:0.002808922 26:0.086629532 27:0.1075182 28:-0.22212645 29:0.19081275 30:0.023198824 31:-0.07225889 32:-0.017395521 33:-0.018361494 34:-0.02736631 35:-0.008199189 36:0.008960988 37:0.006654651 38:-0.12325174 39:-0.1096837 40:-0.097052872 41:0.008000714 42:0.020059045 43:0.009921158 44:-0.021247549 45:-0.005427356 46:0.002187068 47:-0.038448498 48:-0.055481076 49:0.1110631 50:-0.13965048 51:0.025645008 52:-0.010397426 53:-0.083639085 54:-0.004132735 55:0.003521173 56:0.011298469 57:0.04747789 58:0.15071082 59:0.076041929 60:0.036600754 61:0.10857079 62:-0.017909737 63:0.029030809 64:-0.003616021 65:0.23219103 66:-0.092773683 67:0.089037925 68:-0.10578402 69:-0.010410529 70:0.056309916 71:0.013108539 72:-0.095193155 73:-0.10237223 74:0.064355075 75:-0.024351144 76:-0.035459872 77:-0.016942335 78:-0.016548987 79:0.13817859 80:-0.055619322 81:-0.011545337 82:-0.031795859 83:-0.020422146 84:0.091954269 85:-0.095566422 86:0.061591793 87:0.028931689 88:0.1469401 89:0.028340809 90:0.097269103 91:0.019685684 
1 1 1 1 1:-0.011473508 2:-0.45982659 3:0.44173866 4:-0.018211322 5:0.011088546 6:0.051776811 7:-0.015563818 8:-0.006653189 9:-0.030939726 10:0.002787068 11:0.063584954 12:0.002640427 13:-0.00672284 14:-0.022397226 15:0.19236973 16:-0.26334199 17:-0.026128767 18:-0.011607625 19:-0.055305105 20:0.010403871 21:-0.001674733 22:-0.016411075 23:-0.037035562 24:0.034429856 25:0.000686439 26:0.052429352 27:-0.000497223 28:-0.19139855 29:0.10974836 30:-0.006809861 31:-0.051902294 32:-0.035909649 33:-0.017733298 34:0.004971714 35:-0.002022131 36:0.023432821 37:0.009776933 38:-0.040305533 39:-0.026745889 40:-0.004400671 41:-0.023136511 42:0.005013068 43:0.023694616 44:-0.004697858 45:0.003085104 46:-0.011757965 47:-0.023609607 48:-0.044974979 49:-0.010504053 50:-0.070855267 51:-0.032547563 52:-0.019208923 53:-0.037928216 54:-0.008463405 55:0.018838311 56:0.005128098 57:-0.006648454 58:0.14329563 59:0.048522998 60:0.04387223 61:0.082476996 62:-0.018818371 63:0.011259093 64:-0.003226016 65:0.22328086 66:0.009205139 67:0.065505847 68:-0.020566029 69:0.042362664 70:0.015316676 71:0.014897806 72:-0.026461573 73:-0.16538268 74:0.020280238 75:-0.01158416 76:-0.007277246 77:0.001498838 78:-0.078415133 79:0.058391262 80:-0.008871295 81:-0.02652498 82:-0.030826602 83:-0.049056251 84:0.013969174 85:-0.071040221 86:0.012171874 87:-0.000782625 88:0.12941685 89:0.012719879 90:0.06650281 91:0.017247982 
1 1 0 1 1:0.013604599 2:-0.717767 3:0.29746717 4:0.025968932 5:0.21448106 6:-0.037923057 7:-0.02087089 8:-0.009686937 9:-0.042021755 10:-0.011225397 11:0.1222054 12:-0.005328432 13:0.028672382 14:-0.021310797 15:0.040780686 16:-0.35465848 17:0.10473476 18:-0.001792054 19:-0.018020919 20:0.030584216 21:-0.005812141 22:0.00108292 23:0.003922732 24:0.026917173 25:0.009989492 26:0.1070108 27:0.007301504 28:-0.31662881 29:0.10503415 30:0.011593763 31:-0.04675306 32:-0.040135775 33:-0.030459756 34:-0.021497294 35:0.002324308 36:0.035241771 37:-0.047519818 38:-0.093205675 39:-0.050151668 40:-0.029710442 41:0.004630479 42:-0.008738317 43:-0.017087068 44:-0.038410645 45:-0.003621116 46:-0.021926189 47:-0.085380614 48:-0.008822855 49:0.087284938 50:-0.065704368 51:0.02959465 52:0.016657136 53:0.003125321 54:-0.003598142 55:0.008136687 56:-0.011776186 57:0.082859665 58:0.055920772 59:0.083768718 60:0.039770395 61:0.03632383 62:0.01371378 63:0.015282647 64:0.003762478 65:0.21874049 66:-0.066095121 67:0.08155968 68:-0.1104217 69:0.000719649 70:0.022158274 71:-0.006445648 72:-0.078138717 73:-0.088603005 74:-0.044852756 75:-0.014961683 76:-0.025506826 77:-0.024142813 78:-0.10383339 79:0.13401417 80:-0.048553083 81:-0.095526211 82:-0.01791117 83:-0.081330203 84:0.067306042 85:-0.14849171 86:0.055744693 87:0.034067199 88:0.18432301 89:0.023191497 90:0.059818603 91:0.042858988 
1 1 0 1 1:0.007850081 2:-1.0959709 3:0.25330636 4:-0.071187735 5:0.026304455 6:-0.036221273 7:-0.039638147 8:-0.05090984 9:-0.04064329 10:0.004497563 11:0.15888721 12:0.002069042 13:0.053663 14:-0.05408372 15:-0.23453715 16:-0.26304832 17:0.11147955 18:0.028333243 19:-0.040018518 20:0.032776769 21:0.003290086 22:0.005670227 23:0.056129377 24:0.010451438 25:0.011357718 26:0.090982281 27:0.28525153 28:-0.3665261 29:0.057438485 30:-0.073495649 31:-0.036755126 32:-0.028083747 33:-0.012030238 34:-0.006437728 35:-0.000291407 36:0.012867507 37:-0.026317673 38:-0.085439354 39:-0.012504661 40:-0.055945057 41:-0.021813953 42:-0.005338691 43:-0.044557672 44:-0.002788995 45:0.004307363 46:-0.044021789 47:-0.047644608 48:0.072100013 49:0.12201512 50:-0.056485489 51:0.024375521 52:0.045151677 53:-0.04536999 54:0.006961352 55:-0.011139345 56:0.007438561 57:-0.012016218 58:0.11901775 59:0.097853571 60:0.037965462 61:0.093086861 62:0.013569681 63:0.015553278 64:0.014617853 65:0.20209076 66:-0.067323625 67:0.13032761 68:-0.048837148 69:-0.002295829 70:0.075055882 71:0.007047747 72:-0.006014806 73:-0.16439851 74:0.030580582 75:-0.016793605 76:-0.022747286 77:-0.030612761 78:-0.056714557 79:-0.002125944 80:-0.056576703 81:-0.089657888 82:-0.019641398 83:-0.099655546 84:0.044169594 85:-0.16545007 86:0.04709556 87:-0.002340887 88:0.28768468 89:0.01735938 90:0.057447217 91:0.049158815 
1 1 0 1 1:0.019725699 2:-0.63996685 3:0.48495367 4:-0.18493326 5:0.007401964 6:0.002031091 7:-0.011191204 8:-0.024230689 9:-0.027903998 10:0.003487465 11:0.040274628 12:0.000932611 13:0.022824567 14:0.011872103 15:0.10850503 16:-0.10253185 17:0.037959047 18:0.006688835 19:-0.026452981 20:0.013603006 21:-0.008118793 22:0.008999982 23:-0.003806227 24:0.027065616 25:0.016097251 26:0.12760788 27:0.13970114 28:-0.23783737 29:0.018880293 30:-0.039996989 31:-0.011022238 32:-0.025271676 33:-0.018605875 34:0.005717504 35:0.003559991 36:0.052554701 37:0.00326712 38:-0.10572526 39:-0.00325843 40:-0.014735198 41:-0.038616456 42:0.002099082 43:-0.01965002 44:0.006028241 45:-0.001104149 46:-0.012327006 47:-0.036358219 48:-0.001820421 49:0.096195139 50:-0.051986214 51:0.008723197 52:0.01727519 53:0.020948298 54:0.001259081 55:0.017730733 56:0.012553433 57:0.031932838 58:0.07692454 59:0.031143853 60:0.047323309 61:0.011371873 62:0.011434146 63:0.011082549 64:0.013874247 65:0.13868859 66:0.02704289 67:0.059402727 68:-0.018318707 69:-0.006140033 70:0.021865821 71:0.012051038 72:-5.8195e-05 73:-0.093084693 74:-0.009655107 75:-0.019699194 76:0.026121013 77:-0.000440367 78:-0.070521265 79:0.14157195 80:-0.028754538 81:-0.051729284 82:-0.01747223 83:-0.001589762 84:0.089884363 85:-0.05196001 86:0.040689815 87:0.052849099 88:0.18648022 89:0.025204031 90:0.060219649 91:0.04498139 
0 1 1 0 1:0.004722916 2:-0.43793085 3:0.59190631 4:-0.010373724 5:0.055025015 6:0.01385948 7:-0.020640643 8:-0.007546328 9:-0.009918701 10:-0.008243547 11:0.047409188 12:0.012807672 13:0.026725309 14:-0.016004289 15:0.20275307 16:-0.31889743 17:0.009595718 18:-0.004031534 19:-0.030910211 20:0.016560281 21:-0.010028619 22:0.007838385 23:-0.018598044 24:0.031736929 25:0.018709559 26:0.068585619 27:-0.00573449 28:-0.038311381 29:0.056788489 30:0.000490303 31:-0.054226279 32:-0.0237545 33:-0.007344571 34:-2.4681e-05 35:-0.004269721 36:0.02637415 37:-0.020861221 38:0.023787525 39:-0.080418058 40:-0.022858826 41:-0.017206345 42:0.011170621 43:0.001332087 44:-0.009297365 45:-0.002744848 46:-0.019738488 47:-0.021532362 48:-0.050023872 49:0.10829396 50:-0.07256373 51:-0.013418316 52:0.006703559 53:0.016194869 54:0.004193382 55:0.008598761 56:0.002433332 57:0.057524685 58:0.089866176 59:0.051696282 60:0.038613491 61:0.029026356 62:0.017493755 63:0.021688303 64:0.008709694 65:0.12510665 66:-0.073408969 67:0.054754321 68:-0.010168642 69:0.001435068 70:0.029052133 71:0.009462548 72:-0.04675848 73:-0.085087471 74:-0.023216272 75:-0.007148633 76:-0.012173944 77:-0.003282935 78:-0.043291856 79:0.10695112 80:-0.036484241 81:-0.029262887 82:-0.024125112 83:-0.000932358 84:0.094618395 85:-0.098809317 86:0.021779912 87:0.060958866 88:0.16863726 89:0.020481277 90:0.054424871 91:0.030106669 
1 1 0 0 1:0.01999299 2:-0.5769766 3:0.4232775 4:0.042164907 5:0.066087879 6:0.067608036 7:-0.053745288 8:-0.005052086 9:-0.006682811 10:0.015842954 11:0.10488385 12:-0.007605946 13:0.003286896 14:-0.001579005 15:0.14965872 16:-0.28404352 17:0.000457934 18:-0.095279872 19:-0.028191799 20:-0.008378687 21:-0.029037707 22:0.015170105 23:-0.040907316 24:0.017615821 25:0.011476174 26:0.096029319 27:0.061243653 28:-0.19139731 29:0.030221397 30:0.009316058 31:-0.032797668 32:-0.018315127 33:-0.01937744 34:-0.015078708 35:-0.000850801 36:0.04393946 37:-0.00665124 38:-0.11480307 39:0.18444951 40:0.018271036 41:-0.033741951 42:-0.007876332 43:0.001220108 44:0.012039094 45:0.002519534 46:-0.023672609 47:-0.056731187 48:0.1362731 49:-0.032729261 50:-0.09214928 51:0.014428997 52:-0.01920986 53:-0.00958289 54:0.004211139 55:-0.012925926 56:0.067333214 57:-0.062454436 58:0.1366577 59:0.13378398 60:0.048401296 61:0.13493656 62:-0.008068921 63:0.02974043 64:-0.011206421 65:0.21780281 66:-0.12241747 67:0.091194093 68:-0.085243598 69:0.026398972 70:0.009047798 71:0.018436214 72:-0.096222147 73:-0.13493642 74:-0.037101686 75:-0.018656174 76:0.02433341 77:-0.016137656 78:-0.062264509 79:0.19185933 80:-0.025830552 81:-0.039213732 82:-0.037888162 83:0.019690568 84:0.045413684 85:-0.10022432 86:0.063709572 87:0.036318477 88:0.15867442 89:0.021276882 90:0.083232701 91:0.02745039 
1 1 0 1 1:0.01071812 2:-0.93829364 3:0.176378 4:-0.22299062 5:0.19458413 6:0.03238168 7:0.00170909 8:-0.021000596 9:-0.022017527 10:0.028184649 11:0.036045074 12:0.006586745 13:-0.007054799 14:-0.007894593 15:0.068326838 16:-0.15670255 17:0.1028607 18:-0.10476359 19:-0.063756168 20:0.012653598 21:-0.022709474 22:0.018959124 23:-0.051062845 24:0.009754843 25:-0.007097604 26:0.077003382 27:0.2035346 28:-0.35861766 29:-0.007150491 30:0.057047017 31:-0.054784577 32:-0.062657945 33:-0.04185963 34:-0.013052465 35:-0.000103711 36:0.032441001 37:-0.00613168 38:-0.25858796 39:0.053535063 40:0.074805908 41:-0.069913499 42:0.011687374 43:0.023249345 44:0.020085091 45:-0.017702859 46:-0.034090195 47:-0.091308616 48:0.023287605 49:-0.057825901 50:-0.13806184 51:0.021233583 52:-0.037711855 53:-0.048554763 54:-0.003478152 55:0.01074649 56:0.043797422 57:-0.034575928 58:0.19831127 59:0.077483162 60:0.13722376 61:0.073850304 62:0.011970666 63:0.041116305 64:-0.043250397 65:0.31407043 66:-0.14642776 67:0.12232342 68:-0.088036396 69:-0.030099675 70:0.002743867 71:0.029914344 72:-0.11368601 73:-0.20951226 74:-0.008206029 75:0.019159105 76:0.033342302 77:-0.023313718 78:-0.14533989 79:0.070565701 80:-0.052094113 81:-0.091286518 82:-0.055106055 83:-0.060145065 84:0.053491153 85:-0.09206792 86:0.041425385 87:0.006088926 88:0.13204634 89:0.01038401 90:0.087680712 91:0.032534525 
1 1 1 0 1:-0.001557832 2:-0.39636078 3:0.48818478 4:-0.14011404 5:0.11068404 6:0.076555885 7:-0.018436439 8:0.02030924 9:0.003546444 10:-0.003989672 11:0.050709441 12:-0.000494803 13:0.036374282 14:0.012651167 15:0.2823503 16:-0.17107368 17:-0.005259252 18:-0.04647712 19:-0.041167289 20:0.031804413 21:-0.020332973 22:0.015288635 23:-0.025008872 24:0.013878226 25:0.00699289 26:0.0639534 27:0.054378301 28:-0.12052275 29:0.043026462 30:-0.001621305 31:-0.03577619 32:-0.040767286 33:-0.019090224 34:-0.013958189 35:0.001767084 36:0.025927799 37:0.0075589 38:-0.11769683 39:0.05587893 40:-0.017679729 41:-0.055500619 42:-0.011662911 43:0.003065432 44:-0.004451937 45:-0.000964191 46:-0.023519112 47:-0.033713549 48:0.076776184 49:0.10565499 50:-0.065677799 51:0.019751143 52:-0.020491539 53:-0.00380884 54:-0.000234474 55:-0.018059783 56:0.029093366 57:0.073094711 58:0.11409368 59:0.077602573 60:0.065634981 61:0.075259827 62:-0.002117947 63:0.049662568 64:0.003999 65:0.22117972 66:-0.14419587 67:0.039564166 68:-0.033383418 69:0.008665491 70:0.040220745 71:0.019930217 72:-0.12424409 73:-0.072280087 74:0.002510679 75:-0.021912852 76:0.013097562 77:-0.021171123 78:-0.071656354 79:0.10252348 80:-0.028545558 81:-0.056057058 82:-0.025751172 83:0.000436248 84:0.031460591 85:-0.083632134 86:0.023148147 87:0.022656785 88:0.1957266 89:0.016205009 90:0.11816454 91:0.03146866 
1 1 1 1 1:-0.010009734 2:-0.39776441 3:0.43533757 4:-0.01014295 5:0.058812406 6:0.016446069 7:-0.031455379 8:0.012770864 9:-0.040453825 10:0.006704566 11:0.032648128 12:0.00852631 13:-1.0084e-05 14:-0.043948293 15:0.21092342 16:-0.19144858 17:0.10588301 18:-0.028666485 19:-0.040639639 20:0.01445454 21:0.00188947 22:-0.003123102 23:-0.014302308 24:0.016470473 25:0.010990731 26:0.017359823 27:0.2132979 28:-0.19792193 29:0.047775015 30:0.007271626 31:-0.072424911 32:-0.033158951 33:-0.029637989 34:0.005262645 35:-0.006148557 36:0.011844059 37:-0.005706769 38:-0.025421115 39:-0.039297093 40:0.028589282 41:-0.030030461 42:0.00150889 43:0.006449344 44:-0.021592587 45:-0.004892616 46:-0.020435279 47:-0.037996087 48:-0.010591161 49:0.06450142 50:-0.10198723 51:-0.013452376 52:0.004882364 53:-0.006157009 54:0.008861315 55:0.023665009 56:0.016013665 57:0.039502688 58:0.1077242 59:0.036014631 60:0.076666832 61:0.075370878 62:0.013956294 63:0.024373285 64:-0.012868262 65:0.16962214 66:-0.033548575 67:0.10767145 68:-0.031444516 69:0.005410336 70:0.004511315 71:0.006507841 72:-0.023218984 73:-0.16769479 74:0.046793517 75:-0.01608084 76:0.008791557 77:-0.001806969 78:-0.070708409 79:0.003116697 80:-0.04464063 81:-0.047079973 82:-0.032726597 83:-0.050277602 84:0.11943059 85:-0.063153163 86:0.007928048 87:0.058355656 88:0.077028699 89:0.016740553 90:0.043011509 91:0.01576161 
0 0 1 0 1:-0.002209989 2:0.2778469 3:0.45465681 4:0.028138347 5:-0.008682141 6:0.032437067 7:-0.016047489 8:0.044390567 9:-0.013259172 10:0.025958627 11:0.026008163 12:0.005075789 13:0.0212049 14:-0.004990091 15:0.37201914 16:-0.27344364 17:-0.001251717 18:-0.01375455 19:-0.013125001 20:0.008423005 21:-0.033451136 22:0.014900271 23:-0.023376554 24:0.00913754 25:0.001113928 26:0.057733808 27:-0.068328038 28:-0.12234049 29:0.036855709 30:-0.02606358 31:-0.040970556 32:-0.021110933 33:-0.015765266 34:-0.000660499 35:0.001640722 36:0.02360739 37:-0.006875075 38:-0.07390333 39:0.025912957 40:-0.022624677 41:-0.031009544 42:-0.00263326 43:-0.028768102 44:-0.000492124 45:0.006552747 46:-0.031499386 47:-0.00944056 48:0.006311732 49:0.080161482 50:-0.067231059 51:0.016373696 52:-0.009425242 53:0.008284082 54:-0.006561552 55:-0.011714076 56:0.013491109 57:-0.027782459 58:0.13772941 59:0.074048117 60:0.038045391 61:0.041814927 62:-0.000379838 63:0.030746864 64:0.014595534 65:0.29312807 66:-0.096129857 67:0.071264647 68:-0.003819941 69:-0.000653904 70:0.035703503 71:0.006085894 72:-0.096261047 73:-0.13683455 74:-0.034910414 75:0.00697371 76:0.000330645 77:-0.011788211 78:-0.028197132 79:0.084805921 80:-0.013509849 81:-0.032879896 82:-0.027874283 83:0.018541398 84:0.014833398 85:-0.081240416 86:0.015350194 87:0.002332031 88:0.15315032 89:0.00875862 90:0.10113726 91:0.021238714 
0 1 1 0 1:0.003576152 2:-0.37091273 3:0.49797666 4:-0.12883611 5:0.081680156 6:0.030366462 7:-0.033998299 8:-0.022609457 9:-0.006387583 10:0.01151422 11:0.023707163 12:-8.0252e-05 13:0.012749429 14:-0.019158935 15:0.25438493 16:-0.17683037 17:0.009411783 18:-0.065736093 19:-0.007735556 20:0.012207804 21:-0.009632643 22:0.022511957 23:-0.027853223 24:0.001395217 25:0.002188964 26:0.06988129 27:0.024070157 28:-0.21010232 29:0.02967952 30:-0.013382374 31:-0.033848941 32:-0.040377188 33:-0.013729192 34:-0.002761227 35:0.006327145 36:0.027692761 37:0.009860292 38:-0.064083524 39:0.028918659 40:-0.01190513 41:-9.5673e-05 42:-0.023418063 43:-0.008340254 44:0.000267856 45:0.009746436 46:-0.030019412 47:-0.047863506 48:-0.059260238 49:0.07792528 50:-0.066361867 51:0.02114448 52:-0.041366361 53:-0.003531018 54:0.006826531 55:-0.01206411 56:0.024927102 57:0.058758162 58:0.04317813 59:0.05769093 60:0.062456422 61:0.04355358 62:-0.005094442 63:0.009529916 64:0.001702363 65:0.14920688 66:-0.11290469 67:0.057193186 68:-0.071528845 69:-0.003606056 70:0.028136751 71:0.003916022 72:-0.086388499 73:-0.13132782 74:0.011705191 75:0.001279617 76:0.022933779 77:-0.016170261 78:-0.075417027 79:0.065455049 80:-0.027692894 81:-0.052681934 82:-0.03285598 83:-0.059084505 84:0.011625051 85:-0.067115642 86:0.022233564 87:0.011916184 88:0.14685251 89:0.009541166 90:0.073355183 91:0.027605193 
0 1 1 0 1:0.009703171 2:-0.40210533 3:0.41377154 4:-0.010551374 5:0.14615983 6:0.14930245 7:-0.067136265 8:-0.00899935 9:-0.026582483 10:0.029949227 11:0.050537746 12:-0.00117995 13:0.002538726 14:0.003264366 15:0.28402489 16:-0.30793327 17:-0.053541414 18:-0.10387724 19:0.015471029 20:0.005255851 21:-0.00240823 22:0.018082704 23:-0.036152489 24:0.000839353 25:-0.003747881 26:0.064318351 27:0.029620625 28:-0.14428237 29:0.20080735 30:-0.041555367 31:-0.052167889 32:-0.023418901 33:-0.014416706 34:-0.023624126 35:0.021519197 36:0.031639505 37:0.001807506 38:-0.10291374 39:-0.26060373 40:0.025036279 41:-0.032531433 42:-0.050990827 43:-0.016649736 44:0.026602529 45:0.004569387 46:-0.010320593 47:-0.065596454 48:-0.093873158 49:-0.007285141 50:-0.10289505 51:0.032673862 52:-0.069984622 53:0.009008171 54:-0.007262557 55:0.011765096 56:-0.003916978 57:-0.05199093 58:0.19325674 59:0.013531496 60:0.10080661 61:0.065604083 62:-0.006497694 63:0.027926141 64:0.008354341 65:0.24656969 66:0.058783837 67:0.013853429 68:-0.10374752 69:-0.008794776 70:0.020536592 71:0.033691537 72:0.013088007 73:-0.01345274 74:0.040663738 75:0.021413386 76:-0.014084732 77:-0.002183916 78:-0.008455685 79:-0.007342012 80:-0.022217721 81:-0.034616165 82:-0.032228466 83:0.001936232 84:0.001269183 85:-0.084971681 86:0.017765531 87:-0.00460133 88:0.15914948 89:0.004872208 90:0.10977488 91:0.026369469 
1 1 1 1 1:0.003419668 2:-0.38201547 3:0.40871274 4:-0.14533542 5:0.16157797 6:0.049342707 7:-0.024528746 8:-0.016059067 9:-0.007894439 10:0.042444821 11:0.017482752 12:0.004434382 13:-0.016397562 14:0.010855713 15:0.24042948 16:-0.11014391 17:-0.018311519 18:-0.10171462 19:-0.018144354 20:0.002902256 21:0.012663662 22:0.034966111 23:-0.047198869 24:0.024701616 25:0.006553647 26:0.097687557 27:0.036577813 28:-0.32168663 29:0.047793217 30:0.010408374 31:-0.033903088 32:-0.015627673 33:0.008560652 34:-0.024895806 35:-0.001584547 36:0.008813486 37:0.006835707 38:-0.069850102 39:0.077823095 40:-0.024640149 41:-0.023307355 42:-0.055826552 43:0.006109398 44:-0.001267815 45:-0.00425413 46:-0.009858856 47:-0.058431033 48:-0.039500125 49:0.046782408 50:-0.034413468 51:0.016109696 52:-0.051636286 53:0.006359349 54:0.01003847 55:0.023890182 56:0.021972746 57:0.086482614 58:0.059856188 59:0.035521653 60:0.098806486 61:0.078389838 62:0.001444173 63:0.004812384 64:0.009146424 65:0.2021462 66:0.033556536 67:0.062827356 68:-0.0517691 69:0.037331387 70:0.023661163 71:0.005549366 72:0.087653197 73:-0.1725895 74:0.024956986 75:-0.042286158 76:0.00704169 77:-0.009013437 78:-0.053798128 79:0.025389239 80:-0.032368422 81:-0.027553873 82:-0.045989815 83:-0.092552908 84:0.072210461 85:-0.041891187 86:0.014166893 87:0.062364727 88:0.10164936 89:0.025468184 90:0.070732959 91:0.013471281 
1 1 1 0 1:0.027216475 2:-0.42979649 3:0.46480233 4:-0.10986685 5:0.12993029 6:0.056149799 7:-0.046107892 8:-0.020336648 9:-0.012660465 10:0.022772284 11:0.033797272 12:0.007210433 13:-0.004412466 14:0.017302735 15:0.27442974 16:-0.19287442 17:0.072373852 18:-0.058147561 19:0.011110982 20:0.006127852 21:-0.001410074 22:0.022700749 23:-0.042035773 24:0.018739503 25:0.012351445 26:0.11203078 27:0.05982919 28:-0.17764299 29:0.036127068 30:-0.04237495 31:-0.036715433 32:-0.025979577 33:-0.008695053 34:-0.017180284 35:0.018171411 36:0.034101777 37:-0.039438728 38:-0.065757126 39:-0.12769857 40:-0.009936336 41:0.002272407 42:-0.044490915 43:-0.014728105 44:-0.000224977 45:0.001958589 46:-0.006421581 47:-0.074501328 48:-0.090323083 49:0.091488518 50:-0.037395127 51:0.028569398 52:-0.05744103 53:0.033123195 54:-0.006551464 55:0.0109337 56:0.00039025 57:0.011350689 58:0.10019286 59:0.031600054 60:0.086393453 61:0.036116213 62:-0.002828117 63:-0.001931014 64:0.026187453 65:0.18384851 66:0.040432211 67:0.038965438 68:-0.082743257 69:-0.022434607 70:0.029185677 71:0.007652161 72:-0.010766001 73:-0.039618053 74:-0.051465083 75:-0.006069983 76:-0.008686813 77:-0.007273985 78:-0.0422513 79:0.05074029 80:-0.048267473 81:-0.039855149 82:-0.033967078 83:-0.035170753 84:0.058054633 85:-0.067946889 86:0.039750028 87:0.060720962 88:0.10829502 89:0.021114035 90:0.047023013 91:0.026293043 
0 0.9614401827708754 1 0 1:0.014159254 2:-0.17527261 3:0.53934431 4:0.058251955 5:0.020777976 6:0.11707089 7:-0.045998432 8:-0.012773515 9:-0.020411834 10:-0.001231101 11:0.028515568 12:0.004593703 13:-0.005175291 14:0.06819465 15:0.38452059 16:-0.33151269 17:0.003681771 18:-0.095089048 19:0.002781621 20:-3.333e-06 21:0.01569066 22:0.001599043 23:-0.011701437 24:-0.005513709 25:0.008454647 26:0.10967063 27:-0.11671328 28:-0.13186847 29:0.086445816 30:-0.017389735 31:-0.069604211 32:-0.019410089 33:-0.000642595 34:-0.007598666 35:0.00236899 36:0.023115464 37:-0.038598485 38:-0.13591643 39:-0.084788367 40:0.000186485 41:0.031034328 42:-0.035981067 43:-0.000792664 44:-0.006444937 45:0.008867946 46:-0.005009777 47:-0.03654309 48:-0.016042748 49:0.0364995 50:-0.045653343 51:0.016128253 52:-0.014436051 53:0.009654528 54:0.019375423 55:0.013900793 56:0.015135648 57:0.008807752 58:0.10547126 59:0.040224627 60:0.02323609 61:0.065728761 62:0.002492189 63:0.004595335 64:0.009046579 65:0.13922037 66:0.020301269 67:0.046378367 68:-0.065850064 69:-0.034602996 70:0.016816724 71:0.007217297 72:-0.021017268 73:-0.06845431 74:-0.01972108 75:0.006286543 76:0.00742512 77:-0.006193859 78:-0.04582452 79:0.031727213 80:-0.066253945 81:-0.021881022 82:-0.018213114 83:0.035435814 84:0.072314121 85:-0.059395928 86:0.024967276 87:0.050092906 88:0.11882156 89:0.014782567 90:0.073004916 91:0.023639375 
1 1 1 1 1:0.017384177 2:-0.57086039 3:0.33456847 4:-0.12064253 5:-0.008240307 6:-0.019115964 7:-0.059314754 8:-0.005919031 9:-0.024805579 10:0.004426508 11:0.007605945 12:0.003405232 13:-0.01349098 14:-0.001916855 15:0.21359028 16:-0.20266852 17:0.058263723 18:0.042547468 19:-0.003825432 20:0.042591248 21:0.009552397 22:0.008392073 23:-0.051090576 24:-0.001346048 25:0.024377067 26:0.11104643 27:0.088442817 28:-0.19453771 29:0.038158726 30:-0.021417411 31:-0.049408372 32:-0.019730061 33:0.002031299 34:-0.020333646 35:0.002894892 36:0.014994188 37:-0.038145546 38:0.001421516 39:-0.066986315 40:0.015958572 41:0.010398755 42:-0.02757293 43:0.00595026 44:0.015043955 45:-0.00082927 46:-0.007464513 47:-0.041324697 48:-0.015481479 49:0.047379702 50:-0.054689512 51:-0.007271758 52:-0.016578414 53:0.015599681 54:0.032560002 55:0.022001974 56:-0.017393261 57:0.036811393 58:0.15822709 59:0.072436608 60:0.066370964 61:0.020542005 62:0.01158212 63:0.019866411 64:0.005269278 65:0.26560125 66:0.007810401 67:0.083995335 68:-0.016938645 69:-0.004563094 70:0.031971507 71:0.010585505 72:-0.023589214 73:-0.14125043 74:-0.059291974 75:0.009731956 76:-0.013662309 77:-0.010520096 78:-0.087946184 79:0.054446708 80:-0.042997971 81:-0.00054885 82:-0.049164694 83:-0.026904771 84:0.071063459 85:-0.062516242 86:0.023903999 87:0.095785685 88:0.12344302 89:0.013154657 90:0.0677341 91:0.018304549 
1 1 1 1 1:0.024466546 2:-0.54073793 3:0.41952804 4:-0.087516308 5:-0.00498824 6:-0.010334807 7:-0.045271631 8:-0.031542618 9:-0.004257373 10:0.007812001 11:0.10385235 12:0.032574683 13:-0.003516683 14:0.001080713 15:0.15791586 16:-0.21665256 17:0.01978156 18:-0.033309929 19:0.008997244 20:0.000198621 21:-0.010768107 22:0.006291598 23:-0.025013564 24:0.036264256 25:0.025344739 26:0.12909266 27:0.066540487 28:-0.14280415 29:0.027703594 30:-0.027881395 31:-0.043239225 32:-0.020768844 33:-0.014890784 34:-0.003751158 35:0.004614781 36:0.016405376 37:-0.028145632 38:-0.044455893 39:-0.019466471 40:-0.018976163 41:0.008868441 42:0.00783801 43:-0.008704515 44:-0.011852473 45:-0.005016062 46:-0.009733913 47:-0.032925557 48:-0.048043102 49:0.07570561 50:-0.047274999 51:0.017261662 52:-0.016973408 53:0.029388024 54:0.002370737 55:0.008380491 56:0.008907858 57:-0.008651698 58:0.065738536 59:0.084528543 60:0.046950206 61:0.057867624 62:0.024182267 63:0.012391944 64:0.019612256 65:0.18019502 66:-0.002368797 67:0.06796024 68:-0.075306691 69:-0.01197228 70:0.026766557 71:-0.000720033 72:-0.053201944 73:-0.10276219 74:-0.048050612 75:-0.007048904 76:-0.019738512 77:-0.005683933 78:-0.053107537 79:0.13648701 80:-0.099809811 81:-0.000638709 82:-0.029426992 83:-0.024448818 84:0.17914613 85:-0.072445728 86:0.061161503 87:0.10996839 88:0.14127772 89:0.043538351 90:0.074192449 91:0.021448504 
1 1 1 0.84299665804006274 1:0.003845029 2:-0.30587834 3:0.42755777 4:-0.056676663 5:-0.019233519 6:0.046600934 7:-0.058782935 8:-0.02049892 9:0.016418369 10:0.017316472 11:0.066012017 12:0.006015884 13:0.019792801 14:0.019192189 15:0.31912771 16:-0.1782155 17:-0.04285641 18:-0.04878607 19:-0.001920965 20:0.015781175 21:0.023203019 22:0.024582895 23:-0.041402031 24:0.032233801 25:0.024212293 26:0.065488264 27:0.15439835 28:-0.095244937 29:0.050074302 30:-0.031568348 31:-0.059393853 32:-0.002266194 33:0.021344131 34:-0.025595287 35:0.007230852 36:0.042866159 37:0.019737387 38:-0.05537755 39:-0.008306899 40:0.020470429 41:0.003457447 42:-0.007681986 43:0.014833827 44:-0.001292476 45:-0.011852589 46:-0.0002955 47:-0.028140511 48:0.01156475 49:0.013264127 50:-0.028431991 51:-0.02253723 52:-0.03989305 53:0.010175124 54:0.007770323 55:0.008456417 56:0.02328226 57:-0.000458692 58:0.086729549 59:0.1181405 60:0.045260862 61:0.078671023 62:0.006291976 63:0.022018889 64:0.009802077 65:0.22816841 66:-0.12148125 67:0.057549547 68:-0.045797165 69:0.011811885 70:0.028041476 71:0.014802665 72:-0.043871887 73:-0.063836522 74:-0.024301851 75:-0.009002728 76:0.004812832 77:-0.007736976 78:-0.035392813 79:0.10996354 80:-0.063987732 81:-0.016499046 82:-0.025040882 83:-0.00756545 84:0.12093733 85:-0.049313109 86:0.035327233 87:0.10040142 88:0.19654398 89:0.026769577 90:0.15156281 91:0.032779243 
1 1 1 0 1:0.01493594 2:-0.33918211 3:0.3544493 4:0.002013296 5:-0.012813965 6:0.028935239 7:-0.03316142 8:-0.039605204 9:-0.021036416 10:-0.002764499 11:0.077086471 12:0.022166058 13:0.006930781 14:0.0451601 15:0.28182083 16:-0.26000792 17:-0.009347365 18:-0.034591638 19:-0.030221911 20:0.021953331 21:-0.021577455 22:0.004319692 23:-0.028106224 24:0.024528459 25:0.035924055 26:0.084085561 27:0.098790459 28:-0.082063936 29:0.098863758 30:0.020214977 31:-0.052120559 32:-0.021451913 33:-0.000288413 34:-0.014704705 35:0.005898863 36:0.041394934 37:-0.023584053 38:-0.11679369 39:-0.048530161 40:-0.031721387 41:0.040602427 42:-0.009886998 43:0.006601738 44:0.001079404 45:-0.007027443 46:-0.002216163 47:-0.034593817 48:0.013372737 49:0.088242486 50:-0.065372005 51:0.017927106 52:-0.027935505 53:-0.000894538 54:0.021376055 55:0.00839868 56:0.008173323 57:-0.009297074 58:0.12370712 59:0.071639851 60:0.045035735 61:0.048784301 62:0.03372426 63:0.012783735 64:0.002820643 65:0.23542416 66:-0.030914906 67:0.049263854 68:-0.060711574 69:-0.02875087 70:0.031180494 71:-0.001288015 72:-0.074889228 73:-0.066756554 74:-0.053762283 75:-0.001564355 76:-0.021986531 77:-0.01260805 78:-0.094621249 79:0.12056392 80:-0.1144496 81:-0.004577414 82:-0.028456118 83:0.056535564 84:0.15626501 85:-0.091131322 86:0.05332629 87:0.11743995 88:0.17393239 89:0.034963083 90:0.14271598 91:0.028397154 
1 1 1 1 1:0.007574278 2:-0.57231116 3:0.3723481 4:0.065633856 5:0.003785384 6:0.012050903 7:-0.049288668 8:-0.028637968 9:0.033615153 10:0.025927102 11:0.066400066 12:0.035884101 13:0.028146891 14:-0.023383738 15:0.13810281 16:-0.34818873 17:-0.004051331 18:-0.048130173 19:-0.017973891 20:0.023340439 21:-0.012732389 22:0.02888117 23:-0.036078278 24:0.02538592 25:0.045979995 26:0.084240161 27:0.10412946 28:-0.03451873 29:0.034113135 30:-0.009297644 31:-0.044101376 32:-0.043628849 33:-0.011849999 34:-0.018014688 35:0.007288131 36:0.027237095 37:-0.034802105 38:0.041620497 39:0.033775024 40:-0.015552652 41:0.008840797 42:0.016838053 43:-0.009808946 44:-0.018684169 45:-0.00612742 46:-0.023055663 47:-0.018071562 48:-0.004720089 49:0.057633437 50:-0.042533226 51:-0.007081512 52:-0.041845344 53:-0.006921695 54:0.011411221 55:-0.027851986 56:0.030916715 57:0.027687579 58:0.018334543 59:0.1904124 60:0.064796485 61:0.057949021 62:0.021113319 63:0.009204059 64:0.00575587 65:0.15894459 66:-0.18665133 67:0.10012813 68:-0.039335892 69:-0.009118005 70:0.052795392 71:-0.005214799 72:-0.10134761 73:-0.11942807 74:-0.075715289 75:0.003812996 76:-0.010751964 77:-0.031436812 78:-0.053999357 79:0.12253021 80:-0.075111955 81:0.011536895 82:-0.04375571 83:-0.054483403 84:0.14636831 85:-0.11861229 86:0.044413868 87:0.11286649 88:0.19724116 89:0.031100223 90:0.12890787 91:0.026207475 
1 1 1 0 1:0.00185512 2:-0.43316936 3:0.36617425 4:0.066810608 5:0.082833186 6:0.022154611 7:-0.04619886 8:-0.039223768 9:0.006413661 10:-0.005138903 11:0.031625178 12:-0.003984041 13:-0.010313491 14:-0.030154243 15:0.12775944 16:-0.40695995 17:-0.016010154 18:-0.10431904 19:-0.020417746 20:0.00942996 21:-0.010413403 22:0.008479693 23:-0.055792384 24:-0.007653727 25:0.010402454 26:0.069045991 27:-0.011770247 28:-0.074384406 29:0.095999375 30:0.011582 31:-0.019723382 32:-0.022448614 33:0.002205556 34:-0.030118195 35:0.012688194 36:0.012972308 37:-0.039393984 38:0.029302299 39:-0.077942394 40:0.011829637 41:0.00543393 42:0.026839865 43:0.006169587 44:0.014310839 45:-0.002845909 46:-0.008754059 47:-0.043357287 48:-0.067574173 49:0.047656015 50:-0.02278812 51:-0.022133384 52:-0.019729294 53:-0.00218644 54:0.002923379 55:0.001295971 56:0.008660142 57:-0.016884156 58:0.039965983 59:0.14252184 60:0.057879999 61:0.026616169 62:0.013762312 63:0.008351031 64:0.004839155 65:0.18027653 66:-0.11843959 67:0.095541097 68:-0.075722463 69:-0.019301482 70:0.030332897 71:0.005429557 72:-0.14015028 73:-0.15034962 74:-0.089250885 75:0.006470138 76:-0.015497697 77:-0.015843876 78:-0.068364307 79:0.067153163 80:-0.059028178 81:0.011854042 82:-0.043578565 83:-0.034734149 84:0.060868252 85:-0.079246096 86:0.024259934 87:0.052185997 88:0.11683021 89:0.016367575 90:0.094437763 91:0.010575894 
1 1 1 1 1:0.013699857 2:-0.44875893 3:0.51734513 4:-0.085088745 5:-0.030280992 6:0.001757448 7:-0.05034348 8:-0.045281593 9:-0.016538942 10:0.000843313 11:0.031914894 12:0.00504044 13:-0.003219116 14:0.015503878 15:0.23443626 16:-0.24608827 17:-0.026701806 18:-0.028510636 19:0.014029387 20:0.003876028 21:-0.007042311 22:0.011272592 23:-0.031016316 24:0.019558312 25:0.018859586 26:0.10558985 27:-0.004763365 28:-0.035556167 29:0.007507505 30:-0.01438765 31:-0.033703212 32:-0.022735443 33:0.00105642 34:-0.012114497 35:0.0048633 36:0.02924159 37:-0.02032904 38:-0.021800792 39:-0.00189111 40:-0.001401261 41:0.010973425 42:-0.013937999 43:0.00265345 44:0.021050481 45:-0.006560129 46:0.002392193 47:-0.005194028 48:0.022621434 49:0.042879783 50:-0.046039462 51:0.002752694 52:-0.024895718 53:0.026414173 54:0.010333912 55:0.003255481 56:0.011711883 57:0.013495934 58:0.071829893 59:0.072960392 60:0.040847514 61:0.03645099 62:0.007249054 63:0.004170913 64:0.012994073 65:0.14359665 66:-0.071420141 67:0.036793586 68:-0.021776635 69:-0.005125693 70:0.019448774 71:0.008105839 72:-0.065348677 73:-0.052747637 74:-0.049310066 75:0.005171713 76:-0.007593274 77:-0.013274015 78:-0.054838654 79:0.11927982 80:-0.061502617 81:0.007153518 82:-0.020075193 83:0.029818036 84:0.098501883 85:-0.069815077 86:0.031879753 87:0.063841879 88:0.13930526 89:0.023356915 90:0.069487892 91:0.021883767 
1 1 1 1 1:0.008591556 2:-0.45259187 3:0.16131458 4:0.13310574 5:0.10717604 6:0.090625115 7:-0.067404605 8:-0.057926215 9:-0.004809117 10:-0.019536512 11:0.078051619 12:0.019175498 13:0.025109531 14:0.014278278 15:0.10399182 16:-0.38584712 17:-0.026694071 18:-0.10318802 19:-0.058233019 20:0.021189621 21:-0.010871367 22:0.009653514 23:-0.057845652 24:0.010889832 25:0.034339454 26:0.025430623 27:-0.10511101 28:-0.027204379 29:0.17100887 30:0.040905647 31:-0.093109772 32:-0.02283922 33:0.00387687 34:-0.054441623 35:0.017817235 36:0.044003565 37:-0.005541116 38:-0.24451123 39:-0.15037471 40:-0.013451555 41:0.030025249 42:-0.009705673 43:0.017924678 44:0.003467801 45:-0.023004698 46:-0.012731146 47:-0.050407425 48:-0.075725332 49:0.070764095 50:-0.086460665 51:0.031153798 52:-0.045901604 53:-0.030029813 54:0.014132342 55:-0.012171344 56:0.024780773 57:-0.090933494 58:0.14946729 59:0.1537213 60:0.074261069 61:0.10254866 62:0.007047761 63:0.010082114 64:-0.007973482 65:0.22614345 66:-0.13896258 67:0.052634507 68:-0.13514698 69:-0.045037091 70:0.017394565 71:0.011483832 72:-0.14259915 73:-0.067908868 74:-0.033903129 75:-0.000935687 76:-0.011055925 77:-0.036576763 78:-0.10137726 79:-0.045360185 80:-0.12665768 81:-0.054431304 82:-0.034235645 83:0.034249373 84:0.14676776 85:-0.13868679 86:0.032360274 87:0.13289756 88:0.17408015 89:0.034251638 90:0.16476427 91:0.04800608 
0 1 1 0 1:0.009715694 2:-0.18219536 3:0.40544286 4:-0.069045097 5:-0.00350895 6:-0.01103303 7:-0.062003702 8:-0.032330845 9:-0.02354845 10:-0.024990972 11:0.042132284 12:-0.002866492 13:0.018170619 14:0.010007743 15:0.34383747 16:-0.27202025 17:0.006146654 18:-0.029650565 19:-0.012961631 20:0.017550113 21:-0.014248705 22:0.008045509 23:-0.02551803 24:-0.007829834 25:0.014026813 26:0.090762742 27:0.01996096 28:-0.12726052 29:0.048813183 30:-0.011223832 31:-0.045027941 32:-0.012180768 33:-0.00547384 34:-0.011939602 35:0.006345339 36:0.013451402 37:-0.017305346 38:-0.023865214 39:-0.020692794 40:-0.001041423 41:0.012781439 42:-0.031905025 43:0.004275601 44:0.005741406 45:0.014253584 46:-0.008766738 47:-0.028250758 48:0.006684411 49:0.082333781 50:-0.072973743 51:0.03096801 52:-0.004961853 53:0.00737433 54:0.011934329 55:0.009900274 56:0.005456651 57:0.056899942 58:0.15367709 59:0.066934116 60:0.031306766 61:0.061263457 62:0.011941748 63:0.027248168 64:0.018656554 65:0.26774326 66:-0.059393905 67:0.065389097 68:-0.062754147 69:-0.011020251 70:0.044962432 71:0.018500984 72:-0.054052357 73:-0.10364737 74:-0.001557 75:0.012749428 76:-0.010153453 77:-0.016504671 78:-0.067662969 79:0.010129457 80:-0.043123201 81:-0.005817429 82:-0.029721478 83:-0.073840171 84:0.046448104 85:-0.084327027 86:0.022337442 87:0.053249724 88:0.18637668 89:0.013871904 90:0.15154602 91:0.031241881 
1 1 1 0 1:0.010662301 2:-0.32941174 3:0.48445812 4:-0.004899121 5:0.02131982 6:0.008978004 7:-0.055114247 8:-0.027569273 9:-0.006708455 10:-0.006145542 11:0.017336708 12:0.00785865 13:-0.004437234 14:0.011297078 15:0.28708804 16:-0.24705224 17:-0.030718038 18:-0.036162212 19:-0.013529955 20:0.017698772 21:-0.012527225 22:-0.013917117 23:-0.017937316 24:0.014991875 25:0.011661561 26:0.097650975 27:-0.040016685 28:-0.06743975 29:0.087121673 30:-0.016857291 31:-0.049655054 32:-0.014794609 33:0.003252928 34:0.004582535 35:0.010050703 36:0.010502874 37:-0.005915105 38:0.010192284 39:-0.0869027 40:-0.007716437 41:0.028816024 42:0.005111332 43:-0.000485739 44:-0.001728353 45:0.009454422 46:0.000599927 47:-0.024256324 48:-0.045659903 49:0.061851766 50:-0.076320335 51:-0.026683174 52:-0.02014601 53:0.004344435 54:-0.002597864 55:0.018651821 56:-0.002234215 57:0.032615472 58:0.10567641 59:0.081726991 60:0.050523028 61:0.028990656 62:0.0027927 63:0.003948939 64:0.011560419 65:0.20778017 66:0.024502967 67:0.030717779 68:-0.03492308 69:-0.009340758 70:0.022494132 71:0.006222451 72:-0.030616609 73:-0.05410751 74:-0.00773586 75:-0.002155805 76:-0.014100331 77:0.009997655 78:-0.036598597 79:0.033903059 80:-0.052003343 81:0.010459791 82:-0.025530308 83:-0.047586929 84:0.095667943 85:-0.055296913 86:0.016188994 87:0.029979883 88:0.12936816 89:0.027157953 90:0.064192437 91:0.019922122 
1 1 1 0 1:0.02118488 2:-0.46482974 3:0.37083784 4:0.004723129 5:0.20308183 6:0.036148034 7:-0.027521435 8:-0.019501505 9:-0.05131517 10:-0.005711514 11:0.011688978 12:0.016571127 13:0.012303076 14:0.024323339 15:0.20103584 16:-0.35293224 17:0.054056302 18:-0.025920672 19:-0.053083185 20:0.001371093 21:-0.010033594 22:0.002443439 23:-0.03592227 24:0.010122717 25:0.004895339 26:0.1122091 27:0.084226131 28:-0.26756015 29:0.13848153 30:0.046766769 31:-0.005454137 32:-0.021579538 33:-0.005400947 34:0.000788763 35:0.015885223 36:0.031689525 37:-0.053167623 38:-0.15056591 39:-0.19255301 40:-0.003269075 41:-0.029442882 42:0.008728125 43:0.007341883 44:-0.000874019 45:-0.001496824 46:-0.012804031 47:-0.089183882 48:-0.080080599 49:0.05231582 50:-0.000653728 51:0.01932822 52:-0.004954951 53:-0.013188956 54:-0.010815812 55:0.004955882 56:-0.027174287 57:0.030468697 58:0.010701537 59:0.055934969 60:0.071224652 61:-0.006747331 62:0.001574706 63:0.016841266 64:-0.011910037 65:0.18823393 66:-0.038959172 67:0.070208855 68:-0.07884682 69:-0.03810272 70:0.013563294 71:0.003847661 72:-0.046850905 73:-0.11279888 74:-0.063886084 75:0.001800442 76:-0.013150173 77:-0.015531669 78:-0.082463183 79:0.071810149 80:-0.06607566 81:-0.087464564 82:-0.035825387 83:-0.057046965 84:0.049170963 85:-0.073832855 86:0.032570262 87:0.020902583 88:0.14227641 89:0.017563034 90:0.12553339 91:0.036663745 
1 1 1 0 1:0.008369163 2:-0.37894523 3:0.48380274 4:-0.093095072 5:0.024977731 6:0.020000041 7:-0.054445449 8:-0.03235279 9:0.018834298 10:0.015236798 11:0.085975394 12:0.003761647 13:0.013502026 14:-0.011016673 15:0.24721479 16:-0.21326479 17:-0.016921341 18:-0.056522433 19:-0.00649211 20:0.013143106 21:0.000849602 22:0.003836578 23:-0.004330523 24:0.004038635 25:0.017062092 26:0.065974161 27:0.044122491 28:-0.089421265 29:0.054355178 30:-0.023571709 31:-0.041634701 32:-0.009208024 33:-0.016066944 34:-0.020058319 35:0.002968319 36:0.016029466 37:0.000630078 38:-0.067230031 39:-0.04499463 40:-0.003016003 41:-0.004922348 42:0.006908807 43:-0.00357602 44:0.00823859 45:0.010065201 46:-0.021238411 47:-0.037648067 48:-0.003443155 49:0.0491722 50:-0.073593371 51:-0.008355097 52:0.01946182 53:0.012960029 54:0.017026788 55:0.009631392 56:0.01624099 57:0.011467773 58:0.083556823 59:0.051649068 60:0.025883535 61:0.064225815 62:0.005384114 63:0.024013417 64:0.011983882 65:0.16589274 66:-0.10505419 67:0.0715404 68:-0.06441471 69:-0.012152 70:0.032064807 71:0.012529433 72:-0.11314402 73:-0.092832908 74:-0.023239926 75:-0.008243711 76:-0.015817754 77:-0.005589229 78:-0.060553264 79:0.1363526 80:-0.0512329 81:-0.015646117 82:-0.02512389 83:0.04835711 84:0.061797608 85:-0.076749355 86:0.036542989 87:0.055702113 88:0.13201481 89:0.014310672 90:0.071221754 91:0.019731743 
1 1 1 1 1:-0.007345793 2:-0.48441651 3:0.2853983 4:-0.19817102 5:0.10381331 6:-0.009191238 7:-0.030152047 8:-0.051862024 9:-0.029103547 10:-0.033769444 11:0.009683958 12:0.016392471 13:0.006682353 14:-0.006236448 15:0.2701804 16:-0.17623718 17:-0.049835544 18:-0.065989889 19:-0.002887342 20:-0.026159691 21:0.022007184 22:-0.002353818 23:-0.020524368 24:-0.000596795 25:0.039989237 26:0.049784884 27:0.062381826 28:-0.054103151 29:0.066189378 30:-0.015110259 31:-0.032943755 32:-0.050930787 33:0.018022234 34:-0.018936412 35:0.008532934 36:-0.009211672 37:0.008275428 38:0.076157816 39:-0.076946929 40:-0.016589267 41:0.033496797 42:-0.002831993 43:-0.003342713 44:-0.008464639 45:-0.016199449 46:0.007664164 47:-0.035649773 48:-0.075963028 49:0.18543088 50:-0.000687998 51:0.002117316 52:-0.027784135 53:0.033564504 54:-0.009665412 55:0.006323794 56:-0.002727755 57:0.10923391 58:-0.064808995 59:0.099151015 60:0.041364651 61:0.031410906 62:0.032244403 63:-0.008900319 64:0.031064391 65:0.10348519 66:-0.13117881 67:0.024455301 68:-0.042407826 69:-0.028285118 70:0.039768063 71:-0.016763236 72:-0.10908262 73:-0.048057117 74:-0.005116948 75:-0.00332683 76:-0.024570284 77:-0.031847328 78:-0.036146648 79:0.005561457 80:-0.079580672 81:-0.001273787 82:-0.021030109 83:-0.082968131 84:0.17955899 85:-0.061655868 86:0.012783261 87:0.14871487 88:0.12495206 89:0.036741473 90:0.10144873 91:0.015191726 
0 1 1 0 1:0.000370087 2:-0.26716983 3:0.46094197 4:-0.019375887 5:0.063926131 6:0.027012734 7:-0.037750702 8:-0.040971372 9:-0.020786237 10:-0.013435842 11:0.056662649 12:0.002479186 13:-0.004548107 14:-0.001111303 15:0.28996459 16:-0.27396345 17:-0.012233973 18:-0.058759257 19:-0.012830185 20:0.015747871 21:-0.001010766 22:-0.003865325 23:-0.017657243 24:0.004806711 25:0.023416646 26:0.058592882 27:-0.026760578 28:-0.14400791 29:0.10061294 30:0.002844226 31:-0.042941261 32:-0.027325194 33:0.002529169 34:-0.024293138 35:0.004440914 36:0.027371561 37:0.001660679 38:-0.049166311 39:-0.079645216 40:-0.008531502 41:0.047234334 42:-0.009084954 43:0.010435686 44:0.000788133 45:0.010957697 46:0.007882796 47:-0.043159116 48:-0.071383148 49:0.074785128 50:-0.051853836 51:0.003953433 52:-0.022074532 53:0.019761996 54:0.014644092 55:0.010971529 56:0.000130186 57:0.057754394 58:0.086634509 59:0.055598047 60:0.025828579 61:0.040106717 62:0.007219328 63:-0.001716498 64:0.002300514 65:0.17666051 66:-0.068335794 67:0.033794656 68:-0.080915041 69:-0.019497482 70:0.020395705 71:0.003560522 72:-0.063606627 73:-0.057266541 74:-0.022867732 75:-0.015212883 76:-0.028536646 77:-0.006753951 78:-0.007052215 79:0.12402615 80:-0.069032595 81:0.000246655 82:-0.016338384 83:0.021337813 84:0.11539959 85:-0.080818526 86:0.026552884 87:0.077652022 88:0.1373698 89:0.025040641 90:0.078080311 91:0.018000944 
1 1 1 1 1:0.006370916 2:-0.099945173 3:0.29674259 4:0.013369835 5:0.035885476 6:0.069157176 7:-0.024338383 8:-0.029818689 9:-0.045388304 10:-0.006244763 11:0.024108255 12:0.01120702 13:-0.000136586 14:0.026642272 15:0.24999251 16:-0.18315591 17:-0.0741245 18:-0.05644298 19:-0.017899724 20:-0.006311776 21:-0.002989941 22:-0.00034523 23:-0.032625064 24:-0.004286036 25:0.022662817 26:0.078344554 27:-0.029564414 28:-0.053004108 29:0.15564749 30:0.017436223 31:-0.043721575 32:-0.038508531 33:0.016867466 34:0.007068548 35:0.00094567 36:0.007411082 37:0.001138486 38:-0.084625259 39:0.004887327 40:-0.054238606 41:0.023558201 42:-0.001652708 43:-0.007885782 44:-0.010662789 45:-0.003188159 46:0.002698667 47:-0.022762971 48:-0.021553447 49:0.14841385 50:-0.033709321 51:-0.015693309 52:-0.026468189 53:0.009878582 54:0.018627675 55:0.023472192 56:0.016176892 57:0.10544835 58:0.02053554 59:0.053180367 60:0.019517252 61:0.065918207 62:0.013515923 63:0.017877176 64:0.023631344 65:0.13811649 66:-0.03027492 67:0.024125807 68:-0.062530242 69:-0.03573148 70:0.005262203 71:-0.00199549 72:-0.057551675 73:-0.12970608 74:0.039469425 75:-0.004874445 76:-0.004930892 77:-0.007761318 78:-0.10875619 79:0.039946582 80:-0.081726611 81:-0.005477032 82:-0.029028108 83:-0.01466599 84:0.097703412 85:-0.031324998 86:0.025773421 87:0.10971487 88:0.024496529 89:0.022568647 90:-0.024122857 91:0.00775372 
1 1 0 1 1:-0.021366552 2:-0.79714501 3:0.016185645 4:-0.077873968 5:0.037142083 6:-0.062603846 7:-0.083278738 8:0.034680482 9:0.040223822 10:0.074364558 11:0.19785523 12:0.063714802 13:0.017864576 14:0.007517034 15:0.24346103 16:-0.17775735 17:-0.10870181 18:-0.012086769 19:-0.044900194 20:0.046959031 21:-0.046589926 22:0.052931968 23:-0.034269411 24:0.07711304 25:-0.03693454 26:-0.052910373 27:0.052573491 28:-0.047176387 29:0.11923061 30:-0.013723132 31:-0.055379365 32:-0.084757887 33:-0.10236925 34:-0.13676611 35:0.025350297 36:-0.015042318 37:-0.017447947 38:-0.031558633 39:-0.076158449 40:-0.031982582 41:-0.11446554 42:0.039461035 43:-0.060114481 44:0.033892464 45:-0.026941836 46:-0.041151121 47:0.02610177 48:0.021807821 49:0.15162997 50:-0.15111025 51:-0.092437819 52:0.064341843 53:0.046128441 54:-0.046096195 55:0.007081172 56:-0.01440921 57:0.051872663 58:0.30714271 59:0.25111154 60:0.046485439 61:-0.052998737 62:0.010392348 63:0.073931992 64:0.011380504 65:0.37768304 66:-0.26524791 67:0.15450741 68:0.13917466 69:-0.051928192 70:0.035663869 71:0.041757062 72:-0.26651749 73:-0.31553221 74:-0.2038428 75:0.11098952 76:0.021304669 77:-0.058740526 78:-0.25121817 79:0.04827277 80:-0.071822219 81:-0.082653813 82:-0.024069857 83:0.15236378 84:0.036928076 85:-0.051219001 86:0.05583933 87:0.062090427 88:0.14922665 89:0.01198179 90:0.12521826 91:0.008687355 
1 1 1 1 1:0.012861437 2:-0.47944188 3:0.37115592 4:-0.15555781 5:0.27993152 6:-0.044808339 7:-0.046391167 8:-0.015187833 9:-0.018136254 10:-0.013122838 11:0.07763382 12:0.006791587 13:0.022402359 14:-0.021872178 15:0.12306289 16:-0.12483201 17:0.071409173 18:-0.048263934 19:-0.0005051 20:-0.007028813 21:-0.0040991 22:0.005829118 23:-0.01395236 24:0.010426616 25:-0.019560674 26:0.067562208 27:0.20472449 28:-0.29200599 29:-0.009416435 30:0.063351542 31:-0.021164587 32:-0.016320711 33:-0.019058047 34:-0.033659406 35:0.030813867 36:0.038527936 37:-0.005047754 38:-0.24135651 39:0.086166315 40:0.067048214 41:-0.070471071 42:-0.024752641 43:0.00878297 44:0.01694059 45:0.007597135 46:-0.023843817 47:-0.093354762 48:0.081738584 49:-0.05226231 50:-0.036805175 51:0.01610622 52:0.003167895 53:-0.020306757 54:-0.022588512 55:0.000211701 56:0.024708141 57:-0.091765769 58:0.12565887 59:0.065546662 60:0.034582421 61:0.05401266 62:0.001997225 63:0.035052549 64:-0.017628923 65:0.24189794 66:-0.073913701 67:0.053893484 68:-0.12813051 69:0.006487783 70:-0.006604135 71:0.02232727 72:-0.087530784 73:-0.15295829 74:-0.04353198 75:0.032553375 76:0.024375733 77:-0.015161669 78:-0.13357812 79:0.083345495 80:0.00896827 81:-0.10449846 82:-0.025000213 83:0.029004753 84:-0.081767224 85:-0.053717785 86:0.039749905 87:-0.024374681 88:0.13709432 89:0.000472813 90:0.10396144 91:0.034690253 
1 1 0 1 1:0.004298955 2:-0.8528443 3:0.34432176 4:-0.26181158 5:0.20912644 6:-0.00793478 7:-0.029049095 8:-0.003759411 9:-0.044782132 10:0.047075339 11:0.039224666 12:0.010223203 13:-0.015917851 14:-0.020290753 15:-0.018982893 16:0.10768129 17:-0.042761166 18:-0.030399105 19:0.009791488 20:0.014259956 21:-0.00178885 22:-0.012048801 23:-0.016244372 24:0.02191009 25:-0.012402317 26:0.034003049 27:0.33526757 28:-0.24661063 29:0.04282425 30:-0.065691561 31:-0.062525675 32:-0.008467454 33:-0.057654679 34:0.008396099 35:0.038828481 36:-0.001350713 37:0.063603327 38:-0.13772406 39:0.088905297 40:0.018992882 41:-0.021919629 42:-0.014856124 43:-0.012619594 44:0.010093092 45:0.002138465 46:-0.02375577 47:-0.083514988 48:0.10829135 49:0.11801712 50:-0.073619954 51:-0.044420425 52:0.018621331 53:0.034644753 54:-0.020297494 55:0.015192042 56:0.033244874 57:-0.022518244 58:0.21849451 59:0.02044447 60:0.09084297 61:0.060529958 62:0.014343723 63:0.028663227 64:0.031586319 65:0.23418561 66:0.018018624 67:0.067711681 68:-0.097787514 69:0.008754539 70:0.012449915 71:0.015595466 72:-0.003241006 73:-0.24640359 74:0.085379884 75:0.01125954 76:-0.006691097 77:0.007144567 78:-0.13034029 79:0.011650602 80:-0.006870858 81:0.004365062 82:-0.038244251 83:-0.025571534 84:-0.04082492 85:-0.026297349 86:0.025957113 87:-0.009546717 88:0.063844562 89:0.007963063 90:0.046592366 91:-0.00574679 
1 1 0 1 1:0.007682343 2:-0.60129547 3:0.37489608 4:-0.1970951 5:0.047522008 6:-0.022785511 7:-0.04016396 8:-0.00059689 9:0.018240705 10:0.01521551 11:0.067103483 12:0.015386768 13:-0.004231679 14:-0.022797721 15:0.17170753 16:-0.073906608 17:0.029669495 18:0.043003105 19:-0.029475138 20:0.029700881 21:-0.035837382 22:0.003645803 23:-0.03446044 24:0.025542231 25:-0.001437746 26:0.059936911 27:0.12085025 28:-0.24256299 29:0.048539229 30:-0.034084234 31:-0.080864787 32:-0.054782234 33:-0.050271433 34:-0.008127973 35:0.03631264 36:0.006950756 37:0.023861047 38:-0.15119124 39:-0.076333068 40:-0.019440182 41:-0.049721457 42:0.017710021 43:-0.00455022 44:0.031628184 45:0.029403599 46:-0.009000264 47:-0.046461616 48:-0.032404955 49:0.070698507 50:-0.099085376 51:0.000183539 52:0.035451215 53:0.020057973 54:-0.031983159 55:0.00112015 56:0.003563596 57:0.0521507 58:0.2375349 59:0.090157881 60:0.08443407 61:0.033083778 62:-0.011294661 63:0.018050546 64:0.005453222 65:0.29291359 66:-0.066877186 67:0.060954295 68:-0.070372514 69:0.035486102 70:0.023033539 71:0.022151815 72:-0.13454628 73:-0.18133698 74:-0.00848609 75:0.008160954 76:-0.017989447 77:0.001423691 78:-0.15205204 79:0.099920355 80:0.006287134 81:0.011089397 82:-0.034027826 83:-0.002237108 84:-0.039901599 85:-0.027452016 86:0.045370091 87:-0.05739069 88:0.090382375 89:0.021652218 90:0.058287561 91:-0.000753637 
1 1 0 1 1:0.005882442 2:-0.79911828 3:0.30873182 4:-0.003233354 5:0.10492237 6:0.057590492 7:0.00807845 8:-0.057189025 9:-0.032114848 10:0.022894328 11:0.10132107 12:0.032444201 13:-0.02725617 14:-0.034889519 15:-0.014601467 16:-0.21712776 17:0.025838809 18:-0.008904682 19:0.00281496 20:-0.00041116 21:0.000822192 22:0.012619566 23:-0.030594904 24:0.044858459 25:-0.002758937 26:0.057423022 27:0.2581298 28:-0.32165888 29:0.15867241 30:0.046035949 31:-0.070920348 32:-0.015755145 33:-0.013499144 34:-0.019339763 35:0.01477394 36:0.002664506 37:0.021427106 38:-0.13247156 39:-0.11275469 40:0.039597914 41:0.00904314 42:-0.036892261 43:-0.010515369 44:0.002208308 45:-0.012893635 46:0.015425315 47:-0.077794693 48:0.073237598 49:-0.13209604 50:-0.087344274 51:-0.000819699 52:0.021380331 53:-0.029341999 54:-0.01934579 55:0.024618136 56:0.006032809 57:-0.1133734 58:0.13675091 59:0.049987853 60:0.043607209 61:0.062976748 62:0.021846961 63:0.002149006 64:-0.017094651 65:0.19595628 66:-0.016568013 67:0.1359878 68:-0.1323885 69:0.008090862 70:0.013784648 71:0.009148117 72:-0.043297123 73:-0.1998935 74:0.029878695 75:0.006852009 76:0.000298617 77:-0.011169895 78:-0.076539546 79:0.050915338 80:-0.032710392 81:0.018217904 82:-0.041358028 83:0.007828197 84:0.004042008 85:-0.006248439 86:0.045686714 87:0.038263701 88:0.010851765 89:0.017432194 90:0.018092008 91:-0.007422646 
1 1 1 0 1:0.005978457 2:-0.41099882 3:0.45289964 4:-0.066623159 5:-0.007484909 6:-0.043861974 7:-0.045485713 8:-0.002988223 9:-0.022417484 10:-0.006113805 11:0.081166208 12:0.026447505 13:-0.012225506 14:0.043697745 15:0.27537313 16:-0.22375053 17:0.014428967 18:0.019557718 19:0.003837383 20:-0.019846039 21:-0.001969934 22:-0.002025655 23:-0.013463885 24:0.033286281 25:-0.000828936 26:0.10550858 27:0.11302637 28:-0.20304146 29:0.041542176 30:-0.001129828 31:-0.039193176 32:-0.006762868 33:-0.02153497 34:-0.032867417 35:0.012319831 36:0.033719096 37:-0.021047369 38:-0.17574421 39:0.024569951 40:0.071690306 41:-0.047541268 42:-0.021948978 43:0.022819597 44:0.021934036 45:-0.006290745 46:0.000967747 47:-0.007623367 48:0.088186212 49:-0.083759099 50:-0.10250094 51:-0.001518776 52:0.009266949 53:-0.005190512 54:-0.027565042 55:0.004570512 56:-0.001790139 57:-0.070542544 58:0.23505253 59:0.049370792 60:0.016351856 61:0.032838851 62:0.014859845 63:0.012528522 64:-0.008714819 65:0.2588295 66:-0.050750352 67:0.07361383 68:-0.000872261 69:0.027473029 70:0.005326908 71:0.033961281 72:-0.048842005 73:-0.11116741 74:-0.046764351 75:0.020891819 76:0.007413127 77:-0.019981043 78:-0.077106819 79:0.13451974 80:0.003545151 81:-0.008096862 82:-0.018436685 83:0.039780471 84:-0.023391508 85:-0.0541288 86:0.037721861 87:0.001417287 88:0.11637476 89:0.009865937 90:0.066345036 91:0.022274343 
0 1 0 1 1:0.003535727 2:-0.50390947 3:0.56977051 4:-0.013698876 5:0.18156588 6:-0.024873903 7:-0.041082103 8:0.011549549 9:-0.007081005 10:0.01172716 11:0.036667023 12:0.015254466 13:0.002105134 14:-0.038326416 15:0.036981389 16:-0.24854925 17:0.10972009 18:-0.033411108 19:0.004188166 20:-0.010933113 21:-0.006049373 22:0.004715198 23:-0.034788851 24:-0.006659339 25:-0.017683927 26:0.074918598 27:0.10828257 28:-0.36966842 29:0.01612162 30:0.020925913 31:-0.018131072 32:-0.011478133 33:-0.02962991 34:-0.019824838 35:0.030743772 36:0.039041974 37:-0.009856666 38:-0.11448272 39:0.011874952 40:0.037469059 41:-0.05107433 42:-0.021679619 43:0.013069358 44:0.025532378 45:0.002460192 46:-0.023999952 47:-0.068910927 48:0.030730262 49:-0.052726943 50:-0.092169896 51:0.035495546 52:-0.01396429 53:-0.003800253 54:-0.034282483 55:0.003958325 56:0.008042859 57:-0.036188092 58:0.18254608 59:0.048564121 60:0.077220649 61:0.014952535 62:0.007969446 63:0.020096393 64:-0.008443994 65:0.20089917 66:0.007930517 67:0.082772188 68:-0.10719085 69:0.020612251 70:-0.00374072 71:0.018940406 72:-0.004482663 73:-0.16806123 74:-0.055297669 75:0.027957259 76:0.012735532 77:-0.007331707 78:-0.066902369 79:0.10248794 80:0.048675474 81:-0.073252678 82:-0.03312641 83:-0.041269753 84:-0.12180046 85:-0.065136895 86:0.022989973 87:-0.040304739 88:0.14279284 89:-0.003465457 90:0.037374318 91:0.023624081 
1 1 0 1 1:-0.002451775 2:-0.63261175 3:0.52813566 4:-0.007615202 5:0.037533857 6:0.000664586 7:-0.010720342 8:0.016335823 9:-0.025251454 10:0.02597506 11:0.060833417 12:0.005199013 13:-0.017900653 14:-0.018075801 15:0.053810976 16:-0.22973575 17:0.024657611 18:-0.011408138 19:-0.023525296 20:-0.024752311 21:0.012499723 22:-0.015616562 23:-0.038311794 24:0.018942162 25:-0.01089442 26:0.068614408 27:0.084941164 28:-0.27919456 29:0.060473673 30:0.043735683 31:-0.056825854 32:-0.017800041 33:-0.029364927 34:0.004428261 35:0.012555577 36:0.001408953 37:0.020142378 38:-0.10769364 39:0.049618978 40:0.081176519 41:-0.016819363 42:-0.018301368 43:0.052853066 44:0.003180998 45:-0.003893268 46:0.000644632 47:-0.039776813 48:0.015267279 49:-0.18683675 50:-0.133136 51:-0.014792435 52:-0.005529834 53:-0.035982206 54:-0.027100293 55:0.01101327 56:0.016097946 57:-0.078872554 58:0.19630627 59:0.00305361 60:0.048801631 61:0.044616513 62:0.001571169 63:0.015599795 64:-0.023528812 65:0.20125198 66:0.027845513 67:0.098023437 68:-0.070067629 69:0.015982462 70:0.00998114 71:0.016670967 72:0.01694186 73:-0.20380977 74:0.004087002 75:0.008620179 76:0.003577959 77:-0.00105742 78:-0.0826483 79:0.12371001 80:0.01246296 81:-0.006647395 82:-0.029621661 83:-0.042940866 84:-0.026870398 85:-0.025558837 86:0.027129823 87:-0.015839783 88:0.035110284 89:0.004778822 90:0.020392919 91:0.002178636 
1 1 0 1 1:-0.012610536 2:-0.85921174 3:0.32640213 4:-0.10252629 5:0.18051341 6:0.13881284 7:-0.053392958 8:-0.005791522 9:-0.027915269 10:0.099123642 11:0.063202277 12:0.044987384 13:-0.028164458 14:-0.032346901 15:0.062846549 16:-0.16093636 17:0.093195572 18:-0.083119191 19:-0.022769833 20:-0.021176606 21:0.007545986 22:0.005496259 23:-0.10525309 24:-0.000847137 25:-0.002353886 26:0.022129156 27:0.21091059 28:-0.31144309 29:0.000684439 30:0.05205591 31:-0.055689599 32:-0.014194432 33:-0.0553785 34:-0.029675784 35:0.061272871 36:0.003934314 37:0.015559088 38:-0.17680129 39:0.10534038 40:0.067085125 41:-0.050105784 42:-0.044931602 43:0.060610738 44:0.041591741 45:-0.016608318 46:0.005188057 47:-0.058563076 48:0.087695025 49:-0.11968684 50:-0.13970585 51:0.000778502 52:-0.081134245 53:-0.025003357 54:-0.048559789 55:0.017022097 56:0.047307905 57:-0.088989034 58:0.26243243 59:0.026759975 60:0.15323407 61:0.11064094 62:0.030458044 63:0.002231691 64:-0.013713178 65:0.27415368 66:-0.011615033 67:0.17292348 68:-0.11449243 69:0.026537275 70:0.013310115 71:0.026843211 72:-0.027297797 73:-0.31319973 74:-0.04346576 75:0.04105822 76:-0.015745938 77:-0.010203674 78:-0.16650738 79:0.089815706 80:0.02279697 81:-0.002673019 82:-0.058264583 83:-0.027201304 84:-0.13790727 85:-0.018805655 86:0.024781739 87:-0.061196212 88:0.036466334 89:0.000180104 90:0.025485339 91:-0.001965406 
0 1 0 1 1:0.004199891 2:-0.53874284 3:0.53405237 4:-0.10371608 5:0.072987132 6:0.001143542 7:-0.015021293 8:0.008345288 9:-0.020960908 10:0.051962178 11:0.049103819 12:0.01955476 13:-0.014652083 14:-0.015451562 15:0.17298627 16:-0.20819195 17:0.074587643 18:-0.018056665 19:0.005028471 20:-0.031523086 21:0.004080465 22:-0.0005826 23:-0.052153822 24:-0.001516609 25:-0.010517002 26:0.058621284 27:0.054050274 28:-0.2865392 29:-0.028239651 30:0.04467155 31:-0.003430587 32:-0.018894462 33:-0.03040967 34:0.000185342 35:0.021809209 36:0.030329105 37:-0.00608626 38:-0.13961947 39:0.081557646 40:0.05303847 41:-0.055899464 42:-0.01193387 43:0.031731434 44:0.044597976 45:-0.002101354 46:-0.010540411 47:-0.048494756 48:0.026667934 49:-0.095769554 50:-0.087747775 51:-0.002094009 52:-0.059750132 53:-0.004014058 54:-0.039947681 55:0.010020629 56:0.009828806 57:-0.073135071 58:0.24232107 59:0.033665307 60:0.070260473 61:0.028207127 62:0.019162389 63:0.018376295 64:-0.017731521 65:0.21103553 66:-0.006230253 67:0.092386253 68:-0.071784295 69:0.008439079 70:0.002619504 71:0.032338414 72:-0.025719889 73:-0.18889901 74:-0.054297298 75:0.02486282 76:0.008528161 77:0.003544223 78:-0.0762657 79:0.12913696 80:0.009710301 81:-0.025760848 82:-0.038600292 83:-0.003402208 84:-0.11108728 85:-0.050765339 86:0.031343434 87:-0.047284659 88:0.10972384 89:-0.002894368 90:0.040985651 91:0.012984565 
1 1 0 1 1:0.000347065 2:-0.59344143 3:0.53502399 4:-0.067877129 5:0.12263201 6:0.026344504 7:-0.00996143 8:-0.012955485 9:-0.006538689 10:0.014909704 11:0.05396422 12:0.015601037 13:0.000416881 14:-0.028773533 15:-0.004303738 16:-0.15480275 17:0.02782725 18:-0.025399024 19:-0.017337864 20:-0.009742162 21:0.005969671 22:0.006365121 23:-0.043920156 24:0.02835911 25:-0.002538251 26:0.070283435 27:0.1913352 28:-0.2086302 29:0.03676232 30:0.023489421 31:-0.04038557 32:0.003090435 33:-0.011653464 34:0.001393914 35:0.008528497 36:0.027381338 37:0.011439065 38:-0.093539923 39:-0.005749009 40:0.03749983 41:-0.036056664 42:-0.013949788 43:0.024772288 44:0.026284773 45:-0.000875865 46:0.012296464 47:-0.042221766 48:0.012471715 49:0.01738687 50:-0.066487044 51:-0.00714726 52:-0.024749 53:0.011572286 54:-0.022235999 55:0.02084765 56:0.01560382 57:-0.010284665 58:0.16285859 59:0.0480716 60:0.058644634 61:0.045989778 62:0.009205922 63:0.012789594 64:0.003737985 65:0.16548181 66:0.034964506 67:0.073698103 68:-0.082203932 69:0.039389733 70:0.024082109 71:0.021722972 72:0.007137592 73:-0.11729938 74:-0.017346064 75:-0.018887861 76:-0.009801813 77:0.006961001 78:-0.026439536 79:0.13235421 80:0.005334098 81:-0.02056928 82:-0.027007472 83:-0.017480595 84:-0.025239367 85:-0.027774973 86:0.029583488 87:-0.007070086 88:0.11043617 89:0.015517226 90:0.053246193 91:0.013422948 
1 1 0 1 1:0.008750826 2:-0.95049655 3:0.16247146 4:-0.11400957 5:0.17102857 6:0.007737845 7:-0.057065628 8:0.052896038 9:-0.05364741 10:0.044081289 11:0.11606171 12:0.019588169 13:-0.001892499 14:-0.048571944 15:-0.01195343 16:-0.28553248 17:0.17822632 18:-0.079850376 19:-0.021186937 20:-0.023911778 21:-0.035360631 22:0.02179539 23:-0.069444627 24:0.028266056 25:-0.018287919 26:0.068803228 27:0.15495355 28:-0.38646403 29:0.000559691 30:0.055872574 31:-0.007586874 32:-0.006501135 33:-0.081860453 34:-0.021834893 35:0.052524187 36:0.017678095 37:-0.037715066 38:-0.19723673 39:0.015271302 40:0.12627201 41:-0.082971543 42:-0.019169254 43:0.052985497 44:0.036233325 45:0.008750577 46:-0.024484778 47:-0.10173724 48:0.046949025 49:-0.15810575 50:-0.1825413 51:0.048109036 52:-0.044548593 53:-0.050345931 54:-0.05022005 55:0.005286841 56:0.017758001 57:-0.077224091 58:0.30250663 59:0.099660099 60:0.14528537 61:0.049911454 62:0.010198652 63:0.057377767 64:-0.037142143 65:0.4175033 66:-0.087975107 67:0.18094102 68:-0.17545103 69:-0.007617925 70:0.00627245 71:0.039364316 72:-0.073987886 73:-0.25376689 74:-0.074368335 75:0.019069551 76:-0.005977577 77:-0.026280306 78:-0.16071284 79:0.11087556 80:0.016556006 81:-0.041976862 82:-0.067126542 83:-0.059553787 84:-0.055226535 85:-0.10130214 86:0.064301707 87:-0.012183039 88:0.13923287 89:0.008862032 90:0.10506869 91:0.016080115 
0 1 0 0 1:0.010492103 2:-0.49802747 3:0.42205098 4:-0.074938819 5:0.1783931 6:0.081566051 7:-0.028090747 8:0.039031129 9:-0.020235913 10:0.041495603 11:0.083302364 12:0.015213678 13:-0.009770523 14:-0.041426349 15:0.15149508 16:-0.23883226 17:0.13283865 18:-0.042339187 19:-0.030536836 20:-0.029172918 21:-0.007828034 22:0.030201202 23:-0.064317107 24:0.017350137 25:-0.013059477 26:0.066090427 27:0.11601571 28:-0.3046608 29:0.021778261 30:0.042669442 31:-0.033754099 32:-0.008598751 33:-0.03835072 34:-0.042678203 35:0.031088661 36:0.024231179 37:-0.024270628 38:-0.13047425 39:0.030660838 40:0.063769177 41:-0.073426515 42:-0.061730534 43:0.05211205 44:0.022033002 45:0.000870841 46:-0.012404435 47:-0.068526201 48:0.045065127 49:-0.04893567 50:-0.1074511 51:0.056129538 52:-0.06438835 53:0.004109187 54:-0.041827995 55:0.011410576 56:0.021837231 57:-0.061204985 58:0.24042527 59:0.053932715 60:0.11974082 61:0.078603245 62:0.022778075 63:0.027621839 64:-0.003447257 65:0.28569868 66:-0.027940217 67:0.1110026 68:-0.10833084 69:0.018355189 70:0.011895018 71:0.017600309 72:-0.014064026 73:-0.17164431 74:-0.04350229 75:0.028950777 76:-0.012640607 77:-0.026846662 78:-0.080078609 79:0.10049311 80:0.024653129 81:-0.04608554 82:-0.045766536 83:-0.006715519 84:-0.081319362 85:-0.073934928 86:0.043911185 87:-0.025841305 88:0.10920499 89:0.005854133 90:0.044508483 91:0.014233626 
1 1 0 1 1:0.016069243 2:-0.59482324 3:0.46986023 4:-0.045960411 5:0.11154831 6:-0.00372766 7:-0.010091436 8:0.024753677 9:-0.009406366 10:0.024928471 11:0.10336024 12:0.016468888 13:-0.004377782 14:-0.010574698 15:0.048383895 16:-0.26806724 17:0.083816908 18:0.026363704 19:-0.010504477 20:-0.017328903 21:0.002321924 22:-0.010518008 23:-0.063396901 24:0.007371869 25:-0.014747672 26:0.10171975 27:0.1216971 28:-0.3081907 29:0.047107518 30:0.037554596 31:-0.042949855 32:0.00453471 33:-0.028783806 34:0.004200241 35:0.018062461 36:0.022647811 37:-0.024544647 38:-0.18686344 39:0.001951175 40:0.095004305 41:-0.078330599 42:-0.013801682 43:0.045030672 44:0.027674982 45:0.005727011 46:-0.004479037 47:-0.058541339 48:0.029379614 49:-0.14530028 50:-0.098068669 51:-0.001112227 52:0.000393103 53:-0.046868775 54:-0.04229353 55:0.013255444 56:0.002732158 57:-0.068369083 58:0.21570353 59:0.023927379 60:0.048159916 61:0.032280687 62:0.008042279 63:0.025302857 64:-0.026766876 65:0.24369489 66:0.00265797 67:0.10241804 68:-0.088056527 69:0.020632142 70:-0.000571267 71:0.027554296 72:-0.01753163 73:-0.19821085 74:-0.084016368 75:0.036523495 76:-0.01320161 77:0.00222726 78:-0.066783734 79:0.19037055 80:0.015153727 81:-0.043889839 82:-0.041643832 83:-0.016816337 84:-0.075648881 85:-0.055440504 86:0.060069095 87:-0.036741044 88:0.10049222 89:0.003476427 90:0.048453975 91:0.015790313 
1 0 1 1 1:-0.016799232 2:-0.27324155 3:0.23527668 4:0.11672799 5:0.17957839 6:0.000469673 7:0.014047154 8:0.039405517 9:-0.038080219 10:0.023404714 11:0.14888895 12:0.016495902 13:-0.005709055 14:-0.090683393 15:0.070398748 16:-0.30121195 17:0.12929498 18:-0.025846051 19:0.008146329 20:0.009107938 21:0.009115789 22:-0.010775208 23:-0.050406728 24:0.047165174 25:-0.019725176 26:-0.00557349 27:0.023612596 28:-0.31587416 29:0.042948648 30:0.080517665 31:-0.046567533 32:-0.005707742 33:-0.064174555 34:-0.007442306 35:0.031413004 36:0.015660832 37:0.029857427 38:-0.29166567 39:0.066694245 40:0.10660905 41:-0.050502799 42:-0.021351064 43:0.022744771 44:0.001825972 45:0.000913403 46:-0.022647951 47:-0.045747958 48:0.055048559 49:-0.098553598 50:-0.1466271 51:0.003429926 52:-0.003931604 53:-0.048438299 54:-0.044059653 55:0.017767364 56:0.025880855 57:-0.15553542 58:0.27515924 59:0.056814171 60:0.10990743 61:0.10961917 62:0.010704925 63:0.030778026 64:-0.009179831 65:0.36463091 66:0.047966138 67:0.14465399 68:-0.14672051 69:0.053455383 70:-0.009957686 71:0.016752234 72:-0.059868459 73:-0.20542496 74:-0.057809554 75:0.005592381 76:-0.007150652 77:0.004196983 78:-0.20357564 79:0.089450523 80:0.045065969 81:-0.060194906 82:-0.032015383 83:-0.064466201 84:-0.056414723 85:-0.081091814 86:0.036803357 87:-0.097838916 88:0.10112707 89:0.02168534 90:0.11268529 91:0.004448384 
1 1 0 1 1:0.004877902 2:-0.71857607 3:0.069160782 4:-0.10511516 5:0.41239443 6:0.12668148 7:-0.023483923 8:0.025385175 9:-0.046166819 10:0.12581247 11:0.13649628 12:0.030795567 13:0.003356554 14:-0.11172836 15:-0.22014435 16:-0.26963252 17:0.10940896 18:-0.20819572 19:-0.078168102 20:-0.018706392 21:-0.008291704 22:0.022051562 23:-0.13197331 24:-0.026619295 25:-0.025401589 26:0.000690074 27:0.27191436 28:-0.27056178 29:0.062397532 30:0.082943209 31:-0.07028608 32:0.005375409 33:-0.015167564 34:-0.045374274 35:0.02684838 36:0.006764635 37:0.008004117 38:-0.27178344 39:0.004231945 40:0.044940639 41:-0.021541163 42:-0.069416545 43:0.022143453 44:-0.023761615 45:0.034121472 46:-0.019582162 47:-0.12775154 48:0.015117198 49:-0.003349676 50:-0.11727393 51:0.081858478 52:-0.13087752 53:-0.047207236 54:-0.045186639 55:0.037213776 56:0.063624628 57:-0.1575024 58:0.18787272 59:0.053077765 60:0.2156685 61:0.15323126 62:0.012957773 63:0.050038494 64:-0.008600624 65:0.42074475 66:0.011193316 67:0.16300124 68:-0.27315286 69:0.019085696 70:0.036769513 71:-0.004626877 72:-0.066314802 73:-0.25534636 74:-0.047561269 75:0.044888746 76:-0.034483641 77:-0.025302315 78:-0.017641122 79:0.003233976 80:0.030587634 81:-0.04651295 82:-0.096929863 83:-0.10279434 84:-0.11485467 85:-0.11115053 86:0.070669547 87:-0.13691558 88:0.15672322 89:0.006949602 90:0.10172918 91:0.010500501 
0.49459332197709366 1 0 1 1:0.009080163 2:-0.54989254 3:0.50280619 4:-0.086697556 5:0.042856161 6:0.007361041 7:-0.029936997 8:0.052700173 9:-0.033095747 10:0.032072868 11:0.094043069 12:0.012853245 13:-0.005137367 14:-0.023749432 15:0.15868837 16:-0.22796635 17:0.050510351 18:-0.006403449 19:-0.020868866 20:-0.014032667 21:-0.006262816 22:0.005072809 23:-0.036923349 24:0.02398302 25:-0.015703201 26:0.071836188 27:0.072307095 28:-0.18217556 29:0.034221638 30:0.007702382 31:-0.049714837 32:-0.007775175 33:-0.051425036 34:-0.010682403 35:0.016474046 36:0.002456358 37:9.1597e-05 38:-0.057512369 39:-0.006792475 40:0.043029286 41:-0.047749527 42:-0.019391818 43:0.033565912 44:0.009988019 45:0.003548644 46:-0.002077196 47:-0.041516591 48:3.332e-06 49:-0.015528058 50:-0.15021297 51:0.015381351 52:-0.005617689 53:-0.001970141 54:-0.030895989 55:0.021397246 56:0.021972848 57:-0.007918586 58:0.25801057 59:0.030277729 60:0.058269665 61:0.056271788 62:0.014705593 63:0.03772914 64:-0.004987563 65:0.24341656 66:-0.006645123 67:0.10264642 68:-0.07088998 69:0.025256114 70:0.019147184 71:0.026451197 72:-0.010662686 73:-0.15471648 74:-0.007980149 75:0.010984322 76:-0.01069991 77:-0.011219529 78:-0.06364923 79:0.12191745 80:0.023474382 81:-0.020077825 82:-0.037022922 83:-0.031948313 84:-0.023055026 85:-0.043863945 86:0.050022032 87:-0.003008607 88:0.073038988 89:0.008992105 90:0.049936004 91:0.003021963 
1 1 0 1 1:-0.001349572 2:-0.7000308 3:0.2047251 4:-0.01500666 5:0.27288753 6:-0.008715166 7:0.010324211 8:0.11232249 9:-0.043757204 10:0.010723526 11:0.083254375 12:0.058550593 13:-0.002476825 14:-0.073595896 15:-0.021415038 16:-0.21750973 17:0.15199643 18:-0.020429095 19:0.006588165 20:-0.062706754 21:-0.005148903 22:0.003371462 23:-0.03333668 24:0.000719756 25:-0.031292465 26:0.059743002 27:0.001410135 28:-0.40537777 29:0.062444493 30:0.12366555 31:-0.065724172 32:-0.006392222 33:-0.087805651 34:-0.012408204 35:0.056488845 36:0.006230486 37:0.011146028 38:-0.037884943 39:0.077413797 40:0.21127297 41:-0.10765617 42:-0.047402665 43:0.054996744 44:0.005787832 45:0.01498204 46:-0.025053529 47:-0.096697554 48:0.034831386 49:-0.19796351 50:-0.24381737 51:0.028225621 52:-0.013735542 53:-0.038690068 54:-0.094990872 55:0.023751041 56:0.019367736 57:-0.15352699 58:0.39377442 59:0.056334838 60:0.11212166 61:0.098312318 62:0.049574915 63:0.067281045 64:-0.038831118 65:0.39766765 66:-0.008592632 67:0.13582692 68:-0.13024817 69:0.0161152 70:-0.02766956 71:0.046860319 72:-0.035331644 73:-0.23139413 74:0.050543562 75:0.083869897 76:-0.013749102 77:-0.012936792 78:-0.13508396 79:0.007736526 80:0.078609057 81:-0.069046386 82:-0.049483996 83:-0.17260832 84:-0.15849072 85:-0.11266071 86:0.033890825 87:-0.057512585 88:0.13252319 89:-0.012027206 90:0.10356382 91:0.016919943 
0 1 0 0 1:0.013928051 2:-0.53457838 3:0.57058227 4:-0.044730432 5:0.0953665 6:-0.022909589 7:-0.027916286 8:0.03383619 9:-0.018679602 10:0.012553422 11:0.093616582 12:0.011251997 13:-0.001785997 14:-0.005793561 15:0.11235413 16:-0.24111483 17:0.070621595 18:-0.023875901 19:-0.003261623 20:-0.021550417 21:0.011990002 22:-0.008282771 23:-0.044242017 24:0.019833807 25:-0.00522776 26:0.10221437 27:0.051911782 28:-0.20673487 29:0.016279532 30:0.020181859 31:-0.019559732 32:-0.007796054 33:-0.039672464 34:-0.010066844 35:0.015203512 36:0.029945599 37:-0.016840242 38:-0.066503443 39:0.036623884 40:0.034931317 41:-0.041777484 42:-0.017742312 43:0.023847636 44:0.037008811 45:-0.000629053 46:-0.016961634 47:-0.053578999 48:0.040074263 49:0.006844615 50:-0.12275948 51:0.004257995 52:-0.004395424 53:0.004987872 54:-0.017935868 55:0.016331619 56:0.015561142 57:-0.018867755 58:0.20271619 59:0.004324858 60:0.054934073 61:0.037965298 62:0.01250932 63:0.024415938 64:0.001799444 65:0.18948437 66:0.021663573 67:0.091203973 68:-0.081375457 69:0.023139639 70:0.016186001 71:0.029660307 72:-0.012887185 73:-0.15781885 74:-0.04371459 75:-0.003215973 76:-0.001761908 77:-0.003035526 78:-0.086763948 79:0.21102937 80:0.009714226 81:-0.02218977 82:-0.031771507 83:0.017276485 84:-0.002691697 85:-0.068702288 86:0.049669892 87:-0.001505751 88:0.12332885 89:0.01448032 90:0.048197307 91:0.017145641 
0 1 0 1 1:0.005195711 2:-0.57997215 3:0.47382337 4:-0.072690912 5:0.1279255 6:0.018357974 7:-0.042517081 8:0.053589843 9:-0.037292194 10:0.003841914 11:0.056186263 12:0.041779131 13:-0.008353255 14:-0.024734607 15:0.16893832 16:-0.23005395 17:0.041241996 18:-0.007733707 19:0.003521935 20:-0.033825405 21:0.020409876 22:-0.016373919 23:-0.024302311 24:0.001811538 25:-0.012939989 26:0.053504344 27:0.061493687 28:-0.29311317 29:0.06095368 30:0.010862776 31:-0.03738711 32:-0.020920429 33:-0.044461161 34:-0.011083104 35:0.028101183 36:0.016713202 37:0.013109106 38:-0.15492648 39:-0.02838671 40:0.040336438 41:-0.069403142 42:-0.015919963 43:0.014292329 44:0.018739656 45:-0.006766023 46:-0.003129594 47:-0.060807116 48:0.003066477 49:-0.034906752 50:-0.11075031 51:-0.006846336 52:-0.017186128 53:0.010950696 54:-0.060650513 55:0.022809425 56:0.011328312 57:-0.072839022 58:0.25734797 59:0.021574235 60:0.046493731 61:0.030374512 62:0.018225383 63:0.026158659 64:0.006667254 65:0.26729903 66:0.042792477 67:0.060047057 68:-0.083519824 69:0.015502983 70:0.007906197 71:0.022118049 72:0.022074379 73:-0.14666873 74:-0.029081956 75:0.033188745 76:-0.02157056 77:-0.002112892 78:-0.09407445 79:0.094442613 80:0.009404167 81:-0.027704304 82:-0.025017085 83:-0.025028339 84:-0.10416149 85:-0.065525487 86:0.031443983 87:-0.053372253 88:0.12322822 89:0.004061899 90:0.057706248 91:0.011792758 
1 1 1 1 1:0.006455628 2:-0.48672229 3:0.58314514 4:-0.001536342 5:0.070326917 6:-0.011307348 7:-0.020988658 8:0.024278417 9:-0.016064556 10:0.013799167 11:0.069005869 12:0.013795136 13:-0.007642396 14:-0.019026514 15:0.10433332 16:-0.26952085 17:0.023243826 18:-0.000300393 19:0.004983109 20:-0.009484088 21:0.014420173 22:-0.00555677 23:-0.021500483 24:-0.001221694 25:-0.001573737 26:0.086437538 27:0.048505701 28:-0.1566986 29:0.042601783 30:0.035708088 31:-0.031021468 32:-0.009044806 33:-0.030479992 34:-0.012264882 35:0.014625017 36:0.022163842 37:-0.01281912 38:-0.092440687 39:-0.0141348 40:0.05701397 41:-0.049044743 42:-0.016409626 43:0.014217582 44:0.015383907 45:0.000426897 46:-0.014686646 47:-0.029625908 48:0.006545275 49:-0.067395508 50:-0.076976717 51:-0.005657484 52:0.004526081 53:-0.025074551 54:-0.020724744 55:0.012496157 56:0.003138714 57:-0.051462725 58:0.18551749 59:0.022141512 60:0.033003926 61:0.032521352 62:0.007770293 63:0.018311767 64:-0.016115556 65:0.20324835 66:0.041145597 67:0.06862168 68:-0.05114796 69:0.015601512 70:0.004447951 71:0.020333672 72:0.015049715 73:-0.12872539 74:-0.040352933 75:0.011845884 76:-0.003359226 77:0.000761036 78:-0.080507867 79:0.12476566 80:0.011823115 81:-0.018350806 82:-0.019557009 83:-0.025191698 84:-0.063178532 85:-0.059411969 86:0.033980157 87:-0.038558472 88:0.099593319 89:0.002669945 90:0.032035269 91:0.012223342 
1 1 0.40826215232339574 1 1:0.005958333 2:-0.51868135 3:0.46652988 4:0.017005229 5:0.076562569 6:-0.028857958 7:-0.035875086 8:0.009946595 9:-0.027072666 10:0.017325044 11:0.071375772 12:0.004814837 13:0.000690234 14:-0.041167386 15:0.034526058 16:-0.29389811 17:0.063214622 18:0.00020685 19:0.007193399 20:-0.007998584 21:-0.004866585 22:0.01503821 23:-0.056285657 24:8.6089e-05 25:-0.011732182 26:0.079627968 27:0.084700823 28:-0.25206077 29:0.060773898 30:0.028903283 31:-0.033459052 32:0.00657491 33:-0.012956989 34:-0.026921349 35:0.009598206 36:0.026671272 37:-0.004686416 38:-0.091505811 39:0.015164091 40:0.060650647 41:-0.020136693 42:-0.014997334 43:0.02711576 44:0.023856265 45:0.012892992 46:-0.016805207 47:-0.052809786 48:0.028101178 49:-0.037569713 50:-0.090148762 51:0.044714402 52:0.006603506 53:-0.008948865 54:-0.019402064 55:0.011289081 56:0.007620794 57:-0.044963367 58:0.1918665 59:0.054914381 60:0.056750067 61:0.028441701 62:0.01093722 63:0.036151063 64:-0.006001728 65:0.23014294 66:-0.035266526 67:0.12042121 68:-0.10569461 69:0.011946152 70:0.006611115 71:0.025760369 72:-0.006180749 73:-0.18251596 74:-0.055763137 75:0.01004863 76:-0.002832444 77:-0.016703792 78:-0.074241996 79:0.14900594 80:0.00111926 81:-0.033254985 82:-0.038302213 83:-0.039291963 84:-0.031363729 85:-0.069164306 86:0.040284548 87:-0.003608021 88:0.12960473 89:0.003722272 90:0.054782066 91:0.019793214 
1 1 0 1 1:0.003124517 2:-0.65961731 3:0.46294159 4:-0.096499018 5:0.15205486 6:-0.043429375 7:-0.061498247 8:0.003979838 9:-0.010849526 10:0.020761967 11:0.034403555 12:0.001658819 13:-0.016182907 14:-0.028473748 15:0.029684672 16:-0.1837868 17:0.039742827 18:-0.017212393 19:0.002706917 20:-0.01642612 21:0.028735084 22:-0.023459045 23:-0.038423885 24:0.028497254 25:0.011441662 26:0.059907779 27:0.17228731 28:-0.24348594 29:0.028193315 30:-0.003876907 31:-0.014122966 32:-0.025613664 33:-0.033724308 34:-0.015281552 35:0.011090949 36:0.021969067 37:0.001482441 38:-0.12664062 39:0.012655127 40:0.042300716 41:-0.039737795 42:-0.007067932 43:0.014254355 44:0.015159819 45:-0.01727476 46:-0.011250146 47:-0.061685503 48:0.060646273 49:-0.000262413 50:-0.097605906 51:-0.016819097 52:0.004315296 53:0.016617585 54:-0.023811249 55:0.013842475 56:0.008985282 57:-0.019135259 58:0.19943203 59:-0.004252471 60:0.088968679 61:0.022781877 62:0.008951548 63:0.001759867 64:0.00243982 65:0.21671228 66:0.07783094 67:0.10307004 68:-0.074249156 69:0.013542968 70:0.021534519 71:0.023260234 72:0.032173984 73:-0.22996788 74:0.024410969 75:-0.01708602 76:0.007940209 77:0.002087726 78:-0.10504769 79:0.040348116 80:0.002338056 81:-0.02033277 82:-0.045306925 83:-0.054952256 84:0.018256471 85:-0.047030792 86:0.021816248 87:0.014954058 88:0.082595579 89:0.017441239 90:0.032089222 91:0.013275461 
1 1 0 1 1:0.008208275 2:-0.75883019 3:0.35015035 4:-0.15707739 5:0.22001343 6:0.026688775 7:-0.070155524 8:0.086512685 9:-0.029877003 10:0.000279676 11:0.12132417 12:0.028224338 13:-0.01371974 14:-0.014071589 15:0.0554622 16:-0.2101592 17:0.10729436 18:-0.01776737 19:0.005815036 20:-0.019957043 21:-0.007877459 22:-0.003206573 23:-0.024513919 24:0.019579077 25:-0.012294888 26:0.076828994 27:0.0850197 28:-0.3225092 29:0.005978739 30:0.043901626 31:-0.050022282 32:-0.010454084 33:-0.063311726 34:-0.030581784 35:0.039873414 36:0.026769156 37:-0.006201774 38:-0.29096779 39:0.10560989 40:0.06004972 41:-0.087931968 42:-0.039279748 43:0.024094785 44:0.019438554 45:0.009207529 46:-0.01013271 47:-0.064472005 48:0.034390755 49:-0.040783867 50:-0.17811251 51:0.057680529 52:-0.013519086 53:-0.009923748 54:-0.064689443 55:0.017202144 56:0.031198071 57:-0.072320089 58:0.34984097 59:0.03758242 60:0.066005357 61:0.097986571 62:0.011157019 63:0.042441063 64:-0.008713677 65:0.33027279 66:-0.021629339 67:0.086656265 68:-0.14273946 69:0.023132453 70:0.007129637 71:0.040292539 72:-0.028237922 73:-0.14863282 74:-0.019266948 75:0.043126713 76:-0.006924955 77:-0.013097416 78:-0.1074173 79:0.11582675 80:0.029838094 81:-0.04943487 82:-0.030051323 83:-0.008580485 84:-0.090685122 85:-0.07170599 86:0.054505903 87:-0.037990354 88:0.1055868 89:0.001015764 90:0.070342161 91:0.015139894 
1 1 0 1 1:0.009024003 2:-0.6515553 3:0.44459394 4:0.002272642 5:0.15237914 6:0.038758799 7:-0.053293362 8:0.020866709 9:-0.020387858 10:-7.671e-05 11:0.075926766 12:0.004862341 13:-0.002968614 14:-0.007838115 15:0.029445706 16:-0.36382198 17:0.037381615 18:-0.072005108 19:-0.013418594 20:-0.005845685 21:-0.003231958 22:0.005672645 23:-0.037312184 24:-0.00718729 25:-0.011690219 26:0.068218969 27:0.1243062 28:-0.2350824 29:0.06173547 30:0.030200655 31:-0.041739076 32:0.000592955 33:-0.033178441 34:-0.048388243 35:0.028350333 36:0.02409994 37:-0.018072886 38:-0.14792396 39:-0.029764529 40:0.054679278 41:-0.033420894 42:-0.039810088 43:0.019419853 44:0.028143728 45:0.008790925 46:-0.009496985 47:-0.079151623 48:0.090333521 49:-0.076154247 50:-0.1661512 51:0.04049154 52:-0.004714535 53:-0.028614309 54:-0.03431952 55:0.007416972 56:0.020723287 57:-0.070156485 58:0.27362087 59:0.041060906 60:0.057722569 61:0.078670561 62:0.005958125 63:0.033177726 64:-0.019360993 65:0.21799786 66:-0.054890145 67:0.10918237 68:-0.10952545 69:0.014518498 70:0.002715647 71:0.040225018 72:-0.059190109 73:-0.17028265 74:-0.004960253 75:0.019857999 76:-0.001454709 77:-0.020972144 78:-0.073173903 79:0.073639408 80:0.048267715 81:-0.031035194 82:-0.039674975 83:0.015071198 84:-0.093720026 85:-0.081702851 86:0.030860262 87:-0.01618965 88:0.13806845 89:-0.008478319 90:0.070332617 91:0.019075615 
1 1 1 1 1:0.003575843 2:-0.3975606 3:0.3757236 4:-0.10282932 5:0.03907555 6:-0.020803221 7:0.034930248 8:0.022579592 9:-0.019316699 10:-0.029800646 11:0.078935526 12:0.023631407 13:-0.021259828 14:0.007001093 15:0.22965738 16:-0.18530183 17:-0.064956769 18:-0.000364954 19:-0.025584742 20:-0.02567385 21:0.018629957 22:-0.006052549 23:-0.004010051 24:0.048566785 25:0.015758699 26:0.080412529 27:0.058726609 28:0.000930903 29:0.040642854 30:0.063291036 31:-0.029965652 32:-0.013771076 33:0.006890151 34:0.030663259 35:0.003562927 36:0.02702672 37:0.004074101 38:0.12220614 39:0.047154564 40:-0.071665995 41:-0.061314512 42:-0.004420032 43:-0.025357887 44:-0.039218441 45:-0.009880764 46:0.005535213 47:0.000566824 48:0.046479903 49:0.18414316 50:-0.055742241 51:-0.043917585 52:0.016575273 53:0.020177996 54:-0.033471853 55:0.018491687 56:0.018187724 57:0.22346513 58:0.01804542 59:0.011179209 60:-0.010730994 61:0.053805955 62:0.009348034 63:0.002734081 64:0.020523034 65:0.059494287 66:0.13007443 67:0.065524004 68:0.024166692 69:0.041656487 70:0.01886064 71:0.002952928 72:0.038183939 73:-0.077355206 74:0.0184965 75:0.01828176 76:0.02801819 77:0.020746885 78:-0.1171867 79:0.12266 80:-0.022065351 81:-0.002251309 82:-0.009777556 83:0.030015608 84:0.070209324 85:-0.033911295 86:0.03477538 87:0.077386566 88:0.047208335 89:0.024174651 90:0.007473518 91:0.012814677 
1 1 0 1 1:0.001586031 2:-0.58689231 3:0.27585393 4:0.046010684 5:-0.047984827 6:-0.010965507 7:-0.012959049 8:-0.004133906 9:-0.034423638 10:0.000417908 11:0.069848455 12:-0.001788694 13:0.004619907 14:-0.04852961 15:0.050543655 16:-0.32330954 17:0.083848819 18:0.017219413 19:-0.033565693 20:0.01676821 21:0.00672416 22:-0.002042524 23:-0.011187864 24:0.025003111 25:0.024390521 26:0.062027209 27:0.12131241 28:-0.22267596 29:0.072823741 30:-0.029077394 31:-0.069988362 32:-0.047044449 33:-0.011493726 34:-0.010039491 35:-0.000352898 36:0.04114959 37:-0.032917965 38:-0.1722198 39:-0.061318126 40:-0.062142331 41:0.019234009 42:-0.0203548 43:-0.005804992 44:-0.046674825 45:0.006367712 46:-0.018348932 47:-0.028811999 48:-0.012186148 49:0.085765891 50:-0.033640124 51:0.015107023 52:-0.006502684 53:-0.000191191 54:-0.004593325 55:0.006104826 56:0.003394388 57:0.081619665 58:0.080280729 59:0.081203796 60:0.024817934 61:0.05199137 62:0.000556692 63:0.00129152 64:-0.001810149 65:0.30524877 66:-0.016732475 67:0.08826369 68:-0.025687288 69:0.008825284 70:0.044320051 71:-0.011713196 72:-0.03068017 73:-0.13816035 74:-0.043856785 75:0.001944417 76:-0.019376203 77:-0.012267104 78:-0.11139036 79:0.05854252 80:-0.047619361 81:-0.016604712 82:-0.028337058 83:-0.15429919 84:0.058528703 85:-0.1220367 86:0.03448417 87:-0.024677584 88:0.19451489 89:0.019524002 90:0.067840062 91:0.024840644 
1 1 1 0 1:0.009440276 2:-0.31201434 3:0.4769187 4:-0.008791572 5:-0.020051114 6:-0.001044589 7:-0.02646043 8:-0.009319955 9:-0.017775098 10:-0.013584631 11:0.037695497 12:0.00701686 13:0.020174541 14:0.013851205 15:0.33645818 16:-0.2213996 17:-0.021983154 18:-0.016739113 19:-0.010051344 20:0.02938813 21:0.00013053 22:0.009879304 23:-0.000564151 24:0.037764437 25:0.033223998 26:0.084939979 27:0.028179174 28:-0.034552056 29:0.047723025 30:-0.007130323 31:-0.053194724 32:-0.027190652 33:0.004654393 34:0.000495256 35:0.000877487 36:0.053410508 37:-0.014072164 38:-0.021690151 39:-0.035233893 40:-0.038706981 41:0.008325865 42:-0.001252328 43:-0.001845527 44:0.005077712 45:-0.008771192 46:0.004253395 47:-0.013714048 48:0.003564809 49:0.14845297 50:-0.064997956 51:-0.01357055 52:0.000864025 53:0.023073394 54:-0.000955485 55:-0.001172435 56:0.006808858 57:0.10356654 58:0.14939824 59:0.067532122 60:0.006403876 61:0.029767917 62:0.008382341 63:0.014661127 64:0.019414231 65:0.22877686 66:0.009996923 67:0.035232607 68:-0.020198027 69:0.00918634 70:0.042574432 71:0.012293729 72:-0.008897251 73:-0.001035379 74:-0.048100498 75:-0.01860524 76:0.00733993 77:-0.001761734 78:-0.033188578 79:0.10799225 80:-0.059387404 81:-0.01063648 82:-0.003638933 83:0.010765034 84:0.10069049 85:-0.07386288 86:0.035501849 87:0.053483017 88:0.16857712 89:0.0336922 90:0.10796945 91:0.032678843 
