svm_type c_svc
kernel_type linear
nr_class 7
total_sv 224
rho 1.0156739502792946 0.96989342972432024 0.62065099695925563 0.30343743272936574 -0.044171188308459078 -0.27448957551556652 -0.19012381214293284 -0.17969367378068496 -0.31110587520493321 -0.35052485264366839 -0.7610350660009273 0.040136626362094613 -0.28425550294156027 -0.39339646539714496 -0.51303046396200003 -0.28659111480929578 -0.33619204991407742 -0.32722201431591602 -0.31048477668305446 -0.40784554028048253 0.00058245406855801673
label 1 2 3 4 5 6 7
nr_sv 23 44 51 30 31 22 23
SV
0 2.7086190034402926 5 0 4.7076376050166466 0 1:-0.014126389 2:0.40029475 3:-0.13366823 4:0.014369011 5:-0.010043831 6:-0.015123566 7:0.099495068 8:0.007445113 9:0.021236541 10:0.00325673 11:0.010111626 12:-0.002986594 13:-0.000283824 14:0.1099224 15:-0.10603307 16:0.029992199 17:-0.060666442 18:0.001936094 19:-0.033170708 20:0.005469907 21:0.013398738 22:-0.004109831 23:0.007450745 24:0.001880431 25:-0.006424739 26:0.010883042 27:0.0490386 28:-0.017629143 29:-0.028571343 30:-0.056793265 31:0.008709132 32:-0.02558447 33:-0.001535393 34:-0.013448811 35:-0.001621434 36:0.002677268 37:0.029636117 38:0.11278781 39:0.043751363 40:0.070821799 41:0.026430285 42:0.012654563 43:0.017190838 44:-0.00591614 45:-0.003445444 46:0.006229158 47:-0.01347449 48:-0.048055962 49:0.005339919 50:-0.008134736 51:0.025441444 52:-0.015730219 53:0.015381056 54:0.00392718 55:0.003494462 56:-0.034113467 57:0.015765762 58:-0.058551863 59:-0.020501625 60:-0.016991414 61:-0.014831694 62:-0.001343819 63:-0.005289863 64:0.040554564 65:0.044145111 66:-0.01463331 67:0.010248387 68:-0.004675006 69:-0.002339032 70:0.003533415 71:0.029043052 72:0.096245803 73:0.000120247 74:0.025434412 75:0.000504927 76:0.000753218 77:0.003714938 78:0.060925707 79:0.000928084 80:-0.007144577 81:0.001684456 82:0.003145855 83:0.001710446 84:-0.008007287 85:0.010497705 86:0.007425173 87:-0.040882763 88:0.010336358 89:0.002879985 90:0.037850551 91:-0.001538027 
0 0 0 0 1.3572504838130004 0 1:-0.037034784 2:0.36229423 3:-0.062091392 4:-0.021288246 5:-0.004063556 6:-0.017740211 7:0.029643442 8:0.023884479 9:0.016781444 10:-0.000533376 11:-0.000741932 12:0.00854601 13:0.012075784 14:0.072623357 15:-0.10392325 16:0.069318652 17:-0.085660584 18:-0.019022839 19:-0.01928439 20:0.007903169 21:0.024641417 22:-0.003132386 23:0.003558553 24:0.004325086 25:0.00200429 26:-0.002994643 27:-0.14449246 28:-0.041376431 29:-0.007832372 30:-0.02802147 31:-0.006546721 32:-0.015823161 33:-0.012959155 34:-0.006228175 35:0.008328907 36:-0.001352671 37:-0.014937886 38:0.15304123 39:0.037929513 40:0.050458901 41:0.032663446 42:-0.005349231 43:-0.003822468 44:-0.012286899 45:0.005339066 46:0.003091491 47:-0.005963836 48:-0.096437402 49:0.054001801 50:-0.015139765 51:0.023369962 52:0.008704067 53:-0.003758102 54:-0.012117623 55:-0.002366405 56:-0.029503165 57:-0.030326037 58:-0.069017604 59:-0.040760789 60:-0.017571744 61:0.013519406 62:-0.028140176 63:-0.013138765 64:-0.006786144 65:0.12951931 66:-0.050559416 67:-0.004673284 68:0.000178291 69:0.005952082 70:0.012967422 71:0.037818335 72:0.10222565 73:0.010309682 74:0.007381277 75:0.018945241 76:-0.006631128 77:0.018997544 78:-0.030317027 79:0.01041316 80:-0.018569177 81:-0.002026889 82:-0.007061206 83:-0.045214575 84:-0.006329817 85:0.012077976 86:-0.007472598 87:-0.006746967 88:0.018174298 89:-0.008348576 90:0.016546229 91:-0.005474881 
0 0 5 0 0 0 1:0.002612141 2:0.50462896 3:-0.047658864 4:0.002569209 5:-0.035465915 6:-0.001112601 7:0.009253586 8:0.016143888 9:0.00978398 10:0.010181217 11:0.021482412 12:0.006046656 13:0.00520591 14:0.19372717 15:-0.26298794 16:-0.011378318 17:-0.037253343 18:-0.00264254 19:-0.011273823 20:0.006782681 21:0.016037064 22:0.000226182 23:0.011529072 24:0.006227301 25:0.001267907 26:-0.03189633 27:-0.11079023 28:-0.002221291 29:-0.03713052 30:-0.005624883 31:0.006415142 32:0.002217469 33:-0.007224796 34:-0.014948455 35:-0.004126019 36:-0.010766025 37:-0.000694869 38:0.090433411 39:0.058782358 40:0.017034186 41:0.020042699 42:-0.004802315 43:0.000686633 44:-0.013564683 45:-0.006965895 46:-0.00606624 47:0.006363589 48:-0.011959148 49:-0.027999502 50:-0.012891643 51:0.009312454 52:-0.00883277 53:0.012439405 54:-0.000458896 55:0.004597683 56:-0.022695202 57:0.009732689 58:-0.06215743 59:-0.008822814 60:-0.014453027 61:-0.015229141 62:0.009652728 63:2.6329e-05 64:0.01125294 65:0.13292643 66:-0.025012149 67:0.015201717 68:-0.00803996 69:-0.006614419 70:-0.007978411 71:0.042072963 72:0.11010286 73:0.014936075 74:0.025667135 75:0.002065476 76:0.015482153 77:0.020800026 78:-0.025345596 79:0.002579689 80:0.00870565 81:0.007797631 82:-0.003343146 83:-0.068417758 84:0.001947971 85:-0.011827626 86:-0.010027876 87:-0.012095431 88:0.015908547 89:-0.002416331 90:0.01281899 91:-0.002084448 
4.85694255152855 0 0 0 0 0 1:-0.025577858 2:0.17698298 3:-0.12577565 4:-0.089325771 5:-0.05485731 6:0.009458413 7:-0.00919417 8:0.011147309 9:-0.005513387 10:0.004718301 11:0.001647005 12:0.005720146 13:-0.000110312 14:0.15143497 15:-0.27639923 16:0.042743627 17:-0.031820741 18:-0.015661173 19:-0.038399074 20:0.003052667 21:0.012691322 22:0.002579284 23:0.008151622 24:0.002018519 25:0.00831519 26:-0.029271089 27:-0.12931565 28:-0.011621121 29:0.006065253 30:0.002323274 31:-0.01277578 32:0.010022361 33:-0.020367604 34:0.002412512 35:-0.000396506 36:0.006910957 37:-0.021836694 38:0.075446323 39:0.11797035 40:-0.014252713 41:0.025358509 42:-0.02389746 43:0.000407593 44:-0.009131285 45:-0.006977583 46:0.005175474 47:0.008597017 48:-0.16159731 49:-0.040541831 50:-0.009365305 51:0.006384154 52:0.013818286 53:0.004808338 54:-0.002090798 55:-0.004063961 56:-0.063452691 57:-0.028339317 58:-0.084696054 59:-0.011467285 60:-0.021272834 61:-0.004025017 62:-0.000190779 63:-0.01331888 64:0.005843146 65:0.15429582 66:-0.033531543 67:0.008558345 68:0.012354769 69:-0.004061922 70:0.001918108 71:0.043214906 72:0.086289249 73:0.039816566 74:0.009764789 75:-0.007774275 76:-0.001643185 77:0.020873012 78:-0.06385044 79:0.002050588 80:-0.005994221 81:-0.010578103 82:-0.009268165 83:-0.024431944 84:0.006505731 85:-0.000413663 86:0.003408041 87:-0.035647657 88:0.004814754 89:-0.010399302 90:-0.059328344 91:-0.007837318 
2.3677413545655308 5 3.3905115464010134 0 0 0 1:-0.034589831 2:0.28445408 3:-0.17168508 4:-0.058330949 5:-0.06957531 6:-0.000397417 7:-0.001014342 8:0.030679958 9:0.004439686 10:0.013031301 11:0.021552833 12:0.004196575 13:0.006893547 14:0.13768251 15:-0.15695326 16:0.016284494 17:-0.024610363 18:-0.015458628 19:-0.031665333 20:0.00996642 21:0.024828201 22:-0.014209912 23:0.020653104 24:-0.008153563 25:0.012414576 26:0.003937375 27:-0.044435509 28:-0.000376217 29:-0.023544414 30:0.006781761 31:-0.01547445 32:0.00273094 33:-0.019313082 34:-0.02359917 35:-0.010836876 36:-0.008107426 37:-0.006505901 38:0.064275734 39:0.074807093 40:0.001806347 41:0.014716579 42:-0.012007842 43:0.008398918 44:-0.028253537 45:0.000143283 46:-0.014747789 47:-0.001736272 48:-0.15829137 49:-0.017201561 50:-0.00450019 51:0.000990957 52:-0.004168149 53:0.013151003 54:0.002352221 55:0.007056744 56:-0.059515376 57:0.026823143 58:-0.062362656 59:-0.008093684 60:-0.016894955 61:0.006171431 62:-0.01030244 63:0.008066962 64:0.01452441 65:0.18222588 66:-0.003717918 67:0.006842408 68:0.001403194 69:0.01350088 70:-0.006278463 71:0.046561405 72:0.07563787 73:4.1892e-05 74:0.014263405 75:0.000195778 76:0.014600142 77:0.00876638 78:-0.058879703 79:-0.008651346 80:-0.006415235 81:-0.004794787 82:-0.00188658 83:-0.074606225 84:0.015586508 85:-0.012028243 86:-0.004866101 87:-0.007429356 88:0.009673162 89:-0.010789204 90:0.008540862 91:-0.004071534 
5 0.78560003730361416 0 0 0 0 1:-0.013996693 2:0.33958006 3:-0.11497219 4:-0.027528688 5:-0.050101861 6:-0.012472732 7:-0.004275543 8:0.026077192 9:0.007721242 10:0.019911947 11:0.007400976 12:0.00298367 13:0.001163966 14:0.16876487 15:-0.1737593 16:0.039724108 17:-0.023960423 18:-0.022362683 19:-0.015588391 20:0.006364257 21:0.01321571 22:-0.002838149 23:0.017557018 24:-0.005676733 25:0.007257609 26:0.011162866 27:-0.030341808 28:-0.004415444 29:-0.02732905 30:0.002011061 31:0.004903347 32:0.012538074 33:-0.030250259 34:-0.004615295 35:0.001421327 36:-0.005693461 37:0.006299914 38:0.13312964 39:0.034812301 40:0.004508151 41:0.022749824 42:-0.002365989 43:0.010108492 44:-0.014967213 45:-0.007707858 46:-0.003152181 47:0.011256399 48:-0.12383021 49:-0.011661157 50:-0.018204868 51:-0.00129153 52:0.001839028 53:0.013121939 54:-0.00410516 55:0.000682626 56:-0.041961007 57:0.017401436 58:-0.052063726 59:-0.000997628 60:-0.032944273 61:-0.006897908 62:-0.009533893 63:-0.00230398 64:0.015982928 65:0.099756904 66:0.016989747 67:0.012573604 68:-0.001344985 69:0.008014465 70:-0.009440052 71:0.038356468 72:0.002343774 73:0.025218263 74:0.014576154 75:-0.003388175 76:0.012460419 77:0.012324098 78:-0.074601047 79:-0.014040654 80:0.004576101 81:-0.004042129 82:-0.01672465 83:-0.000838569 84:0.017166188 85:-0.003195275 86:0.00282921 87:-0.052935123 88:0.011968507 89:-0.017960537 90:-0.051642343 91:-0.010269302 
0.99959505276151117 4.0275127407871274 0 1.15374312063967 0 0 1:-0.021641893 2:0.089943945 3:-0.18084589 4:0.064561389 5:-0.047611926 6:0.021307588 7:0.095064268 8:0.004324164 9:0.01248714 10:0.02571981 11:0.007935399 12:0.024969904 13:0.009270142 14:0.16218677 15:-0.17499109 16:0.12081069 17:-0.048957046 18:-0.044288121 19:-0.052594353 20:0.052819937 21:-0.004294828 22:0.020686267 23:0.009393121 24:0.006943992 25:0.012335273 26:0.014290704 27:-0.34356335 28:-0.028087145 29:-0.014421914 30:-0.008137196 31:-0.009791738 32:-0.033276591 33:-0.025720512 34:0.007604227 35:-0.009884754 36:-0.005619559 37:-0.067713968 38:0.075290337 39:0.079141386 40:-0.002884871 41:0.011192769 42:-0.013101365 43:-0.048583046 44:-0.014637733 45:-0.018052673 46:-0.009235942 47:0.007830797 48:-0.094172098 49:-0.002606294 50:0.004522378 51:0.024414761 52:0.008995414 53:-0.008624829 54:0.004998302 55:-0.00695373 56:-0.069285087 57:0.002225164 58:-0.036330778 59:-0.049322661 60:-0.022167774 61:-0.015152116 62:-0.005282946 63:0.011210867 64:0.040626768 65:0.043127805 66:-0.032908939 67:-0.000999212 68:0.018867521 69:0.012533749 70:0.006444003 71:0.026246104 72:0.090250924 73:-0.001872718 74:0.025346436 75:0.011318823 76:0.017849883 77:0.005662335 78:0.029167488 79:-0.003578781 80:0.052241072 81:-0.008379701 82:-0.009025841 83:-0.00820293 84:0.04119473 85:0.011549972 86:0.009493999 87:-0.12043268 88:0.017600829 89:-0.032197576 90:-0.042057015 91:-0.014264818 
1.7075090800438193 0 0 0 0 0 1:-0.051415145 2:0.13405508 3:-0.13778549 4:0.053512856 5:-0.04969706 6:0.02510377 7:0.018544722 8:0.002944306 9:0.027929069 10:0.011306423 11:0.005570029 12:-0.008657241 13:-0.005093374 14:0.11483797 15:-0.16341998 16:0.090312317 17:-0.080885947 18:-0.029707288 19:-0.045128331 20:0.037389163 21:-0.025583897 22:0.018974539 23:0.001936018 24:0.00396419 25:-0.000838746 26:0.012049407 27:-0.23746726 28:-0.072446458 29:-0.0367628 30:-0.004768718 31:-0.014464979 32:-0.03080407 33:-0.01392654 34:-0.00014779 35:0.003348702 36:0.001171609 37:-0.011205263 38:0.20923892 39:0.090042919 40:0.048772234 41:0.00097505 42:0.007620727 43:-0.020713264 44:-0.0024175 45:0.000678249 46:0.005915689 47:0.024758058 48:-0.11152844 49:0.017776584 50:0.030050352 51:0.032259982 52:0.018850006 53:0.008373326 54:-0.004806365 55:0.004072377 56:-0.06266591 57:-0.11963934 58:-0.036613666 59:-0.072582699 60:-0.025083002 61:-0.00287117 62:-0.009928334 63:-0.009939229 64:-0.003675539 65:-0.027066346 66:-0.034104209 67:-0.035646025 68:-0.011960114 69:0.006866536 70:-0.014382089 71:0.016665859 72:0.14128324 73:0.02383385 74:0.027015438 75:-0.002033756 76:0.013730858 77:0.014306555 78:0.050460417 79:-0.001585759 80:0.01030608 81:-0.004270266 82:-0.00585392 83:-0.017289132 84:0.006242989 85:-0.010903533 86:0.008691411 87:-0.029615909 88:0.008288071 89:-0.001872393 90:-0.030694798 91:-0.008424441 
0 0 0 0 0 0.1004214011825552 1:-0.031264637 2:-0.11443736 3:-0.05135734 4:-0.05288773 5:-0.047682263 6:0.062051203 7:0.051271114 8:-0.008611747 9:0.026451033 10:-0.007536158 11:0.016101766 12:-0.002778263 13:-0.000486262 14:0.09800756 15:-0.35637385 16:0.13058615 17:-0.082869858 18:-0.034264117 19:-0.06627056 20:-0.001224255 21:0.017144309 22:-0.004512065 23:-0.005296525 24:0.002549488 25:-0.001323681 26:-0.037717283 27:-0.25642189 28:-0.059235197 29:-0.025102133 30:-0.049013056 31:0.002821997 32:-0.042186301 33:0.007461823 34:0.0155937 35:0.000253525 36:-0.015879204 37:-0.026719021 38:0.1641299 39:0.15641759 40:0.009485132 41:0.035168532 42:0.004166611 43:0.019575158 44:0.005680392 45:0.018400816 46:-0.004615438 47:0.013536846 48:-0.036705185 49:-0.028290942 50:-0.012420014 51:0.050594162 52:-0.020292766 53:0.018971842 54:0.004954774 55:0.000110385 56:-0.12141625 57:-0.14572737 58:-0.08817596 59:-0.044282317 60:-0.032463703 61:-0.056988314 62:-0.028287664 63:-0.009278537 64:0.023659628 65:0.033084683 66:-0.034430422 67:0.01962216 68:0.016839875 69:0.000805247 70:-0.024568347 71:0.044544447 72:0.14027381 73:0.026581276 74:-0.01403667 75:0.018000923 76:0.040070876 77:0.010317271 78:-0.007055453 79:-0.095742539 80:-0.011229297 81:0.000830557 82:0.017807709 83:0.10694031 84:-0.014491217 85:-0.00084454 86:0.049284901 87:0.045767337 88:0.0300807 89:0.004039879 90:-0.015980326 91:-0.026230223 
0 0 0 0.53858523129400071 0 0 1:-0.037482008 2:-0.009696248 3:-0.062779538 4:0.059783947 5:-0.014310566 6:-0.020209111 7:0.093038112 8:-0.00478408 9:0.054551918 10:0.001705981 11:-0.000227762 12:-0.001473468 13:0.006214851 14:0.15425534 15:-0.29560098 16:0.20543522 17:-0.091557086 18:-0.005723189 19:-0.058029998 20:0.024564773 21:-0.001537127 22:0.023094648 23:0.0016517 24:0.001972269 25:0.005367188 26:-0.001051038 27:-0.2943469 28:-0.015377658 29:-0.042948455 30:-0.048948456 31:0.012716677 32:-0.072983988 33:-0.01143714 34:0.00945234 35:0.01163531 36:-0.002661039 37:-0.07272929 38:0.20700484 39:0.035950784 40:0.069406904 41:0.003133189 42:0.019485939 43:-0.021613318 44:-0.005293725 45:0.008888454 46:0.01129104 47:0.015803706 48:0.009566112 49:0.086588189 50:-0.002534441 51:0.057587974 52:0.017586662 53:0.003888226 54:-0.008069798 55:0.006398233 56:-0.046966981 57:-0.20617129 58:-0.051235348 59:-0.10797147 60:-0.017082464 61:-0.006043049 62:-0.02334208 63:-0.008885893 64:-0.001654919 65:0.0249008 66:-0.085572183 67:-0.022361584 68:0.00018677 69:0.008996185 70:-0.026243743 71:0.027093483 72:0.16828317 73:0.001704148 74:-0.011315086 75:0.010915325 76:0.021401718 77:0.026972923 78:0.015559379 79:-0.027313409 80:-0.00773324 81:-0.003047899 82:-0.003105829 83:0.012116111 84:0.002588002 85:-0.000931126 86:0.008283231 87:-0.009126634 88:0.014178567 89:-0.010859443 90:-0.032633487 91:-0.017460186 
0 4.2934281998826451 0 1.2310401086797442 0 0 1:-0.019241236 2:0.29819497 3:-0.1926797 4:-0.006495506 5:-0.017026234 6:-0.011680736 7:0.049512699 8:0.03229684 9:-0.008521294 10:-0.00504553 11:0.010834498 12:0.036751971 13:0.020527624 14:0.16233043 15:-0.08819893 16:0.023776943 17:-0.041816894 18:0.013258011 19:-0.016053678 20:0.057341184 21:-0.000566806 22:0.007362972 23:0.000874004 24:0.014325578 25:0.008710458 26:0.032605771 27:0.062665083 28:-0.042439893 29:-0.048232418 30:-0.025893684 31:-0.010423196 32:0.005836454 33:-0.006065088 34:0.003531163 35:0.014825041 36:-0.007043834 37:0.017422998 38:0.15441976 39:0.009071102 40:0.041781124 41:0.00032503 42:0.001768533 43:-0.012485153 44:-0.009146525 45:0.011260846 46:0.002835786 47:0.008799981 48:-7.6195e-05 49:0.039264869 50:0.051313084 51:0.012368988 52:0.001062494 53:-0.025740869 54:-0.021426804 55:0.000666002 56:-0.004906484 57:0.073857151 58:-0.025328046 59:0.000511263 60:-0.007013959 61:0.007829819 62:-0.033253655 63:-0.002287894 64:0.031936672 65:0.10823622 66:-4.5854e-05 67:-0.011458642 68:0.021048829 69:0.015106793 70:-0.005723491 71:0.045128852 72:0.036430936 73:0.003994079 74:-0.002797327 75:0.045152791 76:0.01418228 77:0.00167697 78:0.014213949 79:-0.025545016 80:-0.013581158 81:0.016861804 82:-0.004970971 83:-0.00983384 84:-0.028131796 85:-0.022182474 86:0.002021323 87:0.072463974 88:-0.006232741 89:0.005956697 90:0.042934332 91:0.005093461 
0 0 0.93221260092612546 0 0 0 1:-0.002875051 2:0.31506693 3:-0.072789468 4:-0.005884 5:-0.049019504 6:-0.01531646 7:0.01392963 8:0.049811076 9:0.013695403 10:0.045457758 11:0.014272146 12:0.012787749 13:0.006206827 14:0.17713384 15:-0.28898382 16:-0.00911918 17:-0.039949242 18:0.007546373 19:-0.022025427 20:0.029980946 21:0.022840057 22:-0.001171766 23:0.021673134 24:0.004728939 25:0.010582407 26:-0.016604967 27:0.00838769 28:0.015704306 29:-0.046219561 30:0.004207152 31:-0.018163078 32:0.01899047 33:-0.041621149 34:-0.017227609 35:-0.007309119 36:0.00436855 37:0.031507116 38:0.095920399 39:0.059670486 40:0.043115437 41:0.02291725 42:-0.02638345 43:0.003540498 44:-0.028942559 45:-0.011144081 46:-0.008239554 47:-0.003941471 48:-0.041758053 49:-0.041743387 50:0.036996119 51:-0.016327245 52:-0.006647038 53:0.002541524 54:-0.011144746 55:-0.000103177 56:-0.045665197 57:0.078221068 58:-0.063580267 59:0.018785758 60:-0.043488033 61:0.010521831 62:-0.018001514 63:-0.004970883 64:0.036380287 65:0.15224013 66:0.00919261 67:0.013709241 68:-0.000709596 69:0.018637696 70:-0.009078918 71:0.066207163 72:-0.005617215 73:0.020286582 74:-0.005041364 75:0.010621203 76:0.008951901 77:0.008183921 78:-0.11402835 79:-0.018840495 80:-0.036563914 81:0.005036775 82:-0.027870104 83:-0.001288082 84:0.006920767 85:-0.016762003 86:-0.008594141 87:0.005743396 88:-0.008407138 89:-0.011102673 90:0.023617489 91:-0.003445987 
0 0 0 0.64691884761746343 0 0 1:0.008501296 2:0.031836253 3:-0.024191612 4:-0.066870987 5:0.010326927 6:-0.054817274 7:0.17297508 8:0.012321729 9:0.00877156 10:0.010856831 11:0.054453623 12:0.042274628 13:0.012546495 14:0.23201355 15:-0.28105512 16:0.079930872 17:-0.072347589 18:0.029870292 19:-0.047994792 20:0.067025825 21:-0.010265291 22:0.018131807 23:0.012100406 24:0.044360124 25:-0.021452116 26:-0.023863984 27:-0.047998242 28:-0.092323475 29:-0.023371775 30:-0.1208887 31:-0.000951911 32:-0.015846085 33:-0.022491945 34:-0.001614098 35:0.005825372 36:-0.017819241 37:0.005295991 38:0.067929864 39:0.018225577 40:0.03611226 41:-0.021121373 42:-0.009728475 43:-0.043061137 44:-0.016947661 45:-0.004956875 46:-0.005163937 47:-0.02966053 48:-0.02207513 49:0.070685923 50:0.00941335 51:-0.007261622 52:0.012810784 53:-0.092539474 54:-0.010080077 55:-0.012796085 56:-0.036683563 57:0.11187319 58:-0.069554143 59:0.00032634 60:0.006769735 61:0.018186517 62:-0.067992575 63:0.005727389 64:0.075023308 65:0.044261593 66:0.015282097 67:-0.004835578 68:0.082022883 69:0.007174664 70:0.042516582 71:0.061177883 72:-0.069831699 73:0.028982164 74:-0.014653909 75:0.072236568 76:-0.003316299 77:-0.02245667 78:-0.048467781 79:-0.073279291 80:-0.025763849 81:-0.027350055 82:-0.033147614 83:0.005365229 84:-0.095591299 85:0.015140326 86:-0.014303445 87:0.080452204 88:0.044570226 89:0.004984369 90:-0.016209552 91:0.005092487 
0 0 0 0 0 0.11201333490285428 1:-0.023414653 2:0.083798803 3:-0.22054119 4:-0.052392289 5:-0.00525007 6:-0.053048652 7:0.10406109 8:0.008933002 9:0.035376437 10:0.015165926 11:0.070527412 12:0.040838137 13:0.035102595 14:0.17073353 15:-0.15330623 16:-0.045277257 17:-0.011459853 18:-0.018999895 19:-0.016104203 20:0.030661369 21:0.004876277 22:0.010092221 23:0.015834495 24:0.034652073 25:-0.00419359 26:0.033098962 27:0.039477896 28:-0.095868722 29:-0.045879215 30:-0.034180198 31:-0.002980359 32:-0.026192985 33:-0.005294051 34:-0.023726333 35:0.021398207 36:-0.01828867 37:0.043710615 38:0.17666553 39:0.028950956 40:0.033352047 41:0.037633486 42:-0.003368469 43:-0.041629471 44:0.017049178 45:0.007371838 46:-0.005951941 47:0.0103018 48:-0.028951699 49:0.039322726 50:0.041300662 51:-0.013311712 52:0.012180617 53:-0.020619543 54:0.005984489 55:-0.018898524 56:-0.03736553 57:0.037622031 58:-0.055068865 59:-0.029019041 60:0.004130064 61:-0.010315318 62:-0.033767823 63:-0.023343895 64:0.06120779 65:0.087858066 66:0.024684245 67:-0.017219754 68:0.086481117 69:0.004338244 70:0.023984849 71:0.041325741 72:-0.030889157 73:-0.013488879 74:0.042055517 75:0.045196123 76:0.024728535 77:-0.025207411 78:0.005276466 79:-0.10770781 80:-0.004839317 81:-0.023896813 82:-0.012691397 83:0.15768313 84:-0.053682145 85:-0.031715717 86:0.038983591 87:0.14304236 88:0.026568107 89:0.01913172 90:-0.020634443 91:0.000213627 
2.7481545323311223 4.264570215211327 0 0 0 0 1:0.012527443 2:0.2012278 3:-0.1239683 4:-0.053922862 5:-0.011643087 6:-0.047513481 7:0.1056966 8:0.032530617 9:0.047495432 10:0.013433388 11:0.065186635 12:0.008357884 13:0.006541001 14:0.22437234 15:-0.2683143 16:0.041600186 17:-0.044544898 18:0.012794903 19:-0.004247548 20:0.054943401 21:0.005984064 22:0.018688928 23:0.001726357 24:0.022470923 25:0.002401079 26:-0.001078198 27:-0.036360562 28:-0.051295288 29:-0.01601656 30:-0.044111412 31:0.012016819 32:-0.020158175 33:-0.021264018 34:-0.048021752 35:0.000502331 36:-0.008363055 37:0.009430258 38:0.077559099 39:-0.004127863 40:0.022804579 41:-0.008283123 42:-0.020934345 43:-0.033919573 44:-0.008419285 45:-0.021016795 46:-0.004194153 47:-0.019222416 48:0.021554457 49:-0.015620816 50:-0.001307646 51:-0.027439049 52:0.006151428 53:-0.02810251 54:0.003344504 55:-0.007036407 56:-0.008158744 57:0.17476028 58:-0.065232873 59:-0.006383111 60:-0.004412595 61:0.026242383 62:0.014535377 63:-0.003635141 64:0.092752017 65:0.097915672 66:0.054265123 67:-0.004092371 68:0.061055094 69:0.004640083 70:0.033827305 71:0.054337133 72:-0.09595532 73:0.012012791 74:-0.012338321 75:0.014817711 76:0.0044862 77:-0.048058305 78:-0.045149222 79:-0.072424158 80:0.001792127 81:-0.01603258 82:-0.02647553 83:0.043490011 84:-0.035354927 85:0.014893568 86:0.010689929 87:0.074985892 88:0.007564515 89:0.023951927 90:0.02772093 91:0.020597789 
0 0 0 0.30040482865673046 0 0 1:-0.015531363 2:0.013602825 3:-0.025504116 4:-0.056650128 5:-0.083672196 6:0.019801876 7:0.089488029 8:0.025385344 9:0.092704967 10:0.037586845 11:0.071372688 12:0.012683572 13:0.067206763 14:0.19472444 15:-0.37614512 16:-0.025647815 17:-0.040443849 18:-0.035682559 19:0.071577899 20:-0.025241153 21:0.042420413 22:0.03024034 23:0.043910682 24:-0.006369456 25:0.013779605 26:-0.043977477 27:-0.066152856 28:-0.021056093 29:-0.038694631 30:-0.03067649 31:-0.016443634 32:-0.093857609 33:0.012405368 34:-0.000781677 35:-0.021260392 36:-0.038670801 37:0.027092094 38:0.075109549 39:0.13910389 40:0.012262606 41:0.036338866 42:-0.050279547 43:-0.051973861 44:0.018955784 45:-0.028114134 46:-0.033090081 47:-0.023827173 48:-0.033364128 49:0.046178713 50:0.007800721 51:0.0323411 52:-0.042702049 53:-0.012214212 54:-0.000203848 55:-0.070054173 56:-0.04378638 57:-0.071285442 58:-0.10541917 59:-0.021721838 60:0.00256428 61:-0.054214455 62:0.04489122 63:-0.058195833 64:0.031517215 65:0.13243458 66:-0.001299751 67:0.030368514 68:0.016232254 69:0.023043564 70:0.062989816 71:0.04018604 72:0.071703143 73:-0.023549935 74:0.054102492 75:-0.00361417 76:0.060453348 77:-0.022902908 78:0.052788723 79:-0.14254399 80:-0.002985099 81:-0.025079293 82:0.006133387 83:0.17356791 84:-0.017911252 85:0.000987403 86:0.062151033 87:0.04475686 88:0.099599659 89:0.020539762 90:-0.19079508 91:-0.034831818 
0 0 0 0 0 0.85824331658681574 1:-0.010171356 2:0.038718678 3:-0.079047292 4:-0.030264938 5:0.004552377 6:-0.03956791 7:0.1522347 8:-0.010708326 9:0.094330378 10:0.051236819 11:0.045664236 12:0.050358981 13:0.07644093 14:0.17707047 15:-0.28692871 16:-0.055325311 17:-0.011605048 18:-0.020392274 19:0.022201721 20:0.039838344 21:0.007908457 22:0.06616082 23:0.036893606 24:-0.014352902 25:0.054668508 26:-0.02894596 27:0.052024662 28:-0.087876119 29:-0.007165779 30:-0.05612316 31:0.023087269 32:-0.085481651 33:0.01090499 34:-0.004744753 35:-0.046621699 36:-0.036372788 37:0.065664232 38:0.21253237 39:0.072692856 40:0.074832909 41:0.013648539 42:0.004383539 43:-0.073305711 44:0.001605104 45:-0.052363139 46:-0.070512913 47:0.002687281 48:0.053687066 49:0.005142351 50:0.026241681 51:0.0342259 52:-0.016248506 53:-0.01398186 54:-0.003091554 55:-0.059728995 56:-0.022488961 57:-0.089337528 58:-0.061478119 59:-0.033503603 60:0.045012411 61:-0.016319526 62:0.041562989 63:-0.013785297 64:0.057039548 65:0.028724192 66:0.019189533 67:-0.00512888 68:0.056156717 69:0.02213875 70:0.065513067 71:0.036786217 72:0.11100836 73:-0.05841646 74:0.025334377 75:-0.023842189 76:0.031252213 77:-0.015436566 78:0.15751943 79:-0.10428317 80:-0.005787216 81:-0.071946405 82:0.020343827 83:0.14894708 84:0.030578591 85:-0.012012464 86:0.0428713 87:-0.022685811 88:0.094679609 89:-0.008647675 90:-0.18139984 91:-0.032693997 
3.9967436518886452 0 0 0 0 0.72204760971161264 1:-0.02906277 2:0.059415016 3:0.060508586 4:-0.032344505 5:-0.006999658 6:0.000432688 7:0.060395487 8:-0.004884511 9:0.046756729 10:0.017819634 11:0.058313746 12:0.006454778 13:0.077814825 14:0.17806821 15:-0.31105402 16:-0.051660657 17:0.001600038 18:-0.05522643 19:0.006113463 20:0.038357273 21:0.01008433 22:0.009887335 23:0.041885152 24:0.024069307 25:-0.010310574 26:-0.037843842 27:0.016785361 28:-0.12707427 29:-0.049855955 30:-0.014704404 31:0.031889386 32:-0.033471368 33:-0.011373299 34:-0.002331146 35:0.013853477 36:-0.039752077 37:0.04436465 38:0.16486098 39:0.1779488 40:0.040699702 41:-0.007301786 42:0.010434655 43:-0.044562381 44:-0.019677084 45:-0.001580257 46:-0.031610318 47:0.00950957 48:-0.061024055 49:0.04092028 50:0.009312114 51:0.007953031 52:-0.032059308 53:-0.048151221 54:-0.005991119 55:-0.047766432 56:-0.065494984 57:0.072773717 58:-0.003985347 59:-0.046104304 60:0.018102501 61:-0.04302844 62:-0.007842761 63:0.009858681 64:0.033648569 65:0.038873736 66:0.008437156 67:-0.002095585 68:0.06482853 69:-0.023630757 70:0.082394361 71:0.017890034 72:0.019045386 73:-0.06820181 74:0.016120093 75:0.034091998 76:0.012867159 77:-0.029024391 78:0.005501461 79:-0.11869454 80:0.016549015 81:-0.055554643 82:0.008302317 83:0.022445543 84:-0.055070814 85:0.035678279 86:0.016819062 87:0.041043211 88:0.043925636 89:0.012565965 90:0.007049572 91:0.027988736 
5 0 0.09014015043217849 2.5707582490588115 0 0.06418254782124419 1:-0.056610484 2:0.062289786 3:-0.090702273 4:-0.013133038 5:-0.019177688 6:-0.059703637 7:0.02718663 8:-0.006017309 9:0.079952039 10:0.015129197 11:0.064685762 12:-0.002698312 13:0.001513525 14:0.11335116 15:-0.3390145 16:0.057280373 17:-0.010782688 18:-0.003873505 19:-0.014355743 20:-0.020544596 21:0.041644663 22:-0.012898993 23:0.025117666 24:0.008675039 25:-0.000519896 26:0.019888135 27:-0.049831409 28:-0.023391269 29:-0.007970616 30:-0.030139349 31:0.026237138 32:-0.074224323 33:-0.001619997 34:-0.071028948 35:0.008086293 36:0.00673694 37:0.016005907 38:0.15557322 39:0.0611782 40:0.026137033 41:0.014768528 42:0.014857811 43:-0.012321183 44:-0.039986301 45:0.001281984 46:-0.002625199 47:-0.001960703 48:-0.022901708 49:0.010798968 50:-0.019749375 51:0.016189106 52:-0.00595871 53:0.050906729 54:-0.002912777 55:-0.015592556 56:-0.029156661 57:-0.056459952 58:-0.032143164 59:-0.080471337 60:0.020621793 61:-0.018620888 62:-0.004611615 63:-0.006110614 64:0.020133378 65:-0.015057928 66:0.026137432 67:0.023128398 68:0.00035631 69:-0.010131724 70:0.004145219 71:-0.005409136 72:-0.054745607 73:-0.008562584 74:0.058777984 75:0.009163697 76:-0.00639042 77:-0.055898253 78:0.084632419 79:-0.050732546 80:0.00476286 81:0.001214162 82:0.015414476 83:0.11951294 84:-0.022319259 85:0.011086697 86:0.047843151 87:0.059318744 88:-0.013863854 89:0.010205626 90:-0.001676335 91:0.005143112 
5 5 5 0 0 0 1:-0.010956853 2:0.39822912 3:-0.09136612 4:-0.056355342 5:-0.034401335 6:-0.026385365 7:0.041601621 8:0.024258861 9:0.020672416 10:-0.000209924 11:0.029324958 12:0.001916911 13:-0.000860905 14:0.17149399 15:-0.17364605 16:0.014626802 17:-0.028204495 18:0.007772592 19:-0.025747333 20:0.025818441 21:0.013063516 22:-0.007513054 23:0.014420426 24:0.006936792 25:-0.001370298 26:-0.003484028 27:-0.079244852 28:-0.035243217 29:-0.01280737 30:-0.009445545 31:-0.002831331 32:-0.012515826 33:-0.009025976 34:-0.028775357 35:0.004863481 36:-0.00276931 37:-0.000951761 38:0.058037795 39:0.023956141 40:-0.001029534 41:-0.007417934 42:0.008461108 43:-0.016978664 44:-0.022307532 45:-0.002032672 46:-0.004411893 47:-0.003404388 48:-0.012587789 49:-0.010791433 50:-0.010406463 51:-0.015370142 52:0.009898093 53:0.003057069 54:-0.008235492 55:0.003713688 56:-0.027347563 57:0.11618099 58:-0.029432571 59:-0.019134028 60:0.005323642 61:0.001827375 62:-0.005672361 63:-9.0512e-05 64:0.033825051 65:0.059202351 66:0.027318235 67:-0.0077062 68:0.027948182 69:0.007274117 70:0.011070169 71:0.014263446 72:-0.023310928 73:-0.009186395 74:0.011144065 75:0.015398126 76:0.001343761 77:-0.025402941 78:-0.014339539 79:-0.054295849 80:-0.002605251 81:-0.004996763 82:-0.000139328 83:0.041805767 84:-0.020380894 85:0.002846225 86:0.025208084 87:0.029234922 88:0.006629627 89:0.006126508 90:0.009034694 91:0.002804833 
0 0 0 1.4793251512845755 0 1.7126670697427691 1:-0.055287026 2:-0.26567784 3:-0.14104977 4:-0.024416219 5:0.041830312 6:0.068316028 7:0.057259806 8:0.035392825 9:0.026141526 10:0.00631802 11:0.030819599 12:0.082461685 13:0.044615004 14:0.1250778 15:-0.26932043 16:0.11877906 17:-0.11369963 18:0.080953404 19:-0.1078591 20:0.065134503 21:0.020328784 22:-0.014818855 23:0.019000174 24:0.026509855 25:0.042831942 26:-0.010138306 27:-0.30573338 28:-0.13550194 29:-0.064504817 30:-0.11406887 31:-0.054617964 32:-0.018351469 33:-0.02452063 34:-0.024817646 35:0.003535295 36:-0.014199764 37:-0.045217693 38:0.24081291 39:0.020048438 40:0.04709173 41:-0.034277976 42:-0.021136336 43:0.01030384 44:-0.038348652 45:-0.000469128 46:-0.015568635 47:0.057638731 48:0.071749173 49:0.1461944 50:0.014719994 51:0.052927069 52:-0.006187882 53:-0.009234951 54:-0.05226481 55:0.036106337 56:-0.043954678 57:-0.19373438 58:-0.024811603 59:-0.042970814 60:-0.043343298 61:0.023660811 62:-0.10241349 63:-0.008428469 64:-0.076440252 65:0.047376767 66:-0.060392566 67:0.03417461 68:0.001878908 69:0.090656199 70:-0.077385426 71:0.027230302 72:0.07618539 73:0.026077177 74:0.027073443 75:0.092904158 76:0.045282286 77:0.045897547 78:-0.065041855 79:0.010607591 80:-0.03770766 81:0.090660341 82:-0.006157465 83:-0.006212104 84:-0.066373952 85:-0.043646634 86:-0.014636548 87:0.059476674 88:-0.083641872 89:0.003625047 90:0.081710227 91:0.038805403 
0 2.3363795329514652 5 0 2.6234256484096696 0 1:-0.033819608 2:0.408124 3:-0.051386449 4:-0.012254353 5:0.012113607 6:-0.015270992 7:0.029693728 8:0.034755632 9:-0.00045555 10:0.005740902 11:0.001259136 12:0.013092891 13:0.011724168 14:0.12018585 15:-0.17168519 16:0.067242511 17:-0.038221486 18:0.014534225 19:-0.030661715 20:0.053787563 21:0.009200593 22:-0.001639101 23:0.010314708 24:0.003253611 25:0.014719 26:-0.000353519 27:-0.14854757 28:-0.076173842 29:-0.017272437 30:-0.046936724 31:-0.002855352 32:-0.004751063 33:-0.017227719 34:-0.003433015 35:0.007008394 36:0.0075334 37:-0.023544686 38:0.076868609 39:0.017498031 40:0.00303219 41:-0.046491876 42:0.008570744 43:-0.015262745 44:-0.018538343 45:0.000233588 46:0.001345755 47:0.019989967 48:-0.040424343 49:0.051080402 50:-0.00113327 51:-0.003839678 52:0.001748539 53:-0.012370072 54:-0.025208034 55:-0.001755694 56:-0.02232324 57:0.030923249 58:0.016858645 59:-0.015908001 60:0.000636293 61:0.00108184 62:-0.029166758 63:-0.023204094 64:-0.013263847 65:0.053187102 66:0.014251394 67:0.014817827 68:0.021415353 69:0.008966818 70:-0.024503112 71:0.004823756 72:-0.031672843 73:0.004204326 74:0.012691227 75:0.034653865 76:0.009556525 77:-0.012270543 78:-0.06759689 79:-0.017701732 80:-0.018165482 81:0.033345323 82:-0.005674344 83:-0.011941738 84:-0.046556804 85:-0.014460179 86:0.005359975 87:0.015857304 88:-0.037595082 89:0.008742409 90:0.017896701 91:0.010520272 
0 0 0 0.74286101733790499 0 0 1:-0.00269334 2:-0.015941553 3:-0.12553047 4:-0.05359681 5:0.002889831 6:-0.001842409 7:0.10235432 8:0.047672857 9:0.002850724 10:-0.003439269 11:2.6611e-05 12:0.035722267 13:0.042080987 14:0.18129787 15:-0.2868301 16:0.041550692 17:-0.040883649 18:0.044137377 19:-0.074878328 20:0.10072716 21:-0.024852766 22:0.004561953 23:0.006249023 24:-0.007119962 25:0.036248218 26:-0.035976276 27:-0.10862504 28:-0.07961794 29:-0.025222676 30:-0.06989117 31:-0.018634353 32:-0.033755675 33:-0.017374374 34:-0.005503059 35:0.009535937 36:-0.009677911 37:-0.003644178 38:0.11433345 39:-0.020218642 40:0.022266308 41:-0.044100057 42:0.015833616 43:-0.011512342 44:-0.005752779 45:0.023626614 46:0.001761897 47:0.039289054 48:0.014938956 49:0.13188539 50:0.011523824 51:0.038475484 52:0.004990347 53:0.015451586 54:-0.042789619 55:0.030333264 56:-0.011557257 57:-0.042117722 58:-0.016813487 59:-0.001051138 60:-0.016581208 61:-0.015111614 62:-0.078734405 63:-0.032612763 64:-0.044005316 65:0.13244845 66:-0.043193471 67:0.004278671 68:-0.006325521 69:0.029812528 70:-0.073063828 71:0.016837168 72:0.054110307 73:0.035668861 74:0.011557369 75:0.061291203 76:0.034837581 77:0.029554904 78:-0.06616015 79:0.016934104 80:0.001749336 81:0.063111998 82:-0.01695721 83:-0.042218335 84:-0.065536089 85:-0.006664324 86:-0.022432122 87:-0.010777821 88:-0.076969236 89:0.022200115 90:0.02948639 91:0.043423966 
-0 2.3451299060682786 0 0 0 0 1:-0.042245202 2:-0.4313167 3:-0.035233706 4:-0.073023535 5:-0.091679417 6:-0.026733318 7:0.027055966 8:0.011972418 9:-0.004665388 10:-0.015121309 11:-0.013419553 12:-0.009598162 13:-0.002486155 14:0.20284346 15:-0.060008332 16:-0.029425353 17:-0.070094034 18:0.021809343 19:0.04338675 20:0.00659842 21:0.007075596 22:0.004653526 23:-0.009040504 24:-0.003655656 25:-0.005185019 26:-0.001781887 27:0.09736982 28:0.069067635 29:0.01988033 30:-0.022035165 31:-0.018997392 32:-0.023216031 33:-0.001754857 34:0.009404251 35:0.006789276 36:0.003326555 37:0.051798008 38:-0.016768945 39:-0.037708253 40:0.0346727 41:-0.022177661 42:-0.034005299 43:-0.009684601 44:0.009319714 45:-0.007315555 46:-0.006536329 47:-0.055468664 48:0.028289875 49:-0.10109699 50:-0.024777625 51:-0.011564 52:0.016395511 53:-0.004874178 54:0.002703881 55:0.008210193 56:-0.024748627 57:0.0574595 58:0.002958938 59:-0.010578939 60:-0.00584835 61:-0.018183904 62:-0.003509394 63:0.012274947 64:0.032758683 65:-0.044606678 66:0.045441523 67:-0.006925956 68:-0.016185286 69:-0.011583386 70:0.008356934 71:0.015087684 72:-0.061261464 73:0.010086869 74:-0.021358363 75:0.0103043 76:-0.013161365 77:-0.019380555 78:-0.043336563 79:-0.027936829 80:-0.009156023 81:-0.02307505 82:-0.018352782 83:0.007052274 84:0.022447934 85:0.012739619 86:0.013249627 87:-0.017851641 88:-0.012967747 89:-0.015883608 90:0.044128422 91:0.028321847 
-0 0 0 5 0 5 1:-0.17800899 2:-1.9550586 3:-0.10661089 4:-0.1078833 5:-0.21369413 6:-0.049596053 7:-0.001610175 8:-0.09396632 9:0.017478559 10:-0.025722954 11:-0.011647761 12:-0.012914884 13:-0.023817157 14:-0.038107704 15:-0.003495764 16:0.12823243 17:-0.005194895 18:-0.005406122 19:0.10525157 20:-0.03695083 21:-0.016575243 22:-0.002024401 23:0.00892593 24:-0.013505829 25:-0.012573196 26:0.049886607 27:-0.075591035 28:0.039905529 29:0.073675543 30:-0.034533128 31:0.009351279 32:-0.057162825 33:0.034830812 34:-0.002039551 35:-0.01178427 36:0.017539827 37:0.061661396 38:0.1741358 39:-0.05091409 40:-0.055641647 41:0.014420046 42:-0.005620471 43:-0.028244525 44:0.024008764 45:0.011620439 46:0.003460896 47:-0.013428376 48:0.14450382 49:-0.009733054 50:0.021952733 51:0.074019022 52:-0.01905049 53:0.002559524 54:0.001864307 55:-0.009334417 56:0.036547884 57:-0.1477409 58:0.032582082 59:0.081638657 60:-0.021817967 61:-0.052701678 62:0.028941022 63:-0.00198837 64:-0.02399624 65:-0.14477731 66:-0.081409901 67:-0.00637757 68:-0.017612627 69:0.0079008 70:-0.028269943 71:-0.031796664 72:-0.011618863 73:0.080328956 74:0.013647333 75:-0.011799427 76:-0.022918558 77:0.0343876 78:0.048468713 79:0.080701105 80:0.041685682 81:0.014210845 82:-0.039532073 83:0.050188828 84:-0.05827624 85:-0.014820294 86:-0.017884005 87:0.02477232 88:0.038659617 89:0.046697151 90:-0.035951108 91:-0.028322916 
-0 0 0 4.2764217832007807 0 5 1:-0.01722615 2:-1.0039274 3:0.27845538 4:-0.13336234 5:-0.10724418 6:0.057497334 7:-0.05031842 8:0.027144561 9:0.014960369 10:-0.009582628 11:0.002448726 12:-0.008500759 13:-0.011182152 14:-0.025792221 15:0.12659459 16:-0.046555385 17:-0.011341363 18:0.036993079 19:0.062292393 20:-0.056520309 21:-0.047164541 22:0.03737428 23:-0.02037221 24:-0.001537461 25:-0.006173235 26:-0.13972713 27:-0.024859278 28:-0.027637776 29:0.066164412 30:0.007864623 31:-0.085368745 32:0.007239178 33:-0.005166459 34:-0.017565269 35:-0.002963852 36:0.002604176 37:0.014640452 38:0.093119115 39:-0.23692548 40:-0.030918397 41:0.011563101 42:0.071151122 43:0.010736973 44:0.041090023 45:-0.001451807 46:0.010506045 47:-0.039320406 48:0.11617205 49:-0.097498238 50:-0.029718211 51:0.056694109 52:0.034995273 53:-0.008941069 54:-0.003298616 55:0.012116678 56:0.033509873 57:-0.084906355 58:0.19653343 59:0.043975458 60:-0.01146424 61:-0.046300206 62:0.000774994 63:-0.004358184 64:0.022660386 65:-0.12683961 66:-0.13545975 67:-0.00463617 68:-0.004333505 69:-0.007053522 70:-0.005326482 71:-0.070596419 72:-0.078872912 73:-0.091569997 74:-0.016687602 75:-0.009393302 76:0.008358575 77:0.003394059 78:-0.000239391 79:0.07637351 80:0.011815351 81:0.017687842 82:0.029186161 83:-0.001408772 84:-0.021140337 85:0.006112949 86:-0.006616123 87:0.008363808 88:-0.027362747 89:0.020931406 90:-0.026879085 91:0.00318317 
-0 0 0 2.2036306908780396 0.45457970478535215 0.4932436648294502 1:-0.013842198 2:-0.24644472 3:0.12922619 4:-0.028932065 5:-0.061569069 6:0.04875401 7:0.02148257 8:-0.020208238 9:-0.016043156 10:-0.019284585 11:-0.008690292 12:0.004950606 13:-0.012434792 14:0.13238434 15:-0.003330251 16:-0.058953241 17:-0.034394652 18:0.007821281 19:0.071759395 20:-0.006356345 21:-0.017395068 22:0.008896419 23:-0.0098721 24:0.008842736 25:0.002118422 26:-0.074023403 27:0.21293905 28:0.086236723 29:0.077828199 30:-0.030230908 31:-0.00908123 32:0.004832367 33:0.001800294 34:-0.004243609 35:-0.009293985 36:0.001510897 37:0.089294255 38:0.034375813 39:-0.080844872 40:0.054308698 41:0.018042091 42:0.029502707 43:0.010829032 44:0.007119091 45:-0.014137587 46:-0.000521344 47:-0.033169597 48:0.15000567 49:-0.10618737 50:-0.012804376 51:0.032369196 52:0.012715871 53:-0.008577501 54:0.00851193 55:0.00224934 56:0.00906352 57:0.074619479 58:0.011148629 59:0.023963468 60:-0.023415966 61:-0.033710416 62:-0.013604454 63:-0.006652362 64:0.029350182 65:-0.05941591 66:-0.020381941 67:-0.002872632 68:-0.006571081 69:-0.045090497 70:8.3766e-05 71:-0.013146238 72:-0.00509756 73:-0.036056105 74:-0.019946529 75:-0.018357133 76:0.003955907 77:-0.007182465 78:0.034004144 79:0.027228825 80:-0.025653696 81:-0.008790056 82:0.025541129 83:-0.000323482 84:0.037046622 85:-0.001107909 86:7.1413e-05 87:-0.044438507 88:-0.020640388 89:-0.01318182 90:-0.019916931 91:0.000757579 
-0 0 0 0 0 1.7651231960545819 1:-0.06414637 2:-0.74800581 3:0.30231756 4:-0.004399739 5:-0.14958879 6:-0.053615957 7:-0.030240733 8:-0.032156296 9:-0.007943771 10:-0.023218939 11:0.003429436 12:0.012627902 13:-0.006896676 14:0.14908446 15:-0.040981639 16:-0.21753138 17:-0.014529031 18:0.026876135 19:0.058813993 20:-0.015550311 21:-0.012319412 22:0.00747698 23:-0.011326876 24:0.018362857 25:-0.012812912 26:-0.072419241 27:0.11248435 28:-0.096618429 29:0.067218728 30:0.04749696 31:-0.001384532 32:0.009351642 33:0.011627939 34:-0.001123329 35:-0.003830008 36:-0.00929497 37:0.10977101 38:0.010233455 39:-0.099885881 40:0.060623389 41:-0.022581952 42:0.011882461 43:0.023950433 44:0.028941654 45:-0.001032669 46:0.005342593 47:-0.017092021 48:0.039989654 49:-0.11814195 50:-0.014934885 51:0.018747695 52:0.011624331 53:-0.006296834 54:0.028622111 55:0.007266041 56:-0.014510303 57:-0.033811431 58:0.027066475 59:-0.001620079 60:-0.021113239 61:-0.02467919 62:-0.026205987 63:-0.011836222 64:0.007103169 65:-0.017031088 66:-0.004694523 67:0.028769314 68:-0.026435679 69:-0.034885019 70:0.018374607 71:0.01907005 72:-0.061290536 73:-0.025964661 74:-0.052930944 75:-0.028778637 76:0.016473448 77:-0.01526304 78:0.063176565 79:0.094847471 80:-0.049443319 81:0.008094606 82:0.031950485 83:-0.001601396 84:0.12151722 85:0.028926034 86:-0.023498375 87:-0.0195769 88:-0.084342979 89:-0.026140379 90:0.001017923 91:0.021418538 
-0 5 0 0 0 0 1:-0.030500563 2:0.021779394 3:0.032512885 4:-0.08890035 5:-0.097357035 6:-0.024250796 7:-0.001153036 8:0.010841957 9:-0.010212834 10:-0.004449379 11:-0.004235654 12:0.010451304 13:0.00376592 14:0.21385993 15:-0.16194478 16:-0.070824765 17:-0.032245494 18:-0.001848602 19:0.021258811 20:-0.034311511 21:-0.002685713 22:0.008651213 23:-6.9019e-05 24:-0.003003163 25:0.005399024 26:0.004343862 27:-0.011381602 28:-0.018767273 29:0.00924601 30:-0.00270244 31:-0.029040037 32:0.00167265 33:0.005782058 34:0.005689258 35:-0.004271085 36:-0.002914636 37:0.018939879 38:-0.055668756 39:-0.050330229 40:0.005646161 41:0.004949498 42:0.001945037 43:0.002444476 44:0.011506256 45:0.003781641 46:-0.006335624 47:-0.032415155 48:-0.033330303 49:-0.070646524 50:-0.014432361 51:0.014101272 52:-0.00374589 53:-0.006695673 54:-0.017688705 55:0.005756415 56:-0.037758023 57:0.089850947 58:0.052000988 59:-0.003814944 60:-0.017392514 61:-0.013997461 62:0.007746631 63:-0.015187542 64:0.021645999 65:-0.049702842 66:-0.018136764 67:0.005652508 68:-0.002318804 69:0.016567152 70:0.017481191 71:0.009734529 72:-0.054580469 73:-0.017536066 74:-0.005009601 75:0.004075816 76:0.013350501 77:-0.017818099 78:0.000675022 79:0.019951716 80:-0.000149833 81:-0.003063052 82:0.006931147 83:0.005955719 84:0.007120473 85:0.005282023 86:0.002733429 87:-0.021187976 88:-0.036140352 89:-0.015014354 90:0.055472862 91:0.018421372 
-0 5 3.908309390441226 2.0776469906268815 1.5864461419531453 0 1:-0.041586742 2:0.19209445 3:-0.094456241 4:-0.034496881 5:0.00201986 6:0.086169884 7:-0.036833763 8:-0.012576117 9:-0.014096031 10:0.004322689 11:-0.00539771 12:-0.002648281 13:-0.004046846 14:0.15586145 15:0.013183272 16:0.019814942 17:-0.006354391 18:0.083473362 19:-0.002320722 20:0.010104002 21:-0.004289463 22:0.011484802 23:0.004093787 24:-0.003260653 25:0.000710838 26:0.028724236 27:-0.021120956 28:-0.030235108 29:0.006245744 30:0.030478505 31:-0.017918067 32:-0.000769144 33:0.009527341 34:0.008291162 35:0.000528044 36:-0.00027537 37:-0.012654196 38:-0.070371397 39:8.9412e-05 40:0.008249882 41:-0.001089039 42:0.01639224 43:0.007707109 44:0.001666075 45:-0.002198083 46:-0.001536109 47:-0.020317471 48:-0.21553837 49:-0.012627329 50:0.003753314 51:0.013176497 52:0.028121395 53:-0.000893152 54:0.002629356 55:-0.004619746 56:-0.059876055 57:-0.01216013 58:-0.03504473 59:-0.015100782 60:0.00891519 61:0.002175969 62:0.010228822 63:0.000275898 64:-0.00218159 65:0.081111461 66:0.012652 67:-0.014266976 68:0.001370367 69:-0.009056515 70:0.001620048 71:0.033299088 72:-0.05370833 73:-0.018141659 74:-0.003699126 75:-0.001059856 76:-0.009172782 77:-0.015473552 78:-0.021481073 79:0.008136679 80:0.004439651 81:-0.011988952 82:0.00448845 83:0.00419133 84:-0.015437097 85:0.002666069 86:0.001663184 87:0.004417315 88:-0.010780392 89:0.002963657 90:0.025909238 91:0.009020314 
-0 0 0 0 0 2.7285292922529139 1:-0.031512044 2:-0.90771425 3:0.37303257 4:-0.028101647 5:-0.013596521 6:0.039225813 7:0.005287485 8:0.070345819 9:-0.02307621 10:0.002028728 11:-0.012789735 12:0.007285808 13:0.002726216 14:0.05631486 15:0.24524148 16:-0.088792734 17:0.043393407 18:0.1171756 19:0.086116612 20:-0.05902534 21:0.028860865 22:-0.010837188 23:0.008466617 24:-0.009090133 25:0.016884578 26:-0.057092171 27:-0.096785322 28:-0.044647947 29:0.1187557 30:0.057241946 31:-0.098505154 32:-0.024592696 33:-0.022458907 34:0.006421261 35:-0.006622897 36:0.004827387 37:-0.017435953 38:0.062695682 39:-0.084050454 40:0.075216547 41:-0.087960593 42:-0.029601261 43:0.024101267 44:-0.00911222 45:0.016824694 46:0.002186955 47:-0.053507272 48:-0.025480384 49:-0.19452834 50:-0.08449541 51:-0.009888285 52:0.020051042 53:-0.000833204 54:0.036465976 55:0.010793265 56:-0.06544479 57:-0.18741497 58:0.08764787 59:-0.030176859 60:-0.010850279 61:0.00692623 62:-0.013341823 63:0.027127316 64:0.012343997 65:0.026927833 66:0.10756374 67:-0.006093289 68:0.006987682 69:-0.048727799 70:-0.020539988 71:0.03672218 72:-0.023090953 73:-0.093088761 74:-0.009452065 75:-0.044180851 76:-0.04005355 77:-0.045472808 78:-0.011687992 79:-0.030183276 80:-0.015887186 81:-0.044793352 82:0.022689769 83:0.01872764 84:0.064703949 85:-0.035386089 86:0.006619588 87:2.4914e-05 88:0.036661875 89:-0.012885823 90:-0.022691865 91:0.003342871 
-0 3.9331638088130494 0.28294215790756772 0 0 0 1:-0.062729731 2:-0.32020113 3:-0.083568037 4:0.004692051 5:-0.055112403 6:0.020989459 7:0.022154644 8:0.052194845 9:-0.022687061 10:0.017353104 11:-0.004803904 12:0.00374102 13:0.00352304 14:0.12133528 15:0.09344814 16:-0.19064082 17:-0.045882426 18:0.072533332 19:-0.033700895 20:0.053533874 21:0.014332493 22:0.00137855 23:0.012108975 24:0.001062776 25:0.010215365 26:-0.001324245 27:-0.061843608 28:-0.062620014 29:-0.030037502 30:0.021312661 31:-0.072356805 32:-0.016286902 33:-0.028346116 34:0.009492902 35:-0.005104008 36:0.007387511 37:0.079060435 38:-0.17939959 39:0.066336758 40:0.11309294 41:-0.056121219 42:-0.028267439 43:-0.028271627 44:-0.008333175 45:0.006560423 46:-0.003571211 47:-0.050323199 48:-0.25283039 49:-0.14993301 50:0.050623808 51:-0.025430683 52:0.021009924 53:-0.00391514 54:0.028893605 55:-0.002894524 56:-0.1005998 57:-0.089288704 58:-0.12388517 59:-0.036308493 60:-0.022328194 61:0.006206276 62:0.002555119 63:0.023773685 64:0.042639732 65:0.17268658 66:0.051380925 67:-0.064561337 68:0.007375374 69:-0.046118155 70:0.026527656 71:0.076985456 72:0.058328047 73:0.074435033 74:-0.014541102 75:-0.023377243 76:-0.035869941 77:-0.01409626 78:-0.048892818 79:-0.009887123 80:-0.013822674 81:-0.019800946 82:-0.024319315 83:-0.00280986 84:-0.015615835 85:0.025190381 86:-0.001802499 87:0.060714502 88:-0.048906967 89:0.008364884 90:0.026226927 91:0.025662621 
-0 0 5 1.5760211840384379 0 0 1:0.005678697 2:-0.014655043 3:0.024975495 4:-0.030700235 5:-0.04948983 6:-0.028303945 7:-0.023642661 8:-0.006859837 9:-0.01941408 10:-0.00402937 11:-0.010797338 12:-0.001031793 13:-0.000327043 14:0.18504345 15:-0.29205903 16:-0.051942065 17:-0.042500231 18:-0.034918584 19:0.045120139 20:-0.028052906 21:0.002664158 22:-0.001267291 23:0.000321032 24:-0.007269943 25:0.001369543 26:-0.058856517 27:0.14567402 28:0.15163431 29:0.016531959 30:-0.010438875 31:-0.004508784 32:-0.006653308 33:0.000410091 34:0.006138247 35:0.001317025 36:-0.002435486 37:0.062243968 38:-0.015267412 39:-0.060392272 40:0.017563362 41:0.026877128 42:0.000302973 43:0.012687445 44:0.001783609 45:-0.000544187 46:0.004243788 47:-0.041071959 48:0.11645161 49:-0.089595012 50:-0.015948806 51:0.009391859 52:-0.00094538 53:-0.000947987 54:-0.007472886 55:-0.00109994 56:-0.008186162 57:0.017238472 58:0.028837776 59:-0.018781038 60:-0.020508651 61:-0.009032071 62:0.012793882 63:-0.002310656 64:0.017916823 65:-0.081783079 66:0.030618519 67:-0.003617067 68:0.007711873 69:0.010067778 70:-0.000360221 71:-0.013376173 72:-0.058605053 73:-0.011912483 74:-0.006412324 75:-0.016699716 76:0.003878235 77:-0.037080415 78:0.037836034 79:0.028062915 80:0.005112952 81:0.000832801 82:0.021914866 83:-0.000264053 84:-0.043842193 85:0.002479911 86:-0.007110558 87:0.033976413 88:-0.023243863 89:0.001168565 90:0.020063367 91:0.011671505 
-0 5 4.7902995808142563 0 0 0 1:-0.041325245 2:0.012984733 3:-0.12764241 4:-0.057244446 5:-0.074960276 6:-0.007615835 7:0.048827358 8:0.002917104 9:-0.002883978 10:-0.010664607 11:0.009892973 12:-0.004540627 13:0.000670825 14:0.16504709 15:-0.044329356 16:0.01495974 17:-0.007490127 18:0.005846722 19:0.019901354 20:-0.026766526 21:0.001406352 22:0.005020559 23:-0.001097619 24:0.00189975 25:0.002717437 26:0.014317993 27:-0.067707211 28:0.037611172 29:0.01988831 30:-0.032364246 31:-0.017422169 32:-0.030946095 33:0.004131229 34:0.006237356 35:0.001358236 36:-0.002599019 37:-0.004673238 38:-0.082837917 39:-0.030424321 40:-0.028390842 41:0.012348345 42:0.000430574 43:0.010344844 44:0.017448207 45:-0.002131247 46:-0.00013225 47:-0.041168232 48:-0.034758061 49:-0.070427939 50:-0.004660818 51:0.024557514 52:0.001236583 53:-0.021338006 54:0.002012394 55:0.001317929 56:-0.027755972 57:0.14232133 58:0.026434191 59:0.006529685 60:-0.020011935 61:-0.020073213 62:0.001392842 63:-0.002556984 64:0.044805095 65:-0.059599426 66:0.00758414 67:-0.01122503 68:0.001556921 69:-8.1822e-05 70:0.003460427 71:-0.012591341 72:-0.11562028 73:-0.011576409 74:-0.006197282 75:-0.00246213 76:0.002367347 77:-0.031488817 78:0.018517667 79:0.031726677 80:-0.003251244 81:-0.002500107 82:0.010614962 83:-0.042211916 84:-0.004220412 85:-0.001055887 86:-0.014332736 87:0.004945197 88:-0.007990221 89:-0.000767899 90:0.020527754 91:0.005925354 
-0 5 0 0 0 0 1:-0.016388336 2:-0.29258844 3:-0.20690014 4:-0.060202625 5:-0.11231047 6:-0.028749237 7:0.030603753 8:-0.013142666 9:-0.016594825 10:-0.015987115 11:0.012730214 12:-0.010614005 13:-0.004099374 14:0.17749676 15:0.16945921 16:0.004708513 17:-0.040740047 18:0.026921306 19:0.007158927 20:0.005733858 21:-0.012774752 22:0.008035615 23:-0.003970638 24:-0.017009841 25:0.001877407 26:0.040446002 27:0.062495828 28:0.004334589 29:0.019644724 30:-0.016572628 31:-0.010795673 32:-0.01659856 33:0.011728897 34:0.010595093 35:0.004753823 36:-0.010063093 37:0.040387906 38:-0.085704073 39:0.001929438 40:0.041526314 41:-0.01123511 42:0.002756367 43:0.014452393 44:0.026792891 45:-0.002057492 46:0.00456243 47:-0.06117731 48:-0.1279791 49:-0.034324989 50:-0.011544041 51:0.023305552 52:0.006209727 53:-0.031080473 54:-0.00564672 55:-0.001581394 56:-0.063163675 57:0.02262388 58:-0.003300506 59:0.001421618 60:-0.01424322 61:-0.031327657 62:0.011324926 63:-0.006154636 64:0.048228029 65:0.006599886 66:-0.005737297 67:0.005319585 68:-0.001858553 69:0.008935063 70:0.027206497 71:0.008804834 72:-0.041221175 73:-0.009191534 74:-0.032992359 75:0.008231761 76:0.012428068 77:-0.015000726 78:0.015522276 79:0.034817941 80:0.01581843 81:-0.003447697 82:0.008621205 83:0.020435667 84:-0.004703183 85:0.02867344 86:-0.006390174 87:-0.006310305 88:-0.012938182 89:-0.005197617 90:0.018827403 91:0.020326918 
-0 5 5 0 0 0 1:-0.03947876 2:-0.21662991 3:-0.16168927 4:-0.097141266 5:-0.092288665 6:0.002225688 7:0.096515276 8:-0.018940495 9:-0.007899459 10:-0.007330128 11:-0.002202885 12:-0.002811512 13:-0.002194916 14:0.17698877 15:-0.11160817 16:-0.007513011 17:-0.02299816 18:0.006058397 19:-0.012014331 20:-0.037947923 21:-0.005541849 22:0.010360954 23:-0.002285558 24:-0.006129216 25:0.0070102 26:0.010911241 27:-0.055163313 28:0.063418813 29:0.005617116 30:-0.055754069 31:-0.002342062 32:-0.01946133 33:0.008118916 34:0.003233628 35:-0.000439571 36:0.002768758 37:-0.001811575 38:-0.079102091 39:-0.018877273 40:-0.020809602 41:0.020540517 42:0.003744863 43:-0.011922868 44:0.013315125 45:0.002349762 46:0.003193698 47:-0.063427828 48:0.038148768 49:-0.10041647 50:0.00113137 51:0.014538147 52:0.016590875 53:-0.005654147 54:0.001521467 55:0.001590254 56:-0.046448957 57:0.18531759 58:0.039173678 59:0.004992723 60:-0.005909783 61:-0.019149695 62:0.010659046 63:-0.005923306 64:0.08702296 65:-0.13341221 66:-0.002175902 67:0.000380876 68:0.001430189 69:-0.005796763 70:0.005873327 71:-0.028151069 72:-0.056709658 73:-0.001828192 74:-0.00401285 75:-0.006531722 76:0.005451152 77:-0.022260698 78:-0.026820986 79:0.015672283 80:-0.001268698 81:-0.008727658 82:-0.008104904 83:-0.017483659 84:0.000573527 85:-0.009667275 86:-0.003199427 87:0.043709449 88:-0.00573439 89:0.011094242 90:-0.004062132 91:0.001690139 
-0 5 0 0 0 0 1:0.002887152 2:-0.21094325 3:-0.24398972 4:-0.05717377 5:-0.074024454 6:0.053238574 7:-0.010144442 8:-0.001744605 9:-0.011794331 10:-0.01353836 11:-0.00013877 12:-0.005091817 13:-0.008470577 14:0.21389103 15:-0.029585537 16:-0.032410238 17:-0.015944537 18:0.028700659 19:0.034269705 20:-0.033817563 21:-0.003652298 22:0.009905438 23:-0.002846643 24:-0.003667563 25:0.001215482 26:0.002646587 27:-0.015852425 28:-0.010709474 29:0.018677445 30:-0.000222523 31:-0.032164089 32:0.002378232 33:0.004469062 34:0.003909535 35:0.000858114 36:0.003696197 37:0.032057807 38:-0.06397979 39:-0.036980178 40:0.004185245 41:0.008835552 42:-0.011159563 43:0.006736502 44:0.022754578 45:-0.008757361 46:-0.00643303 47:-0.037222277 48:-0.009764045 49:-0.034325451 50:-0.007901175 51:0.016613254 52:0.001832869 53:-0.017169876 54:0.003017358 55:-0.002863657 56:-0.036514129 57:0.096172087 58:0.033015892 59:0.019558316 60:-0.013893354 61:-0.015127522 62:0.00488403 63:-0.002368835 64:0.046486899 65:-0.0891371 66:-0.001990657 67:0.001129633 68:0.000444678 69:0.00555536 70:-0.001789865 71:-0.021444621 72:-0.03249605 73:-0.009747177 74:-0.007020998 75:-0.006171735 76:0.01029409 77:-0.000994874 78:0.021163095 79:0.039803389 80:-0.015581307 81:-0.005882376 82:0.013965105 83:-0.024436302 84:0.003142647 85:0.000796811 86:-0.025724387 87:0.006487658 88:0.009186808 89:-0.009324418 90:-0.008822178 91:-0.002146614 
-0 3.7306180735412844 5 5 1.0895714460080557 0 1:-0.053163823 2:-0.21045442 3:-0.19201671 4:-0.054130487 5:-0.10153285 6:0.047948983 7:-0.018332442 8:0.019663865 9:-0.015761407 10:-0.009785302 11:-0.016110744 12:-0.006279262 13:-0.005217898 14:0.14763957 15:-0.12148471 16:-0.016875589 17:-0.029081115 18:-0.022818096 19:0.022769496 20:-0.020553675 21:-0.025387578 22:0.014474636 23:-0.00907209 24:-0.003182791 25:-0.005528275 26:0.049885966 27:0.013510801 28:0.009947299 29:0.059437994 30:-0.02753374 31:-0.06423156 32:-0.000262956 33:-0.006116811 34:-0.004553906 35:0.004173736 36:-0.002814098 37:0.01364196 38:-0.07072065 39:-0.060725152 40:-0.023829825 41:0.01476723 42:0.011434183 43:-0.011785989 44:0.012025753 45:-0.000797248 46:-0.005123047 47:-0.019814175 48:0.12793055 49:-0.031803392 50:-0.055700321 51:0.018135965 52:0.003739381 53:0.013334918 54:-0.013160466 55:-0.001461018 56:-0.045722667 57:0.034314003 58:0.027016353 59:0.031135533 60:-0.003836515 61:-0.019806681 62:0.01735846 63:0.000247872 64:0.000305232 65:-0.1844819 66:-0.020800484 67:0.018838517 68:-0.013605036 69:0.007213966 70:-0.011928535 71:-0.009696239 72:0.031042675 73:0.010911834 74:-0.019113824 75:-0.006672358 76:0.01197436 77:0.002391385 78:0.038084943 79:0.004201802 80:0.014026623 81:0.006557615 82:0.024101805 83:0.04158337 84:-0.005923915 85:0.000826722 86:0.015684566 87:0.062001377 88:0.0067928 89:0.015732244 90:-0.091387823 91:-0.025433345 
-0 0 0 0.21168063551190439 0 0 1:-0.045098677 2:-0.66789126 3:-0.026499333 4:0.000320282 5:-0.12891701 6:0.025804758 7:-0.06227332 8:0.046905935 9:0.025618521 10:-0.020446479 11:0.009471454 12:0.013606956 13:-0.003482717 14:0.16756345 15:0.2058827 16:-0.091890112 17:0.004156137 18:0.050124388 19:0.048969433 20:-0.020806713 21:-0.052888341 22:0.019100621 23:-0.017167121 24:0.01170544 25:0.014598762 26:0.073014438 27:0.07077489 28:-0.026660593 29:0.16726609 30:0.055261351 31:-0.057640508 32:0.034831408 33:-0.001185216 34:-0.015511362 35:-0.008790827 36:0.009737674 37:0.024819238 38:0.048598513 39:-0.041581415 40:0.035295133 41:0.008611426 42:0.068426542 43:0.016201209 44:0.05809762 45:0.015317149 46:-0.008907173 47:-0.025407264 48:0.14607517 49:0.002764406 50:-0.099433944 51:0.056156121 52:0.001342389 53:-0.000738942 54:0.018642087 55:0.01164278 56:-0.02109983 57:-0.043016568 58:0.10954383 59:0.079224095 60:-0.025195811 61:-0.034632798 62:0.022495862 63:-0.0009017 64:0.019854831 65:-0.17705731 66:-0.11244678 67:-0.009332513 68:-0.006099396 69:0.028651586 70:-0.014145252 71:-0.035074964 72:-0.021959407 73:-0.077836297 74:-0.042907309 75:0.037692189 76:0.016207615 77:-0.016941391 78:0.005788462 79:0.092126474 80:0.041308351 81:0.017716212 82:0.029448831 83:0.014127877 84:0.041692521 85:0.013343574 86:-0.012333563 87:0.031381447 88:0.022506965 89:-0.007679575 90:-0.029057298 91:-0.018010462 
-0 5 0 0 0 0 1:-0.052078176 2:-0.11348475 3:-0.18284483 4:-7.055e-05 5:-0.10143703 6:0.013967003 7:0.030156707 8:0.022486135 9:0.00059052 10:-0.007778211 11:0.016414965 12:-0.007189172 13:-0.007880001 14:0.18841037 15:-0.080640055 16:-0.052602109 17:-0.041373409 18:0.009544557 19:0.032616943 20:-0.027624048 21:-0.015225969 22:0.015685562 23:-0.009479556 24:-0.000407951 25:-0.000361017 26:0.036428608 27:0.078351863 28:0.047216587 29:0.024282582 30:-0.014282991 31:-0.034883194 32:-0.02482589 33:0.003355289 34:0.006688483 35:0.008074425 36:0.002613414 37:0.025455641 38:-0.052129243 39:-0.024448376 40:0.048182026 41:0.009503629 42:0.004445588 43:0.007093155 44:0.01514612 45:-0.003531912 46:0.000530359 47:-0.048131023 48:-0.10435253 49:-0.072098002 50:-0.036827974 51:0.016256407 52:-0.005187467 53:-0.028840577 54:0.003523837 55:-0.007233706 56:-0.066901445 57:0.078764454 58:0.019027382 59:-0.005982898 60:-0.025679428 61:-0.001984781 62:0.00540685 63:-0.002087884 64:0.018444104 65:0.01996032 66:0.01679785 67:-0.002168118 68:0.014682179 69:-0.012869383 70:0.007089528 71:0.023431236 72:-0.086651236 73:-0.000951606 74:-0.029012924 75:-0.005715644 76:-0.001007958 77:-0.024975421 78:0.044398569 79:0.014944815 80:-0.014673799 81:-0.007020661 82:0.017394045 83:-0.063370533 84:-0.004051964 85:0.007889539 86:-0.014700562 87:0.003706114 88:-0.016458383 89:0.003432776 90:0.020196646 91:0.008103013 
-0 0 4.7604155301902775 0 0 0 1:-0.048016697 2:-0.12415586 3:-0.066926643 4:-0.082287349 5:-0.039368119 6:-0.003133063 7:-0.035567246 8:-0.00053692 9:-0.008956058 10:-0.019394541 11:-0.00508397 12:-0.010668258 13:-0.007386876 14:0.20643166 15:-0.1931714 16:-0.004775569 17:-0.034465674 18:0.029856654 19:-0.002007066 20:-0.002266186 21:-0.019007687 22:0.002813337 23:-0.003475394 24:0.000217775 25:-0.004645589 26:-0.008655494 27:0.043639671 28:0.097137079 29:0.005806465 30:-0.023710696 31:-0.030807514 32:-0.000265921 33:0.010828393 34:-0.000509379 35:0.001217482 36:0.000312557 37:0.027706018 38:-0.078036703 39:0.027709506 40:0.003433336 41:-0.005441643 42:0.008978955 43:0.011287411 44:0.0114251 45:-0.005193621 46:-0.000343902 47:-0.062199313 48:-0.13074566 49:-0.056686081 50:-0.001959368 51:0.001329496 52:0.000634129 53:0.002609364 54:0.006883972 55:0.006193128 56:-0.064287215 57:0.01315418 58:-0.007211553 59:0.001206265 60:-0.02592444 61:-0.007581629 62:0.00972452 63:-0.007244556 64:0.014782834 65:0.06798318 66:-0.000940852 67:-0.011515911 68:0.008249388 69:-0.010409242 70:-0.011202723 71:0.028669486 72:-0.064924963 73:-0.018560687 74:-0.01011732 75:-0.008929337 76:0.001658435 77:-0.020769818 78:0.048613317 79:-0.005041604 80:-0.007472224 81:0.001876259 82:0.020097176 83:0.023211142 84:-0.011513688 85:-0.006179366 86:0.00754796 87:0.012078084 88:-0.00434518 89:0.005339175 90:-0.053879209 91:-0.006712396 
-0 0.99564319544019453 0 0 0 0 1:-0.080378644 2:-0.095011994 3:-0.017677188 4:-0.10790299 5:-0.10696487 6:0.040703792 7:-0.021303665 8:0.020802204 9:-0.007269253 10:-0.011098372 11:-0.00551029 12:-0.006972748 13:-0.002172772 14:0.11953622 15:-0.10327961 16:-0.015909093 17:-0.030310292 18:0.031049261 19:0.014204893 20:-0.026964493 21:0.004667214 22:-3.2295e-05 23:-0.001274469 24:-0.001345887 25:-0.001901548 26:-0.005657437 27:-0.046453021 28:0.050596308 29:3.2073e-05 30:0.026636604 31:-0.051318929 32:-0.021025406 33:0.009698684 34:0.005159451 35:0.000983338 36:0.002924927 37:0.003578037 38:-0.019625938 39:0.060409259 40:0.009383526 41:-0.014332117 42:0.008299798 43:0.016089967 44:0.011448098 45:-0.00559354 46:0.004406888 47:-0.032397967 48:-0.26456657 49:-0.088069059 50:-0.012480194 51:0.003458909 52:-0.001301252 53:-0.004942649 54:-0.00329458 55:-0.005449425 56:-0.074542738 57:-0.06796059 58:-0.000531032 59:-0.011295707 60:-0.026385799 61:-0.005894385 62:0.00501585 63:0.007022575 64:0.000821747 65:0.088989355 66:0.063346855 67:-0.002555719 68:-0.002389035 69:0.005390651 70:0.001910688 71:0.022159364 72:-0.074316449 73:-0.027538968 74:-0.004529091 75:0.012903827 76:-0.020199846 77:-0.032281347 78:0.034206979 79:-0.006823187 80:0.004558983 81:-0.004881241 82:0.016345127 83:0.008589682 84:0.003787897 85:0.007106157 86:0.003995565 87:-0.024984626 88:-0.010772206 89:-0.006530622 90:0.067566618 91:0.013613337 
-5 1.3180588158559701 0 0 0 0 1:-0.070690438 2:-0.004046958 3:-0.12966684 4:-0.03618649 5:-0.080437236 6:-0.009397143 7:-0.000925245 8:0.007323205 9:0.010517395 10:-0.015548033 11:0.008163289 12:-0.007843793 13:-0.004517487 14:0.15192503 15:-0.19158778 16:-0.019044813 17:0.00275608 18:0.01463917 19:0.019748518 20:0.026827581 21:-0.003973079 22:0.008096199 23:0.0011848 24:0.00500123 25:-0.000458376 26:0.016121265 27:0.037953816 28:-0.034331925 29:0.025452398 30:0.058551602 31:-0.005953056 32:-0.037313472 33:0.008166521 34:-0.01216888 35:0.005388474 36:0.006751243 37:0.013696496 38:0.094073452 39:0.036255073 40:0.045775067 41:0.003682411 42:-0.018451048 43:-0.000509883 44:0.018431148 45:-0.006232461 46:0.000235128 47:0.00351547 48:-0.10809879 49:-0.055950355 50:0.015978385 51:-0.027917869 52:0.003425871 53:0.042599838 54:0.003381211 55:-0.005890449 56:-0.052365839 57:0.052978314 58:-0.099076509 59:-0.026119823 60:-0.024099004 61:0.008397676 62:0.010808297 63:-0.00232298 64:0.0050237 65:0.11434676 66:0.062804915 67:-0.016268149 68:0.016493924 69:0.004564835 70:-0.001904036 71:0.046745609 72:-0.079578795 73:0.016577004 74:0.024457101 75:0.008464777 76:-0.008247418 77:-0.0279488 78:-0.012843712 79:-0.052042928 80:0.006031767 81:0.003377925 82:-0.002796148 83:0.089956529 84:-0.000935749 85:-0.007655461 86:0.025176775 87:-0.022796169 88:-0.002010112 89:-0.004104133 90:0.008513888 91:0.003721941 
-0 0 0 0 0 0.13880773724730824 1:-0.041262425 2:-0.79048377 3:0.10650363 4:-0.06159018 5:-0.069210894 6:0.12438154 7:0.017900981 8:0.03930733 9:-0.013438748 10:-0.022679487 11:-0.004034898 12:-0.002571337 13:-0.001860033 14:0.05944936 15:0.091170967 16:-0.033925511 17:0.007225132 18:0.080322042 19:0.08602009 20:-0.056734107 21:-0.001708238 22:0.006447037 23:-0.009997192 24:0.002061339 25:0.006368496 26:-0.065818891 27:0.013135267 28:-0.1238065 29:0.12270854 30:0.022743188 31:-0.12738453 32:0.003239139 33:-0.013957345 34:-0.015930075 35:0.002580715 36:-0.002267949 37:-0.000505823 38:0.097806901 39:-0.1043231 40:0.018283781 41:-0.044832777 42:-0.013350502 43:0.0214832 44:0.011522304 45:-0.014802934 46:0.000440266 47:0.013132799 48:0.25807363 49:-0.12445885 50:-0.058214031 51:0.055229779 52:0.036952402 53:-0.017589783 54:-0.014850191 55:0.016999019 56:-0.035213459 57:0.014795789 58:0.096427098 59:0.030293558 60:-0.008135727 61:-0.019773878 62:0.002722692 63:-0.010411377 64:0.061182559 65:-0.21221028 66:-0.056285985 67:-0.002257588 68:-0.041324489 69:0.028632736 70:-0.003421337 71:-0.000616841 72:-0.054363385 73:-0.061695419 74:-0.042447686 75:-0.013551367 76:0.023912214 77:0.009442504 78:0.047169518 79:0.059188019 80:0.012119752 81:0.013516815 82:0.0198132 83:0.039832398 84:0.034238931 85:0.038328011 86:-0.028043356 87:0.040379155 88:0.007755793 89:-0.031818256 90:-0.034937494 91:-0.007292422 
-0 5 1.9633060620383973 0 0 0 1:-0.024294468 2:-0.00465679 3:0.010268114 4:-0.038031965 5:-0.048400704 6:-0.018378282 7:0.11509869 8:0.000771955 9:-0.013695195 10:-0.00616622 11:-0.004060031 12:0.00011065 13:0.005616614 14:0.18706225 15:-0.10896976 16:-0.064253047 17:-0.021629877 18:0.042236112 19:0.022927921 20:-0.052321862 21:0.00233463 22:0.000439672 23:0.001943825 24:0.00135184 25:0.001095353 26:-0.045691181 27:0.09539324 28:0.047429305 29:0.007496773 30:-0.006498046 31:-0.000460092 32:0.005154199 33:0.014411068 34:0.002757799 35:0.002243579 36:0.007291021 37:0.060717601 38:-0.092733137 39:0.027051335 40:0.052495241 41:0.00147751 42:-0.011401479 43:-0.009147093 44:0.002633647 45:0.002880777 46:-0.004363179 47:-0.051811259 48:-0.097981542 49:-0.16800453 50:-0.019968558 51:-0.00329048 52:-0.007561082 53:0.004674344 54:0.006112378 55:0.004468177 56:-0.041806743 57:0.093118846 58:0.039328348 59:-0.013440005 60:-0.016519565 61:0.01147086 62:-0.012261542 63:-0.014496469 64:0.06802357 65:-0.069672175 66:0.018490119 67:-0.007157912 68:0.00575482 69:-0.008797687 70:0.035828017 71:-0.020057015 72:-0.005784885 73:0.010027454 74:0.001703917 75:-7.4419e-05 76:0.00877641 77:-0.011723215 78:0.027435245 79:0.008101558 80:-0.008591817 81:-0.003945841 82:0.005130563 83:0.01080572 84:0.014424294 85:0.016499536 86:-0.000421793 87:0.004271477 88:-0.034868076 89:-0.003246652 90:0.045385215 91:0.022116989 
-5 5 0 0 0 0 1:-0.014564728 2:0.16858584 3:-0.16216871 4:-0.010774217 5:-0.082880251 6:-0.000226414 7:-0.000915273 8:-0.01367457 9:-0.002925878 10:-0.006477746 11:-0.004223905 12:-0.008429714 13:0.000111826 14:0.19840133 15:-0.17393731 16:-0.06651675 17:0.003450419 18:0.020066172 19:0.021674259 20:-0.01594203 21:0.002123318 22:-0.000153605 23:0.005679918 24:-0.000515564 25:0.000118544 26:0.020119481 27:0.058072366 28:-0.029822242 29:0.03272666 30:0.035861231 31:-0.003276539 32:-0.014949228 33:0.011268589 34:0.006376002 35:0.004272184 36:-0.004015997 37:0.028736543 38:0.075224154 39:-0.020581895 40:0.028525263 41:-0.012933552 42:-0.004702951 43:-0.005477782 44:0.003870276 45:0.001892348 46:-0.000999916 47:-0.004932865 48:-0.028818473 49:-0.059463967 50:-0.028542891 51:-0.00087026 52:-0.002799977 53:-0.008833777 54:0.007003363 55:0.001751161 56:-0.043836515 57:0.094350472 58:0.003601585 59:-0.011421183 60:-0.020872606 61:-0.008016943 62:-0.00525663 63:-0.00086567 64:0.019998187 65:-0.045485884 66:0.03894484 67:-0.018076448 68:-0.013025595 69:-0.010301484 70:0.008899366 71:0.000981986 72:-0.054925937 73:0.024662038 74:-0.008756799 75:-0.002120109 76:0.002225628 77:-0.012081169 78:-0.030243874 79:0.014206202 80:-0.012713092 81:0.003111577 82:-0.008886669 83:-0.051115122 84:0.004902722 85:0.000326436 86:-0.005975482 87:-0.022844102 88:-0.012919433 89:-0.002613429 90:0.042615786 91:0.014493334 
-0 5 0 0 0 0 1:-0.039596628 2:-0.20922534 3:-0.25562635 4:-0.059556182 5:-0.070357129 6:-0.003564938 7:0.036223751 8:0.015236677 9:-0.024094248 10:-0.013315545 11:0.005928019 12:-0.006061363 13:-0.008714894 14:0.2012931 15:-0.10750859 16:-0.01042737 17:0.003817508 18:0.052336834 19:0.043296073 20:-0.04122106 21:0.008024365 22:-0.004751713 23:0.010334385 24:-0.003262818 25:0.005218321 26:0.017807897 27:-0.04088448 28:-0.049461879 29:0.013365532 30:0.073971666 31:-0.031163225 32:-0.009375099 33:-0.001143544 34:-0.001578415 35:-0.003912047 36:-0.001015345 37:0.008720423 38:0.092347413 39:-0.003570562 40:0.038765516 41:-0.034657825 42:-0.014490946 43:0.030729689 44:-0.021031655 45:0.00279283 46:-0.00360671 47:0.009343849 48:-0.027596161 49:-0.093802869 50:-0.02346071 51:0.001842639 52:0.013434351 53:0.04086427 54:0.003116699 55:0.000656175 56:-0.034542691 57:0.023400927 58:-0.002174924 59:-0.013604507 60:-0.007848824 61:0.029435836 62:-0.019068141 63:-0.00235789 64:0.042343117 65:-0.043964133 66:0.024512453 67:0.008729861 68:0.024238212 69:0.006040546 70:-0.018764451 71:0.002473222 72:0.007139946 73:-0.023881407 74:0.031920705 75:0.009272348 76:0.010470823 77:-0.009499788 78:0.030241124 79:-0.04571354 80:-0.007381659 81:-0.001254558 82:0.016603755 83:0.01135332 84:0.016456103 85:-0.013073876 86:0.006718782 87:-0.049201436 88:0.0157772 89:-0.017885108 90:-0.059124663 91:-0.014941398 
-0 0 0 0 0 0.1327361587312377 1:-0.05860652 2:-0.85999632 3:-0.19796392 4:-0.055573583 5:-0.057434618 6:-0.034742732 7:0.013084875 8:-0.026297485 9:-0.026841374 10:-0.001959297 11:0.005922259 12:0.021022061 13:0.012499049 14:0.17413755 15:-0.20371613 16:-0.12520161 17:0.044477526 18:0.061232246 19:0.059897307 20:-0.033986334 21:0.022637952 22:-0.008643576 23:0.019382929 24:-0.024127707 25:-0.01530595 26:-0.043880157 27:0.10223664 28:-0.10843585 29:0.010556233 30:0.13569064 31:-0.032428928 32:-0.043445256 33:-0.009638532 34:-0.015450138 35:-0.009985945 36:-0.000241484 37:0.061526086 38:0.18144396 39:0.035971899 40:0.11215351 41:-0.044261288 42:-0.048016451 43:0.05839093 44:-0.011043805 45:0.000868665 46:-0.017262712 47:0.014667873 48:0.058350168 49:-0.16666116 50:0.007139005 51:-0.036655005 52:0.038273305 53:0.079705745 54:-0.006105723 55:0.0155023 56:-0.062151816 57:-0.006409221 58:-0.04844635 59:-0.049140844 60:0.026337208 61:0.015809702 62:-0.039914459 63:0.017942248 64:0.033985738 65:-0.048625022 66:0.072539747 67:0.039328456 68:0.056674208 69:0.01620185 70:-0.020397115 71:0.023608509 72:-0.12630382 73:-0.051133379 74:0.068574585 75:0.00540891 76:-0.038220573 77:-0.043948192 78:0.051434789 79:-0.13388729 80:-0.040405914 81:-0.036874373 82:0.023440178 83:0.16721822 84:0.091875076 85:-0.025213638 86:0.06453488 87:-0.072890706 88:-0.021143107 89:-0.062059071 90:-0.017481733 91:0.025559939 
-0 0 0 0 0 2.1862304676297861 1:-0.084425665 2:-0.68794841 3:0.19029342 4:-0.13870254 5:-0.17298414 6:-0.000493483 7:-0.071973652 8:-0.030725095 9:-0.035041928 10:-0.014018196 11:0.001524409 12:-0.005066303 13:-0.007506703 14:0.07391417 15:-0.025796466 16:0.017923243 17:-0.051278722 18:0.012080444 19:0.047154833 20:-0.007940474 21:-0.020856433 22:0.022148438 23:-0.029319778 24:0.015008271 25:-0.007267721 26:-0.082006156 27:0.05413961 28:-0.028801784 29:0.022049472 30:0.034590624 31:-0.000204956 32:0.003679974 33:-0.002900442 34:-0.004565863 35:-0.012707423 36:-0.007605901 37:0.027523676 38:0.097562648 39:-0.013214022 40:0.021262363 41:-0.00036896 42:-0.012556441 43:0.016051641 44:0.027471762 45:-0.007211938 46:0.009972152 47:0.002121614 48:-0.008007564 49:-0.033350736 50:0.005077483 51:0.011727883 52:0.017339893 53:-0.008205478 54:0.016702412 55:0.001870965 56:-0.049577389 57:-0.083580919 58:0.057014238 59:-0.002946716 60:-0.011651583 61:-0.009601051 62:-0.016089853 63:-0.009324686 64:-0.023791319 65:-0.030053319 66:-0.048458435 67:0.000581214 68:-0.014544905 69:-0.033501711 70:0.001842051 71:-0.03119494 72:-0.027809113 73:-0.10177546 74:-0.013257704 75:-0.007673022 76:0.000830172 77:0.006676514 78:0.079916663 79:0.12117287 80:-0.010893864 81:0.006375681 82:0.04584077 83:-0.014524876 84:0.089158662 85:0.016797161 86:-0.042845074 87:-0.05304417 88:-0.052447692 89:-0.025495557 90:0.032100447 91:0.022577416 
-0 5 0 1.0383884714781917 0 0 1:-0.007021038 2:-0.057620429 3:-0.006924285 4:-0.08119002 5:-0.05773915 6:0.019837748 7:0.017170938 8:-0.030253347 9:-0.016376831 10:-0.00938895 11:0.000343451 12:-0.005368288 13:-0.005213286 14:0.23222618 15:-0.031225005 16:-0.03414714 17:-0.012206573 18:0.050764844 19:-0.05415738 20:-0.003301551 21:-0.005744231 22:0.014720648 23:-0.003117692 24:0.006624002 25:-0.001041387 26:-0.009735132 27:-0.085547611 28:-0.021517392 29:-0.024184464 30:-0.004624591 31:0.007890724 32:-0.00394551 33:0.00559632 34:0.004038703 35:-0.00481257 36:0.005738087 37:-0.00673593 38:-0.000395657 39:0.02530566 40:-0.000554264 41:0.001576289 42:0.016390542 43:0.005036847 44:0.00342865 45:-0.009756146 46:0.001658647 47:-0.030013837 48:-0.04112735 49:-0.047451887 50:0.029480705 51:0.027813144 52:0.011887256 53:-0.010175086 54:0.003561143 55:0.000837358 56:-0.046907347 57:0.088284336 58:-0.010553861 59:-0.003777987 60:-0.003623464 61:-0.005286608 62:-0.000151444 63:-0.002187013 64:0.049715228 65:-0.065116458 66:-0.007409528 67:-0.005969485 68:-0.020166751 69:-0.01044952 70:-0.002774652 71:-0.004992776 72:-0.052843262 73:-0.033198874 74:-0.016637668 75:-0.013262021 76:0.002247239 77:-0.017480494 78:-0.001809381 79:0.044946991 80:-0.015416618 81:-0.00622886 82:0.008289263 83:-0.025845218 84:0.029633289 85:-0.00304209 86:-0.016862251 87:0.007149185 88:-0.015675422 89:-0.006315681 90:-0.008359453 91:0.006910494 
-0 5 0 0 0 0 1:-0.002563149 2:-0.16919307 3:0.005384191 4:-0.074202381 5:-0.065955766 6:0.027170038 7:0.055508506 8:-0.003285179 9:-0.020718226 10:-0.004201637 11:-0.008113391 12:0.000794368 13:-0.001695047 14:0.20779014 15:-0.067792878 16:-0.004391719 17:-0.028603464 18:0.029683582 19:-0.017720118 20:-0.028403008 21:0.011850824 22:-0.001361684 23:-0.001626844 24:-0.000282075 25:0.008504339 26:-0.047955167 27:-0.015155486 28:0.051936761 29:0.019025953 30:-0.019255016 31:-0.007716426 32:-0.00638741 33:-0.013174226 34:0.005828115 35:0.00577791 36:0.001443739 37:-0.013218373 38:-0.033569854 39:0.008793827 40:-0.003630577 41:0.010163629 42:-0.010937867 43:0.010444463 44:0.005766149 45:-0.007432067 46:0.004722625 47:-0.051409375 48:-0.069075227 49:-0.14562604 50:-0.011085972 51:-0.000574062 52:0.027039636 53:-0.022969918 54:0.003266313 55:-0.004298242 56:-0.063105591 57:0.11441986 58:0.066447042 59:-0.014791739 60:-0.006874921 61:0.015731629 62:0.01886801 63:-0.004709817 64:0.081321493 65:-0.03462889 66:0.029918952 67:0.010663415 68:0.009918087 69:-0.024345223 70:-2.7574e-05 71:-0.004651492 72:-0.017033899 73:-0.037338164 74:0.004537873 75:-0.013412544 76:-0.011928026 77:-0.007392251 78:-0.022475114 79:0.029850107 80:0.013051765 81:-0.002300715 82:0.003433306 83:-0.036352843 84:-0.014185009 85:0.010438246 86:-0.023132605 87:0.052097194 88:-0.005133365 89:0.014293459 90:-0.009160656 91:-0.000940978 
-0 0 0 0 0 0.63340158775166433 1:-0.087682553 2:-0.51904112 3:0.22219026 4:-0.025199043 5:-0.17182523 6:-0.054961842 7:0.000879315 8:-0.031919163 9:0.017683899 10:-0.009383129 11:-0.024603412 12:0.027639167 13:-0.009451762 14:0.14327277 15:-0.38228804 16:-0.18933602 17:-0.028840968 18:-0.029221805 19:0.032613795 20:0.01615849 21:-0.0097425 22:-0.003145474 23:-0.006396909 24:-0.001206459 25:-0.008923329 26:-0.098732695 27:0.085437119 28:-0.11651384 29:-0.027269578 30:0.1018324 31:0.026656905 32:-0.064126663 33:0.004355755 34:0.004667247 35:-0.010792971 36:0.004128915 37:0.085867643 38:0.2391354 39:0.072928391 40:0.053540006 41:0.022861114 42:-0.013553896 43:0.015177039 44:0.001329748 45:0.046592399 46:0.015745705 47:0.042659126 48:-0.087081775 49:-0.16066876 50:-0.016900754 51:-0.034180235 52:0.003232825 53:0.011428361 54:-0.002930176 55:0.000928706 56:-0.07086917 57:-0.000156465 58:-0.076976024 59:-0.068917438 60:-0.02800631 61:0.000865814 62:-0.060908243 63:-0.009494484 64:0.011872365 65:0.003134467 66:0.19038022 67:0.030913925 68:-0.007179609 69:-0.013484056 70:-0.013875736 71:0.018681789 72:-0.19779989 73:-0.043802403 74:0.008077138 75:-0.028043285 76:0.000745153 77:-0.073852494 78:0.018374892 79:-0.027807724 80:-0.056698393 81:-0.001512529 82:0.027944017 83:0.055486351 84:0.14055486 85:0.024932561 86:0.015592814 87:-0.099180505 88:-0.020324934 89:-0.044116206 90:-0.048602503 91:0.005035875 
-0 5 0 0 0 0 1:-0.03210967 2:-0.013487319 3:-0.12149163 4:-0.041881435 5:-0.073943675 6:0.030126782 7:0.040873244 8:-0.034546476 9:0.007124283 10:-0.000427706 11:-0.008526816 12:0.009639452 13:-0.001900729 14:0.18899919 15:-0.17172889 16:-0.019177351 17:-0.00687341 18:-0.002860733 19:-0.000956676 20:0.00556882 21:-0.006508522 22:-0.009456956 23:0.001456924 24:-0.009060233 25:0.001165968 26:-0.020446764 27:-0.003874404 28:-0.035550404 29:0.037826546 30:0.04252737 31:0.010337939 32:-0.045686364 33:0.004421781 34:-0.007028547 35:-0.003111126 36:0.007414987 37:0.016697014 38:0.084177472 39:0.048386399 40:0.039669856 41:0.008448395 42:0.004403102 43:0.026127836 44:-0.000486319 45:0.021387048 46:0.002588282 47:0.018219009 48:-0.11221115 49:-0.08334323 50:0.010675758 51:-0.00844307 52:-0.014010401 53:0.034972131 54:-0.000317909 55:-0.000547646 56:-0.057205897 57:0.15529926 58:-0.043703005 59:-0.033200897 60:-0.002452515 61:0.003852979 62:-0.031575173 63:-0.001279166 64:0.049339831 65:-0.011118747 66:0.076010905 67:0.009939257 68:-0.000815144 69:-0.004745891 70:0.006763028 71:0.01678233 72:-0.12751675 73:-0.012243447 74:0.014279317 75:-0.008707316 76:-0.018192003 77:-0.050239038 78:0.09934511 79:-0.024501251 80:-0.019434322 81:-0.009566749 82:0.032608669 83:0.091713965 84:0.052830033 85:-0.009900548 86:0.025126029 87:-0.078558788 88:-0.003750345 89:-0.025873445 90:0.02454582 91:0.006845022 
-2.5217706953793413 5 5 0 0 0 1:-0.064018637 2:0.10183927 3:-0.064209774 4:-0.002689498 5:-0.055817436 6:0.032598481 7:-0.040681448 8:-0.0145401 9:-0.010791562 10:-0.001300074 11:-0.00484029 12:-0.001413915 13:-0.001079745 14:0.13750829 15:-0.14402752 16:-0.027699361 17:-0.004190213 18:0.020331681 19:0.000737048 20:-0.004531551 21:0.003444344 22:3.2595e-05 23:0.000544896 24:-0.002204418 25:0.000691465 26:0.009825813 27:-0.059102185 28:0.050476994 29:0.022975679 30:0.009905148 31:-0.000874045 32:0.000462272 33:-0.001154917 34:0.008336866 35:0.001701598 36:0.000657075 37:0.008503372 38:-0.014077636 39:0.021304965 40:0.011548246 41:0.013206546 42:-0.014159358 43:0.009124696 44:0.005872142 45:0.000775217 46:0.003415977 47:-0.022674441 48:-0.18940255 49:-0.020897593 50:-0.009387476 51:0.002735596 52:0.016048219 53:0.003421172 54:0.000887062 55:-0.001745832 56:-0.053455036 57:-0.018771075 58:-0.000350016 59:-0.012427122 60:-0.011249755 61:-0.008497546 62:0.001030915 63:-0.006192478 64:-0.005461499 65:0.005483383 66:0.028451877 67:0.014219033 68:-0.002347282 69:-0.001542711 70:0.002557716 71:0.007273871 72:-0.016563335 73:-0.018190436 74:-0.009778534 75:-0.0014454 76:-0.000390348 77:-0.015028682 78:0.000155747 79:-0.004875905 80:-0.003323377 81:-0.001449019 82:0.008127311 83:0.013629644 84:0.009735215 85:0.011881121 86:0.00508142 87:-0.019048691 88:-0.025828274 89:-0.004081612 90:0.014294839 91:0.008007015 
-5 5 5 4.3543527588752111 5 0 1:-0.042073395 2:0.25173119 3:-0.017499356 4:0.003192275 5:-0.061831605 6:-0.013781801 7:-0.002456731 8:-0.008954973 9:0.006076233 10:-0.000398221 11:-0.006420289 12:-0.003841563 13:-0.002366701 14:0.14710872 15:-0.022565449 16:0.0371028 17:0.008635931 18:0.012943065 19:0.003242498 20:-0.003127297 21:0.001764969 22:-0.000488412 23:-0.001361693 24:-0.002609082 25:0.001257238 26:0.006222316 27:-0.063116282 28:-0.013798901 29:0.009056997 30:0.020357087 31:-0.003470119 32:-0.027875138 33:0.00423762 34:0.005322347 35:-0.003122257 36:-0.000965121 37:-0.014237549 38:0.010272268 39:0.016298156 40:-0.005074689 41:-0.008284213 42:-0.012385015 43:0.014354479 44:-0.000758537 45:-0.001152871 46:0.004449693 47:-0.007485284 48:-0.09489432 49:-0.052994039 50:-0.008388402 51:-0.008640612 52:-0.005471976 53:0.002982243 54:0.00058275 55:-0.005372277 56:-0.03459534 57:0.018462775 58:-0.011171244 59:-0.012495316 60:-0.01046234 61:0.000870331 62:0.006712115 63:-0.010113054 64:0.009888099 65:0.002466709 66:0.035865199 67:-0.005768857 68:-0.007655229 69:-0.000625963 70:0.006626151 71:0.009262064 72:-0.042300079 73:-0.045298703 74:-0.003742094 75:-0.002973209 76:0.013049832 77:-0.019898096 78:0.0371502 79:-0.004838692 80:-0.00410356 81:0.006913545 82:0.017850772 83:0.027326347 84:-0.010332992 85:0.003589169 86:0.006925457 87:-0.000759009 88:-0.023845581 89:0.004724332 90:-0.032453645 91:0.000246242 
-0 0 1.8633749366563259 0 0 0 1:-0.052529499 2:0.070614062 3:0.085206121 4:-0.055425923 5:-0.04885586 6:-0.032279029 7:-0.01767372 8:-0.039211951 9:0.023125723 10:-0.005352335 11:-0.009159309 12:-0.000495399 13:-0.008291413 14:0.15834624 15:-0.22558016 16:0.048745256 17:-0.000907575 18:0.007733881 19:0.00108067 20:0.006645537 21:-0.005080057 22:0.006038294 23:0.002111741 24:-0.003298714 25:-0.003584635 26:-0.040676482 27:-0.12903632 28:-0.084213182 29:0.021946605 30:0.049054626 31:0.019417228 32:-0.036238145 33:0.008673734 34:-0.000294484 35:-0.008122042 36:0.003693185 37:-0.025119497 38:0.083141491 39:0.068431556 40:-0.012581252 41:0.009213479 42:-0.00973704 43:-0.000495906 44:0.001701144 45:0.003484743 46:0.001100885 47:0.014831272 48:-0.10767928 49:-0.080832146 50:0.014715459 51:-0.03474601 52:-0.003241399 53:0.008993592 54:0.000636712 55:-0.011579606 56:-0.049434975 57:0.00417512 58:-0.04218277 59:-0.016921302 60:-0.006924585 61:-0.004208442 62:-0.003963633 63:-0.004101189 64:0.008278214 65:-0.032790419 66:0.10079331 67:0.000894924 68:-0.003212135 69:-0.00033484 70:0.001839591 71:0.00980437 72:-0.079258725 73:-0.009793712 74:0.003697307 75:-0.016347226 76:-0.002522545 77:-0.036656681 78:0.008817138 79:-0.023716254 80:-0.004322487 81:0.009178484 82:0.008255132 83:0.042439032 84:0.033689808 85:6.4929e-05 86:0.015298096 87:-0.012161581 88:-0.027702078 89:-0.008776589 90:0.003433262 91:0.0067757 
-4.1549155277398375 5 0 0 0 0 1:-0.059064627 2:0.094379582 3:-0.14830834 4:-0.051725138 5:-0.081865907 6:0.031978138 7:-0.00655471 8:-0.014443377 9:0.035118941 10:-0.010984637 11:-0.008869118 12:0.003485287 13:-0.006860572 14:0.16770786 15:-0.16801077 16:-0.005540688 17:-0.019137628 18:0.026399009 19:0.020328896 20:0.015219935 21:-0.019863658 22:0.009328349 23:-0.003947005 24:-0.00071667 25:0.001660503 26:0.025959535 27:-0.19529974 28:-0.042412717 29:0.046665687 30:0.037174881 31:-0.001256197 32:-0.049095493 33:0.012771135 34:-0.00341315 35:0.007001209 36:0.003003869 37:-0.03127867 38:0.040038779 39:-0.004536605 40:0.009210316 41:0.01192386 42:-0.011464385 43:0.002389885 44:-0.002412869 45:0.015757315 46:0.005382534 47:-0.004306213 48:-0.10117321 49:-0.042813249 50:0.005232549 51:-0.016092414 52:-0.004786897 53:0.016130667 54:-0.004197494 55:0.001608622 56:-0.043038651 57:0.001449714 58:-0.057118937 59:-0.010716982 60:-0.021959838 61:0.019938046 62:-0.013612739 63:3.608e-05 64:-0.001958061 65:0.052721526 66:0.09916307 67:-0.003537178 68:0.006849649 69:-0.009547343 70:-0.003573763 71:0.026339831 72:-0.13714597 73:0.015611662 74:0.007082275 75:-0.004466793 76:-0.010201151 77:-0.044753335 78:0.003875312 79:-0.026211211 80:-0.015453783 81:-0.001608293 82:0.00085566 83:0.017870748 84:0.026359448 85:-0.000993952 86:0.008729538 87:-0.038724761 88:0.000615503 89:-0.007909793 90:-0.013369416 91:-9.8748e-05 
-0 5 0 0 0 0 1:-0.049970355 2:0.14593029 3:-0.01662772 4:-0.073599972 5:-0.075942181 6:0.048931874 7:-0.018165851 8:-0.017847989 9:0.01153319 10:-0.018250892 11:-0.001473425 12:-0.008017558 13:-0.008465633 14:0.15187769 15:-0.12733476 16:0.0041869 17:-0.006384445 18:0.032204155 19:-0.011645022 20:0.020460306 21:-0.024052631 22:0.005065616 23:-0.002456117 24:-0.005940529 25:-0.000534186 26:-0.004027536 27:-0.017306907 28:-0.02718715 29:0.028413972 30:0.035914104 31:0.004497256 32:-0.029295227 33:0.007911611 34:0.002092049 35:0.000878155 36:0.003263944 37:-0.00247105 38:0.039725251 39:0.066354543 40:0.003955192 41:0.016435897 42:-0.009480078 43:0.001585507 44:0.005790486 45:0.000238105 46:0.002071308 47:-0.003373341 48:-0.14123452 49:-0.049691867 50:0.013277804 51:-0.013682045 52:-0.007240891 53:0.013029685 54:-0.000142627 55:-0.004381766 56:-0.060913924 57:0.064792603 58:-0.081407785 59:-0.020774323 60:-0.018927716 61:-0.007394739 62:-0.004740773 63:0.000380826 64:0.014046287 65:0.020090377 66:0.06288822 67:-0.011106811 68:0.00034341 69:0.004287762 70:-0.000829829 71:0.023859616 72:-0.083278038 73:0.001474965 74:0.005675732 75:-0.002067167 76:-0.003270741 77:-0.02999207 78:0.005251671 79:-0.044157319 80:-0.001867877 81:-0.000653739 82:0.003308046 83:0.076170847 84:0.017015433 85:-1.974e-05 86:0.022103909 87:-0.022249397 88:-0.009198676 89:-0.006253563 90:-0.015293326 91:0.001010155 
-0 0 0 0 0 2.3708161864931134 1:-0.12876251 2:-0.54864985 3:-0.078209959 4:-0.052053235 5:-0.066861019 6:0.048909433 7:-0.036579806 8:0.002340721 9:0.025423124 10:-0.021881079 11:-0.002026107 12:-0.01306814 13:-0.00571467 14:0.098356105 15:-0.066217661 16:-0.044471052 17:0.01540221 18:0.088874534 19:0.075353228 20:0.05663453 21:-0.051088437 22:0.013057289 23:0.003146431 24:-0.006737472 25:0.004319977 26:0.023197096 27:-0.20130746 28:-0.18298228 29:0.12729123 30:0.14621694 31:0.064258687 32:-0.046570458 33:-0.002562879 34:0.005126696 35:0.001605414 36:0.01178478 37:-0.023477916 38:0.21789569 39:-0.086117975 40:0.039746575 41:0.071681142 42:-0.075050436 43:0.002039075 44:0.003747522 45:-0.007093711 46:-0.001216992 47:0.044690415 48:-0.064238735 49:-0.12225591 50:0.047552258 51:-0.071676202 52:-0.010398022 53:0.024608947 54:0.025863834 55:-0.00768096 56:-0.034020547 57:-0.038320113 58:-0.18034896 59:-0.078193314 60:-0.030187948 61:-0.018764893 62:0.009388817 63:0.016168639 64:0.001533155 65:0.004527563 66:0.12710984 67:-0.026106728 68:0.018363271 69:-0.011006108 70:0.001803066 71:0.044208203 72:-0.032842997 73:0.036305837 74:-0.025683472 75:0.006257632 76:-0.018097112 77:-0.036512047 78:0.054574277 79:-0.06045977 80:-0.000674632 81:0.009401311 82:0.007660155 83:0.11739357 84:-0.021343807 85:-0.012154054 86:0.040684499 87:0.003375634 88:-0.042089935 89:0.005870908 90:0.006157706 91:0.011264795 
-0 0 0 0 0 0.44963193782533084 1:-0.082025535 2:-0.61580098 3:0.40171432 4:-0.065530412 5:-0.13457951 6:-0.02936366 7:-0.017855022 8:-0.045016713 9:0.048855036 10:-0.014823956 11:-0.002750357 12:0.008061049 13:-0.004080811 14:0.1015445 15:-0.040036336 16:-0.079776846 17:-0.017678838 18:-0.027775623 19:0.019120233 20:-0.002046101 21:-0.021582335 22:0.019900216 23:-0.000525819 24:8.2603e-05 25:0.004345122 26:-0.074040174 27:-0.17300382 28:-0.14469632 29:0.024587533 30:0.086336061 31:0.045112256 32:-0.06182462 33:0.011973881 34:0.002318698 35:0.011612323 36:0.011289877 37:-0.020238336 38:0.14022878 39:-0.031339701 40:0.01888408 41:0.010263024 42:-0.041593309 43:-0.005904242 44:-0.004479584 45:0.033664305 46:0.000420352 47:0.027650865 48:-0.099800736 49:-0.1678998 50:0.02836588 51:-0.028028414 52:0.010798194 53:0.033715863 54:-0.002097658 55:-0.015094898 56:-0.03451097 57:-0.034069058 58:-0.11310957 59:-0.041356847 60:-0.023291819 61:-0.00259755 62:-0.025313424 63:-0.003679262 64:0.030494144 65:-0.09432365 66:0.26109898 67:0.014864095 68:0.006654373 69:-0.025009939 70:0.004800136 71:0.011306874 72:-0.087329671 73:0.056878936 74:-0.011133907 75:-0.019067409 76:0.011714751 77:-0.082220368 78:-0.039987579 79:-0.038376112 80:-0.017015882 81:-0.000761238 82:-0.018785251 83:0.088752396 84:0.11871003 85:0.010010797 86:0.036090985 87:0.001488774 88:-0.004589447 89:-0.02141325 90:-0.012821037 91:0.003796936 
-0 0 0 0.72168999748884399 0 0 1:-0.060366292 2:-0.17251033 3:-0.017466674 4:-0.06195106 5:-0.095753692 6:-0.007207413 7:-0.036128998 8:-0.029001629 9:0.006470902 10:0.004888243 11:-0.01268186 12:0.003730673 13:0.00314055 14:0.17223646 15:-0.044684831 16:-0.048397597 17:0.015231058 18:0.033163927 19:-0.002915109 20:0.010437857 21:0.004662155 22:0.003738164 23:0.000799349 24:-0.002935822 25:0.001914842 26:0.018809872 27:-0.01133583 28:0.005230516 29:0.051292878 30:0.033423156 31:0.019320538 32:-0.022254422 33:0.004222451 34:0.011655998 35:0.000878036 36:0.001370071 37:0.018246125 38:0.15757124 39:0.049860705 40:0.009666266 41:-0.00202333 42:0.003276403 43:-0.013014672 44:0.000176235 45:0.006367174 46:0.001967105 47:0.008348348 48:0.006982475 49:-0.04448586 50:0.00731857 51:0.001483321 52:0.021536948 53:0.002100883 54:-0.001778115 55:-0.015524731 56:-0.04738766 57:0.005853708 58:-0.005846187 59:-0.022712523 60:-0.016672965 61:0.002564096 62:-0.019026505 63:-0.011511486 64:0.00993447 65:0.012085387 66:0.1188475 67:-0.009440007 68:-0.001536838 69:-0.022721529 70:-0.000299999 71:0.015688458 72:-0.077560656 73:-0.00407446 74:0.003060457 75:-0.014800533 76:0.000598747 77:-0.045417145 78:-0.051448312 79:-0.004222217 80:-0.021387218 81:0.004921254 82:-0.020142747 83:0.054359078 84:0.018254884 85:0.011596303 86:0.013567653 87:-0.070676796 88:-0.035827897 89:-0.014627714 90:-0.023494169 91:0.005750612 
-5 0 0 0 0 0 1:-0.030883178 2:0.090505548 3:0.16892649 4:-0.060997289 5:-0.042418499 6:0.008101029 7:-0.029679149 8:-0.027633289 9:-0.006720222 10:-0.014244189 11:-0.007541087 12:0.000496398 13:-1.0142e-05 14:0.19916213 15:-0.38025314 16:0.025067573 17:0.004541908 18:-0.004171328 19:0.009787146 20:0.001593735 21:-0.006786772 22:-0.000907233 23:0.001173553 24:-0.004534928 25:-0.00363611 26:-0.077235416 27:-0.084166668 28:-0.099695832 29:0.009712426 30:0.034779921 31:0.002299064 32:-0.008245862 33:0.013938883 34:0.006142417 35:-0.001217797 36:0.001684378 37:-0.007974042 38:0.15737207 39:0.11159774 40:-0.022201726 41:0.017408567 42:3.7298e-05 43:0.007665022 44:0.003613747 45:0.003595861 46:6.0852e-05 47:0.037957311 48:-0.17129378 49:-0.066811435 50:0.009453767 51:-0.019445445 52:-0.015228192 53:0.015751341 54:-0.002374596 55:-0.005991617 56:-0.062288895 57:-0.043635361 58:-0.069749974 59:-0.01525378 60:-0.014798335 61:-0.007251873 62:-0.002341081 63:0.003968471 64:-0.002704757 65:0.036381993 66:0.077888779 67:-0.004207814 68:-0.012216719 69:0.009369666 70:-0.00685814 71:0.024579026 72:-0.04632286 73:-0.023503298 74:-0.011531012 75:-0.001991885 76:-0.013730752 77:-0.023512799 78:0.076432161 79:-0.030166002 80:0.002109077 81:0.007636766 82:0.020115832 83:0.05748637 84:0.024275759 85:-0.00356448 86:0.017625535 87:-0.04636512 88:-0.024478219 89:-0.008955351 90:0.016002398 91:0.005678951 
-5 0 0 0 0 0 1:-0.012997178 2:0.2239998 3:0.00995589 4:-0.02639919 5:-0.067666963 6:0.033283103 7:0.001231499 8:-0.019303471 9:0.001264335 10:-0.012758131 11:-0.008683601 12:0.000763987 13:-0.001517122 14:0.19545646 15:-0.11044041 16:0.014260667 17:-0.006277721 18:0.016532367 19:0.026569849 20:0.003852512 21:-0.00320208 22:0.004641417 23:-0.003935403 24:0.001071576 25:0.003217272 26:-0.031816628 27:-0.052768931 28:-0.049400166 29:-0.010391164 30:0.036175951 31:-0.008090986 32:-0.026458152 33:0.00281458 34:-0.004094583 35:-0.00114718 36:0.00717215 37:-0.011400386 38:0.03710378 39:0.036159664 40:-0.017744852 41:0.001595164 42:-0.023361212 43:0.007165349 44:0.000650765 45:-0.008882745 46:-0.000958939 47:0.00590946 48:-0.069866337 49:-0.057698507 50:0.007941852 51:-0.002601764 52:0.002238226 53:0.01181569 54:0.001785854 55:-0.006538851 56:-0.033590265 57:0.00560882 58:-0.028334191 59:0.008347903 60:-0.011729883 61:0.011600004 62:0.010819061 63:-0.003899893 64:0.015907478 65:0.023393853 66:0.049204163 67:-0.0067995 68:-0.003709516 69:0.010671208 70:0.001985017 71:0.017580295 72:-0.082451604 73:-0.002240461 74:-0.007323187 75:-0.006470946 76:0.021016205 77:-0.035696626 78:0.001044492 79:-0.006298425 80:-0.00740919 81:0.009845108 82:0.003885388 83:0.031174425 84:0.019294273 85:0.008911959 86:0.011114949 87:-0.0035311 88:0.007000425 89:-0.006005823 90:0.002567023 91:0.002749651 
-0 0 0 1.5608748905769598 0 0 1:-0.04665257 2:-1.1271855 3:-0.20098093 4:-0.23444809 5:-0.18038797 6:0.020097135 7:-0.005975134 8:0.056638177 9:-0.021491414 10:-0.029741637 11:0.00576305 12:-0.013336757 13:-0.007275003 14:0.11071739 15:0.10259719 16:0.057088446 17:-0.033995856 18:0.00344786 19:0.094629101 20:-0.10487271 21:-0.014450965 22:0.014959214 23:-0.01706497 24:-3.1018e-05 25:0.008707365 26:-0.062698863 27:-0.043521572 28:0.1330297 29:0.006161976 30:-0.010754984 31:-0.10034563 32:0.024143087 33:-0.001719538 34:-0.017430456 35:0.001182429 36:0.011054368 37:-0.005955513 38:0.12487975 39:-0.040199213 40:-0.025499888 41:0.028571747 42:0.000890378 43:0.034211062 44:0.043302428 45:-0.015804822 46:0.011557015 47:-0.067896836 48:0.10988912 49:-0.11594027 50:0.015949029 51:-0.002372851 52:0.024203172 53:-0.032318018 54:-0.006880822 55:-0.006898813 56:0.028492833 57:-0.031294189 58:0.08030118 59:-0.002380459 60:-0.049897321 61:-0.03451753 62:0.01577417 63:-0.008014875 64:0.055875774 65:-0.22532363 66:-0.08495672 67:-0.013194422 68:0.003483077 69:0.016400024 70:-0.008807869 71:-0.097725056 72:-0.051280282 73:-0.023574712 74:0.008337954 75:0.021478809 76:0.007499285 77:0.030974928 78:0.054529745 79:0.088745624 80:0.018159986 81:0.027378326 82:0.020269753 83:-0.006282884 84:0.045943499 85:0.025467128 86:-0.061304785 87:0.061341189 88:0.037764546 89:-0.003294219 90:0.004864292 91:-0.024520801 
-0 5 0 0 0 0 1:-0.051678635 2:-0.88312644 3:-0.20160921 4:-0.14551951 5:-0.20851575 6:-0.061751712 7:0.092128083 8:0.005720144 9:0.013430011 10:-0.004901614 11:-0.009596416 12:0.036875404 13:-0.010084059 14:0.10568594 15:0.22793649 16:0.008282484 17:-0.026595285 18:0.001967588 19:0.060601022 20:-0.086849749 21:0.037703149 22:-0.006228784 23:-0.011288101 24:0.020198451 25:-0.000221907 26:0.003242753 27:-0.012554411 28:-0.027234467 29:0.03740653 30:0.088364676 31:-0.025081394 32:-0.082458161 33:0.008170858 34:-0.013545786 35:0.001672993 36:0.008814088 37:0.030155241 38:0.20343767 39:0.006538881 40:0.035857618 41:0.002244803 42:-0.062627725 43:0.00606742 44:-0.021567974 45:-0.002683772 46:0.00945924 47:0.014704079 48:0.02749153 49:-0.13460053 50:-0.006205143 51:-0.023725418 52:0.027944356 53:0.033168241 54:-0.014959997 55:-0.009359067 56:-0.033345383 57:0.013803526 58:-0.009743115 59:-0.046333835 60:-0.018803652 61:0.032067526 62:-0.023574792 63:-0.010558379 64:0.11212645 65:-0.11193662 66:0.089471512 67:0.003161605 68:-0.005999566 69:0.034908172 70:0.010912846 71:-0.03019747 72:-0.1203019 73:-0.051919907 74:0.012869409 75:0.010123922 76:0.018550271 77:-0.070674002 78:-0.019225335 79:-0.001630272 80:0.025705341 81:0.020861741 82:0.009370287 83:0.045697939 84:0.080483824 85:0.018184401 86:-0.003011363 87:0.014285595 88:-0.042367227 89:-0.034724969 90:-0.020193934 91:0.015016227 
-0 0 0 0 0 0.35875291125159015 1:-0.083474554 2:-1.2496775 3:-0.28230372 4:-0.11128357 5:-0.20224252 6:-0.085729614 7:-0.049164206 8:0.035151836 9:-0.004916841 10:-0.024181344 11:-0.004178642 12:0.006274765 13:-0.015572967 14:0.14241761 15:0.11014218 16:0.012064046 17:-0.034505635 18:-0.00183989 19:0.045677274 20:-0.069533229 21:0.036955837 22:-0.014018479 23:-0.016331604 24:0.003972432 25:0.008205417 26:0.024059471 27:0.13370685 28:-0.023668967 29:0.012240066 30:0.096404918 31:-0.060951032 32:-0.041677605 33:-0.025632886 34:-0.016079113 35:0.007723067 36:0.003068255 37:0.12152731 38:0.27624345 39:0.002951513 40:0.038708888 41:-0.006155069 42:-0.047813207 43:0.03865597 44:0.007170429 45:-0.026920818 46:0.012826992 47:0.028049856 48:0.043872029 49:-0.13436341 50:-0.045717724 51:-0.047708232 52:0.028235687 53:0.022443533 54:-0.026990458 55:-0.007520868 56:-0.035674594 57:-0.091045812 58:0.041966833 59:-0.039478984 60:-0.033371907 61:-0.018728154 62:0.035468206 63:-0.042256679 64:0.056513764 65:-0.10443317 66:0.079988062 67:0.00896147 68:-8.6472e-05 69:0.02544575 70:-3.9533e-05 71:-0.029988054 72:-0.16977052 73:-0.017295502 74:-0.002481718 75:0.032855768 76:0.031574327 77:-0.06230313 78:0.058497757 79:-0.003122087 80:0.005468986 81:0.015974661 82:0.021199297 83:0.1402076 84:-0.039043348 85:0.016796978 86:0.019819247 87:0.039979596 88:-0.020077111 89:0.009855376 90:-0.081531845 91:-0.008863467 
-0 0 0 0 0 3.2245453871673235 1:-0.025847938 2:-0.31305352 3:0.1359708 4:-0.067534178 5:-0.12915531 6:-0.06604448 7:-0.001608521 8:0.015477587 9:-0.000971242 10:0.002548132 11:-0.017532045 12:-0.003460277 13:-0.001536349 14:0.16710025 15:-0.055998743 16:0.053819422 17:-0.015803605 18:0.002795211 19:0.031283591 20:-0.040737007 21:0.010395842 22:0.003400516 23:-0.004750138 24:-0.001096993 25:0.001177782 26:-0.088007011 27:0.027079085 28:0.059706505 29:0.023449918 30:0.023385258 31:0.003757504 32:-0.036086429 33:-0.017880628 34:0.006805584 35:-0.012593763 36:-0.00087234 37:0.020660764 38:0.12642564 39:0.063010029 40:0.027968442 41:0.033282392 42:-0.027122239 43:0.030073965 44:0.00067679 45:-0.013973385 46:0.002599115 47:-0.015370575 48:0.001879725 49:-0.10006855 50:-0.001999302 51:0.010788868 52:0.004684015 53:-0.008062306 54:0.011383366 55:-0.007800576 56:-0.022977877 57:-0.06920135 58:-0.014598969 59:-0.02430198 60:-0.028680544 61:0.002480248 62:-0.001927537 63:-0.009934435 64:0.034579754 65:-0.066530749 66:0.054480989 67:0.011688907 68:-0.002355296 69:0.008320776 70:0.007465095 71:-0.024280677 72:0.02544469 73:-0.023395238 74:0.002326161 75:0.016318448 76:0.005461711 77:-0.023430647 78:0.065207012 79:0.02238266 80:-0.001648886 81:0.004928577 82:0.032358628 83:-0.002857202 84:0.035365704 85:0.00830624 86:-0.009153712 87:-0.028754545 88:0.000309507 89:-0.017917389 90:-0.010260083 91:0.004446775 
-0 -5 0 0 0 0 1:-0.019023379 2:0.057459284 3:-0.04506404 4:-0.047401603 5:-0.032488666 6:0.003436312 7:0.028039401 8:0.010422314 9:0.007507351 10:0.002057842 11:-0.010443113 12:-0.004738668 13:-0.005090933 14:0.18634988 15:-0.106419 16:-0.038296971 17:-0.03108093 18:0.045494739 19:-0.008296625 20:0.008921637 21:0.001433806 22:0.012660406 23:-0.005170509 24:-0.002038883 25:0.000295964 26:-0.030434597 27:0.012463284 28:-0.004747975 29:0.02789378 30:0.014277058 31:-0.01453633 32:0.002568047 33:-0.009315456 34:0.003008505 35:-0.002418148 36:6.7015e-05 37:0.043568369 38:0.003044184 39:-0.020707369 40:0.007237168 41:-0.017503789 42:-0.026867593 43:0.008653679 44:0.004406998 45:-0.009209635 46:0.002284434 47:-0.028314654 48:-0.057700481 49:-0.075865686 50:-0.002616325 51:-0.019388793 52:0.005546453 53:-0.00293107 54:0.005188883 55:0.004608608 56:-0.020826258 57:0.089740515 58:-0.001750509 59:-0.014893296 60:-0.00650609 61:0.002720314 62:-0.001950238 63:0.002933267 64:0.04741976 65:-0.078085318 66:0.044149309 67:-2.9566e-05 68:0.007116017 69:0.009819295 70:0.003334144 71:-0.0078305 72:-0.018474545 73:-0.008861472 74:-0.002277913 75:0.008567642 76:-0.003885778 77:-0.019391572 78:0.082292698 79:0.005060029 80:0.005947493 81:-0.002105598 82:0.019016214 83:-0.02070119 84:-0.026227348 85:-0.006396939 86:-0.007977173 87:-0.044132452 88:-0.005065961 89:0.001359763 90:-0.002281841 91:0.002792005 
-0 -5 0 0 0 0 1:-0.030544505 2:0.2966291 3:-0.052345444 4:-0.003808878 5:-0.058917016 6:0.04364036 7:0.016759839 8:0.001043164 9:-0.008059152 10:-0.009425397 11:-0.007815663 12:0.008331417 13:-0.003379809 14:0.123964 15:-0.008618201 16:-0.038458455 17:-0.037285667 18:0.02281688 19:0.002490852 20:-0.017867722 21:0.013829307 22:0.000754575 23:0.001503434 24:0.000364518 25:-0.002161593 26:0.001940927 27:-0.0876709 28:0.003757817 29:-0.003829982 30:0.005548727 31:-0.031729285 32:-0.006442007 33:-0.000883277 34:0.002133422 35:0.004168793 36:0.005851273 37:0.023333061 38:-0.01231943 39:-0.007300608 40:0.002596524 41:-0.004876935 42:-0.027961321 43:0.012957462 44:-0.002665897 45:-0.003871003 46:0.004691235 47:-0.020805297 48:-0.068421744 49:-0.057199698 50:0.009119853 51:-0.005106158 52:0.007389156 53:0.008790374 54:-0.006502705 55:0.002728857 56:-0.041387647 57:0.11720805 58:0.013581898 59:-0.005155975 60:-0.012108382 61:0.005065463 62:-0.018420676 63:0.001381734 64:0.02985853 65:-0.028080817 66:0.013626947 67:-0.002040439 68:0.000453287 69:0.023619654 70:0.002698995 71:0.005071246 72:-0.029311448 73:-0.018204251 74:-0.009072454 75:0.013707317 76:-0.00775642 77:-0.009871033 78:0.017869558 79:0.00173997 80:0.000299271 81:0.000404098 82:0.009975309 83:0.038633093 84:0.011200794 85:-0.0030634 86:0.003558206 87:-0.091405384 88:-0.00134765 89:-0.021097902 90:0.019422213 91:0.00713727 
-0 -0 0 2.8165377115675709 0 0 1:-0.034610104 2:0.032917764 3:-0.17366762 4:0.029435037 5:-0.047996305 6:-0.001318101 7:-0.014152901 8:0.007043883 9:-0.016368192 10:-0.011993106 11:-0.004431244 12:-0.00553513 13:-0.003975988 14:0.13463816 15:0.16094738 16:0.024616159 17:0.026671316 18:-0.000432231 19:0.010821497 20:-0.025425358 21:0.014544441 22:-0.000249446 23:-0.001529213 24:0.003584024 25:-0.006277824 26:0.048018914 27:-0.22996497 28:0.038085192 29:-0.045543108 30:-0.035998452 31:-0.026433541 32:0.011583461 33:-0.000446713 34:0.001012535 35:0.000922846 36:-0.003303605 37:-0.029280206 38:-0.11858691 39:0.043077443 40:-0.049656276 41:0.01312888 42:-0.023103429 43:0.008750516 44:0.002770807 45:-0.004230179 46:0.000475077 47:-0.066612236 48:0.089992233 49:0.00078566 50:0.022077117 51:-0.013969866 52:0.000777462 53:-0.010465181 54:-0.001465565 55:0.005878156 56:-0.011914997 57:0.079609759 58:-0.032982294 59:-0.018216845 60:-0.024468211 61:0.009064186 62:-0.003989624 63:-0.001315765 64:0.032266472 65:-0.14144857 66:-0.001077266 67:0.007878043 68:0.01219087 69:0.00409486 70:0.003021558 71:-0.021890208 72:0.000784637 73:0.006589803 74:2.0275e-05 75:0.00760868 76:-0.005206272 77:-0.002692845 78:0.016515056 79:-0.005263431 80:-0.016245104 81:-0.003239826 82:0.008076625 83:-0.037924185 84:-0.022129904 85:0.00487133 86:-0.018537866 87:-0.012977934 88:0.004297767 89:-0.001603459 90:-0.002685219 91:0.00819657 
