svm_type c_svc
kernel_type rbf
gamma 0.01098901098901099
nr_class 7
total_sv 970
rho 0.073705315589904785 0.074687361717224121 0.058857649564743042 0.29451453685760498 0.51560613999054106 0.050852189271130714 -0.033583581447601318 0.052096009254455566 0.31059603203633318 0.45640987543657846 -0.043491363525390542 0.068293958902359009 0.4439390995207087 0.48103812684707314 0.0013073720919719461 -0.1092163622379303 -0.046944028810411632 -0.028322833578596284 0.29903498490660407 -0.56889014078233746 -0.10445581406104967
label 1 2 3 4 5 6 7
nr_sv 100 157 157 138 153 169 96
SV
1 1 1 1 1 0 1:-0.009622514 2:-0.25447431 3:0.47306237 4:-0.005140882 5:0.049384978 6:0.1041368 7:-0.053969253 8:0.027607642 9:0.00362499 10:-0.020268586 11:0.11778924 12:0.00590772 13:0.007913266 14:0.058171608 15:0.35207421 16:-0.30964127 17:-0.099149458 18:-0.075607717 19:-0.053415284 20:0.02157874 21:-0.005680395 22:-0.010212011 23:0.03766204 24:0.002749664 25:0.001267685 26:0.080468319 27:0.006197557 28:0.031954125 29:0.11246149 30:0.019341659 31:-0.070897549 32:-0.022888405 33:-0.034127399 34:-0.028976744 35:0.005403479 36:-0.006944058 37:0.009413668 38:-0.054330152 39:-0.00014585 40:-0.023999814 41:-0.005752645 42:-0.046421699 43:-0.001511261 44:-0.065547898 45:0.019206222 46:-0.01874637 47:-0.005320904 48:0.054046534 49:0.072845839 50:-0.032263812 51:0.017448064 52:0.030355688 53:-0.02677168 54:0.002475148 55:0.006157918 56:0.039844729 57:0.064886823 58:0.049490809 59:0.048692897 60:0.02605523 61:0.12559609 62:-0.007448535 63:0.041858386 64:-0.00737351 65:0.19703908 66:-0.075796939 67:0.02469427 68:-0.043668598 69:-0.004860017 70:0.025866082 71:-0.019385539 72:-0.090223841 73:0.003988351 74:0.025846878 75:-0.032763574 76:7.9635e-05 77:-0.019066701 78:-0.011923424 79:0.054074172 80:-0.028203815 81:-0.028588267 82:-0.0096434 83:-0.016511427 84:-0.033926763 85:-0.059269693 86:0.049715769 87:-0.02336254 88:0.08982604 89:0.012015827 90:0.089295737 91:0.014563764 
1 1 1 1 1 1 1:0.012633659 2:-0.34170753 3:0.53410226 4:-0.038949836 5:0.030344011 6:0.007399334 7:-0.03601943 8:-0.039881535 9:-0.02752318 10:0.007904616 11:0.068513006 12:-0.010104232 13:0.011367407 14:0.061635647 15:0.052436937 16:-0.20646155 17:-0.073901005 18:-0.068086617 19:-0.034405414 20:-0.009748979 21:-0.006737596 22:0.00544328 23:-0.027509579 24:0.000605363 25:0.007660269 26:0.11925694 27:0.082181886 28:-0.10535141 29:0.062245823 30:-0.008848553 31:-0.011596703 32:-0.008880754 33:0.001046643 34:-0.015321798 35:0.006043301 36:0.002611177 37:-0.033350997 38:-0.069530845 39:-0.007951607 40:-0.044340733 41:-0.010910386 42:-0.043917485 43:-0.020739675 44:0.010979505 45:0.008426179 46:-0.021100368 47:-0.008739292 48:0.009380709 49:0.1328153 50:-0.016645722 51:0.014239991 52:-0.017130462 53:0.001189873 54:0.002166765 55:0.012225778 56:0.004682229 57:0.053793449 58:0.027594669 59:0.006672647 60:0.032484058 61:0.038683496 62:0.007866758 63:0.009289768 64:0.024622645 65:0.091797218 66:0.001068077 67:0.054514557 68:-0.069738254 69:-0.0091764 70:0.037341896 71:0.007782987 72:-0.017190631 73:-0.14606556 74:0.012842568 75:0.001232629 76:0.000429538 77:-0.009511658 78:-0.056444231 79:-0.003252059 80:-0.033958402 81:-0.017664814 82:-0.045895517 83:0.044582464 84:0.037307736 85:-0.069897674 86:0.033678818 87:0.025041176 88:0.14655332 89:0.011188902 90:0.017792635 91:0.027481917 
1 1 1 0 1 0 1:0.013023189 2:-0.44412252 3:0.45542297 4:-0.074976049 5:0.10687529 6:-0.007198853 7:-0.055305202 8:-0.010680923 9:-0.005104335 10:-0.013109621 11:0.042975537 12:0.007578438 13:0.025512449 14:0.077513099 15:0.26254031 16:-0.25733021 17:0.07289993 18:-0.040268004 19:-0.009731945 20:0.009514093 21:-0.021373285 22:0.01976742 23:-0.000790027 24:0.01704013 25:-0.006146362 26:0.15790492 27:0.036082946 28:-0.3529239 29:0.034252789 30:-0.025230354 31:-0.033769298 32:-0.02787194 33:-0.018937444 34:-0.003020806 35:0.005405825 36:0.016930837 37:-0.033385839 38:-0.24952798 39:-0.002828459 40:-0.001808631 41:0.001292726 42:-0.027964605 43:-0.013710175 44:-0.019046592 45:0.005304497 46:-0.02624278 47:-0.062164288 48:0.049068023 49:0.035640158 50:-0.028080272 51:0.054675393 52:0.005414358 53:-0.001914871 54:-0.000155105 55:-0.027495721 56:0.011360678 57:0.027687568 58:0.074877717 59:0.065965533 60:0.045276653 61:0.052813396 62:0.002887034 63:0.017851092 64:0.006441526 65:0.17812151 66:-0.084516719 67:0.065305158 68:-0.078847259 69:0.018495293 70:0.017436704 71:-0.01307622 72:-0.11339082 73:-0.10627983 74:0.008876567 75:-0.001518888 76:0.016774559 77:-0.021592095 78:-0.08763998 79:-0.030809347 80:-0.00461544 81:-0.096935317 82:-0.029582098 83:-0.072204039 84:-0.053073261 85:-0.081973232 86:0.031672221 87:-0.021414829 88:0.1644371 89:0.005233167 90:0.12124115 91:0.042022455 
1 1 0 1 1 1 1:-0.00078905 2:-0.57278645 3:0.35421443 4:0.003191094 5:0.024369491 6:0.025691211 7:-0.05438 8:-0.004895731 9:-0.013707401 10:-0.005360809 11:0.077462956 12:-0.008887655 13:-0.004808966 14:0.025227943 15:0.073227093 16:-0.36184275 17:0.044137832 18:-0.060978215 19:-0.049463306 20:0.020350417 21:-0.002802996 22:0.006796393 23:-0.00367811 24:0.020862477 25:0.007870933 26:0.14833943 27:0.008072243 28:-0.36430195 29:0.13006599 30:-0.02805106 31:-0.041195702 32:-0.039441194 33:-0.0215129 34:-0.031729437 35:0.015457074 36:0.035966393 37:-0.017092727 38:-0.13509515 39:-0.092269227 40:-0.015495016 41:0.009647422 42:-0.029732039 43:-0.001374818 44:-0.011945932 45:0.001403292 46:-0.022013625 47:-0.050804671 48:-0.096202895 49:0.044807058 50:-0.047136284 51:0.029123522 52:-0.003028753 53:0.000913357 54:0.009668298 55:-0.012092269 56:0.008763586 57:0.063054621 58:0.094830453 59:0.074880354 60:0.075623244 61:0.081370093 62:0.011095174 63:0.008052298 64:0.000700802 65:0.19168042 66:-0.071016662 67:0.088121988 68:-0.092784964 69:0.028066166 70:0.028219813 71:-0.012695399 72:-0.081538677 73:-0.13205761 74:0.060104493 75:-0.008470691 76:0.003245316 77:-0.027892603 78:-0.030960353 79:0.019077776 80:0.002105379 81:-0.050500315 82:-0.046730071 83:-0.077473275 84:-0.020637151 85:-0.09399239 86:0.04595916 87:0.002227443 88:0.12637782 89:0.011734698 90:0.051064659 91:0.0325124 
1 1 0 1 1 1 1:-0.003019914 2:-0.62507278 3:0.38093981 4:-0.063087873 5:0.067767322 6:0.028921532 7:-0.037875492 8:-0.013829933 9:-0.032174561 10:-0.014746822 11:0.042421579 12:0.000397301 13:0.000985836 14:0.083124004 15:0.19000617 16:-0.22786562 17:0.049342569 18:-0.033151649 19:-0.036505248 20:0.009938175 21:-0.009919986 22:0.011070848 23:-0.020450123 24:0.014321947 25:0.007683107 26:0.13549504 27:0.061190702 28:-0.27163559 29:0.12784271 30:-0.048982553 31:-0.016151933 32:-0.044134025 33:-0.017994454 34:-0.013898495 35:0.009342914 36:0.034145158 37:0.011462385 38:-0.15435436 39:-0.011618675 40:-0.035687853 41:-0.02619995 42:-0.007554051 43:-0.015980182 44:0.003906266 45:0.001781185 46:-0.024134312 47:-0.031095224 48:0.018320339 49:0.089991547 50:-0.034726825 51:-0.003334383 52:0.014550163 53:0.008226693 54:3.594e-06 55:-0.004385998 56:0.020194177 57:0.069555953 58:0.087155722 59:0.061923802 60:0.061069615 61:0.061094362 62:0.002613565 63:0.009669214 64:0.014546238 65:0.17540751 66:-0.071661323 67:0.082120731 68:-0.058399752 69:-0.001510595 70:0.045745872 71:-0.000309036 72:-0.057735536 73:-0.14424968 74:0.040156279 75:0.012964688 76:0.010786925 77:-0.017247008 78:-0.10484414 79:0.039683186 80:-0.01646162 81:-0.051502831 82:-0.041841526 83:-0.019013396 84:-0.002110668 85:-0.082071386 86:0.042559691 87:0.021614106 88:0.12258076 89:0.012912383 90:0.07228002 91:0.032066092 
0 0 1 0 1 0 1:0.002296971 2:-0.047153175 3:0.46744764 4:-0.069433801 5:0.20191465 6:0.006785995 7:-0.040048748 8:0.02313308 9:-0.02573487 10:0.005606348 11:0.044829924 12:0.006205509 13:0.011420663 14:0.077875219 15:0.44631177 16:-0.25659952 17:0.066460133 18:-0.065970846 19:-0.050405711 20:0.029646598 21:-0.020011168 22:0.010440734 23:-0.009316405 24:0.004457322 25:-0.005302454 26:0.12450624 27:-0.11153914 28:-0.34720904 29:0.043873433 30:-0.008626846 31:-0.061809458 32:-0.022629201 33:-0.040185887 34:-0.025935519 35:0.003353941 36:0.027566111 37:-0.009809377 38:-0.24027283 39:0.031100433 40:-0.033787869 41:-0.028444801 42:-0.0227868 43:-0.020976782 44:0.011681391 45:0.006929495 46:-0.010880593 47:-0.065993167 48:-0.04212191 49:0.077032991 50:-0.1246862 51:0.028920166 52:0.008820008 53:0.009080959 54:-0.003738126 55:-0.000142353 56:0.027512938 57:0.0809431 58:0.24477918 59:0.065115564 60:0.037659604 61:0.045989305 62:0.018339034 63:0.013377341 64:0.003323307 65:0.32589594 66:-0.055627037 67:0.084388979 68:-0.063158549 69:-0.01492571 70:0.012991545 71:0.009308331 72:-0.063606538 73:-0.12490834 74:-0.020321643 75:0.027852636 76:0.030587666 77:-0.020250393 78:-0.085000448 79:0.053144187 80:-0.032703239 81:-0.1000936 82:-0.029309049 83:0.009198188 84:-0.037468709 85:-0.052575387 86:0.03579659 87:-0.013260248 88:0.10021137 89:0.003328023 90:0.049374651 91:0.037638418 
1 1 0 0 0 0 1:0.003771706 2:-0.55018628 3:0.31546244 4:0.026043143 5:0.20980531 6:0.095981933 7:-0.06351316 8:0.035360172 9:-0.009275675 10:0.000407006 11:0.082756452 12:0.013718382 13:0.000762948 14:0.11379185 15:0.15987979 16:-0.32807812 17:0.10583527 18:-0.062178042 19:-0.036143135 20:0.03241498 21:0.004944581 22:0.014388097 23:-0.001974851 24:-0.005448724 25:-0.003044836 26:0.13693786 27:0.11775266 28:-0.4754481 29:0.12499651 30:-0.040807433 31:-0.07353992 32:-0.034375902 33:-0.041270886 34:-0.047612362 35:0.008289907 36:0.016837684 37:-0.032465424 38:-0.42733577 39:-0.11106669 40:-0.002000904 41:-0.076232262 42:-0.027357662 43:-0.023462558 44:-0.022296114 45:-0.005685271 46:-0.026858786 47:-0.087786935 48:0.059371721 49:0.031291921 50:-0.054986238 51:0.055326007 52:0.047823351 53:-0.002737465 54:0.00101841 55:-0.010245974 56:0.026351403 57:0.029779874 58:0.21137434 59:0.13832215 60:0.069684625 61:0.11356683 62:0.019035602 63:0.027943198 64:0.001241493 65:0.27695602 66:-0.08496426 67:0.13010755 68:-0.10291802 69:-0.017963609 70:0.022669949 71:0.010910969 72:-0.072158389 73:-0.19659808 74:-0.0123726 75:0.051956885 76:0.008781387 77:-0.039988875 78:-0.073607288 79:-0.052301865 80:-0.029464791 81:-0.086694799 82:-0.050374754 83:-0.014087379 84:-0.043736324 85:-0.067525342 86:0.043561712 87:-0.009528153 88:0.12294658 89:-0.01002647 90:0.088246167 91:0.032451715 
1 1 0 0 0 0 1:-0.004184484 2:-0.43448538 3:0.36154378 4:0.054193497 5:0.21034652 6:0.075009622 7:0.051520165 8:-0.022695148 9:-0.016000042 10:0.011015465 11:0.10910143 12:-0.000751325 13:0.011996477 14:0.068359084 15:0.13248685 16:-0.40882844 17:0.14393507 18:-0.018002374 19:-0.13221255 20:-0.015841074 21:-0.005982729 22:0.011123261 23:-0.041946352 24:0.00515916 25:0.001484157 26:0.13303825 27:0.021674586 28:-0.41629306 29:0.14062905 30:-0.051874641 31:-0.013948654 32:-0.04809292 33:-0.022859899 34:-0.047151644 35:0.009914519 36:0.041974496 37:-0.028062969 38:-0.36959189 39:-0.10176967 40:-0.094216205 41:-0.034354378 42:-0.020619296 43:-0.006547398 44:-0.001287943 45:-0.000913143 46:-0.024272429 47:-0.062764548 48:-0.030859239 49:0.12720275 50:-0.041100703 51:0.042363718 52:-0.00861349 53:0.016598729 54:-0.007261033 55:0.006449834 56:0.01532864 57:0.18462618 58:0.069310546 59:0.097725928 60:0.10629404 61:0.05621212 62:0.008892993 63:0.017517829 64:-0.008500994 65:0.15500137 66:-0.081784606 67:0.11647247 68:-0.13678616 69:0.015481052 70:0.018073335 71:0.005397046 72:-0.10389189 73:-0.15817903 74:-0.061733279 75:0.019673483 76:0.012911049 77:-0.026979523 78:-0.050134543 79:0.14107118 80:-0.022480793 81:-0.070607722 82:-0.054936826 83:0.078749783 84:-0.010620316 85:-0.080260672 86:0.057976808 87:-0.009531087 88:0.14031663 89:0.014258578 90:0.051412195 91:0.038621247 
1 1 1 1 1 1 1:-0.041035667 2:-0.21236685 3:0.089546911 4:-0.061991394 5:0.13019735 6:0.16707888 7:0.046844877 8:0.024612913 9:-0.003099673 10:0.078585804 11:0.062772065 12:0.017976131 13:-0.008954064 14:0.009616384 15:0.18367104 16:-0.24838923 17:0.15307018 18:0.16315511 19:-0.1781867 20:0.049545135 21:-0.024609273 22:0.030260375 23:-0.049848154 24:0.018926125 25:0.000650247 26:0.02747792 27:0.1055328 28:-0.4664264 29:0.16598856 30:-0.15968616 31:-0.056195308 32:-0.058056075 33:-0.0262518 34:-0.013462739 35:0.026734203 36:-0.019476507 37:0.007622029 38:-0.37265378 39:-0.25212091 40:-0.08704114 41:-0.056521345 42:-0.024230495 43:-0.085827515 44:-0.044142962 45:-0.014535342 46:-0.033370458 47:0.000172768 48:-0.27877525 49:0.21182224 50:-0.027180277 51:0.045321912 52:0.097395144 53:0.018533299 54:-0.01958633 55:-0.003417986 56:-0.003364613 57:0.17141308 58:0.13141951 59:0.088109747 60:0.15889388 61:-0.029872742 62:-0.027145315 63:0.036379147 64:-0.003136398 65:0.18542118 66:-0.055002674 67:0.19894181 68:-0.051785138 69:0.054529838 70:0.033550087 71:-0.005191732 72:0.04503648 73:-0.27798563 74:-0.060164098 75:0.025931865 76:-0.007167008 77:-0.019809037 78:-0.1122959 79:0.046389192 80:-0.002907355 81:-0.033029024 82:-0.055775955 83:0.02730838 84:-0.063556112 85:-0.06117364 86:0.013413221 87:-0.10138483 88:0.039434068 89:0.017424526 90:-0.034728337 91:0.007025074 
1 1 0 1 1 0 1:0.017700344 2:-0.5293408 3:0.42106381 4:-0.11775313 5:0.089676782 6:0.043611445 7:-0.063406691 8:-0.012973738 9:-0.018998852 10:-0.010114435 11:0.077239484 12:-0.000932359 13:0.030711716 14:0.081194103 15:0.21096571 16:-0.12308389 17:0.053547587 18:-0.026173046 19:-0.036210962 20:-0.009024775 21:0.001727171 22:0.011000787 23:-0.008808858 24:0.017791366 25:-0.00081833 26:0.15981881 27:0.14715607 28:-0.44604012 29:0.10929792 30:-0.045082759 31:-0.026017793 32:-0.022962566 33:-0.017727846 34:-0.037348527 35:0.01458427 36:0.053430457 37:0.015841492 38:-0.24915686 39:0.034691792 40:0.00664275 41:-0.01964494 42:-0.061087031 43:0.006031518 44:-0.015631484 45:0.000166872 46:-0.011911854 47:-0.07191617 48:0.049532495 49:0.004921895 50:-0.011956559 51:0.008680758 52:-0.016068554 53:-0.004639704 54:-0.007863657 55:-0.001625698 56:0.032088451 57:0.01932749 58:0.085787714 59:0.009839 60:0.038044889 61:0.069661997 62:0.005638218 63:0.022087555 64:-0.005187906 65:0.16542605 66:-0.023120439 67:0.019806122 68:-0.091168217 69:0.003395569 70:0.01171024 71:-0.005561574 72:-0.01719068 73:-0.054492295 74:0.012459933 75:-0.002139627 76:0.034440886 77:-0.025641015 78:-0.018208705 79:0.092809789 80:-0.02587066 81:-0.1178733 82:-0.023966802 83:-0.020216255 84:-0.007199996 85:-0.048452478 86:0.068136834 87:0.020261807 88:0.14693885 89:0.013832531 90:0.077745967 91:0.054484006 
0 0 1 0 1 0 1:-0.012818601 2:-0.14183366 3:0.42596868 4:-0.041819312 5:0.075107843 6:0.02960629 7:-0.074033365 8:-0.00338008 9:-0.030463859 10:0.013300687 11:0.085562147 12:-0.006868087 13:-0.001311818 14:0.061962355 15:0.45825785 16:-0.34439456 17:0.020231495 18:-0.059397385 19:-0.024969852 20:0.011964612 21:0.009312776 22:0.005124134 23:-0.02146567 24:0.018053109 25:0.004488894 26:0.11512759 27:-0.16572314 28:-0.32131484 29:0.082943849 30:-0.010743279 31:-0.057159584 32:-0.009429163 33:-0.037173878 34:-0.025363196 35:0.015725439 36:0.035829291 37:-0.002915051 38:-0.13288952 39:-0.018326705 40:0.029873056 41:-0.021028413 42:-0.040613122 43:-0.000104636 44:0.014074851 45:0.011247269 46:-0.012978645 47:-0.038648784 48:-0.11363965 49:-0.002313588 50:-0.098720148 51:0.012671605 52:0.004177115 53:0.000413216 54:0.006641933 55:0.012660463 56:0.018699497 57:0.037259527 58:0.21833935 59:0.027388351 60:0.051400296 61:0.052611239 62:0.003657309 63:0.027594205 64:-0.001923792 65:0.28287759 66:-0.00555953 67:0.085402258 68:-0.082455076 69:-0.009268549 70:0.016972948 71:0.01391085 72:0.014867616 73:-0.17273626 74:-0.034227975 75:0.005155744 76:0.014485599 77:-0.013705256 78:-0.13571307 79:0.11931933 80:-0.032992806 81:-0.070679307 82:-0.035168741 83:-0.005374196 84:0.02059787 85:-0.054751426 86:0.047183238 87:0.041906305 88:0.099186487 89:0.010458633 90:0.060461249 91:0.026546279 
1 1 0 1 1 1 1:-0.009436353 2:-0.6712448 3:0.46111211 4:-0.130418 5:-0.008831735 6:-0.041099969 7:-0.000692409 8:-0.005243442 9:-0.034623325 10:0.006723579 11:0.063407749 12:-0.005631831 13:0.002499718 14:0.063096032 15:0.1120762 16:-0.23152284 17:0.048055902 18:0.007971978 19:-0.055580392 20:0.022777379 21:-0.00619978 22:-0.003523253 23:-0.01203266 24:0.015811456 25:0.003883607 26:0.14579071 27:0.091793239 28:-0.3049711 29:0.027327452 30:-0.015797993 31:-0.045772824 32:-0.03074958 33:-0.020593947 34:0.000684344 35:0.011563174 36:0.023048393 37:-0.009194501 38:-0.14796796 39:0.042640753 40:0.001962692 41:-0.022587253 42:-0.00303201 43:0.025403868 44:0.001870007 45:0.003789097 46:-0.013076773 47:-0.014977344 48:0.050780095 49:0.004078029 50:-0.081358396 51:0.000856856 52:-0.00377873 53:-0.023177467 54:-0.004510444 55:0.009006699 56:0.003712646 57:0.011107729 58:0.16294126 59:0.040133018 60:0.057143528 61:0.042605381 62:0.004864124 63:0.023940759 64:-0.01069605 65:0.1848952 66:-0.024679184 67:0.058679402 68:-0.043817259 69:0.006582737 70:0.030410513 71:0.009033681 72:-0.010302928 73:-0.10296977 74:0.000621498 75:0.000833229 76:0.000335612 77:-0.005850993 78:-0.030315934 79:0.13776092 80:-0.018381594 81:-0.040651295 82:-0.03226066 83:-0.002707775 84:0.0158637 85:-0.061664712 86:0.039147127 87:-0.007879954 88:0.11375923 89:0.015176239 90:0.050012216 91:0.023055563 
1 1 0 0 0.37548646685084153 0 1:-0.008259504 2:-0.49050426 3:0.36998972 4:0.019330531 5:-0.066484816 6:0.097217776 7:0.052847967 8:0.001997221 9:-0.019068941 10:0.016333334 11:0.19562732 12:0.007214933 13:0.00271269 14:0.071166866 15:0.20428722 16:-0.30768091 17:-0.008287881 18:-0.028560249 19:-0.12406851 20:0.052917425 21:-0.012128438 22:-0.010311363 23:-0.035177626 24:0.046552766 25:0.000996848 26:0.14371456 27:0.073764116 28:-0.297553 29:0.20034701 30:0.00906026 31:-0.074154042 32:-0.019678118 33:-0.023321239 34:-0.034202039 35:-0.009019285 36:0.008104915 37:0.003408875 38:-0.17976594 39:-0.11976029 40:-0.09035033 41:0.015744187 42:0.014832546 43:0.009224877 44:-0.034153908 45:-0.002433947 46:-0.003340427 47:-0.016988426 48:-0.06240093 49:0.063830435 50:-0.11585993 51:0.023834324 52:-0.01167566 53:-0.094246835 54:-0.004968539 55:-0.00343052 56:0.003592422 57:0.053161513 58:0.13306929 59:0.079535507 60:0.047488637 61:0.1059634 62:-0.016192244 63:0.033341721 64:-0.010318489 65:0.19306424 66:-0.11449288 67:0.074150331 68:-0.11896618 69:-0.00883685 70:0.051293682 71:-0.001851928 72:-0.11150266 73:-0.084654823 74:0.058961082 75:-0.026815407 76:-0.034069259 77:-0.020376367 78:0.02130973 79:0.15741949 80:-0.058187634 81:-0.019517178 82:-0.038739521 83:0.00224397 84:0.090764925 85:-0.09749677 86:0.071307361 87:0.021891542 88:0.14296903 89:0.030699905 90:0.096766196 91:0.023174437 
1 1 1 1 1 0 1:-0.026380774 2:-0.43469703 3:0.44908071 4:-0.016304219 5:-0.02653929 6:0.045161407 7:-0.034629025 8:-0.000707961 9:-0.031987019 10:0.003096799 11:0.074098647 12:0.001978148 13:-0.004470577 14:0.044069406 15:0.21832277 16:-0.30796003 17:-0.034141243 18:-0.019635826 19:-0.071061194 20:0.002995512 21:-0.000979797 22:-0.017942896 23:-0.032727737 24:0.035651766 25:-0.000898156 26:0.10234796 27:-0.030013854 28:-0.25735602 29:0.11808581 30:-0.019173475 31:-0.053559497 32:-0.037905667 33:-0.022070406 34:-0.001005881 35:-0.002739269 36:0.022684176 37:0.00693864 38:-0.089724995 39:-0.035557438 40:0.001460467 41:-0.016365137 42:0.000442672 43:0.023085719 44:-0.015983984 45:0.005702727 46:-0.016591562 47:-0.00484358 48:-0.051026091 49:-0.051807221 50:-0.050051376 51:-0.034130935 52:-0.020326652 53:-0.047204278 54:-0.009194292 55:0.012759355 56:-0.001610533 57:-0.001678499 58:0.12786877 59:0.051577967 60:0.053393226 61:0.080196969 62:-0.017316492 63:0.015028811 64:-0.009087066 65:0.18906599 66:-0.009787424 67:0.052487306 68:-0.032093257 69:0.043738812 70:0.010930174 71:0.001815465 72:-0.040723592 73:-0.1498896 74:0.015563447 75:-0.013739052 76:-0.006061193 77:-0.001504087 78:-0.045309253 79:0.075216629 80:-0.011117132 81:-0.033496011 82:-0.036898572 83:-0.029235588 84:0.012929118 85:-0.072728224 86:0.020667756 87:-0.0069389 88:0.12594424 89:0.01478282 90:0.066063039 91:0.020298753 
1 1 0 1 0 1 1:-0.00515515 2:-0.68614334 3:0.3067069 4:0.028368967 5:0.16712932 6:-0.046248093 7:-0.044863101 8:-0.002205316 9:-0.043339729 10:-0.010835588 11:0.1354361 12:-0.006161876 13:0.031506743 14:0.062332742 15:0.073440656 16:-0.41080713 17:0.094651632 18:-0.011895024 19:-0.037848838 20:0.02126131 21:-0.004937599 22:-0.000844764 23:0.009343837 24:0.028454807 25:0.007995377 26:0.16982979 27:-0.029842941 28:-0.39963165 29:0.11552624 30:-0.003964925 31:-0.048838515 32:-0.0426476 33:-0.035917666 34:-0.029019687 35:0.001421839 36:0.034299701 37:-0.051091608 38:-0.15539654 39:-0.061240606 40:-0.022334689 41:0.01315175 42:-0.014489832 43:-0.017853364 44:-0.052613404 45:-0.000327004 46:-0.028008925 47:-0.061764892 48:-0.016437879 49:0.035307914 50:-0.039524067 51:0.027602075 52:0.015250583 53:-0.008547886 54:-0.004517919 55:0.000486737 56:-0.0202563 57:0.089114062 58:0.036507092 59:0.087613098 60:0.051751871 61:0.033454474 62:0.015603762 63:0.020026574 64:-0.003613228 65:0.17568335 66:-0.089995876 67:0.065176748 68:-0.12492794 69:0.002451415 70:0.016638175 71:-0.022908852 72:-0.096086316 73:-0.069106065 74:-0.050788656 75:-0.017673474 76:-0.023976533 77:-0.027921764 78:-0.06217194 79:0.15518789 80:-0.051379293 81:-0.10429877 82:-0.025552301 83:-0.056387194 84:0.065997094 85:-0.15061598 86:0.066436164 87:0.026319772 88:0.17995298 89:0.025787532 90:0.059265215 91:0.046698164 
1 1 0 1 0 1 1:-0.0120889 2:-1.0623595 3:0.26312658 4:-0.068636924 5:-0.024023771 6:-0.045069557 7:-0.065138489 8:-0.042957962 9:-0.042044062 10:0.004911881 11:0.17294963 12:0.00118319 13:0.056675486 14:0.034817651 15:-0.1998243 16:-0.32272652 17:0.10076263 18:0.017595164 19:-0.061092854 20:0.022867871 21:0.004219559 22:0.003621352 23:0.061891329 24:0.012085794 25:0.009238276 26:0.1577501 27:0.2457722 28:-0.45474672 29:0.06859009 30:-0.090032384 31:-0.038971689 32:-0.030753458 33:-0.017831266 34:-0.014432997 35:-0.001250618 36:0.01186616 37:-0.030113975 38:-0.15153968 39:-0.024290562 40:-0.048105717 41:-0.012757088 42:-0.011451801 43:-0.045372169 44:-0.017884485 45:0.007808546 46:-0.050486892 47:-0.022544481 48:0.064006485 49:0.066770919 50:-0.028659577 51:0.022257794 52:0.043656774 53:-0.057776995 54:0.005983752 55:-0.019270176 56:-0.001574569 57:-0.005368697 58:0.098383859 59:0.10193964 60:0.050700076 61:0.090037256 62:0.015578488 63:0.020595428 64:0.006778514 65:0.1563272 66:-0.092726804 67:0.11291487 68:-0.064255305 69:-0.000455186 70:0.069188833 71:-0.010450304 72:-0.025090786 73:-0.14367597 74:0.024271686 75:-0.019675875 76:-0.021120816 77:-0.034629289 78:-0.012434177 79:0.020378612 80:-0.059580613 81:-0.098981917 82:-0.027762841 83:-0.073144734 84:0.04277847 85:-0.16770786 86:0.058459077 87:-0.010575222 88:0.28303999 89:0.020118641 90:0.056858994 91:0.053239331 
1 1 0 1 1 1 1:0.005972405 2:-0.61678237 3:0.49172756 4:-0.18317375 5:-0.027313014 6:-0.004072223 7:-0.028780594 8:-0.018745707 9:-0.028870231 10:0.003773238 11:0.049974427 12:0.00032157 13:0.024902474 14:0.073193505 15:0.13244893 16:-0.14369598 17:0.030566866 18:-0.000717911 19:-0.040989377 20:0.006768149 21:-0.007477668 22:0.007586735 23:0.000168133 24:0.028192908 25:0.014635305 26:0.17366224 27:0.11246943 28:-0.2986891 29:0.02657225 30:-0.051403508 31:-0.01255114 32:-0.027113168 33:-0.022607245 34:0.000202634 35:0.002898359 36:0.051864013 37:0.000648523 38:-0.15131918 39:-0.011387971 40:-0.009327787 41:-0.032369275 42:-0.002117553 43:-0.020211784 44:-0.004384182 45:0.001310859 46:-0.016786432 47:-0.019044891 48:-0.007403119 49:0.058089301 50:-0.03279274 51:0.007262404 52:0.016244002 53:0.012390342 54:0.000584769 55:0.012122335 56:0.006336431 57:0.036518097 58:0.06269189 59:0.03396228 60:0.05610729 61:0.009268275 62:0.012819749 63:0.014560441 64:0.008466905 65:0.10712229 66:0.009520598 67:0.04739191 68:-0.028953632 69:-0.004870396 70:0.017818872 71:-1.8588e-05 72:-0.013216178 73:-0.078790948 74:-0.01400683 75:-0.021687297 76:0.027242886 77:-0.003210827 78:-0.039978046 79:0.15709485 80:-0.030826528 81:-0.058160681 82:-0.023074163 83:0.016696569 84:0.088924713 85:-0.053517353 86:0.048528012 87:0.047169283 88:0.1832764 89:0.027107272 90:0.059813887 91:0.047795981 
0 1 1 0 1 0 1:-0.006174418 2:-0.41956103 3:0.59727335 4:-0.008979705 5:0.027518736 6:0.009023538 7:-0.034577511 8:-0.00320036 9:-0.010684253 10:-0.008017129 11:0.055094767 12:0.012323563 13:0.028371766 14:0.03258336 15:0.22172503 16:-0.35151365 17:0.003738591 18:-0.009900217 19:-0.042428028 20:0.011144732 21:-0.009520624 22:0.006718602 23:-0.015448983 24:0.032630142 25:0.017551195 26:0.10507654 27:-0.027311385 28:-0.08652702 29:0.062883161 30:-0.008547636 31:-0.055437736 32:-0.025213603 33:-0.010515038 34:-0.004394339 35:-0.004793947 36:0.025826886 37:-0.022936054 38:-0.012338492 39:-0.086859405 40:-0.018574273 41:-0.012256408 42:0.007829627 43:0.000886973 44:-0.017547596 45:-0.000831355 46:-0.023271898 47:-0.007814254 48:-0.054447319 49:0.07810095 50:-0.057355933 51:-0.014575786 52:0.005886477 53:0.009414001 54:0.00365909 55:0.004155008 56:-0.002492662 57:0.061157774 58:0.078589052 59:0.053929519 60:0.045573462 61:0.02735964 62:0.018591639 63:0.024444012 64:0.004425224 65:0.10009532 66:-0.087292738 67:0.045237638 68:-0.018595211 69:0.002441027 70:0.025845546 71:-0.000100753 72:-0.057184171 73:-0.073761895 74:-0.02666432 75:-0.008723876 76:-0.01128501 77:-0.005478096 78:-0.01909114 79:0.11925054 80:-0.038126014 81:-0.034358807 82:-0.028563777 83:0.013556655 84:0.093858145 85:-0.10004329 86:0.027990477 87:0.056458563 88:0.16609876 89:0.021989305 90:0.054103367 91:0.032336824 
1 1 0 0.61212507349491629 0 0 1:0.004592757 2:-0.55101603 3:0.4308624 4:0.044134997 5:0.027215695 6:0.060773838 7:-0.073440991 8:0.001089707 9:-0.007764708 10:0.016162949 11:0.11574522 12:-0.008290135 13:0.005613652 14:0.067085572 15:0.17646988 16:-0.33013704 17:-0.007819425 18:-0.10357357 19:-0.044468917 20:-0.016032018 21:-0.028319808 22:0.013587607 23:-0.036457039 24:0.018878089 25:0.009839173 26:0.14759865 27:0.030751042 28:-0.25953603 29:0.038834471 30:-0.003456402 31:-0.034509666 32:-0.020377144 33:-0.023857955 34:-0.021253979 35:-0.001591655 36:0.043166071 37:-0.00958339 38:-0.16585679 39:0.17534649 40:0.024325976 41:-0.02674667 42:-0.012597878 43:0.000591057 44:0.000379772 45:0.005223711 46:-0.028666046 47:-0.037344597 48:0.1300219 49:-0.075398244 50:-0.070657402 51:0.012793271 52:-0.020364553 53:-0.019165667 54:0.003456088 55:-0.019205924 56:0.060371738 57:-0.057320118 58:0.12072067 59:0.13694 60:0.05823715 61:0.13258108 62:-0.006517375 63:0.033634812 64:-0.017261283 65:0.18245648 66:-0.14203806 67:0.077744983 68:-0.097152039 69:0.02782058 70:0.004516231 71:0.004921251 72:-0.11095579 73:-0.11893098 74:-0.041974481 75:-0.020882336 76:0.025589671 77:-0.019239884 78:-0.028063765 79:0.2092412 80:-0.028150709 81:-0.04641531 82:-0.044160925 83:0.040166628 84:0.044339187 85:-0.10196814 86:0.072486401 87:0.029958522 88:0.15508705 89:0.02340802 90:0.082778394 91:0.030602057 
1 1 0 1 0 1 1:-0.01127507 2:-0.90121913 3:0.18721002 4:-0.22017705 5:0.13907058 6:0.022621829 7:-0.026418466 8:-0.012229485 9:-0.02356261 10:0.028641615 11:0.051556215 12:0.005609674 13:-0.003731926 14:0.090165906 15:0.10661624 16:-0.22252908 17:0.091039643 18:-0.11660799 19:-0.087001681 20:0.001723827 21:-0.021684211 22:0.016699171 23:-0.044707321 24:0.011557512 25:-0.009435445 26:0.15064998 27:0.15998787 28:-0.45592701 29:0.005149946 30:0.038806561 31:-0.057229485 32:-0.065602727 33:-0.048258331 34:-0.021871442 35:-0.001161736 36:0.031336516 37:-0.010319076 38:-0.33149832 39:0.040535036 40:0.083452985 41:-0.059923526 42:0.004944478 43:0.022350993 44:0.003434366 45:-0.013840985 46:-0.041221377 47:-0.063622482 48:0.014360262 49:-0.11876178 50:-0.10736906 51:0.018897593 52:-0.039360844 53:-0.062240001 54:-0.004556464 55:0.001777997 56:0.033855706 57:-0.027243512 58:0.17555141 59:0.08199019 60:0.15127046 61:0.070486449 62:0.014186414 63:0.04667791 64:-0.051897384 65:0.26359201 66:-0.1744481 67:0.1031167 68:-0.10504293 69:-0.02806942 70:-0.003727678 71:0.010613519 72:-0.1347273 73:-0.18665478 74:-0.015164952 75:0.015979905 76:0.035136376 77:-0.027744042 78:-0.096497677 79:0.095388837 80:-0.055407505 81:-0.10157117 82:-0.064064212 83:-0.030902894 84:0.051956639 85:-0.094558261 86:0.053959627 87:-0.0029938 88:0.12692307 89:0.013427525 90:0.087031946 91:0.037035424 
1 1 1 0 1 0 1:-0.01522484 2:-0.37332207 3:0.49491623 4:-0.1383656 5:0.076186925 6:0.070490837 7:-0.035915434 8:0.025759773 9:0.002586286 10:-0.003705709 11:0.060348343 12:-0.001101987 13:0.038439199 14:0.073587842 15:0.30614397 16:-0.21197958 17:-0.012605101 18:-0.053837426 19:-0.055612486 20:0.025012424 21:-0.019695874 22:0.013884266 23:-0.021059414 24:0.014998442 25:0.005540102 26:0.10971883 27:0.027317462 28:-0.18099254 29:0.050670154 30:-0.012956203 31:-0.037295509 32:-0.042597212 33:-0.023066489 34:-0.019438462 35:0.001109616 36:0.025241464 37:0.004956734 38:-0.16300453 39:0.047800343 40:-0.012306264 41:-0.049292617 42:-0.015853092 43:0.002507194 44:-0.014799035 45:0.001435645 46:-0.027950561 47:-0.016508829 48:0.071228452 49:0.067788295 50:-0.046604712 51:0.01829955 52:-0.021516245 53:-0.012313099 54:-0.000904561 55:-0.023632996 56:0.022915365 57:0.077651203 58:0.099950276 59:0.080403313 60:0.074363835 61:0.073169425 62:-0.00074103 63:0.05311865 64:-0.001374419 65:0.18981132 66:-0.16160817 67:0.027628722 68:-0.043951597 69:0.009927141 70:0.036199197 71:0.0079363 72:-0.13731949 73:-0.058075976 74:-0.001813769 75:-0.023888463 76:0.014212423 77:-0.023924205 78:-0.041304767 79:0.11794905 80:-0.030604523 81:-0.062448088 82:-0.031317942 83:0.018607924 84:0.030507009 85:-0.085179701 86:0.030937169 87:0.017012604 88:0.19254302 89:0.018096298 90:0.11776131 91:0.034265611 
1 1 1 1 1 0 1:-0.02508791 2:-0.37234661 3:0.44276425 4:-0.008213928 5:0.020753203 6:0.009754754 7:-0.050739106 8:0.018784208 9:-0.0415131 10:0.00701787 11:0.043282315 12:0.00785642 13:0.002268007 14:0.02328039 15:0.23717372 16:-0.23657829 17:0.09777867 18:-0.036786728 19:-0.056576364 20:0.006961241 21:0.002592358 22:-0.00467248 23:-0.009945081 24:0.017706348 25:0.009387951 26:0.067850739 27:0.18344282 28:-0.26463541 29:0.056207936 30:-0.005233649 31:-0.074101038 32:-0.035177816 33:-0.034024812 34:-0.000783485 35:-0.006873939 36:0.011086846 37:-0.008577608 38:-0.075406998 39:-0.048209883 40:0.034517564 41:-0.023181479 42:-0.003113929 43:0.005833453 44:-0.033008058 45:-0.002244963 46:-0.025324292 47:-0.019014899 48:-0.016711744 49:0.022724859 50:-0.080944724 51:-0.015053888 52:0.003751849 53:-0.01553936 54:0.008122022 55:0.017516337 56:0.009197746 57:0.044529751 58:0.092120342 59:0.039104555 60:0.086296968 61:0.073064566 62:0.015475377 63:0.028186196 64:-0.018796496 65:0.13501479 66:-0.052758776 67:0.094503619 68:-0.043103896 69:0.006802235 70:7.4529e-05 71:-0.006724492 72:-0.037644457 73:-0.1520241 74:0.042022549 75:-0.018260416 76:0.010021514 77:-0.004844315 78:-0.037222907 79:0.020135051 80:-0.046912223 81:-0.054130904 82:-0.038868174 83:-0.030229641 84:0.11837851 85:-0.064860508 86:0.016521327 87:0.052128669 88:0.073516265 89:0.018827131 90:0.04256665 91:0.01884735 
0 0 1 0 1 0 1:-0.012858469 2:0.29579741 3:0.45990142 4:0.029500587 5:-0.03556022 6:0.027711555 7:-0.029666018 8:0.048637308 9:-0.014007279 10:0.026179878 11:0.033518221 12:0.004602722 13:0.022813721 14:0.042488024 15:0.39055768 16:-0.30531502 17:-0.006975161 18:-0.019489212 19:-0.024379801 20:0.003131109 21:-0.032954741 22:0.013806065 23:-0.020299392 24:0.010010355 25:-1.7964e-05 26:0.093391366 27:-0.089412145 28:-0.16945483 29:0.042811211 30:-0.034895055 31:-0.042154312 32:-0.022536706 33:-0.018863341 34:-0.004930374 35:0.001128451 36:0.023072628 37:-0.008902513 38:-0.10920441 39:0.019618675 40:-0.018438054 41:-0.02617266 42:-0.005897972 43:-0.029203061 44:-0.008553944 45:0.008422554 46:-0.034952074 47:0.003964292 48:0.001989361 49:0.050658125 50:-0.052370455 51:0.015242668 52:-0.010223641 53:0.001658108 54:-0.007083635 55:-0.016056361 56:0.008677594 57:-0.02423227 58:0.12670977 59:0.076230243 60:0.044846356 61:0.040186223 62:0.000692961 63:0.033439633 64:0.010408915 65:0.26868775 66:-0.10969644 67:0.061965276 68:-0.012054009 69:0.000329089 70:0.032570161 71:-0.00325901 72:-0.10644855 73:-0.12576759 74:-0.038279761 75:0.005434401 76:0.001199278 77:-0.013933232 78:-0.004549096 79:0.096824564 80:-0.01511409 81:-0.037859369 82:-0.032211557 83:0.032699622 84:0.014090458 85:-0.082446165 86:0.021418922 87:-0.002065514 88:0.15066981 89:0.010232209 90:0.10082316 91:0.023417916 
0 1 1 0 1 0 1:-0.009829391 2:-0.34831488 3:0.50457919 4:-0.12712114 5:0.047842812 6:0.024417441 7:-0.051142938 8:-0.017263209 9:-0.007329339 10:0.011792754 11:0.0331617 12:-0.000675819 13:0.01477481 14:0.040611938 15:0.27772328 16:-0.21695368 17:0.002206536 18:-0.072955541 19:-0.021904385 20:0.005545762 21:-0.009007725 22:0.021134451 23:-0.023979353 24:0.002494003 25:0.000763995 26:0.11477117 27:-0.002472954 28:-0.26941541 29:0.037176982 30:-0.024500486 31:-0.035339192 32:-0.042172126 33:-0.017629372 34:-0.008136661 35:0.005682246 36:0.027019553 37:0.007307907 38:-0.10852446 39:0.020994717 40:-0.006634458 41:0.005993567 42:-0.02752807 43:-0.008887824 44:-0.009881293 45:0.012100371 46:-0.034366071 47:-0.030987924 48:-0.064701788 49:0.040782943 50:-0.047653668 51:0.019720644 52:-0.042371485 53:-0.011872583 54:0.006169267 55:-0.017530702 56:0.018867299 57:0.063227504 58:0.029305268 59:0.060438138 60:0.071018279 61:0.041503169 62:-0.003743863 63:0.012919876 64:-0.003568247 65:0.11843869 66:-0.12998402 67:0.045486096 68:-0.08189483 69:-0.002368549 70:0.024192149 71:-0.007848438 72:-0.099213839 73:-0.11739546 74:0.007463471 75:-0.000658209 76:0.024027297 77:-0.01887068 78:-0.045646101 79:0.080585562 80:-0.029712474 81:-0.058950678 82:-0.038316265 83:-0.041260526 84:0.010689712 85:-0.068633646 86:0.029873587 87:0.006380032 88:0.14372978 89:0.011396275 90:0.072959661 91:0.030348629 
0 1 1 0 1 0 1:-0.00595089 2:-0.37571701 3:0.42148161 4:-0.008548767 5:0.10664705 6:0.1423557 7:-0.087156534 8:-0.002756344 9:-0.027682219 10:0.030274458 11:0.061578128 12:-0.001875396 13:0.004903825 14:0.073060654 15:0.31127775 16:-0.35478666 17:-0.061955296 18:-0.1123077 19:-0.001074431 20:-0.00252365 21:-0.001678476 22:0.016474145 23:-0.031628881 24:0.002122448 25:-0.005411872 26:0.11673769 27:-0.001374471 28:-0.21354409 29:0.20956236 30:-0.05453828 31:-0.053908039 32:-0.025514878 33:-0.018971063 34:-0.029901192 35:0.020766119 36:0.030853383 37:-0.001172951 38:-0.15480891 39:-0.2698569 40:0.031190922 41:-0.025420837 42:-0.055790238 43:-0.017289151 44:0.014751039 45:0.007318144 46:-0.015396329 47:-0.045890346 48:-0.10022731 49:-0.050657317 50:-0.081048861 51:0.031011214 52:-0.071158275 53:-0.000732567 54:-0.008030042 55:0.005381595 56:-0.010993179 57:-0.046771958 58:0.17705695 59:0.016739437 60:0.11080458 61:0.063209772 62:-0.004920586 63:0.031884674 64:0.00219968 65:0.21064059 66:0.038839884 67:0.000182742 68:-0.1158523 69:-0.007349686 70:0.015930345 71:0.019953804 72:-0.00188849 73:0.00281639 74:0.035710562 75:0.019150527 76:-0.012807786 77:-0.005337274 78:0.02630873 79:0.010326353 80:-0.02457607 81:-0.04193642 82:-0.038604617 83:0.022749819 84:0.000176997 85:-0.086744249 86:0.026687037 87:-0.01106611 88:0.15550287 89:0.007038489 90:0.10931294 91:0.029573062 
1 1 1 1 1 0 1:-0.012369482 2:-0.3553994 3:0.41648918 4:-0.14331554 5:0.12172428 6:0.042335894 7:-0.044721846 8:-0.009762156 9:-0.009003669 10:0.042772904 11:0.028618399 12:0.003732909 13:-0.014012042 14:0.081254378 15:0.26791766 16:-0.15740147 17:-0.026797973 18:-0.11021778 19:-0.034832511 20:-0.00494433 21:0.013399717 22:0.03334371 23:-0.042636212 24:0.025995776 25:0.004875303 26:0.15055925 27:0.00531505 28:-0.39154613 29:0.056623839 30:-0.002686624 31:-0.035658322 32:-0.017741773 33:0.003966966 34:-0.031227032 35:-0.002344115 36:0.008020576 37:0.003829508 38:-0.12219307 39:0.068490185 40:-0.018432287 41:-0.016135413 42:-0.060667343 43:0.005464486 44:-0.013221564 45:-0.001481641 46:-0.0149784 47:-0.038554866 48:-0.045909282 49:0.003035912 50:-0.012378822 51:0.01443265 52:-0.052820161 53:-0.00346541 54:0.009264347 55:0.017451592 56:0.01483546 57:0.09174671 58:0.043516722 59:0.038757328 60:0.10889077 61:0.075974919 62:0.003034904 63:0.00880513 64:0.00293866 65:0.16590725 66:0.013440391 67:0.0490386 68:-0.063978314 69:0.038788907 70:0.019015174 71:-0.008306896 72:0.072547466 73:-0.15617989 74:0.019961117 75:-0.044568524 76:0.008329687 77:-0.012194011 78:-0.01873368 79:0.043210045 80:-0.034747154 81:-0.034937333 82:-0.052421 83:-0.071559697 84:0.071108796 85:-0.04367904 86:0.023165379 87:0.055844177 88:0.097971357 89:0.027653154 90:0.070267163 91:0.016702533 
1 1 1 0 1 0 1:0.012925078 2:-0.40570518 3:0.47184125 4:-0.10803853 5:0.09385711 6:0.049807772 7:-0.064385429 8:-0.014637076 9:-0.013664486 10:0.02306924 11:0.04387657 12:0.006575499 13:-0.002253228 14:0.081023388 15:0.29931039 16:-0.23564918 17:0.064692356 18:-0.065844104 19:-0.00399417 20:-0.000974425 21:-0.000743852 22:0.021232216 23:-0.037905913 24:0.019910885 25:0.010832315 26:0.15988705 27:0.031532023 28:-0.24087542 29:0.04412004 30:-0.054227728 31:-0.03830415 32:-0.027893104 33:-0.01285296 34:-0.022910917 35:0.017483896 36:0.033384088 37:-0.042159773 38:-0.11313485 39:-0.13614619 40:-0.00431738 41:0.008763999 42:-0.048872527 43:-0.01531186 44:-0.011044776 45:0.004468083 46:-0.011055478 47:-0.05651059 48:-0.096124157 49:0.051891826 50:-0.017450681 51:0.027051466 52:-0.058512542 53:0.024230408 54:-0.007252146 55:0.005105885 56:-0.006069988 57:0.016115433 58:0.085403323 59:0.034528743 60:0.095521078 61:0.033930339 62:-0.001388306 63:0.001682954 64:0.020568559 65:0.15104711 66:0.022224361 67:0.026484724 68:-0.093794256 69:-0.021115314 70:0.024980417 71:-0.004889686 72:-0.024438819 73:-0.024765076 74:-0.05598703 75:-0.008135865 76:-0.007521041 77:-0.010152839 78:-0.010513139 79:0.06687063 80:-0.050420493 81:-0.046538156 82:-0.039788187 83:-0.016168853 84:0.0570575 85:-0.069565177 86:0.04789491 87:0.054818936 88:0.10496596 89:0.023091732 90:0.046601452 91:0.029217783 
0 1 1 0 1 0 1:0.001858356 2:-0.15453683 3:0.54540276 4:0.059825663 5:-0.010271004 6:0.11161203 7:-0.06173031 8:-0.007867781 9:-0.02127602 10:-0.000975545 11:0.037190992 12:0.004047214 13:-0.003316796 14:0.12304026 15:0.405936 16:-0.36832994 17:-0.002929772 18:-0.10171363 19:-0.010219689 20:-0.006116413 21:0.016264096 22:0.000335064 23:-0.008146769 24:-0.004505453 25:0.007147094 26:0.15086155 27:-0.14106923 28:-0.18629405 29:0.093325466 30:-0.027591705 31:-0.07097169 32:-0.021057112 33:-0.004221417 34:-0.012531156 35:0.00177722 36:0.022497721 37:-0.040940553 38:-0.17669538 39:-0.092059471 40:0.005022834 41:0.036621775 42:-0.039752394 43:-0.001295115 44:-0.015757762 45:0.011027914 46:-0.008998266 47:-0.021058116 48:-0.021035992 49:0.002417821 50:-0.028486749 51:0.014821736 52:-0.015358342 53:0.002000319 54:0.018772325 55:0.008884667 56:0.009575179 57:0.012908863 58:0.092741586 59:0.042745456 60:0.031092446 61:0.063847311 62:0.003731469 63:0.00770596 64:0.004210279 65:0.11098754 66:0.004629382 67:0.035635941 68:-0.075361855 69:-0.033467431 70:0.013197173 71:-0.003577741 72:-0.032785721 73:-0.055670068 74:-0.02361328 75:0.004508393 76:0.008428521 77:-0.008671758 78:-0.018506849 79:0.045610938 80:-0.068107143 81:-0.027633246 82:-0.023223465 83:0.05179105 84:0.071455866 85:-0.060788851 86:0.031977743 87:0.045012906 88:0.11595619 89:0.016484827 90:0.072642043 91:0.026156759 
1 1 1 1 1 0 1:-0.000384856 2:-0.54090679 3:0.34332016 4:-0.11836938 5:-0.053091463 6:-0.027001247 7:-0.08203993 8:0.001167448 9:-0.026053917 10:0.004795703 11:0.020137921 12:0.002615832 13:-0.010806332 14:0.077309422 15:0.24452537 16:-0.25585189 17:0.048713043 18:0.032978047 19:-0.022606233 20:0.033760704 21:0.010380744 22:0.006566184 23:-0.04595574 24:0.000110412 25:0.022488276 26:0.17054799 27:0.053259972 28:-0.27315703 29:0.048096649 30:-0.036154423 31:-0.051383659 32:-0.022109233 33:-0.003138419 34:-0.027458772 35:0.002040088 36:0.014101852 37:-0.041528691 38:-0.057484977 39:-0.077489555 40:0.02294484 41:0.018470017 42:-0.033020765 43:0.005224478 44:0.001591288 45:0.00229088 46:-0.013226026 47:-0.018956129 48:-0.022694262 49:-0.00185238 50:-0.029891787 51:-0.009159075 52:-0.017910689 53:0.004542954 54:0.031688806 55:0.014756031 56:-0.025425524 57:0.042735536 58:0.13983865 59:0.07607796 60:0.077719741 61:0.01782422 62:0.013372317 63:0.024359792 64:-0.00171691 65:0.22481799 66:-0.014828088 67:0.068477556 68:-0.030678757 69:-0.002922787 70:0.026742928 71:-0.005008265 72:-0.040589049 73:-0.12278307 74:-0.064914294 75:0.007163382 76:-0.012212823 77:-0.014099484 78:-0.048484869 79:0.074502133 80:-0.04567495 81:-0.008858117 82:-0.056402288 83:-0.003279087 84:0.069823772 85:-0.064528279 86:0.034030817 87:0.088447534 88:0.11930383 89:0.015613617 90:0.067209937 91:0.021940982 
1 1 1 1 1 0 1:0.00896619 2:-0.51460856 3:0.42716235 4:-0.085533343 5:-0.044113018 6:-0.017213427 7:-0.065095328 8:-0.025360905 9:-0.005346319 10:0.008134086 11:0.1147843 12:0.031886049 13:-0.001174763 14:0.070191652 15:0.18490112 16:-0.26304576 17:0.011450298 18:-0.041657545 19:-0.00738569 20:-0.007504477 21:-0.010045539 22:0.004698834 23:-0.020534357 24:0.037534736 25:0.023697091 26:0.18099727 27:0.035849616 28:-0.21138567 29:0.03637271 30:-0.040736865 31:-0.044962343 32:-0.022844251 33:-0.019400425 34:-0.00996656 35:0.00386911 36:0.015626995 37:-0.03109684 38:-0.095841445 39:-0.02862877 40:-0.012881873 41:0.015909169 42:0.003085747 43:-0.009337662 44:-0.023587586 45:-0.002294268 46:-0.014759817 47:-0.013412923 48:-0.054335035 49:0.032759286 50:-0.02564336 51:0.015615323 52:-0.01813559 53:0.019743003 54:0.00161076 55:0.002059701 56:0.001901105 57:-0.003483962 58:0.049697787 59:0.087704971 60:0.056850027 61:0.055496804 62:0.025743889 63:0.016311627 64:0.013518041 65:0.14461885 66:-0.02211681 67:0.054423716 68:-0.087292522 69:-0.010541411 70:0.02220556 71:-0.014322864 72:-0.068031289 73:-0.086652711 74:-0.05295518 75:-0.0092895 76:-0.0184741 77:-0.008806304 78:-0.018684499 79:0.15398191 80:-0.10214497 81:-0.007887111 82:-0.035740543 83:-0.003839623 84:0.17806457 85:-0.074200898 86:0.069995381 87:0.10356703 88:0.13766707 89:0.045683332 90:0.073735192 91:0.024620673 
1 1 1 1 1 0 1:-0.011440908 2:-0.28011113 3:0.43508649 4:-0.054721128 5:-0.057817109 6:0.039817482 7:-0.078332447 8:-0.014402714 9:0.015344512 10:0.017634081 11:0.076792747 12:0.005336773 13:0.022102334 14:0.087347113 15:0.34573966 16:-0.22396706 17:-0.0510724 18:-0.057018243 19:-0.018077252 20:0.00818467 21:0.023915632 22:0.023012178 23:-0.036984775 24:0.033486757 25:0.02258743 26:0.11667483 27:0.12413181 28:-0.16287766 29:0.05862347 30:-0.044246007 31:-0.061093125 32:-0.004312898 33:0.016896849 34:-0.03172474 35:0.006495461 36:0.042098526 37:0.016826974 38:-0.1060522 39:-0.017342415 40:0.026480444 41:0.010400811 42:-0.012368461 43:0.014209457 44:-0.01286522 45:-0.009168481 46:-0.005251876 47:-0.008897791 48:0.005359858 49:-0.029088123 50:-0.007099641 51:-0.024160841 52:-0.041039158 53:0.000663485 54:0.007020851 55:0.002223057 56:0.016372448 57:0.004637638 58:0.070910759 59:0.12127311 60:0.055023696 61:0.076333031 62:0.007832006 63:0.025884366 64:0.003792164 65:0.19308426 66:-0.14095624 67:0.044200271 68:-0.057617191 69:0.01322297 70:0.023543563 71:0.001388012 72:-0.058496073 73:-0.047949933 74:-0.029138545 75:-0.011212378 76:0.006059748 77:-0.010816177 78:-0.001446069 79:0.1272164 80:-0.066290699 81:-0.023647113 82:-0.031267092 83:0.012758734 84:0.11987084 85:-0.051043976 86:0.044038929 87:0.094088539 88:0.19298318 89:0.028884914 90:0.15111186 91:0.035907507 
1 1 1 0 1 0 1:-0.002302214 2:-0.31012335 3:0.3629396 4:0.004218598 5:-0.056325164 6:0.021285485 7:-0.055207659 8:-0.032730397 9:-0.022247449 10:-0.002406309 11:0.089244001 12:0.021400258 13:0.009535194 14:0.12201934 15:0.3118318 16:-0.31160229 17:-0.018612601 18:-0.043875124 19:-0.04844157 20:0.01338663 21:-0.020773878 22:0.002548376 23:-0.023124788 24:0.025941391 25:0.034091681 26:0.14180937 27:0.064658731 28:-0.15833457 29:0.10850474 30:0.005918204 31:-0.054036815 32:-0.02376001 33:-0.005303673 34:-0.02161698 35:0.005069589 36:0.040529206 37:-0.026866125 38:-0.17394021 39:-0.058719508 40:-0.024943847 41:0.048432495 42:-0.015172043 43:0.005897616 44:-0.011971356 45:-0.004000531 46:-0.007805509 47:-0.012893599 48:0.006375447 49:0.040481232 50:-0.041315187 51:0.016096177 52:-0.029227946 53:-0.011620947 54:0.020530887 55:0.001369194 56:0.000381034 57:-0.003549919 58:0.10586813 59:0.075172447 60:0.056045417 61:0.046147715 62:0.03546096 63:0.017142881 64:-0.003956826 65:0.19585946 66:-0.052877184 67:0.034209721 68:-0.07404121 69:-0.027159574 70:0.026108103 71:-0.01641589 72:-0.091381244 73:-0.048840918 74:-0.059216604 75:-0.004056215 76:-0.020580361 77:-0.016080517 78:-0.056338865 79:0.14002018 80:-0.11704661 81:-0.012638463 82:-0.035477471 83:0.079455316 84:0.15506233 85:-0.093083203 86:0.063150555 87:0.11032108 88:0.16991673 89:0.03734858 90:0.14220731 91:0.031924922 
1 1 1 1 1 1 1:-0.009185922 2:-0.54405808 3:0.38060299 4:0.067778043 5:-0.038519349 6:0.004613173 7:-0.070723645 8:-0.021953821 9:0.032437675 10:0.026275326 11:0.078220524 12:0.03513946 13:0.03067914 14:0.051344477 15:0.16728166 16:-0.39835283 17:-0.01305969 18:-0.057156283 19:-0.0356884 20:0.015011241 21:-0.011951056 22:0.02715895 23:-0.03123497 24:0.026759684 25:0.044198412 26:0.14036347 27:0.070944138 28:-0.10867454 29:0.043486867 30:-0.023198009 31:-0.045964539 32:-0.045872949 33:-0.016726196 34:-0.024735289 35:0.006481834 36:0.026395425 37:-0.037993181 38:-0.013941559 39:0.023868144 40:-0.00896305 41:0.016453808 42:0.011699508 43:-0.010493555 44:-0.031373072 45:-0.0031844 46:-0.028490065 47:0.003027011 48:-0.011523328 49:0.011196488 50:-0.019143403 51:-0.008861685 52:-0.043101963 53:-0.01735069 54:0.01058948 55:-0.03468651 56:0.023340486 57:0.03327534 58:0.000990172 59:0.19384702 60:0.07550092 61:0.055385515 62:0.022801857 63:0.013442339 64:-0.000833676 65:0.12047682 66:-0.20800458 67:0.085491396 68:-0.052295949 69:-0.007570782 70:0.047863655 71:-0.019923234 72:-0.11738225 73:-0.10200923 74:-0.081018448 75:0.001390233 76:-0.009384788 77:-0.034812983 78:-0.016778478 79:0.14144707 80:-0.077636898 81:0.003699351 82:-0.050582394 83:-0.032199051 84:0.1451989 85:-0.12051008 86:0.053965725 87:0.10594482 88:0.19333696 89:0.033419557 90:0.12841338 91:0.029637452 
1 1 1 0 1 0 1:-0.01506994 2:-0.40463853 3:0.37451035 4:0.068975933 5:0.040112361 6:0.014643859 7:-0.067844614 8:-0.032473844 9:0.005224554 10:-0.004787218 11:0.043561902 12:-0.004735967 13:-0.007756331 14:0.045309048 15:0.15722516 16:-0.45761737 17:-0.025107181 18:-0.11343396 19:-0.038306564 20:0.001018805 21:-0.009624378 22:0.006740553 23:-0.050901439 24:-0.006266446 25:0.008603369 26:0.12572137 27:-0.045282062 28:-0.1492696 29:0.10546537 30:-0.002455015 31:-0.021604815 32:-0.024714792 33:-0.002718567 34:-0.036904942 35:0.011873993 36:0.012122333 37:-0.04261646 38:-0.026806438 39:-0.087946862 40:0.018483987 41:0.01312179 42:0.021650773 43:0.005478224 44:0.001497085 45:0.000126064 46:-0.014241922 47:-0.022051185 48:-0.074444354 49:0.000762397 50:0.000831851 51:-0.023930982 52:-0.020998247 53:-0.012718008 54:0.002093553 55:-0.005605838 56:0.001009399 57:-0.011241352 58:0.022450849 59:0.14599024 60:0.068689629 61:0.024027431 62:0.015467461 63:0.012630986 64:-0.001815212 65:0.14143033 66:-0.14000286 67:0.080760404 68:-0.088809937 69:-0.017739048 70:0.02535269 71:-0.009423566 72:-0.15634267 73:-0.13275947 74:-0.094606243 75:0.004023496 76:-0.014117087 77:-0.019253276 78:-0.030777317 79:0.086256042 80:-0.061577946 81:0.003939461 82:-0.050472386 83:-0.012230663 84:0.059687279 85:-0.081162617 86:0.033905774 87:0.045196295 88:0.11288769 89:0.018709732 90:0.093938418 91:0.014039611 
1 1 1 1 1 0 1:0.000811513 2:-0.42703274 3:0.52369291 4:-0.083439961 5:-0.062812798 6:-0.003962045 7:-0.066826671 8:-0.040141568 9:-0.017444404 10:0.001111123 11:0.041004654 12:0.004467844 13:-0.001271865 14:0.072968759 15:0.25687414 16:-0.28466362 17:-0.033629086 18:-0.035451572 19:0.000407204 20:-0.002528994 21:-0.006441495 22:0.009948247 23:-0.02729192 24:0.020614704 25:0.017489575 26:0.14874789 27:-0.030282425 28:-0.092580967 29:0.014715755 30:-0.025076848 31:-0.035135955 32:-0.024461135 33:-0.002693297 34:-0.01728254 35:0.004243271 36:0.028594354 37:-0.02278294 38:-0.064527333 39:-0.009509388 40:0.003666061 41:0.01682771 42:-0.017889431 43:0.002127004 44:0.011292884 45:-0.004296996 46:-0.001786786 47:0.011030464 48:0.017389849 49:0.007170397 50:-0.028053036 51:0.001383779 52:-0.025862062 53:0.018394427 54:0.00970201 55:-0.002000199 56:0.005885876 57:0.017792812 58:0.058492273 59:0.0756016 60:0.049079083 61:0.0344797 62:0.008547515 63:0.007430078 64:0.007926806 65:0.11401554 66:-0.087840453 67:0.025538169 68:-0.031742748 69:-0.003935927 70:0.015656341 71:-0.003204736 72:-0.077679127 73:-0.039352864 74:-0.053388119 75:0.003308631 76:-0.006541932 77:-0.015870241 78:-0.026216367 79:0.13382655 80:-0.063444287 81:0.001126566 82:-0.025324827 83:0.046954364 84:0.097602606 85:-0.071274489 86:0.039225012 87:0.058519255 88:0.13630301 89:0.025140461 90:0.069107696 91:0.024521368 
1 1 1 1 1 0 1:-0.012827588 2:-0.41648537 3:0.171864 4:0.13584594 5:0.053111497 6:0.081119895 7:-0.094798028 8:-0.049383998 9:-0.006313869 10:-0.019091493 11:0.093157932 12:0.018223921 13:0.028345624 14:0.10977916 15:0.14128169 16:-0.44995567 17:-0.03820648 18:-0.11472317 19:-0.080871753 20:0.01054513 21:-0.009872903 22:0.007452569 23:-0.051656034 24:0.01264546 25:0.032062639 26:0.09715496 27:-0.14752127 28:-0.12197387 29:0.18298826 30:0.023141302 31:-0.095490858 32:-0.025707122 33:-0.002354804 34:-0.063030377 35:0.016786817 36:0.042927921 37:-0.009619282 38:-0.31551829 39:-0.16303551 40:-0.005030139 41:0.039754461 42:-0.01627255 43:0.017049808 44:-0.012748316 45:-0.019243617 46:-0.019676182 47:-0.023443945 48:-0.084419794 49:0.011418696 50:-0.056569081 51:0.028878804 52:-0.047507577 53:-0.043357842 54:0.013082173 55:-0.020905729 56:0.015098516 57:-0.083792426 58:0.12730162 59:0.15811078 60:0.087941132 61:0.099272579 62:0.009205695 63:0.015498547 64:-0.016394777 65:0.17698264 66:-0.16625151 67:0.033929091 68:-0.15170963 69:-0.043059826 70:0.01109193 71:-0.007313203 72:-0.16309114 73:-0.045647994 74:-0.040680464 75:-0.004031913 76:-0.009308671 77:-0.040891431 78:-0.053809829 79:-0.021184988 80:-0.1298846 81:-0.064447515 82:-0.042960014 83:0.062728174 84:0.14527339 85:-0.14111215 86:0.044567376 87:0.12405194 88:0.16909057 89:0.037215713 90:0.1641324 91:0.052389506 
0 1 1 0 1 0 1:-0.006160766 2:-0.15543249 3:0.41326246 4:-0.067014068 5:-0.043583088 6:-0.018078536 7:-0.082308464 8:-0.025999138 9:-0.024663821 10:-0.02466107 11:0.053329468 12:-0.003571838 13:0.020569358 14:0.080795683 15:0.37147763 16:-0.31953928 17:-0.002386715 18:-0.038200743 19:-0.029742101 20:0.009660088 21:-0.013508585 22:0.006414099 23:-0.020930124 24:-0.006528505 25:0.012339184 26:0.14392677 27:-0.011474621 28:-0.19750625 29:0.057692643 30:-0.024391253 31:-0.046792846 32:-0.014306528 33:-0.010092919 34:-0.018305818 35:0.005581557 36:0.012654084 37:-0.020328177 38:-0.076497674 39:-0.030077364 40:0.005200762 41:0.019993035 42:-0.036772586 43:0.003627111 44:-0.00627847 45:0.017041393 46:-0.013914588 47:-0.008264663 48:0.000239853 49:0.03834527 50:-0.050817195 51:0.0292817 52:-0.006152237 53:-0.002504777 54:0.011155913 55:0.003426098 56:-0.001720111 57:0.062193047 58:0.13724712 59:0.070187666 60:0.041446801 61:0.058835093 62:0.01354126 63:0.03126296 64:0.012414443 65:0.23130368 66:-0.079621226 67:0.051524121 68:-0.075030833 69:-0.009554616 70:0.040290739 71:0.004568074 72:-0.069241561 73:-0.087146975 74:-0.006580526 75:0.010454411 76:-0.008858368 77:-0.019702824 78:-0.032404684 79:0.028048716 80:-0.045515046 81:-0.013241694 82:-0.036188215 83:-0.052730888 84:0.045340374 85:-0.086124755 86:0.031385664 87:0.046693075 88:0.18267834 89:0.016068958 90:0.15107761 91:0.034490995 
1 1 1 0 1 0 1:-0.003104225 2:-0.30620524 3:0.4912385 4:-0.00313793 5:-0.013428582 6:0.002868758 7:-0.072720543 8:-0.022079047 9:-0.00767557 10:-0.005859497 11:0.027045816 12:0.007247051 13:-0.002357301 14:0.072677471 15:0.3110548 16:-0.28825617 17:-0.03811736 18:-0.043576062 19:-0.028080327 20:0.010857318 21:-0.011885464 22:-0.015331712 23:-0.01395912 24:0.016120259 25:0.010198205 26:0.14374965 27:-0.067274638 28:-0.12834988 29:0.094821051 30:-0.028274786 31:-0.051185381 32:-0.016637867 33:-0.000752283 34:-0.000937658 35:0.009388444 36:0.009811531 37:-0.008536215 38:-0.035445374 39:-0.095040046 40:-0.002303845 41:0.035069186 42:0.000890633 43:-0.001048057 44:-0.012150774 45:0.011871737 46:-0.003863798 47:-0.006926307 48:-0.051247932 49:0.023709279 50:-0.057108372 51:-0.028145332 52:-0.021178177 53:-0.004221755 54:-0.003272832 55:0.013038028 56:-0.008457206 57:0.037205134 58:0.091430023 59:0.084548146 60:0.05931545 61:0.026885033 62:0.004179635 63:0.007430192 64:0.00614788 65:0.17618348 66:0.006963818 67:0.018695431 68:-0.045568194 69:-0.00806992 70:0.018443301 71:-0.005858788 72:-0.043787245 73:-0.039799992 74:-0.012091779 75:-0.004145808 76:-0.012977352 77:0.007224525 78:-0.006026007 79:0.049441002 80:-0.05407732 81:0.004022203 82:-0.031137627 83:-0.029283 84:0.0947074 85:-0.056855772 86:0.02403474 87:0.024294546 88:0.12616132 89:0.029063018 90:0.063786291 91:0.022739438 
1 1 1 0 1 0 1:0.004384347 2:-0.43650907 3:0.37911263 4:0.006872444 5:0.16067509 6:0.028692435 7:-0.049007978 8:-0.012801249 9:-0.052495442 10:-0.005362422 11:0.023537882 12:0.015824726 13:0.014841345 14:0.099231295 15:0.23028496 16:-0.40321678 17:0.045026343 18:-0.034968499 19:-0.070840329 20:-0.006978138 21:-0.009250419 22:0.000717084 23:-0.031067321 24:0.011499793 25:0.003109519 26:0.16846745 27:0.050960664 28:-0.34189439 29:0.14787772 30:0.032832909 31:-0.007321793 32:-0.023829037 33:-0.010288826 34:-0.005948001 35:0.015077006 36:0.030845791 37:-0.056366414 38:-0.20626147 39:-0.20248373 40:0.003336377 41:-0.021811545 42:0.003577218 43:0.006655606 44:-0.013593486 45:0.001453257 46:-0.018251499 47:-0.06803453 48:-0.086900324 49:0.005767189 50:0.022792332 51:0.017543806 52:-0.006214576 53:-0.023643013 54:-0.01163948 55:-0.001895116 56:-0.034768749 57:0.036070101 58:-0.006684631 59:0.059377857 60:0.0819548 61:-0.009317022 62:0.003267278 63:0.021089707 64:-0.018515414 65:0.14967349 66:-0.060363758 67:0.055536956 68:-0.091837958 69:-0.036551766 70:0.008619755 71:-0.010896174 72:-0.062924206 73:-0.095338166 74:-0.069202036 75:-0.000628217 76:-0.011779758 77:-0.018915966 78:-0.045152713 79:0.090772495 80:-0.068606645 81:-0.095320769 82:-0.042668495 83:-0.034709081 84:0.047998685 85:-0.075735323 86:0.042145118 87:0.013964416 88:0.13836284 89:0.019887967 90:0.12503755 91:0.040101949 
1 1 1 0 1 0 1:-0.005414863 2:-0.35570916 3:0.49059179 4:-0.091331542 5:-0.009814826 6:0.013883092 7:-0.07207413 8:-0.026855558 9:0.01786593 10:0.015523182 11:0.095696792 12:0.003149271 13:0.015584601 14:0.050441753 15:0.27121204 16:-0.25452095 17:-0.024330089 18:-0.06394574 19:-0.021060988 20:0.006292954 21:0.001492152 22:0.002420172 23:-0.000347255 24:0.005168445 25:0.015596878 26:0.11213145 27:0.016829923 28:-0.15040883 29:0.062064372 30:-0.035003711 31:-0.043167025 32:-0.01105364 33:-0.020077242 34:-0.025585534 35:0.002305211 36:0.015337216 37:-0.00199436 38:-0.11292578 39:-0.053142395 40:0.002403481 41:0.001338783 42:0.002682756 43:-0.004139058 44:-0.002197113 45:0.012485564 46:-0.025707792 47:-0.020296045 48:-0.00903839 49:0.010981246 50:-0.054356962 51:-0.00981913 52:0.018428337 53:0.004382943 54:0.01635097 55:0.004010487 56:0.010010096 57:0.016063306 58:0.069292299 59:0.054473832 60:0.034687102 61:0.062117521 62:0.006772806 63:0.02749908 64:0.00656447 65:0.1342559 66:-0.12261572 67:0.059502799 68:-0.075073354 69:-0.01087955 70:0.028008834 71:0.00043282 72:-0.12633139 73:-0.0785072 74:-0.027601358 75:-0.010236246 76:-0.014693346 77:-0.008365898 78:-0.029941743 79:0.15191011 80:-0.053309508 81:-0.022091892 82:-0.030738333 83:0.066684231 84:0.060835872 85:-0.078310139 86:0.04439871 87:0.050009672 88:0.12880378 89:0.016218154 90:0.070815071 91:0.022552637 
1 1 1 1 1 1 1:-0.026427815 2:-0.45224959 3:0.2947967 4:-0.19572984 5:0.05564798 6:-0.017659236 7:-0.054556448 8:-0.044251919 9:-0.03044414 10:-0.033372954 11:0.023141926 12:0.015544713 13:0.009565379 14:0.078843996 15:0.30340135 16:-0.23335056 17:-0.060091905 18:-0.07626646 19:-0.023055917 20:-0.035642747 21:0.022896718 22:-0.004314623 23:-0.015010099 24:0.000967284 25:0.03796085 26:0.11368307 27:0.024599109 28:-0.13853186 29:0.076861672 30:-0.03093625 31:-0.035065021 32:-0.053485762 33:0.012470525 34:-0.026588051 35:0.007614939 36:-0.010169951 37:0.004642265 38:0.012898652 39:-0.088226348 40:-0.009086831 41:0.042164426 42:-0.008682356 43:-0.00412215 44:-0.022911364 45:-0.012848747 46:0.001476926 47:-0.011628357 48:-0.08370886 49:0.13256091 50:0.025942061 51:9.0547e-05 52:-0.029214861 53:0.021690758 54:-0.010601015 55:-0.001457571 56:-0.01135354 57:0.11559577 58:-0.0845562 59:0.10306146 60:0.053551976 61:0.028492274 62:0.034166869 63:-0.00407491 64:0.02356199 65:0.059688445 66:-0.15549013 67:0.0077909 68:-0.057163209 69:-0.026523599 70:0.034153137 71:-0.033509254 72:-0.1273386 73:-0.028225204 74:-0.01115476 75:-0.006085225 76:-0.023013737 77:-0.035691217 78:0.006230546 79:0.02709884 80:-0.082455464 81:-0.010197036 82:-0.028802505 83:-0.057596751 84:0.17822754 85:-0.063816637 86:0.023658374 87:0.14083441 88:0.12050706 89:0.039382126 90:0.10088583 91:0.01909687 
0 1 1 0 1 0 1:-0.01402439 2:-0.24290475 3:0.46803162 4:-0.017534398 5:0.02759278 6:0.020624889 7:-0.056160085 8:-0.035230681 9:-0.021797508 10:-0.013136756 11:0.066814713 12:0.001839675 13:-0.002373301 14:0.063068941 15:0.31502479 16:-0.31704679 17:-0.019970808 18:-0.066511296 19:-0.028044242 20:0.008594359 21:-0.000339709 22:-0.005344458 23:-0.013497613 24:0.005986576 25:0.02188655 26:0.10679434 27:-0.055261791 28:-0.20769651 29:0.10866355 30:-0.009094072 31:-0.044541441 32:-0.029252529 33:-0.00165874 34:-0.03006511 35:0.003748425 36:0.026648697 37:-0.001079993 38:-0.096885771 39:-0.088153765 40:-0.00287203 41:0.0537728 42:-0.013498125 43:0.009847699 44:-0.01010975 45:0.013485285 46:0.003215459 47:-0.025038637 48:-0.077226117 49:0.034902871 50:-0.031765502 51:0.002424533 52:-0.023153778 53:0.0108051 54:0.013938336 55:0.005101678 56:-0.006376654 57:0.062553443 58:0.071738206 59:0.058547918 60:0.035022069 61:0.037905082 62:0.008669531 63:0.00192355 64:-0.003358904 65:0.14362252 66:-0.086674973 67:0.021223931 68:-0.092045799 69:-0.018168675 70:0.016160103 71:-0.009071819 72:-0.077377923 73:-0.042306419 74:-0.027422354 75:-0.017293654 76:-0.027362427 77:-0.009653567 78:0.024914848 79:0.14027289 80:-0.071201183 81:-0.006484626 82:-0.02220148 83:0.040476721 84:0.11439528 85:-0.082448468 86:0.03475653 87:0.071707405 88:0.13401671 89:0.02703261 90:0.077655703 91:0.020946778 
1 1 1 1 1 0 1:-0.009848289 2:-0.072604246 3:0.30473092 4:0.01544476 5:-0.005053854 6:0.061959565 7:-0.045081478 8:-0.023350278 9:-0.046527777 10:-0.005907752 11:0.035547227 12:0.010486444 13:0.002313904 14:0.098958373 15:0.27822941 16:-0.23170082 17:-0.082842126 18:-0.065177798 19:-0.035042483 20:-0.01437213 21:-0.002233846 22:-0.002011853 23:-0.027938128 24:-0.002956631 25:0.020938773 26:0.13265632 27:-0.061678749 28:-0.12476643 29:0.16471861 30:0.003984565 31:-0.045524616 32:-0.040680196 33:0.0121487 34:0.000564867 35:0.000165409 36:0.006596569 37:-0.001949609 38:-0.13839395 39:-0.004699715 40:-0.04786174 41:0.030925469 42:-0.00662534 43:-0.008548271 44:-0.022942144 45:-0.000340151 46:-0.002560295 47:-0.002345446 48:-0.028137209 49:0.1034758 50:-0.011074482 51:-0.017416002 52:-0.027684301 53:-0.000213785 54:0.017832484 55:0.016858239 56:0.008845234 57:0.11085569 58:0.003750889 59:0.05650419 60:0.029876148 61:0.063437514 62:0.015149956 63:0.021978669 64:0.017254496 65:0.10089041 66:-0.050938904 67:0.009961521 68:-0.07507202 69:-0.034234222 70:0.000489681 71:-0.016229171 72:-0.073068835 73:-0.11284951 74:0.03433745 75:-0.007218993 76:-0.003607811 77:-0.011028522 78:-0.072736725 79:0.058252793 80:-0.084170088 81:-0.01306157 82:-0.035634432 83:0.006899009 84:0.096571788 85:-0.033161566 86:0.035016991 87:0.10301668 88:0.020718351 89:0.024813129 90:-0.024601316 91:0.011072986 
1 1 0 1 1 1 1:-0.047637369 2:-0.75285995 3:0.029124603 4:-0.07451307 5:-0.029168757 6:-0.074262083 7:-0.11687711 8:0.045157619 9:0.038378265 10:0.074910291 11:0.21638322 12:0.062547661 13:0.021833757 14:0.12464996 15:0.28919724 16:-0.25638711 17:-0.12282189 18:-0.026234703 19:-0.072666816 20:0.033903457 21:-0.045365322 22:0.050232477 23:-0.026677748 24:0.07926634 25:-0.039727081 26:0.03506029 27:0.00055689 28:-0.16341229 29:0.13392343 30:-0.035511341 31:-0.058299825 32:-0.08827538 33:-0.11001246 34:-0.14730036 35:0.024086479 36:-0.016361659 37:-0.022449842 38:-0.11864963 39:-0.091686934 40:-0.021653626 41:-0.10253245 42:0.031406671 43:-0.061187483 44:0.01400324 45:-0.022328844 46:-0.049669262 47:0.05917279 48:0.011144036 49:0.078842126 50:-0.11444796 51:-0.095228076 52:0.062372107 53:0.029781403 54:-0.047384243 55:-0.003631692 56:-0.026284596 57:0.060631152 58:0.27995634 59:0.25649527 60:0.063264124 61:-0.057016879 62:0.013039036 63:0.08057531 64:0.001051688 65:0.31738675 66:-0.29871827 67:0.13156499 68:0.11886036 69:-0.049503013 70:0.027933639 71:0.018702293 72:-0.29165131 73:-0.28822896 74:-0.21215521 75:0.10719194 76:0.023447661 77:-0.064032555 78:-0.19287607 79:0.077923946 80:-0.075780019 81:-0.094938755 82:-0.034770362 83:0.1872934 84:0.035095096 85:-0.054193761 86:0.070811458 87:0.051241253 88:0.14310706 89:0.015617267 90:0.12444314 91:0.014063664 
1 1 1 1 1 0 1:-0.0039306 2:-0.45113552 3:0.37942639 4:-0.15340956 5:0.23754647 6:-0.052260134 7:-0.067866847 8:-0.008490984 9:-0.019315954 10:-0.012773918 11:0.089476757 12:0.006045565 13:0.024939466 14:0.052998014 15:0.15229723 16:-0.17509134 17:0.062383719 18:-0.057307195 19:-0.018253261 20:-0.015373801 21:-0.003316312 22:0.004103614 23:-0.009099891 24:0.011802976 25:-0.021345628 26:0.12379217 27:0.17147596 28:-0.36630279 29:-2.4886e-05 30:0.049424816 31:-0.023031307 32:-0.018569063 33:-0.023943508 34:-0.04039279 35:0.030006057 36:0.037684683 37:-0.008244897 38:-0.29702425 39:0.076240532 40:0.073650375 41:-0.062843561 42:-0.029900923 43:0.008097077 44:0.00422759 45:0.010545724 46:-0.029288562 47:-0.072216138 48:0.07492236 49:-0.098787539 50:-0.013370949 51:0.014322705 52:0.001908886 53:-0.030755585 54:-0.02341182 55:-0.006635858 56:0.01711751 57:-0.08616738 58:0.10828155 59:0.068987861 60:0.045307208 61:0.051444322 62:0.003688967 63:0.039298885 64:-0.024231005 65:0.20335714 66:-0.095307499 67:0.039228961 68:-0.14111525 69:0.008037931 70:-0.011545241 71:0.007590886 72:-0.10359591 73:-0.13550636 74:-0.048845179 75:0.030126007 76:0.0257455 77:-0.018544268 78:-0.096286558 79:0.10229827 80:0.006438469 81:-0.11235091 82:-0.031839877 83:0.05133146 84:-0.08293882 85:-0.055619221 86:0.049319949 87:-0.031309441 88:0.13318278 89:0.00279657 90:0.10346615 91:0.038126752 
1 1 0 1 1 1 1:-0.013209633 2:-0.82332969 3:0.352945 4:-0.25957179 5:0.16493249 6:-0.015704591 7:-0.051441267 8:0.003223232 9:-0.046012174 10:0.047439083 11:0.051572978 12:0.009445365 13:-0.01327254 14:0.057774331 15:0.01149895 16:0.055277444 17:-0.052171759 18:-0.039828248 19:-0.008714019 20:0.005558837 21:-0.000972668 22:-0.013847888 23:-0.011184794 24:0.023345187 25:-0.014263444 26:0.092632458 27:0.30060041 28:-0.32407796 29:0.052616522 30:-0.08021266 31:-0.064472042 32:-0.010811782 33:-0.062748626 34:0.001375417 35:0.037986182 36:-0.002229993 37:0.060269762 38:-0.1957673 39:0.078556135 40:0.02587679 41:-0.013966692 42:-0.020224068 43:-0.013334703 44:-0.003162435 45:0.005212874 46:-0.02943279 47:-0.06147432 48:0.10118438 49:0.069506504 50:-0.049185712 51:-0.046280075 52:0.017308541 53:0.023750061 54:-0.021155929 55:0.008052303 56:0.025330348 57:-0.016680915 58:0.20037566 59:0.024032528 60:0.10202546 61:0.057852022 62:0.016107675 63:0.033090774 64:0.024702536 65:0.19400026 66:-0.004288188 67:0.052421298 68:-0.11132628 69:0.01037081 70:0.007297957 71:0.000230253 72:-0.019991726 73:-0.22820689 74:0.079839937 75:0.008728627 76:-0.005262859 77:0.003617631 78:-0.091457389 79:0.031412028 80:-0.009508647 81:-0.003822421 82:-0.045375779 83:-0.002292127 84:-0.042046525 85:-0.028279884 86:0.035935529 87:-0.016777383 88:0.059765954 89:0.010385975 90:0.046075858 91:-0.002163667 
1 1 0 1 1 0.5631596479317279 1:-0.009009822 2:-0.57315737 3:0.38311723 4:-0.19495968 5:0.005388912 6:-0.030193005 7:-0.061511926 8:0.006060136 9:0.017067993 10:0.015562329 11:0.078876019 12:0.014645199 13:-0.001709718 14:0.05162717 15:0.20076795 16:-0.12386703 17:0.020697691 18:0.034013659 19:-0.047117762 20:0.021405535 21:-0.035059229 22:0.001930585 23:-0.02963683 24:0.026910419 25:-0.003212077 26:0.11583243 27:0.087799534 28:-0.31641784 29:0.057874933 30:-0.047928199 31:-0.082720406 32:-0.057017241 33:-0.055127814 34:-0.014821304 35:0.035509627 36:0.006112504 37:0.020682901 38:-0.20652784 39:-0.086199842 40:-0.012877334 41:-0.042139359 42:0.01259239 43:-0.005232046 44:0.018990779 45:0.032334641 46:-0.014412618 47:-0.025448682 48:-0.039180625 49:0.02445012 50:-0.075790524 51:-0.0015894 52:0.034199685 53:0.009671325 54:-0.032801561 55:-0.005686664 56:-0.003981897 57:0.057715837 58:0.22026087 59:0.093578629 60:0.095095061 61:0.030530689 62:-0.009612982 63:0.022271611 64:-0.001109567 65:0.25460198 66:-0.088143766 67:0.046376973 68:-0.08327996 69:0.037027016 70:0.018121831 71:0.007503084 72:-0.15051594 73:-0.16398892 74:-0.013767732 75:0.005748023 76:-0.016627841 77:-0.001938789 78:-0.11498224 79:0.11876041 80:0.003772398 81:0.003283686 82:-0.040826812 83:0.019956777 84:-0.041066244 85:-0.029342169 86:0.054883216 87:-0.064284168 88:0.086494036 89:0.023962164 90:0.057795115 91:0.002662421 
1 1 0 1 0 1 1:-0.012576509 2:-0.76800179 3:0.31782314 4:-0.000871873 5:0.058329675 6:0.049398836 7:-0.015529135 8:-0.049827352 9:-0.03341167 10:0.023277843 11:0.11433967 12:0.031624127 13:-0.024467304 14:0.047412854 15:0.017534712 16:-0.27237624 17:0.015917376 18:-0.018845616 19:-0.016695021 20:-0.009584594 21:0.001682681 22:0.010722813 23:-0.025260732 24:0.046371434 25:-0.00472108 26:0.11923484 27:0.22158092 28:-0.40333095 29:0.1689962 30:0.030726653 31:-0.072972387 32:-0.018226694 33:-0.01886957 34:-0.026741534 35:0.013885951 36:0.001737534 37:0.017912572 38:-0.19366534 39:-0.12366575 40:0.046855472 41:0.017427778 42:-0.042551562 43:-0.011269322 44:-0.011766749 45:-0.009652324 46:0.009440104 47:-0.054557633 48:0.065744683 49:-0.18323973 50:-0.061583824 51:-0.00278028 52:0.019996293 53:-0.040828019 54:-0.020250818 55:0.017090827 56:-0.002311336 57:-0.10721933 58:0.11764856 59:0.053770669 60:0.055396609 61:0.060153425 62:0.023706658 63:0.006816869 64:-0.024352079 65:0.15358964 66:-0.040085625 67:0.11986753 68:-0.14666218 69:0.009794832 70:0.008353074 71:-0.007051114 72:-0.060957104 73:-0.1807092 74:0.02403806 75:0.004183711 76:0.001804425 77:-0.014888275 78:-0.035546057 79:0.071749464 80:-0.035491299 81:0.009585964 82:-0.048876662 83:0.032371134 84:0.002754154 85:-0.008338604 86:0.056206752 87:0.030640563 88:0.006551788 89:0.019986624 90:0.01754747 91:-0.003645017 
1 1 1 1 1 0 1:-0.008630772 2:-0.38637161 3:0.46009499 4:-0.064754158 5:-0.044360377 6:-0.050345104 7:-0.064169772 8:0.00283812 9:-0.023443831 10:-0.005810262 11:0.091469668 12:0.025798451 13:-0.010018262 14:0.10883551 15:0.30080724 16:-0.26747662 17:0.006576718 18:0.011689995 19:-0.011603689 20:-0.027106265 21:-0.001288898 22:-0.003526847 23:-0.009242171 24:0.034483742 25:-0.00238186 26:0.15442918 27:0.084099859 28:-0.26768032 29:0.049712911 30:-0.013246251 31:-0.040817257 32:-0.008718969 33:-0.02578536 34:-0.038725499 35:0.011617039 36:0.032985441 37:-0.023828929 38:-0.22417566 39:0.015934428 40:0.077434234 41:-0.040905282 42:-0.026428003 43:0.022222856 44:0.010873568 45:-0.003725431 46:-0.0037692 47:0.010767454 48:0.082256027 49:-0.12423646 50:-0.082112953 51:-0.00307049 52:0.008171571 53:-0.014281085 54:-0.028281329 55:-0.001386925 56:-0.008394063 57:-0.065671884 58:0.21993405 59:0.05236467 60:0.025682518 61:0.03060437 62:0.016331699 63:0.016222872 64:-0.014458687 65:0.22529863 66:-0.069363207 67:0.060855485 68:-0.012169071 69:0.028821664 70:0.0010281 71:0.021140488 72:-0.062818877 73:-0.095984034 74:-0.051386904 75:0.018780012 76:0.00860486 77:-0.022923937 78:-0.044662774 79:0.1510088 80:0.001344187 81:-0.014928563 82:-0.024387246 83:0.059204821 84:-0.024410805 85:-0.055783059 86:0.046047881 87:-0.00461599 88:0.11297159 89:0.011887626 90:0.06591408 91:0.025264118 
0 1 0 1 1 0 1:-0.007952701 2:-0.48454332 3:0.57542878 4:-0.012229113 5:0.15256773 6:-0.029972121 7:-0.055774909 8:0.016131297 9:-0.007888098 10:0.011965858 11:0.044769481 12:0.014744082 13:0.003840893 14:0.012896695 15:0.056982309 16:-0.28293472 17:0.10354523 18:-0.039598119 19:-0.007954406 20:-0.016642427 21:-0.005513816 22:0.003534689 23:-0.031468987 24:-0.005717686 25:-0.018905127 26:0.11338886 27:0.085535295 28:-0.42049921 29:0.022546958 30:0.011397773 31:-0.019408209 32:-0.013016373 33:-0.03297234 34:-0.024431545 35:0.030191097 36:0.038465057 37:-0.01204403 38:-0.15256824 39:0.005084104 40:0.041985948 41:-0.045855932 42:-0.025201859 43:0.012600088 44:0.016834646 45:0.004477478 46:-0.02772503 47:-0.054448746 48:0.026066851 49:-0.084557518 50:-0.076137155 51:0.034275346 52:-0.014825669 53:-0.010948882 54:-0.034845762 55:-0.000726489 56:0.002849653 57:-0.032357875 58:0.1706572 59:0.05091843 60:0.084558107 61:0.013195346 62:0.009126866 63:0.023001559 64:-0.012960848 65:0.1745311 66:-0.006706215 67:0.072739281 68:-0.11607446 69:0.021672802 70:-0.007121196 71:0.008858376 72:-0.015473804 73:-0.15612133 74:-0.058932818 75:0.026296554 76:0.013672663 77:-0.009645941 78:-0.041388981 79:0.11545468 80:0.046944685 81:-0.078624994 82:-0.037805822 83:-0.025994787 84:-0.12260205 85:-0.066437818 86:0.02953741 87:-0.045049205 88:0.14011674 89:-0.001875637 90:0.037035365 91:0.025975198 
1 1 0 1 1 0 1:-0.015051981 2:-0.61137152 3:0.53434139 4:-0.006003241 5:0.005729414 6:-0.004927067 7:-0.026835008 8:0.021360882 9:-0.026136678 10:0.02623686 11:0.06972 12:0.004639246 13:-0.015996933 14:0.038104355 15:0.075747371 16:-0.26744872 17:0.017885204 18:-0.018193906 19:-0.03684295 20:-0.031014137 21:0.013087104 22:-0.01691132 23:-0.03467067 24:0.019974951 25:-0.012233797 26:0.11080757 27:0.059992634 28:-0.33494455 29:0.067520767 30:0.03328551 31:-0.058226615 32:-0.019487167 33:-0.033030804 34:-0.000624241 35:0.011949418 36:0.000776186 37:0.017743336 38:-0.14946493 39:0.042171039 40:0.086130597 41:-0.011095936 42:-0.022164449 43:0.052338421 44:-0.006358447 45:-0.001680754 46:-0.003440914 47:-0.023915069 48:0.010152602 49:-0.22174779 50:-0.11555172 51:-0.016130758 52:-0.006474586 53:-0.04382268 54:-0.027718063 55:0.005875092 56:0.010402179 57:-0.074671693 58:0.18326686 59:0.005635796 60:0.0568492 61:0.04268932 62:0.002840608 63:0.018786114 64:-0.028482795 65:0.17233224 66:0.011792248 67:0.0870196 68:-0.079810932 69:0.017145641 70:0.006273499 71:0.005613257 72:0.00488706 73:-0.19071445 74:0.000100114 75:0.00679878 76:0.004605784 77:-0.003595611 78:-0.054665897 79:0.13793158 80:0.010564671 81:-0.012539612 82:-0.034753926 83:-0.026187694 84:-0.027749512 85:-0.026985638 86:0.034310881 87:-0.021043401 88:0.032175161 89:0.006522497 90:0.020021237 91:0.00475727 
1 1 0 1 0 1 1:-0.030597629 2:-0.82889026 3:0.33526129 4:-0.1002252 5:0.13511178 6:0.13083057 7:-0.076396994 8:0.001381937 9:-0.029178929 10:0.099497311 11:0.075888023 12:0.04418825 13:-0.025446843 14:0.047851644 15:0.094161585 16:-0.21477239 17:0.083527721 18:-0.092805982 19:-0.041781086 20:-0.030115528 21:0.008384494 22:0.003647937 23:-0.10005522 24:0.000627207 25:-0.004265876 26:0.082360879 27:0.17529583 28:-0.3910273 29:0.010744303 30:0.037138 31:-0.057689112 32:-0.016602829 33:-0.060611654 34:-0.036888327 35:0.060407538 36:0.003031037 37:0.012134396 38:-0.23643072 39:0.094708383 40:0.074157134 41:-0.0419355 42:-0.050446223 43:0.05987601 44:0.027973955 45:-0.013449895 46:-0.000644163 47:-0.035920016 48:0.080393672 49:-0.16952313 50:-0.11460381 51:-0.001132029 52:-0.082482867 53:-0.036195762 54:-0.049441684 55:0.009687226 56:0.03917706 57:-0.082992174 58:0.2438184 59:0.030446073 60:0.164722 61:0.10788972 62:0.032270204 63:0.006780213 64:-0.020785099 65:0.23287001 66:-0.034531429 67:0.15721519 68:-0.12840118 69:0.028197704 70:0.008017358 71:0.011058074 72:-0.04450627 73:-0.29450569 74:-0.049157105 75:0.038458083 76:-0.014278634 77:-0.01382699 78:-0.12656178 79:0.11011729 80:0.020087095 81:-0.011084302 82:-0.065590993 83:-0.003285691 84:-0.13916218 85:-0.020842411 86:0.03503285 87:-0.068624496 88:0.032276325 89:0.002669245 90:0.024954699 91:0.001715665 
0 1 0 1 1 0 1:-0.008242317 2:-0.51776874 3:0.5401805 4:-0.10212433 5:0.041581389 6:-0.004377934 7:-0.030933896 8:0.013307397 9:-0.021834997 10:0.05222068 11:0.05787893 12:0.019001989 13:-0.012772235 14:0.040024135 15:0.19464755 16:-0.24543188 17:0.067900136 18:-0.024757313 19:-0.008122168 20:-0.037706379 21:0.004660479 22:-0.001861112 23:-0.048558325 24:-0.000496777 25:-0.011839579 26:0.10028531 27:0.029414497 28:-0.34158987 29:-0.021280892 30:0.03435234 31:-0.004813742 32:-0.02056041 33:-0.034029577 34:-0.004803812 35:0.021210639 36:0.02970425 37:-0.008455214 38:-0.18086682 39:0.074203007 40:0.05793038 41:-0.050247792 42:-0.015748521 43:0.031223204 44:0.035178147 45:8.3429e-05 46:-0.014574723 47:-0.032831874 48:0.021617346 49:-0.13024279 50:-0.070383981 51:-0.003415526 52:-0.06068299 53:-0.011756193 54:-0.040557694 55:0.004946881 56:0.004204457 57:-0.068986855 58:0.22944514 59:0.036215074 60:0.078207061 61:0.02630407 62:0.020415908 63:0.021522649 64:-0.022623384 65:0.18247835 66:-0.022082219 67:0.081520393 68:-0.081405371 69:0.009587687 70:-0.001041649 71:0.021419359 72:-0.037623543 73:-0.1759678 74:-0.05823414 75:0.023064204 76:0.009543102 77:0.001037855 78:-0.048634134 79:0.1431801 80:0.007835857 81:-0.031579148 82:-0.043668181 83:0.013140867 84:-0.11195537 85:-0.052174218 86:0.038434435 87:-0.052423 88:0.10682548 89:-0.001172556 90:0.040618587 91:0.015530859 
1 1 0 1 1 1 1:-0.012069201 2:-0.57251096 3:0.5411393 4:-0.066288754 5:0.091291755 6:0.020834478 7:-0.025840823 8:-0.008003715 9:-0.007410959 10:0.015167681 11:0.062721066 12:0.015049414 13:0.002292812 14:0.026586492 15:0.017312456 16:-0.19196512 17:0.021153698 18:-0.032085717 19:-0.030461065 20:-0.015912589 21:0.006548463 22:0.00508927 23:-0.040332161 24:0.029376823 25:-0.003858061 26:0.11186064 27:0.1667508 28:-0.2635662 29:0.043706466 30:0.013191788 31:-0.04176585 32:0.001427962 33:-0.015265826 34:-0.003584811 35:0.007931166 36:0.026757808 37:0.009075041 38:-0.13470133 39:-0.013088129 40:0.042381551 41:-0.030416766 42:-0.017756455 43:0.024265129 44:0.016884552 45:0.001304365 46:0.008270565 47:-0.026591526 48:0.007431744 49:-0.017014487 50:-0.049159478 51:-0.008466025 52:-0.025679976 53:0.003846318 54:-0.022844765 55:0.015784474 56:0.009991213 57:-0.006145149 58:0.15000957 59:0.050616071 60:0.066574678 61:0.044090722 62:0.010456847 63:0.015929386 64:-0.001143664 65:0.13698418 66:0.019145569 67:0.062854908 68:-0.091804929 69:0.040535886 70:0.020428598 71:0.010826686 72:-0.004741277 73:-0.10439513 74:-0.021274723 75:-0.020682668 76:-0.008788944 77:0.004459871 78:0.001134408 79:0.1463681 80:0.003463479 81:-0.026375469 82:-0.03206481 83:-0.000972004 84:-0.02610557 85:-0.029180886 86:0.036659706 87:-0.012197712 88:0.10754384 89:0.01723545 90:0.052879896 91:0.015963938 
1 1 0 1 0 1 1:-0.013613717 2:-0.91279614 3:0.17348655 4:-0.11114834 5:0.11457778 6:-0.002186894 7:-0.085668117 8:0.061815251 9:-0.055218618 10:0.044546016 11:0.13183477 12:0.018594606 13:0.001486475 14:0.051144183 15:0.026982265 16:-0.35247052 17:0.16620565 18:-0.091894589 19:-0.044824895 20:-0.035026107 21:-0.034318075 22:0.019497287 23:-0.062981836 24:0.030099208 25:-0.020665223 26:0.14369333 27:0.11067144 28:-0.48541641 29:0.013067927 30:0.037324138 31:-0.010073088 32:-0.009495649 33:-0.088367172 34:-0.030802727 35:0.051448312 36:0.016554931 37:-0.041973233 38:-0.27137789 39:0.002051606 40:0.13506509 41:-0.072812878 42:-0.02602597 43:0.052071981 44:0.019301401 45:0.012677656 46:-0.031736348 47:-0.073583618 48:0.037870739 49:-0.22007045 50:-0.15133023 51:0.045733605 52:-0.046225414 53:-0.064262182 54:-0.05131657 55:-0.00383309 56:0.007648378 57:-0.069767848 58:0.27936238 59:0.10424323 60:0.1595692 61:0.046490725 62:0.012451821 63:0.063033246 64:-0.045935117 65:0.36617255 66:-0.11646852 67:0.16141002 68:-0.19274464 69:-0.005553342 70:-0.000308357 71:0.019737592 72:-0.095384382 73:-0.23052353 74:-0.081444763 75:0.015836656 76:-0.004153261 77:-0.030785412 78:-0.11104584 79:0.13611785 80:0.013186714 81:-0.052435122 82:-0.07623598 83:-0.029817993 84:-0.056786947 85:-0.10383459 86:0.077047579 87:-0.021419082 88:0.13402313 89:0.011956938 90:0.10440881 91:0.020657009 
0 1 0 0 1 0 1:-0.004940883 2:-0.47201163 3:0.42965203 4:-0.072964519 5:0.13943833 6:0.074717306 7:-0.04782832 8:0.045185961 9:-0.021320149 10:0.041816287 11:0.09418685 12:0.014528032 13:-0.007438818 14:0.027384266 15:0.17836338 16:-0.28502381 17:0.12454364 18:-0.050650552 19:-0.04684855 20:-0.036842514 21:-0.007108585 22:0.028615372 23:-0.059857387 24:0.018615093 25:-0.014699956 26:0.11776946 27:0.085458256 28:-0.37294444 29:0.030409688 30:0.029869802 31:-0.035469744 32:-0.010665157 33:-0.042840727 34:-0.0488666 35:0.030346232 36:0.023456166 37:-0.02720901 38:-0.18163657 39:0.021538431 40:0.069836989 41:-0.066416346 42:-0.066462144 43:0.05148166 44:0.010348876 45:0.003580794 46:-0.017408481 47:-0.049098402 48:0.038800582 49:-0.091695368 50:-0.085913464 51:0.054490305 52:-0.065545507 53:-0.005493913 54:-0.042584646 55:0.005117229 56:0.014860952 57:-0.056059659 58:0.22445433 59:0.057095349 60:0.12959765 61:0.076242782 62:0.024332933 63:0.031524494 64:-0.00951498 65:0.25027716 66:-0.047602519 67:0.097524919 68:-0.12026466 69:0.019779827 70:0.007353826 71:0.004056598 72:-0.028829029 73:-0.15560487 74:-0.048385452 75:0.026719896 76:-0.011381653 77:-0.029955473 78:-0.045805182 79:0.11791184 80:0.022328077 81:-0.053302459 82:-0.052052643 83:0.013804139 84:-0.082396172 85:-0.075682431 86:0.052706685 87:-0.032214802 88:0.10560995 89:0.007989802 90:0.044053208 91:0.017391991 
1 1 0 1 0 0 1:0.001912908 2:-0.57095975 3:0.47683254 4:-0.04414947 5:0.075815968 6:-0.010009872 7:-0.028196255 8:0.030399403 9:-0.010400881 10:0.025222585 11:0.1133443 12:0.015839973 13:-0.00223895 14:0.052543722 15:0.073029377 16:-0.31043777 17:0.076208062 18:0.018739894 19:-0.025466854 20:-0.024364077 21:0.002981827 22:-0.011972629 23:-0.05930604 24:0.008532216 25:-0.016252453 26:0.14912376 27:0.093667395 28:-0.37082568 29:0.055024873 30:0.02581376 31:-0.044523548 32:0.002639256 33:-0.032902468 34:-0.001476242 35:0.017381439 36:0.021936879 37:-0.027239971 38:-0.23379341 39:-0.006416585 40:0.10057019 41:-0.07190033 42:-0.018141873 43:0.044452444 44:0.016957419 45:0.008212765 46:-0.009069123 47:-0.040720634 48:0.023633244 49:-0.18452282 50:-0.078312725 51:-0.00261583 52:-0.000668337 53:-0.055677522 54:-0.042987593 55:0.007482708 56:-0.003667037 57:-0.063649364 58:0.20105377 59:0.026828451 60:0.057201322 61:0.030115474 62:0.009468497 63:0.02888268 64:-0.03233267 65:0.21120353 66:-0.015377909 67:0.090055227 68:-0.099003084 69:0.021938942 70:-0.00473679 71:0.015130972 72:-0.031075193 73:-0.18349814 74:-0.088495575 75:0.034477159 76:-0.012046821 77:-0.000624395 78:-0.035345491 79:0.20634836 80:0.013020987 81:-0.050509706 82:-0.047409914 83:0.002005834 84:-0.076636545 85:-0.057043448 86:0.068137027 87:-0.042587303 88:0.097194538 89:0.005435444 90:0.048036374 91:0.018687403 
1 0.91734583280548398 1 1 1 0 1:-0.035573781 2:-0.24159335 3:0.24452332 4:0.11912973 5:0.13218939 6:-0.00786189 7:-0.009963982 8:0.046893056 9:-0.039399207 10:0.023794835 11:0.16213009 12:0.015661802 13:-0.002872485 14:-0.006973903 15:0.10308433 16:-0.35740483 17:0.11920392 18:-0.035957064 19:-0.011697238 20:-0.000222321 21:0.009990999 22:-0.012704413 23:-0.044981346 24:0.048704062 25:-0.021720851 26:0.05729505 27:-0.013561246 28:-0.39894256 29:0.053448871 30:0.064946771 31:-0.048654631 32:-0.008221565 33:-0.069636837 34:-0.014970648 35:0.030509811 36:0.014717964 37:0.026282826 38:-0.35390568 39:0.055596743 40:0.11399076 41:-0.041974857 42:-0.027107131 43:0.021977929 44:-0.012387943 45:0.004210104 46:-0.028735504 47:-0.02211366 48:0.047427636 49:-0.15057164 50:-0.12042626 51:0.001435798 52:-0.005339329 53:-0.060120735 54:-0.044980161 55:0.010111399 56:0.01739409 57:-0.14927605 58:0.25573039 59:0.060661703 60:0.12189849 61:0.10674771 62:0.012596398 63:0.035525724 64:-0.016561363 65:0.32153997 66:0.02404652 67:0.12825806 68:-0.16123825 69:0.05518854 70:-0.015482122 71:0.000276055 72:-0.07783033 73:-0.18591261 74:-0.063749991 75:0.002878421 76:-0.005619134 77:0.000415041 78:-0.16188145 79:0.11064076 80:0.042237464 81:-0.068974428 82:-0.039662555 83:-0.039503656 84:-0.057724584 85:-0.083217718 86:0.047503263 87:-0.10559234 88:0.096753642 89:0.024283456 90:0.11213144 91:0.008290594 
1 1 0 1 0 1 1:-0.019978307 2:-0.67667502 3:0.081403144 4:-0.10193533 5:0.34965455 6:0.11565109 7:-0.055273034 8:0.035298113 9:-0.047913004 10:0.12632893 11:0.1540266 12:0.029691294 13:0.007112008 14:-0.000902646 15:-0.17687061 16:-0.34402826 17:0.096049085 18:-0.22158198 19:-0.10443967 20:-0.031059004 21:-0.007132995 22:0.019497417 23:-0.12479042 24:-0.024581933 25:-0.028043749 26:0.08392375 27:0.22269861 28:-0.38053852 29:0.076299176 30:0.062328301 31:-0.073049217 32:0.002047339 33:-0.022399167 34:-0.055341259 35:0.025652625 36:0.005516348 37:0.003271565 38:-0.35418487 39:-0.010460474 40:0.054713406 41:-0.010250729 42:-0.077037252 43:0.021128144 44:-0.042579856 45:0.038486019 46:-0.027641607 47:-0.096461274 48:0.005027653 49:-0.072218001 50:-0.082585655 51:0.079218477 52:-0.13274115 53:-0.062673979 54:-0.046405267 55:0.027077815 56:0.052388687 57:-0.14921541 58:0.16215005 59:0.058171518 60:0.23154364 61:0.14942943 62:0.015461888 63:0.056324083 64:-0.01837326 65:0.3636952 66:-0.020474602 67:0.14129417 68:-0.29237318 69:0.021380337 70:0.029455552 71:-0.026440227 72:-0.090095103 73:-0.22951332 74:-0.055426132 75:0.041295543 76:-0.03245607 77:-0.030309366 78:0.037559465 79:0.031288631 80:0.02684301 81:-0.058136266 82:-0.10705415 83:-0.0697456 84:-0.11658902 85:-0.1139651 86:0.084835455 87:-0.1471805 88:0.15093312 89:0.010389312 90:0.10099584 91:0.015587308 
1 1 0 1 1 0 1:-0.004196418 2:-0.52751189 3:0.50934523 4:-0.084999122 5:0.009344432 6:0.001469261 7:-0.04691669 8:0.057995044 9:-0.034028456 10:0.03234873 11:0.10340666 12:0.01226343 13:-0.00313145 14:0.035446461 15:0.18180227 16:-0.26770377 17:0.043374352 18:-0.013553496 19:-0.034901395 20:-0.020630604 21:-0.005643918 22:0.003708569 23:-0.033086736 24:0.025071232 25:-0.017114477 26:0.1162942 27:0.046019312 28:-0.24091797 29:0.041647017 30:-0.003308741 31:-0.051190738 32:-0.009552833 33:-0.0552877 34:-0.016006133 35:0.015835356 36:0.001789628 37:-0.00243622 38:-0.10152586 39:-0.014640222 40:0.048249222 41:-0.041718893 42:-0.023462282 43:0.033023596 44:-6.3479e-05 45:0.005879934 46:-0.006382052 47:-0.024803374 48:-0.005385837 49:-0.05231303 50:-0.13168477 51:0.013971239 52:-0.006613122 53:-0.010231468 54:-0.031546928 55:0.01598325 56:0.015971335 57:-0.003492246 58:0.24427119 59:0.032998499 60:0.06674917 61:0.054241121 62:0.01604319 63:0.04108651 64:-0.01020747 65:0.2129444 66:-0.023560075 67:0.091051906 68:-0.081156269 69:0.026481705 70:0.015240515 71:0.014799921 72:-0.023364585 73:-0.14091812 74:-0.012181045 75:0.009065173 76:-0.009616875 77:-0.013893975 78:-0.034164719 79:0.13690238 80:0.021474198 81:-0.026286297 82:-0.042430669 83:-0.014295793 84:-0.023981342 85:-0.045367312 86:0.057588562 87:-0.00849153 88:0.069946274 89:0.010829368 90:0.04954436 91:0.005739015 
1 1 0 1 0 1 1:-0.02258582 2:-0.66423249 3:0.21518424 4:-0.01228979 5:0.21928471 6:-0.018139187 7:-0.016835263 8:0.12079178 9:-0.045249142 10:0.011164779 11:0.098231599 12:0.057607159 13:0.000731679 14:0.021089545 15:0.015556429 16:-0.28107092 17:0.14058228 18:-0.031865753 19:-0.015857246 20:-0.073260404 21:-0.004158944 22:0.001189296 23:-0.027199907 24:0.002460416 25:-0.033549849 26:0.13085486 27:-0.040638067 28:-0.49933797 29:0.07432162 30:0.10605298 31:-0.068084955 32:-0.009235648 33:-0.093984134 34:-0.020923652 35:0.055467226 36:0.00516401 37:0.007102681 38:-0.10828584 39:0.064861037 40:0.21962251 41:-0.098010018 42:-0.053913489 43:0.054129336 44:-0.010289844 45:0.018711014 46:-0.031939283 47:-0.069964319 48:0.026211102 49:-0.25680217 50:-0.21418108 51:0.02597006 52:-0.015327774 53:-0.051904272 54:-0.096032083 55:0.015091202 56:0.009768146 57:-0.14644705 58:0.37179807 59:0.060686789 60:0.1256849 61:0.095064208 62:0.051714458 63:0.072651252 64:-0.047180507 65:0.34892666 66:-0.035648637 67:0.11728123 68:-0.1466694 69:0.018075621 70:-0.033918388 71:0.028223798 72:-0.05564874 73:-0.20932345 74:0.043824136 75:0.080800153 76:-0.012016849 77:-0.017214639 78:-0.087922797 79:0.031705271 80:0.075409807 81:-0.078977056 82:-0.058133867 83:-0.14437272 84:-0.15997241 85:-0.11506545 86:0.045993667 87:-0.066282682 88:0.12757632 89:-0.009088446 90:0.10293736 91:0.021265937 
0 1 0 0 1 0 1:0.0024613 2:-0.5152489 3:0.57622987 4:-0.04326348 5:0.066422969 6:-0.027998231 7:-0.042581372 8:0.038409226 9:-0.019485172 10:0.012791698 11:0.10170373 12:0.010742557 13:-5.3539e-05 14:0.045332916 15:0.13231714 16:-0.27543539 17:0.064458385 18:-0.03005125 19:-0.015381287 20:-0.027248943 21:0.012524538 22:-0.009461051 23:-0.040928427 24:0.020773694 25:-0.006446636 26:0.14061204 27:0.0292075 28:-0.25746989 29:0.022692684 30:0.010671686 31:-0.020834448 32:-0.00933138 33:-0.043008596 34:-0.01466486 35:0.01465188 36:0.029369736 37:-0.019023485 38:-0.10451715 39:0.029845886 40:0.039439693 41:-0.036568951 42:-0.021257905 43:0.023379248 44:0.028327482 45:0.001384445 46:-0.020679658 47:-0.03914408 48:0.035419673 49:-0.024925942 50:-0.10675702 51:0.003040078 52:-0.005255181 53:-0.002147287 54:-0.018498074 55:0.011655645 56:0.01037774 57:-0.01504478 58:0.19084977 59:0.006674742 60:0.062257666 61:0.036211442 62:0.013664561 63:0.027315624 64:-0.002708892 65:0.16316603 66:0.007054389 67:0.081190042 68:-0.090242274 69:0.024198171 70:0.012811893 71:0.019597307 72:-0.023857621 73:-0.14590153 74:-0.047342826 75:-0.004873557 76:-0.000826533 77:-0.005345395 78:-0.061298687 79:0.22397165 80:0.007986712 81:-0.02755194 82:-0.036442101 83:0.032522626 84:-0.003491767 85:-0.070000701 86:0.056204971 87:-0.006241242 88:0.12065768 89:0.01606714 90:0.047859002 91:0.019492308 
0 1 0 1 1 0 1:-0.008854795 2:-0.55628693 3:0.48074356 4:-0.07089337 5:0.092460275 6:0.012122802 7:-0.060486585 8:0.059193317 9:-0.038279291 10:0.004133907 11:0.066095695 12:0.041154958 13:-0.006230409 14:0.037911985 15:0.19339965 16:-0.27210793 17:0.03369005 18:-0.015300537 19:-0.011328639 20:-0.040807959 21:0.021064878 22:-0.017817717 23:-0.020242073 24:0.002963171 25:-0.014433556 26:0.10055397 27:0.033673413 28:-0.3552798 29:0.068811938 30:-0.000790253 31:-0.038949069 32:-0.022801712 33:-0.048548989 34:-0.016717158 35:0.027425282 36:0.016007606 37:0.010433915 38:-0.20150562 39:-0.036692102 40:0.045860637 41:-0.063020959 42:-0.020227702 43:0.013718404 44:0.008102198 45:-0.004298846 46:-0.007685401 47:-0.043119639 48:-0.002636949 49:-0.073835954 50:-0.091142029 51:-0.008338666 52:-0.018239569 53:0.002207824 54:-0.061339401 55:0.017079834 56:0.004976946 57:-0.068154581 58:0.24280761 59:0.024453582 60:0.055467531 61:0.028225446 62:0.019640917 63:0.029711727 64:0.001143072 65:0.23505047 66:0.024891526 67:0.047776755 68:-0.094384566 69:0.016800048 70:0.003771818 71:0.009787581 72:0.008632045 73:-0.13206612 74:-0.033527777 75:0.031157691 76:-0.020424441 77:-0.004943236 78:-0.062871225 79:0.11030114 80:0.007287472 81:-0.034274664 82:-0.030740073 83:-0.006346808 84:-0.10514194 85:-0.067116521 86:0.039451584 87:-0.059174839 88:0.11995529 89:0.006006255 90:0.057291783 91:0.014668188 
1 1 1 1 1 0 1:-0.004675657 2:-0.46795812 3:0.58862752 4:-0.000112331 5:0.042230207 6:-0.01624714 7:-0.035224698 8:0.028717678 9:-0.016846571 10:0.014030456 11:0.076856442 12:0.013300624 13:-0.005960605 14:0.030604212 15:0.1237125 16:-0.30283725 17:0.017260915 18:-0.006295085 19:-0.006781987 20:-0.01501592 21:0.014939068 22:-0.00670056 23:-0.018283816 24:-0.000309309 25:-0.002756968 26:0.12371185 27:0.026465565 28:-0.20594928 29:0.048827339 30:0.026476165 31:-0.032258902 32:-0.010535227 33:-0.0337185 34:-0.016728401 35:0.014089529 36:0.021604834 37:-0.014938485 38:-0.12934226 39:-0.020714456 40:0.061390474 41:-0.043988563 42:-0.019822361 43:0.013762902 44:0.006956549 45:0.002381492 46:-0.018295905 47:-0.015613298 48:0.002026858 49:-0.098236643 50:-0.061442401 51:-0.006839768 52:0.003691491 53:-0.032000989 54:-0.021270486 55:0.007956961 56:-0.001893043 57:-0.047751594 58:0.17399819 59:0.024422653 60:0.040113252 61:0.030818809 62:0.008891738 63:0.021126624 64:-0.020492008 65:0.1777 66:0.026963782 67:0.058900729 68:-0.059755374 69:0.016629091 70:0.001172544 71:0.010565067 72:0.00440022 73:-0.11715667 74:-0.043875035 75:0.010236789 76:-0.002451222 77:-0.001481262 78:-0.055787593 79:0.13732925 80:0.010146164 81:-0.023556095 82:-0.024090951 83:-0.010391622 84:-0.063955195 85:-0.060672455 86:0.040324043 87:-0.043155465 88:0.097000353 89:0.004210344 90:0.031706899 91:0.014501357 
1 1 0 1 1 0 1:-0.008286939 2:-0.49466798 3:0.47354585 4:0.018827552 5:0.04060578 6:-0.035179667 7:-0.054093674 8:0.015627772 9:-0.028073441 10:0.017621044 11:0.08142259 12:0.004181964 13:0.002842494 14:0.022347579 15:0.059326556 16:-0.33653474 17:0.055558044 18:-0.007464829 19:-0.007862965 20:-0.015077931 21:-0.004202523 22:0.013574437 23:-0.052169152 24:0.001253697 25:-0.013246417 26:0.1273298 27:0.056494977 28:-0.31508938 29:0.068741024 30:0.017088722 31:-0.03504267 32:0.004667538 33:-0.017101515 34:-0.032633517 35:0.008912912 36:0.025955906 37:-0.00739867 38:-0.13873059 39:0.006743819 40:0.066251516 41:-0.013666041 42:-0.019364776 43:0.026533905 44:0.01307138 45:0.015394381 46:-0.021424148 47:-0.034877151 48:0.02231873 49:-0.077038653 50:-0.07026875 51:0.043201368 52:0.00553541 53:-0.017812954 54:-0.020100513 55:0.005480059 56:0.00118141 57:-0.040213969 58:0.17712477 59:0.057833698 60:0.065848313 61:0.026262883 62:0.012372401 63:0.039753381 64:-0.011602497 65:0.19744743 66:-0.053415708 67:0.1079808 68:-0.11671002 69:0.013261181 70:0.002419407 71:0.013258998 72:-0.019809349 73:-0.16771098 74:-0.060270511 75:0.00798943 76:-0.0016704 77:-0.019573379 78:-0.042606328 79:0.16508414 80:-0.001026839 81:-0.039916467 82:-0.044104543 83:-0.020351462 84:-0.032357678 85:-0.070777364 86:0.048403155 87:-0.00949106 88:0.12628639 89:0.005693596 90:0.054361872 91:0.022708517 
1 1 0 1 1 1 1:-0.011216559 2:-0.63544202 3:0.47000498 4:-0.094664328 5:0.11585621 6:-0.049793489 7:-0.079839341 8:0.009699258 9:-0.011857038 10:0.021059919 11:0.044517897 12:0.001021676 13:-0.014016152 14:0.035468429 15:0.054652102 16:-0.22671019 17:0.032034699 18:-0.024935687 19:-0.01245072 20:-0.023553109 21:0.029403601 22:-0.024932681 23:-0.034279652 24:0.029672731 25:0.009917236 26:0.10793045 27:0.14389174 28:-0.30693826 29:0.036214091 30:-0.015770925 31:-0.015717208 32:-0.027533848 33:-0.037896667 34:-0.021032117 35:0.010401039 36:0.021248881 37:-0.00124806 38:-0.17418303 39:0.004178157 40:0.047939215 41:-0.033223599 42:-0.011464785 43:0.013668574 44:0.004302376 45:-0.014756536 46:-0.015900169 47:-0.043632235 48:0.054824986 49:-0.039996777 50:-0.07759212 51:-0.01834227 52:0.003240023 53:0.007693898 54:-0.02451437 55:0.007994398 56:0.00250258 57:-0.014353978 58:0.18459108 59:-0.001313597 60:0.098128073 61:0.020588405 62:0.010396384 63:0.005386408 64:-0.003198604 65:0.18379682 66:0.059559781 67:0.090545885 68:-0.08533854 69:0.014866853 70:0.017314641 71:0.010674762 72:0.018453624 73:-0.21506311 74:0.019873258 75:-0.019159058 76:0.00911006 77:-0.000801143 78:-0.073199168 79:0.056534536 80:0.000177528 81:-0.02703906 82:-0.051148258 83:-0.035884384 84:0.017255861 85:-0.048654694 86:0.029989446 87:0.00903152 88:0.079254933 89:0.019425817 90:0.031666148 91:0.016210377 
1 1 0 1 0 1 1:-0.009144674 2:-0.72957796 3:0.35869712 4:-0.15485735 5:0.17621231 6:0.018988034 7:-0.092348568 8:0.093433216 9:-0.031096099 10:0.000640191 11:0.13356268 12:0.027453361 13:-0.011097942 14:0.063299499 15:0.085672922 16:-0.26209736 17:0.097967446 18:-0.027112663 19:-0.012525992 20:-0.028580792 21:-0.0070685 22:-0.004989702 23:-0.019499332 24:0.021001412 25:-0.014139469 26:0.13493721 27:0.050660539 28:-0.39928758 29:0.015683953 30:0.029509611 31:-0.05195133 32:-0.012777552 33:-0.068360351 34:-0.037540082 35:0.039038606 36:0.025897685 37:-0.009505748 38:-0.34849486 39:0.095352583 40:0.066872396 41:-0.080049634 42:-0.044599976 43:0.023385979 44:0.006300839 45:0.012254591 46:-0.015759289 47:-0.042627212 48:0.027346874 49:-0.088863149 50:-0.15389551 51:0.055837374 52:-0.014820165 53:-0.020721579 54:-0.065540224 55:0.010125881 56:0.02335389 57:-0.066534653 58:0.33188313 59:0.041138556 60:0.077088341 61:0.095332384 62:0.012905286 63:0.046829224 64:-0.015536273 65:0.29044452 66:-0.043737799 67:0.071501844 68:-0.15615785 69:0.024734346 70:0.0020235 71:0.025063904 72:-0.044839714 73:-0.13059795 74:-0.024757661 75:0.040618271 76:-0.005509429 77:-0.016592992 78:-0.068879992 79:0.13541257 80:0.027223783 81:-0.05754954 82:-0.037119441 83:0.014491974 84:-0.091895834 85:-0.073670954 86:0.064395607 87:-0.045156691 88:0.10154451 89:0.003417143 90:0.069830224 91:0.018691167 
1 1 0 1 0 0 1:-0.005807018 2:-0.62655437 3:0.45189849 4:0.004170017 5:0.11494394 6:0.032177202 7:-0.07226111 8:0.026781479 9:-0.021429807 10:0.000231452 11:0.086386688 12:0.004203454 13:-0.000727849 14:0.058288526 15:0.055265833 16:-0.40821186 17:0.029410174 18:-0.079992302 19:-0.02909405 20:-0.013216137 21:-0.002540597 22:0.004148676 23:-0.033026401 24:-0.005971687 25:-0.013266718 26:0.11788224 27:0.094940588 28:-0.3007026 29:0.07003019 30:0.017900258 31:-0.043387774 32:-0.00139287 33:-0.037493367 34:-0.054335263 35:0.027636867 36:0.023355152 37:-0.020896683 38:-0.19709063 39:-0.038531046 40:0.060510427 41:-0.026684182 42:-0.044357091 43:0.018814074 44:0.016915359 45:0.01139518 46:-0.014305855 47:-0.060481612 48:0.084313385 49:-0.11724611 50:-0.14545369 51:0.038916234 52:-0.005826562 53:-0.03784287 54:-0.035046667 55:0.001369092 56:0.014019129 57:-0.065211855 58:0.25827292 59:0.044100244 60:0.067194939 61:0.076402143 62:0.007452323 63:0.036928155 64:-0.02519205 65:0.18395795 66:-0.073785573 67:0.096230395 68:-0.12099376 69:0.015887583 70:-0.001648417 71:0.027209593 72:-0.073379166 73:-0.1548688 74:-0.00965296 75:0.017714148 76:-0.000244874 77:-0.023959704 78:-0.040237315 79:0.090378761 80:0.046033375 81:-0.03797061 82:-0.045715887 83:0.034790508 84:-0.094754845 85:-0.083382219 86:0.039312694 87:-0.022314543 88:0.13461357 89:-0.006425949 90:0.069895118 91:0.022110788 
1 1 1 1 1 0 1:-0.013094224 2:-0.36945957 3:0.38393396 4:-0.10069665 5:-0.003001679 6:-0.028200882 7:0.013610531 8:0.02922778 9:-0.020487862 10:-0.029454257 11:0.090692431 12:0.022890801 13:-0.018741187 14:0.081327453 15:0.25867921 16:-0.23519614 17:-0.073916823 18:-0.009342507 19:-0.043204021 20:-0.033958275 21:0.019407051 22:-0.007765523 23:0.000807169 24:0.04993315 25:0.013986729 26:0.13623408 27:0.025719518 28:-0.072826184 29:0.04996619 30:0.049465429 31:-0.031818785 32:-0.016003139 33:0.002040183 34:0.023978813 35:0.002760995 36:0.026189586 37:0.000900174 38:0.066942796 39:0.037300821 40:-0.065111905 41:-0.053742453 42:-0.00953091 43:-0.026038835 44:-0.05183911 45:-0.006953589 46:0.00013004 47:0.02155195 48:0.039713129 49:0.1379559 50:-0.032478154 51:-0.045688219 52:0.015325403 53:0.009805087 54:-0.034289151 55:0.011693882 56:0.010652226 57:0.22902286 58:0.000794285 59:0.014595419 60:-8.4134e-05 61:0.051256228 62:0.011027477 63:0.006949569 64:0.013968932 65:0.021233389 66:0.10883594 67:0.050965995 68:0.011276302 69:0.043195359 70:0.013955426 71:-0.011676416 72:0.02223542 73:-0.060030144 74:0.013221852 75:0.01587202 76:0.029378023 77:0.017388865 78:-0.080166072 79:0.14147502 80:-0.02457677 81:-0.010046685 82:-0.016567545 83:0.052180029 84:0.069046192 85:-0.035798896 86:0.044275913 87:0.070502155 88:0.043325104 89:0.02648153 90:0.006981704 91:0.016226206 
1 1 0 1 1 1 1:-0.017750857 2:-0.55429566 3:0.28537777 4:0.048484482 5:-0.09679348 6:-0.019546647 7:-0.037689429 8:0.00357777 9:-0.035782099 10:0.000819721 11:0.083486088 12:-0.002647703 13:0.007541434 14:0.037687209 15:0.084208176 16:-0.38118565 17:0.073455483 18:0.006805663 19:-0.054003652 20:0.007158537 21:0.007625612 22:-0.004029531 23:-0.005599971 24:0.026588127 25:0.022335054 26:0.12677887 27:0.083025187 28:-0.30823243 29:0.083638556 30:-0.045114793 31:-0.072137944 32:-0.049633518 33:-0.017119609 34:-0.017793329 35:-0.001283113 36:0.040178448 37:-0.036599655 38:-0.236324 39:-0.072748028 40:-0.054539654 41:0.028017465 42:-0.026283303 43:-0.006594873 44:-0.061314434 45:0.009763128 46:-0.024618827 47:-0.004469763 48:-0.020035325 49:0.03218976 50:-0.006654339 51:0.01305317 52:-0.007952494 53:-0.012223563 54:-0.005541438 55:-0.001780468 56:-0.005346584 57:0.08806657 58:0.060269777 59:0.085166477 60:0.037168078 61:0.049033802 62:0.002504815 63:0.006181429 64:-0.009412779 65:0.260867 66:-0.04136857 67:0.071376741 68:-0.040639836 69:0.010610372 70:0.038630124 71:-0.028682882 72:-0.049180053 73:-0.11806357 74:-0.049975261 75:-0.000850739 76:-0.017798821 77:-0.016162345 78:-0.068447225 79:0.080367528 80:-0.050532553 81:-0.025647216 82:-0.03621326 83:-0.12858889 84:0.057179615 85:-0.12422634 86:0.045504525 87:-0.032663397 88:0.19001037 89:0.022199936 90:0.067269608 91:0.028797934 
1 1 1 0 1 0 1:-0.004527576 2:-0.28846869 3:0.48379809 4:-0.007004646 5:-0.055307668 6:-0.007243169 7:-0.044324238 8:-0.003749407 9:-0.018756388 10:-0.013294427 11:0.047546644 12:0.006396295 13:0.022284903 14:0.076129273 15:0.3607755 16:-0.26320601 17:-0.02949068 18:-0.02426143 19:-0.024814522 20:0.02244664 21:0.000781657 22:0.008444034 23:0.003472204 24:0.038909324 25:0.031739246 26:0.13171285 27:0.000522624 28:-0.096353114 29:0.055534996 30:-0.018714817 31:-0.054747503 32:-0.029060891 33:0.00059062 34:-0.00510565 35:0.000205538 36:0.052709062 37:-0.016731601 38:-0.067995347 39:-0.043490294 40:-0.033215236 41:0.014670519 42:-0.005534722 43:-0.002416044 44:-0.005497166 45:-0.006318509 46:-0.00027562 47:0.003869383 48:-0.002105066 49:0.10975274 50:-0.045505073 51:-0.015054118 52:-0.000183271 53:0.014381927 54:-0.00164031 55:-0.006868312 56:0.000494864 57:0.10822333 58:0.13494352 59:0.07039459 60:0.015324914 61:0.027631516 62:0.009789563 63:0.01819329 64:0.013922541 65:0.19671804 66:-0.007798749 67:0.023034414 68:-0.030998882 69:0.010475736 70:0.038464367 71:3.5807e-05 72:-0.022260483 73:0.013481404 74:-0.05252007 75:-0.020624332 76:0.008479331 77:-0.004575421 78:-0.002168942 79:0.12375735 80:-0.06149175 81:-0.017168229 82:-0.009328256 83:0.029336618 84:0.099715956 85:-0.075444497 86:0.043462344 87:0.047714595 88:0.16532341 89:0.035625137 90:0.10755739 91:0.035537362 
