svm_type c_svc
kernel_type rbf
gamma 0.01098901098901099
nr_class 4
total_sv 457
rho -0.018548889115206562 0.0096050433557734825 0.42193483633340823 0.039216716835797069 0.30303902042923225 0.76545646090698183
label 1 2 3 4
nr_sv 114 122 101 120
SV
1 1 1 1:0.001001139 2:-0.26439127 3:-0.27433917 4:-0.19798425 5:0.30910355 6:0.031107543 7:0.045512713 8:-0.007289984 9:0.014598812 10:0.11519578 11:-0.039092485 12:0.024844976 13:0.021980006 14:0.01973285 15:-0.065602027 16:-0.019703494 17:-0.21134625 18:0.24832329 19:0.077490158 20:-0.050575327 21:0.046804734 22:0.002224684 23:0.029785028 24:-0.003046654 25:0.067224994 26:0.088201486 27:0.19718312 28:-0.18818004 29:-0.016420504 30:0.078697734 31:0.02154338 32:-0.026049811 33:0.075036637 34:0.029105671 35:-0.056480549 36:-0.005491383 37:0.059609566 38:-0.279457 39:-0.10005684 40:0.009144405 41:0.058551293 42:-0.007268445 43:-0.014447189 44:0.00996775 45:-0.041477278 46:-0.05585441 47:-0.10076269 48:-0.11302482 49:-0.084625855 50:-0.033675089 51:0.005560022 52:0.080597997 53:-0.005678594 54:-0.046192039 55:-0.048330564 56:-0.028000191 57:-0.22188194 58:-0.050808705 59:0.003452561 60:0.27491897 61:-0.004818716 62:0.075049073 63:-0.031561717 64:0.016351374 65:0.018816218 66:0.042746473 67:-0.093641274 68:0.081018507 69:0.062336639 70:0.039426174 71:-0.011154931 72:0.064936966 73:0.10655059 74:0.004465032 75:-0.094242267 76:0.004539846 77:-0.015129803 78:-0.057678595 79:-0.002641411 80:0.0630114 81:0.016753186 82:-0.074989222 83:0.11549478 84:-0.15892741 85:-0.001361379 86:-0.01173112 87:-0.15397894 88:-0.052620634 89:0.027338158 90:-0.043129772 91:0.003780274 
1 1 1 1:0.012064014 2:-0.051506575 3:0.49786887 4:0.000774242 5:0.051629014 6:0.078140736 7:-0.007031188 8:0.013146735 9:-0.019027853 10:-0.015601352 11:0.088913254 12:-0.01995502 13:0.0040719 14:0.032069262 15:-0.10615195 16:-0.042498812 17:-0.11619214 18:0.11266984 19:-0.046887938 20:-0.009379745 21:-0.005816862 22:-0.011285993 23:-0.000385964 24:0.002017847 25:0.01860049 26:0.075192437 27:0.05980568 28:-0.085254624 29:-0.025735935 30:-0.03026972 31:0.027245743 32:0.028671173 33:0.02326777 34:-0.013482739 35:0.006961586 36:0.030551098 37:0.028271964 38:-0.076610573 39:-0.22023974 40:0.048548449 41:0.048195884 42:-0.011811472 43:-0.015993623 44:0.041708518 45:0.010844324 46:-0.006834379 47:-0.041769542 48:-0.021709248 49:0.005788318 50:-0.047123466 51:-0.005066444 52:-0.018029004 53:-0.02993734 54:0.008734398 55:0.0024922 56:-0.035436541 57:0.028472707 58:0.007426492 59:0.014025222 60:0.029368924 61:0.10310754 62:0.010841274 63:0.000586889 64:0.022523237 65:-0.060777046 66:-0.012267424 67:-0.016311707 68:0.11225414 69:0.027259672 70:-0.006717668 71:-0.012243733 72:0.01757073 73:0.079158291 74:-0.048459891 75:-0.004844454 76:0.03179653 77:0.010806622 78:0.032367066 79:-0.12444654 80:0.006343305 81:0.039377924 82:-0.007341944 83:-0.075443663 84:-0.054135866 85:-0.015611729 86:-0.055069935 87:-0.037675396 88:-0.0823844 89:-0.001963292 90:0.015362021 91:-0.011662806 
1 0 1 1:0.010743707 2:-0.31052774 3:0.27396771 4:-0.14933221 5:0.20420082 6:0.058789052 7:-0.017326999 8:-0.013458733 9:0.006955222 10:0.006664824 11:0.024745533 12:-0.026588019 13:-0.006323018 14:-0.024408462 15:-0.004855084 16:-0.006962695 17:-0.1588047 18:0.22356391 19:-0.020975281 20:-0.018811246 21:0.004342735 22:-0.009654287 23:0.017919138 24:0.000299337 25:0.018429948 26:0.094993338 27:0.037787966 28:-0.20831755 29:-0.033038463 30:0.004124257 31:0.002480125 32:-0.0033487 33:0.019667696 34:-0.023540802 35:0.001815737 36:0.02991413 37:0.047585204 38:-0.072512172 39:-0.21450113 40:0.039500829 41:0.027779633 42:-0.049603473 43:-0.008827308 44:-0.001370396 45:-0.013989652 46:-0.011775552 47:-0.081468798 48:-0.005251978 49:-0.056301318 50:-0.046093848 51:-0.052752625 52:0.021462336 53:0.000265264 54:0.00497715 55:-0.011548106 56:-0.047154933 57:-0.09467791 58:-0.00275855 59:0.021727672 60:0.077791899 61:0.07485313 62:0.029910097 63:0.007070152 64:0.020106662 65:0.025790762 66:0.041242704 67:0.009897507 68:0.13255952 69:0.025822682 70:0.02276746 71:0.002484758 72:0.069899745 73:0.054967128 74:-0.041216254 75:-0.040668182 76:0.042914934 77:0.013622024 78:0.028658845 79:-0.074889794 80:0.016785486 81:0.052344579 82:-0.027697947 83:0.043700121 84:-0.041710481 85:-0.004391434 86:-0.042108528 87:-0.11954531 88:-0.090413816 89:0.007789553 90:-0.043779038 91:-0.0144017 
1 0 0 1:0.012224466 2:-0.2237429 3:0.1090808 4:-0.079164051 5:0.48808706 6:0.08945246 7:-0.038174789 8:0.000697224 9:0.024573516 10:-0.03838522 11:-0.001401334 12:-0.025464343 13:0.005598146 14:0.040598907 15:0.086840428 16:-0.049771253 17:-0.34547404 18:0.36383411 19:-0.059470374 20:-0.019495225 21:0.019904541 22:-0.018322382 23:0.015441224 24:0.002167428 25:0.013304925 26:0.071230851 27:0.19488543 28:-0.11938287 29:-0.097874388 30:-0.018181808 31:0.034679137 32:0.018927867 33:0.018523104 34:-0.008877635 35:0.008993611 36:0.027643777 37:0.0845652 38:-0.37647015 39:-0.12673038 40:0.044307414 41:0.096522018 42:-0.040542517 43:-0.020786962 44:-0.016159186 45:-0.01015431 46:0.008040578 47:-0.13881516 48:-0.14368095 49:-0.067451805 50:-0.073669612 51:-0.073516496 52:0.048343893 53:0.000203281 54:0.011969375 55:-0.022600088 56:-0.062523849 57:-0.034562927 58:0.00059065 59:0.060538672 60:0.098504283 61:0.054641414 62:0.05040535 63:0.007078236 64:0.039780233 65:-0.043703288 66:0.025768675 67:0.004412455 68:0.090425059 69:0.032446913 70:0.005105825 71:-0.006982712 72:0.080380291 73:-0.016022572 74:-0.016560806 75:-0.048672237 76:0.073216364 77:0.005778285 78:0.036146581 79:-0.081625387 80:0.016588414 81:0.1264751 82:-0.032078158 83:0.002678116 84:-0.065464139 85:-0.050230734 86:-0.022997251 87:-0.14055859 88:-0.075844333 89:0.012291141 90:-0.098829038 91:-0.021552982 
1 0 0 1:0.006714694 2:0.17365408 3:0.29390344 4:0.053326864 5:0.46720192 6:0.077100486 7:0.016311899 8:0.000857617 9:0.024548622 10:0.018669492 11:0.009801863 12:-0.014037347 13:0.015195096 14:0.061822284 15:0.029935736 16:-0.10096092 17:-0.35693529 18:0.28288493 19:0.021612987 20:-0.011166955 21:-0.016610982 22:-0.03024639 23:0.020503575 24:0.006412107 25:0.018237621 26:0.036084369 27:0.27114296 28:-0.1363306 29:-0.093828745 30:0.059852172 31:0.038684282 32:-0.019640343 33:0.041684177 34:-0.038234077 35:-0.000133806 36:0.020866737 37:0.094076999 38:-0.47556034 39:-0.087014243 40:0.036356077 41:0.12087145 42:-0.072409637 43:-0.013950302 44:-0.006257036 45:-0.000846087 46:0.009890934 47:-0.1141383 48:-0.15769951 49:-0.13288541 50:-0.11213806 51:-0.11272875 52:0.031416081 53:0.013911989 54:0.006753595 55:-0.027014803 56:-0.041318342 57:-0.15325506 58:0.004944261 59:0.03357219 60:0.1522582 61:0.037180487 62:0.02712138 63:0.033081204 64:0.013455363 65:-0.10372915 66:0.12437792 67:-0.070061922 68:0.10918009 69:0.047858216 70:0.009569106 71:-0.011876749 72:0.13463822 73:0.078057535 74:-0.022221316 75:-0.023295227 76:0.056149382 77:0.021451797 78:-0.056405991 79:-0.052717358 80:0.021444315 81:0.13013515 82:-0.036092944 83:-0.021521799 84:-0.046596523 85:-0.080464773 86:-0.017564721 87:-0.082637846 88:-0.012014687 89:-0.002161455 90:-0.074850015 91:-0.028699441 
1 0 0 1:0.00264424 2:-0.027266169 3:0.29464427 4:-0.088526718 5:0.44106677 6:0.12357437 7:-0.038745929 8:0.012481017 9:0.027914021 10:0.031597931 11:0.071288019 12:-0.025471002 13:0.007098827 14:0.042730711 15:-0.02784325 16:-0.07812456 17:-0.27280009 18:0.25782818 19:0.013939598 20:-0.035535641 21:-0.022376584 22:-0.030306719 23:0.046682581 24:-0.009891472 25:0.015820039 26:0.055463221 27:0.20474201 28:-0.091957569 29:-0.046328228 30:0.003383758 31:-0.008322508 32:0.014024726 33:0.032437466 34:-0.056826215 35:-9.1409e-05 36:0.022453744 37:0.069823585 38:-0.3456085 39:-0.21468818 40:0.036304031 41:0.11086033 42:-0.057375021 43:-0.017856909 44:0.005524642 45:0.004984838 46:0.006723193 47:-0.10613587 48:-0.1988589 49:-0.10356661 50:-0.082382441 51:-0.12044496 52:0.055934358 53:0.010663253 54:0.005271752 55:-0.013152715 56:-0.02786004 57:0.001103672 58:0.023629565 59:0.040216286 60:0.16025239 61:0.094334766 62:0.01361933 63:0.018750999 64:0.017912315 65:0.021904524 66:0.054585002 67:-0.046330158 68:0.19633348 69:0.025751358 70:0.016232293 71:-0.010400226 72:0.065795705 73:0.042562101 74:-0.043190215 75:-0.037807237 76:0.050162829 77:0.022982452 78:-0.091857985 79:-0.12409427 80:0.010233356 81:0.084875174 82:-0.041683465 83:-0.063660428 84:0.004984388 85:-0.038757853 86:-0.03755983 87:-0.056628238 88:-0.018541254 89:-0.000612183 90:-0.080005713 91:-0.024864517 
1 0 1 1:-0.013366678 2:0.1352526 3:0.24871913 4:-0.17201544 5:0.056884669 6:0.25048774 7:-0.002285943 8:0.003570888 9:0.035823923 10:-0.028692102 11:0.0997568 12:-0.033517387 13:0.010984018 14:0.026043875 15:0.11946858 16:0.050351661 17:-0.12087424 18:0.1228876 19:0.02037026 20:-0.054571997 21:0.024464907 22:0.004093875 23:-0.008673981 24:-0.003182432 25:0.02201831 26:0.064967163 27:0.18214107 28:-0.13098198 29:-0.054328211 30:0.006767963 31:-0.10934598 32:-0.017830325 33:0.001675936 34:-0.05835519 35:0.027082188 36:0.027722457 37:0.043540698 38:-0.116115 39:-0.43179211 40:-0.011481301 41:-0.008516064 42:-0.14680663 43:-0.011074458 44:-0.052888043 45:-0.006245666 46:-0.023907369 47:-0.028235117 48:-0.16769098 49:-0.036635797 50:-0.046436749 51:-0.068440534 52:-0.02958457 53:-0.004735947 54:0.009052994 55:-0.046713416 56:0.003346276 57:-0.052256662 58:0.11035183 59:0.010777337 60:0.008935219 61:0.17182194 62:0.031214802 63:-0.02321054 64:0.029479669 65:-0.05412332 66:0.16472563 67:0.031668205 68:0.076445565 69:0.046158366 70:0.021962035 71:0.015461942 72:0.030996472 73:0.04878537 74:-0.007298039 75:0.017088164 76:0.067991666 77:0.01998819 78:0.084104352 79:-0.25334308 80:-0.00206349 81:0.043144524 82:-0.002211743 83:-0.035995081 84:-0.014756741 85:-0.025814289 86:-0.0212442 87:-0.054141622 88:-0.057713915 89:-0.012564561 90:-0.014776789 91:-0.004268553 
1 0 0 1:-0.007241167 2:-0.26341072 3:0.26505292 4:-0.065026991 5:0.2066659 6:0.025966976 7:-0.013695627 8:-0.026470656 9:0.025554795 10:0.013550559 11:0.077847183 12:-0.020085245 13:-0.010697511 14:-0.011431335 15:0.21750483 16:-0.053259119 17:-0.21601903 18:0.20523073 19:-0.024279281 20:-0.019035744 21:-0.017752878 22:-0.000951826 23:0.024599908 24:-0.020669131 25:0.018110812 26:0.10087248 27:0.065390714 28:-0.2586965 29:-0.070134707 30:-0.003724319 31:0.030959778 32:0.012790957 33:0.029208358 34:-0.049649257 35:-0.01072303 36:0.023781724 37:0.065469943 38:-0.1160677 39:-0.15471421 40:0.056276426 41:0.075964436 42:-0.062741384 43:-0.033089153 44:0.024676569 45:0.002505834 46:-0.00852066 47:-0.065553881 48:-0.065431409 49:-0.052481923 50:-0.050888147 51:-0.064343072 52:0.019284701 53:-0.012620861 54:0.002921625 55:-0.023735456 56:-0.026379755 57:-0.057762619 58:-0.095671952 59:0.034583028 60:0.089708403 61:0.090676159 62:0.033237014 63:0.004491488 64:0.028898498 65:0.001187786 66:0.11628673 67:-0.034126516 68:0.1602442 69:0.031238684 70:-0.000596079 71:0.004651881 72:0.10029963 73:0.061511341 74:-0.054169282 75:-0.051755242 76:0.024612283 77:0.016448649 78:0.073475413 79:-0.16461954 80:0.021788727 81:0.059719488 82:-0.032142609 83:-0.040472172 84:-0.014657981 85:-0.036057699 86:-0.042098179 87:-0.10008359 88:-0.028806252 89:0.008945558 90:-0.035211053 91:-0.010687547 
0 1 1 1:-0.005338888 2:-0.58071858 3:0.2366091 4:-0.12304147 5:0.03387424 6:-0.04674387 7:-0.038386472 8:0.022407806 9:-0.00080197 10:-0.031495329 11:0.023400929 12:-0.028633749 13:0.006144417 14:-0.028342331 15:-0.033298727 16:0.087717257 17:-0.13814235 18:0.10667705 19:-0.021494893 20:-0.050202273 21:-0.012217579 22:0.003256259 23:-0.010792094 24:-0.009034101 25:0.022727875 26:0.15309592 27:0.11634844 28:-0.36919939 29:-0.01209022 30:0.003218576 31:-0.004836452 32:-0.010210427 33:0.018140338 34:-0.022619806 35:0.0056501 36:0.011920672 37:0.059598945 38:0.005872929 39:-0.1725556 40:0.049471404 41:0.069950089 42:-0.043054558 43:-0.021662006 44:0.035886813 45:0.004831583 46:-0.010726848 47:-0.032910924 48:0.11945518 49:-0.061158765 50:-0.081384517 51:-0.032463763 52:-0.01396193 53:-0.012855798 54:-0.00026414 55:-0.020502375 56:0.006360567 57:0.027789081 58:-0.085524172 59:-0.006188224 60:0.017589545 61:0.014100635 62:0.022833146 63:0.00731875 64:0.030857479 65:-0.006570909 66:0.12937054 67:-0.008169279 68:0.096531324 69:0.033850141 70:0.020492185 71:-0.006568744 72:0.021885617 73:0.014375784 74:-0.043625891 75:-0.047209203 76:0.033425134 77:0.007848823 78:0.080333821 79:-0.12510359 80:0.042316522 81:0.066026047 82:-0.012064162 83:0.081778914 84:0.008769969 85:-0.011973724 86:-0.022599863 87:-0.073094577 88:-0.03047963 89:0.008717367 90:-0.023609571 91:-0.015468068 
1 0 1 1:0.001781806 2:-0.19453049 3:0.28584737 4:-0.082885012 5:0.18021145 6:0.009315642 7:0.000593642 8:0.02362252 9:0.039763723 10:0.022389203 11:0.09754546 12:-0.012598814 13:0.033158597 14:0.027088489 15:-0.11657621 16:-0.10186557 17:-0.18169093 18:0.14271615 19:0.010027239 20:-0.060280621 21:-0.010555747 22:-0.018060926 23:0.032241084 24:-0.025798606 25:0.041373968 26:0.060931865 27:0.15841629 28:-0.11721153 29:0.010796744 30:0.008995351 31:-0.014426232 32:-0.013834879 33:0.051872648 34:-0.045960687 35:-0.027222229 36:-0.034070306 37:0.062645614 38:-0.17868556 39:-0.1676245 40:0.066581823 41:0.088144578 42:-0.066091388 43:-0.013605989 44:0.050203886 45:0.007857791 46:-0.024076067 47:-0.068959095 48:-0.002607647 49:-0.13951573 50:-0.10652132 51:-0.084558181 52:0.018953729 53:-0.013731471 54:-0.024921143 55:-0.027292654 56:-0.018257488 57:-0.040014222 58:0.035469227 59:-0.005757973 60:0.10117856 61:0.045563884 62:0.036971424 63:-0.042886049 64:0.021295194 65:-0.016355352 66:0.092314273 67:-0.058937952 68:0.13496447 69:0.036926378 70:0.049232043 71:-0.010370684 72:0.068403602 73:0.007816747 74:-0.052898288 75:-0.078779101 76:0.027194081 77:0.022168813 78:-0.022505909 79:-0.12282559 80:0.087529227 81:0.014621275 82:-0.031469185 83:0.081114382 84:-0.092482924 85:0.04608535 86:-0.036713012 87:-0.024946174 88:-0.030874282 89:0.014526042 90:-0.049488954 91:0.003918208 
1 1 1 1:-0.026396262 2:-0.40848056 3:0.20735212 4:-0.084199734 5:0.009288293 6:-0.051893875 7:0.003866667 8:0.02204969 9:-0.004712129 10:0.005147735 11:0.05914136 12:-0.051717691 13:0.003536507 14:-0.040506314 15:0.053754333 16:-0.047207221 17:-0.15386811 18:0.04273862 19:0.000574767 20:-0.034287143 21:-0.035975695 22:0.004417746 23:-0.010429274 24:-0.008320274 25:0.016424924 26:0.113011 27:0.093895607 28:-0.27488011 29:0.023018764 30:-0.003422375 31:-0.011184874 32:0.003337243 33:0.01447973 34:-0.031838607 35:0.016951414 36:-0.010447762 37:0.053064276 38:-0.032485973 39:-0.16859844 40:0.065244921 41:0.090366758 42:-0.036162332 43:-0.00273985 44:0.058136404 45:0.015467644 46:-0.010693941 47:-0.008272305 48:0.15364043 49:-0.10470784 50:-0.091837712 51:-0.029685358 52:-0.048473831 53:-0.028524904 54:0.001600108 55:-0.008345721 56:0.021473074 57:-0.033946861 58:-0.11763838 59:0.005770011 60:0.020583138 61:-0.001320889 62:0.016436329 63:-0.000898351 64:0.017287975 65:-0.023991793 66:0.10696495 67:-0.011279993 68:0.11861855 69:0.057679411 70:0.053239968 71:0.002526839 72:0.025868168 73:0.068236113 74:-0.062103216 75:-0.036257453 76:0.039787617 77:0.016071577 78:-0.004371237 79:-0.10876549 80:0.030353734 81:0.023480998 82:-0.008623295 83:0.049520236 84:-0.019999683 85:0.016119754 86:-0.025207398 87:-0.066771246 88:-0.046294719 89:-0.003083452 90:-0.013935465 91:-0.008068709 
1 0 0 1:-0.001877792 2:-0.48670667 3:0.29613966 4:-0.082547367 5:0.10841948 6:0.060407501 7:-0.035346977 8:-0.010876152 9:0.01426873 10:0.003712534 11:0.058525991 12:0.004006088 13:0.020026999 14:-0.043822687 15:0.063092895 16:-0.16344733 17:-0.089780584 18:0.16954626 19:-0.033505421 20:-0.035684563 21:0.013537084 22:0.003877769 23:0.040295299 24:-0.032075319 25:0.033849284 26:0.15571757 27:-0.007294267 28:-0.2949124 29:0.062021904 30:-0.012660209 31:0.017728603 32:0.001118015 33:0.029393405 34:-0.008630116 35:-0.016788956 36:0.008972926 37:0.016100863 38:0.014714716 39:-0.309672 40:0.062099673 41:0.028407879 42:-0.023712665 43:-0.020963572 44:0.010369654 45:-0.01338143 46:-0.011043467 47:-0.050023872 48:0.090568833 49:-0.087012582 50:-0.038902253 51:-0.026490316 52:0.051065527 53:-0.005018912 54:-0.024752542 55:-0.02553479 56:-0.036449183 57:0.021954654 58:-0.077575892 59:-0.009112731 60:0.078202859 61:0.097599626 62:0.03155341 63:-0.002979719 64:0.027410882 65:0.097516641 66:0.048632953 67:0.0246921 68:0.10462488 69:-0.003116936 70:0.036445983 71:0.006496816 72:0.035427492 73:-0.075080521 74:0.033052027 75:-0.061726604 76:0.032465983 77:0.004821325 78:0.053572077 79:-0.18130733 80:0.020050263 81:0.05304632 82:-0.034751326 83:0.055408418 84:0.006000889 85:0.019203767 86:-0.041835219 87:-0.10533721 88:-0.077818073 89:0.01737028 90:-0.02078272 91:-0.009902327 
1 0 0 1:-0.002321995 2:-0.29385161 3:0.40775043 4:-0.10020433 5:0.16113743 6:0.002459976 7:-0.015011076 8:-0.013193665 9:0.004070384 10:-0.016272632 11:0.042047523 12:-0.020870583 13:0.029047312 14:0.012422141 15:0.096525952 16:0.004860089 17:-0.13493167 18:0.16072461 19:-0.011931229 20:-0.039698504 21:-0.003290504 22:-0.015096511 23:0.02877808 24:0.013548614 25:0.018803254 26:0.1048127 27:0.090525538 28:-0.24035545 29:-0.060882054 30:0.006589522 31:0.017306196 32:-0.014009264 33:0.019833859 34:-0.017976049 35:0.013255052 36:0.047868207 37:0.051433723 38:-0.11339568 39:-0.15426838 40:0.042282727 41:0.05474804 42:-0.051663835 43:-0.008166824 44:0.021318747 45:-0.01531115 46:0.021883987 47:-0.055695791 48:-0.037712388 49:-0.10052086 50:-0.03913112 51:-0.047631159 52:0.021606663 53:0.00124421 54:0.002152013 55:-0.0285125 56:-0.022832714 57:0.005859155 58:-0.066957995 59:0.010821755 60:0.049760237 61:0.048753243 62:0.024070695 63:0.02081874 64:0.021377513 65:0.021471081 66:0.072344847 67:0.015366676 68:0.091014639 69:0.05520165 70:0.016111236 71:-0.000995852 72:0.053503506 73:-0.10221873 74:-0.054369133 75:0.003721436 76:0.059648164 77:0.015007502 78:0.018970802 79:-0.1504437 80:-0.009067205 81:0.11579405 82:-0.018265953 83:-0.032558225 84:-0.023126669 85:-0.027860159 86:-0.031271216 87:-0.10319617 88:-0.096839391 89:-0.009183638 90:-0.05757222 91:-0.030738361 
0 1 1 1:-0.003050892 2:-0.15515871 3:0.18633603 4:-0.02598414 5:0.37533072 6:-0.10053055 7:-0.026206646 8:0.049433716 9:0.048449475 10:0.002614822 11:0.071970098 12:-0.042269621 13:-0.017442904 14:0.005079757 15:-0.24823461 16:-0.073695846 17:-0.31927943 18:0.12084591 19:-0.029314199 20:-0.02275583 21:-0.019277228 22:-0.021704985 23:0.024807649 24:0.007468516 25:0.017752223 26:0.11031959 27:0.3502309 28:-0.17122574 29:-0.025705878 30:0.006195239 31:0.001013168 32:-0.000914542 33:0.047058877 34:-0.040302698 35:0.009086875 36:0.012598325 37:0.073583096 38:-0.2649653 39:-0.11003871 40:0.02645136 41:0.1392481 42:-0.051885936 43:0.00944797 44:0.046103347 45:-0.010662181 46:0.000297157 47:-0.084042892 48:0.078481324 49:-0.048695669 50:-0.080970906 51:-0.13128433 52:0.025261782 53:0.000390887 54:-0.005100357 55:-0.025232591 56:0.005398418 57:-0.056436658 58:-0.057932906 59:0.06250985 60:0.12267643 61:0.043259654 62:0.013926875 63:0.008864827 64:0.022392394 65:-0.039847068 66:0.06794893 67:-0.048870042 68:0.15818194 69:0.050268393 70:0.006037406 71:-0.021051927 72:0.12818646 73:0.001172336 74:-0.041510053 75:-0.033982757 76:-0.000570286 77:0.01943088 78:-0.048808977 79:-0.17405514 80:0.024041027 81:0.069165438 82:-0.039980069 83:0.052246291 84:-0.055675358 85:-0.018159421 86:-0.046287257 87:-0.089117892 88:0.022964425 89:0.004791291 90:-0.033291884 91:-0.007916141 
0 0.38783660286182853 0 1:-0.008419774 2:-0.45773572 3:0.31706145 4:-0.11910662 5:0.29938993 6:-0.010027122 7:0.024490004 8:-0.022453941 9:0.047370609 10:0.001395324 11:0.027439537 12:-0.005049627 13:0.033448 14:-0.010351308 15:0.058931302 16:0.016232125 17:-0.20285886 18:0.1881925 19:0.016578728 20:-0.037709676 21:-0.005897497 22:-0.02936773 23:0.041161973 24:0.00382523 25:0.027438745 26:0.076705292 27:0.078545392 28:-0.14513384 29:-0.047729496 30:0.03545643 31:-0.000489834 32:-0.022440454 33:0.009165573 34:-0.030180441 35:0.007948288 36:0.035854373 37:0.045893531 38:-0.17468661 39:-0.077196725 40:0.04171063 41:0.0565442 42:-0.072409339 43:-0.006012558 44:0.005310486 45:-0.022394868 46:0.023869006 47:-0.065921798 48:-0.021107143 49:-0.03723203 50:-0.044338353 51:-0.12158294 52:0.044817273 53:-0.010838178 54:0.011766959 55:-0.054612581 56:-0.00808607 57:-0.036884177 58:0.014788009 59:0.042279616 60:0.093216568 61:0.028456526 62:0.06101162 63:-0.002178284 64:0.021258092 65:0.034672216 66:0.056074191 67:0.011036114 68:0.12279065 69:0.077753268 70:0.043339051 71:0.005783688 72:0.09744747 73:-0.15061586 74:-0.0427619 75:0.025498891 76:0.069590457 77:0.023645874 78:0.03005093 79:-0.10817891 80:0.013630682 81:0.11617093 82:-0.023320515 83:0.009075074 84:0.00569575 85:-0.017723504 86:-0.028010724 87:-0.11870939 88:-0.083261289 89:-0.013110686 90:-0.064402796 91:-0.024290679 
1 1 1 1:-0.010129225 2:-0.16793741 3:0.38851285 4:-0.096971668 5:0.15965652 6:-0.052988037 7:-0.008191752 8:0.00325281 9:0.020856272 10:-0.026428694 11:0.0284239 12:-0.019981578 13:-0.008941064 14:-0.001247268 15:0.028801529 16:-0.016525025 17:-0.14949171 18:0.076898627 19:-0.047959108 20:-0.050296202 21:-0.012064014 22:0.00910872 23:-0.022681514 24:0.014185207 25:0.021607319 26:0.080448285 27:0.1709128 28:-0.15655152 29:-0.016565494 30:-0.03410396 31:-0.001239663 32:-0.006219541 33:0.000221273 34:-0.018382041 35:0.012345431 36:0.002075676 37:0.04754065 38:-0.084430747 39:-0.16176565 40:0.047169279 41:0.073729061 42:-0.036815997 43:-0.015176296 44:0.031142773 45:-0.022189531 46:-0.008034894 47:-0.036953367 48:0.060819566 49:-0.046047702 50:-0.053274792 51:-0.065800488 52:-0.019960565 53:-0.021003788 54:0.009402427 55:-0.018429991 56:0.010689254 57:0.032243054 58:-0.036057413 59:0.018565813 60:-0.013867091 61:0.038980186 62:0.038666032 63:-0.01108995 64:0.035951052 65:-0.024122914 66:0.057900377 67:0.009129983 68:0.10574367 69:0.046893705 70:0.018235091 71:-0.008522998 72:0.057428602 73:0.049125247 74:-0.043997165 75:0.015036943 76:-0.001767637 77:0.012714843 78:0.04533039 79:-0.12241071 80:0.003473504 81:0.015344036 82:0.007729816 83:0.008754061 84:-0.077102333 85:0.008555959 86:-0.026083779 87:-0.09588629 88:-0.027364073 89:-0.008861016 90:-0.007617223 91:0.003964201 
1 0 1 1:-0.004195416 2:0.001979741 3:0.34719572 4:-0.11622315 5:0.17592944 6:-0.043494329 7:0.035248205 8:-0.010493142 9:0.059352372 10:-0.009368903 11:0.042845104 12:-0.014538015 13:0.023307597 14:0.01133194 15:0.12712532 16:-0.055653594 17:-0.12322531 18:0.10760871 19:-0.032437779 20:-0.041994348 21:0.008886064 22:-0.019852053 23:0.019400835 24:0.000340857 25:0.017569797 26:0.094906166 27:0.041373376 28:-0.24326345 29:-0.014569144 30:-0.034530383 31:-0.010056304 32:-0.02113161 33:0.022968827 34:-0.043400578 35:0.006295982 36:0.046702977 37:0.033756372 38:-0.20905113 39:-0.13351481 40:0.044914246 41:0.051857226 42:-0.066302776 43:-0.00507614 44:-0.006855162 45:0.00261923 46:0.021221006 47:-0.052352626 48:0.036452919 49:-0.065983772 50:-0.03602466 51:-0.078966849 52:0.019637672 53:-0.018304337 54:0.004478906 55:-0.042467069 56:-0.002413047 57:-0.07132145 58:-0.007179291 59:0.021101916 60:0.075481415 61:0.043840989 62:0.040428557 63:0.009794659 64:0.041428212 65:-0.043436803 66:0.14016014 67:0.030148294 68:0.099079154 69:0.0462442 70:0.026848013 71:0.00409103 72:0.067602552 73:-0.092049561 74:-0.002601945 75:-0.044885471 76:0.059249591 77:0.011148725 78:-0.026880581 79:-0.18018499 80:0.005575093 81:0.096284091 82:-0.021574646 83:0.045198783 84:0.002319543 85:-0.020021098 86:-0.025139941 87:-0.064724475 88:-0.067007713 89:-0.001578484 90:-0.08108259 91:-0.0261629 
1 0 0 1:-0.00611553 2:-0.27652022 3:0.26775211 4:0.036555469 5:0.19463128 6:-0.053149905 7:0.009735838 8:0.021642856 9:0.012629302 10:0.007999148 11:0.050733522 12:-0.022603014 13:0.012094214 14:0.012264829 15:0.14433417 16:0.005800834 17:-0.29009229 18:0.15865278 19:-0.04529015 20:-0.016502162 21:0.019836798 22:-0.0192421 23:0.053053677 24:0.006072739 25:0.007457627 26:0.090056971 27:0.22618005 28:-0.20913726 29:-0.11954197 30:-0.040709108 31:0.038899556 32:0.029796051 33:0.048957475 34:-0.03394701 35:0.014546039 36:0.051765405 37:0.10163241 38:-0.15113732 39:-0.086129397 40:0.059942491 41:0.059802867 42:-0.028636212 43:-0.01146364 44:0.026679751 45:0.00271405 46:0.036361907 47:-0.053506836 48:-0.076913588 49:-0.033132758 50:-0.12440927 51:-0.057563335 52:0.061469894 53:-0.034584962 54:3.9141e-05 55:-0.015166534 56:-0.008921476 57:-0.069472462 58:-0.03403043 59:0.001738142 60:0.12301725 61:0.041638542 62:0.036987826 63:0.012514179 64:0.029406272 65:-0.042860568 66:0.051705454 67:-0.06986855 68:0.16047129 69:0.028801279 70:-0.000508085 71:-0.014098186 72:0.025751948 73:-0.083518781 74:-0.12051038 75:-0.03578179 76:0.032456614 77:0.002953691 78:-0.029406909 79:-0.095752284 80:0.041699179 81:0.085234381 82:-0.039223071 83:-0.026935501 84:-0.039483439 85:-0.037299316 86:-0.035619877 87:-0.086341955 88:-0.087365359 89:-0.000757291 90:-0.061265673 91:-0.021565681 
1 0 1 1:0.002713237 2:-0.01759121 3:0.50803959 4:0.023612881 5:0.10889304 6:0.046089981 7:0.035158198 8:-0.003001245 9:0.022720078 10:0.008272219 11:0.006102374 12:-0.023482542 13:-0.005205054 14:0.026728349 15:-0.017887576 16:-0.18063725 17:-0.18566573 18:0.098774247 19:0.029172568 20:-0.004611324 21:-0.013137086 22:-0.026133135 23:0.010605518 24:-0.003118119 25:-0.000523302 26:0.080232441 27:0.16036059 28:-0.020342669 29:-0.013235527 30:-0.012367344 31:0.040712181 32:0.021088459 33:0.021011855 34:-0.032889277 35:0.00561466 36:0.02472348 37:0.048140429 38:-0.1357581 39:-0.19879736 40:0.089045264 41:0.047372039 42:-0.035818707 43:-0.03350595 44:0.017067093 45:0.014054324 46:-0.005443115 47:-0.036111895 48:-0.017706202 49:-0.23599613 50:-0.054147445 51:-0.074054942 52:-0.019021064 53:-0.000654675 54:-0.012533102 55:-0.005507239 56:-0.029554525 57:-0.016726453 58:-0.074789606 59:0.046257429 60:0.058413032 61:0.032873992 62:-0.000262921 63:0.009778537 64:0.002490871 65:-0.076460302 66:-0.016616359 67:-0.059496615 68:0.079561517 69:0.00168785 70:0.009983759 71:-0.009254308 72:0.035087112 73:0.1263653 74:-0.066735715 75:-0.048760001 76:0.029569328 77:0.016636761 78:-0.046031456 79:0.012128621 80:0.032334171 81:0.027115688 82:-0.00715027 83:-0.026886575 84:-0.01192129 85:-0.010867022 86:-0.019127268 87:0.014498649 88:-0.065201625 89:0.01030804 90:-0.00322497 91:-0.01329404 
1 0 1 1:-0.009913372 2:-0.009819673 3:0.17509681 4:0.01818124 5:0.19933261 6:-0.013448399 7:-0.031835988 8:-0.002414098 9:-0.011348066 10:-0.036909916 11:0.069255374 12:-0.052634213 13:-0.006888497 14:0.023985272 15:0.02555057 16:0.041558728 17:-0.30969384 18:0.18679111 19:-0.092680186 20:-0.041925348 21:-0.00096998 22:-0.009833297 23:0.023040902 24:0.026501339 25:0.010168049 26:0.11539206 27:0.068095341 28:-0.30242464 29:-0.085856766 30:-0.082232073 31:0.005352195 32:0.018732619 33:-0.001637758 34:-0.017125675 35:0.02345391 36:0.007835516 37:0.088400118 38:-0.071285896 39:-0.15553676 40:0.07664004 41:0.052042149 42:-0.022516754 43:-0.038717963 44:-0.001379859 45:-0.002783095 46:-0.016401689 47:-0.05473496 48:-0.059537292 49:0.018467026 50:-0.12334131 51:-0.029434403 52:-0.008075843 53:-0.063843615 54:0.016197002 55:0.007464611 56:-0.016192624 57:-0.002102861 58:-0.051804937 59:0.033505447 60:0.027639894 61:0.051167473 62:0.010575034 63:0.006053565 64:0.052601114 65:-0.069828518 66:0.009191683 67:0.016081924 68:0.15199684 69:0.049977329 70:0.004864364 71:0.002924409 72:-0.016961738 73:-0.004570602 74:-0.088868223 75:0.000692033 76:0.005007535 77:0.005355088 78:0.16702108 79:-0.12796894 80:0.013193899 81:0.008915611 82:-0.005441055 83:0.07170549 84:-0.077139176 85:0.003574477 86:-0.035044584 87:-0.075385273 88:-0.047730468 89:-0.008888964 90:-0.040319093 91:-0.004772916 
1 0 0 1:0.020452352 2:-0.20031558 3:0.14786133 4:-0.14992675 5:0.1499315 6:0.12765729 7:0.011064788 8:-0.042817023 9:0.013051578 10:-0.011205898 11:0.058066495 12:-0.045902699 13:-0.024371065 14:0.044975415 15:0.35962117 16:0.098190889 17:-0.18387687 18:0.27102885 19:-0.056682833 20:-0.020085365 21:0.008801815 22:-0.024240458 23:0.043959975 24:-0.009037855 25:0.00944011 26:0.18278256 27:0.15614867 28:-0.28973985 29:-0.089689635 30:-0.069460005 31:0.061585795 32:0.044438064 33:-0.008658518 34:-0.027264232 35:0.03124648 36:0.018495535 37:0.069718271 38:-0.13346492 39:-0.23258886 40:0.06130657 41:0.007424458 42:-0.023079442 43:-0.033567782 44:0.009049568 45:0.009975716 46:0.002781609 47:-0.087977283 48:-0.10563902 49:-0.13422315 50:-0.014414778 51:-0.052770115 52:0.016869411 53:-0.051832061 54:-0.001100256 55:-0.007395597 56:-0.091673926 57:-0.077554025 58:-0.14922118 59:0.056545049 60:0.057500556 61:0.10563479 62:0.020671623 63:0.001400284 64:0.036650587 65:0.004225912 66:-0.022907518 67:0.005509509 68:0.17928696 69:-0.000736221 70:-0.01041883 71:0.000642812 72:0.051811475 73:0.005599664 74:-0.094208717 75:-0.064159468 76:-0.00134111 77:0.010101094 78:0.066205531 79:-0.029861383 80:0.014580227 81:0.030187817 82:-0.017369347 83:-0.014148971 84:-0.002607106 85:-0.05462946 86:-0.058474962 87:-0.074654751 88:0.032287806 89:0.018700084 90:-0.015730361 91:-0.003760502 
1 0 0 1:0.006356163 2:-0.22626036 3:0.44391885 4:-0.079399481 5:0.14380808 6:-0.02534198 7:0.034399725 8:0.000957566 9:-0.020716026 10:0.019961981 11:0.029994141 12:-0.024840202 13:-0.014268855 14:0.038191296 15:0.16272609 16:-0.10943575 17:-0.064747229 18:0.11264112 19:-0.002063453 20:-0.002587749 21:-0.007507454 22:0.009218335 23:0.022220029 24:0.005354185 25:0.006423439 26:0.13950829 27:0.021784715 28:-0.24475278 29:0.037058756 30:-0.025645159 31:0.031251606 32:-0.010772409 33:0.020352742 34:0.002943754 35:-0.005352305 36:0.018317776 37:0.01992015 38:-0.12459766 39:-0.20395258 40:0.065747306 41:0.068137586 42:-0.008365968 43:-0.053117692 44:0.022617422 45:-0.002560702 46:-0.001667009 47:-0.063500144 48:-0.03623658 49:-0.13802823 50:-0.031520765 51:0.027583422 52:0.005311277 53:-0.005192177 54:0.000914469 55:-0.000610877 56:-0.019183695 57:-0.013951882 58:-0.1071319 59:-0.01619863 60:0.088169076 61:0.036220338 62:0.019843424 63:0.008032477 64:0.010552243 65:-0.053620353 66:0.033327226 67:-0.011638025 68:0.10923842 69:0.02205142 70:0.003331331 71:-0.013612852 72:0.009187077 73:0.032646373 74:0.002724799 75:-0.049859896 76:0.003418494 77:0.001082328 78:0.014739612 79:-0.13116184 80:0.017525446 81:0.014141928 82:-0.021984624 83:-0.02600891 84:-0.036661997 85:-0.017213706 86:-0.033723067 87:-0.021041753 88:-0.036932264 89:0.003406701 90:0.006172772 91:-0.007315617 
1 0 0 1:0.005066597 2:-0.32788858 3:0.1796512 4:-0.14272329 5:0.10068652 6:0.000711605 7:-0.018101946 8:-0.019987294 9:0.026376531 10:0.006921732 11:0.11489584 12:-0.02739712 13:-0.030575218 14:0.014829343 15:0.10769049 16:-0.022558466 17:-0.18508193 18:0.14084563 19:-0.005469884 20:-0.045367166 21:-0.010710642 22:-0.00405018 23:0.043437425 24:-0.002043941 25:0.013249227 26:0.14016318 27:0.12917338 28:-0.17043477 29:-0.029560836 30:-0.00333368 31:0.040122323 32:-0.005544623 33:0.01651969 34:-0.012470847 35:0.012417221 36:0.016345959 37:0.057266347 38:-0.19495287 39:-0.1991293 40:0.054691177 41:0.052196145 42:-0.045961961 43:-0.04246081 44:0.06675189 45:0.00540548 46:-0.016226893 47:-0.056273621 48:-0.004542851 49:-0.15286687 50:-0.045561343 51:-0.081648536 52:-0.027106287 53:-0.00963199 54:0.005741922 55:0.004718652 56:-0.032408066 57:0.004712412 58:-0.10658803 59:0.0482639 60:0.038257815 61:0.075217649 62:0.017973278 63:0.004774047 64:0.01896356 65:0.012729213 66:0.011750212 67:0.028651668 68:0.16612282 69:0.024349203 70:-0.007223213 71:-0.011706414 72:0.12250546 73:0.081993967 74:-0.041884772 75:-0.030306224 76:0.00656457 77:0.02391063 78:0.047797635 79:-0.098734252 80:0.012347715 81:0.019216787 82:-0.001229869 83:-0.067116849 84:-0.044056661 85:-0.020861002 86:-0.06062901 87:-0.063334942 88:0.001572835 89:4.0824e-05 90:0.044317063 91:-0.009902715 
1 1 1 1:0.009259354 2:-0.30756784 3:0.33362946 4:-0.066838972 5:0.051324155 6:-0.035589542 7:-0.008408655 8:0.003084015 9:-0.003101066 10:-0.000364287 11:0.053494383 12:-0.001801294 13:-0.007867302 14:0.003556399 15:0.067507893 16:-0.13284566 17:-0.11012745 18:0.11608017 19:-0.051543698 20:-0.041915543 21:0.006802261 22:-0.003112463 23:0.023193959 24:0.00303934 25:0.030675692 26:0.12401602 27:0.099596985 28:-0.1532273 29:-0.001129544 30:-0.020735607 31:0.025676662 32:0.008454511 33:0.022344872 34:0.013308929 35:0.007562299 36:-0.010181031 37:0.034234114 38:-0.078316443 39:-0.09864337 40:0.056822397 41:0.044683687 42:0.015543418 43:-0.000321902 44:0.030849369 45:0.001358637 46:-0.010012032 47:-0.046147 48:0.049820129 49:-0.12344649 50:-0.080484807 51:0.011947415 52:0.016687229 53:-0.011729863 54:-0.009630038 55:-0.005716392 56:-0.028835412 57:-0.029235084 58:-0.006448396 59:0.018559489 60:0.065404661 61:0.056176685 62:0.037209731 63:-0.008882237 64:0.024558481 65:-0.014039982 66:-0.031062763 67:0.014604343 68:0.1154665 69:0.019279823 70:0.01204151 71:-0.008059305 72:0.021584777 73:-0.014549309 74:-0.017077183 75:-0.056938872 76:-0.037727494 77:-0.013849025 78:-0.016695006 79:-0.0825269 80:0.047138039 81:-0.022613389 82:-0.023950927 83:-0.005171709 84:-0.10942385 85:-0.022575108 86:-0.044538289 87:-0.068433344 88:0.019990895 89:0.008907751 90:0.001238741 91:0.011264697 
1 1 1 1:0.002260319 2:0.12885709 3:0.23356466 4:-0.11508021 5:0.19516911 6:-0.012603327 7:0.012057855 8:0.001366658 9:-0.008592805 10:0.007980882 11:0.08150816 12:-0.025513075 13:-0.001122259 14:0.076134697 15:-0.085197464 16:-0.037296236 17:-0.12259793 18:0.1333597 19:-0.035722483 20:-0.038532976 21:-0.017875353 22:-0.003717005 23:0.062016662 24:-0.017040238 25:0.019123549 26:0.061434604 27:0.15743725 28:-0.064671196 29:0.011654265 30:-0.042151742 31:0.027301531 32:-0.013437185 33:0.03390507 34:0.005759535 35:0.006230154 36:0.013605079 37:0.041786958 38:-0.32462189 39:-0.060503665 40:0.033019885 41:0.10290763 42:-0.006773377 43:-0.01953488 44:0.045202594 45:-0.001266694 46:0.007042864 47:-0.073941298 48:-0.056530945 49:-0.07101585 50:-0.069402076 51:-0.007369871 52:0.030683206 53:-0.042777199 54:-0.000705539 55:-0.010048431 56:-0.021285174 57:-0.062403906 58:-0.017002326 59:0.009181553 60:0.092002951 61:0.040714271 62:0.025031146 63:0.009446337 64:0.030274892 65:-0.12588116 66:-0.00847493 67:0.009608759 68:0.1535458 69:0.015698649 70:0.025374388 71:-0.015871119 72:0.067393847 73:-0.092722878 74:-0.035897497 75:-0.04688143 76:0.017028995 77:0.004642707 78:-0.003366865 79:-0.10762931 80:0.0095258 81:0.032978781 82:-0.027143791 83:-0.025721924 84:-0.027432492 85:-0.027944949 86:-0.039100043 87:-0.080842875 88:-0.013453809 89:0.00834636 90:-0.071442895 91:-0.013152362 
1 0.77187261630897819 1 1:0.000780265 2:-0.42555824 3:0.27284312 4:-0.006254322 5:0.037509535 6:0.003553003 7:-0.01661762 8:-0.019474467 9:-0.011517843 10:0.006106449 11:0.083823889 12:-0.024651974 13:-0.017255943 14:0.004400484 15:0.070362702 16:-0.25458151 17:-0.076328367 18:0.10692029 19:-0.03587535 20:-0.059597943 21:0.013427413 22:-0.007329294 23:0.047566254 24:-0.018617382 25:0.02471742 26:0.101119 27:0.080441535 28:-0.14484134 29:0.10913671 30:-0.04708365 31:0.005267502 32:-0.003343081 33:0.034578003 34:2.9801e-05 35:0.004271124 36:-0.011396483 37:0.019070383 38:-0.072100542 39:-0.18139572 40:0.099205762 41:0.024989989 42:0.011777106 43:-0.023894582 44:0.038054425 45:-0.015310895 46:-0.010174962 47:-0.042017341 48:0.053435091 49:-0.14018843 50:-0.050795585 51:0.023550862 52:0.014737411 53:-0.015474128 54:-0.010946075 55:-0.004625104 56:-0.021806292 57:0.024080057 58:-0.036659747 59:-0.015219032 60:0.077614062 61:0.081709467 62:0.017538227 63:-0.010618267 64:0.040408079 65:0.007624697 66:0.040004238 67:-0.017710935 68:0.1466136 69:0.009408776 70:0.012570465 71:-0.000456365 72:0.027693966 73:0.004040614 74:0.000294206 75:-0.043500524 76:-0.047910701 77:-0.011648703 78:0.00088701 79:-0.12138553 80:-0.011260831 81:-0.036655653 82:-0.029646657 83:-0.051542588 84:-0.009959686 85:-0.013715765 86:-0.053587969 87:-0.073538713 88:0.014284577 89:0.014882796 90:0.011912356 91:0.018361047 
1 1 1 1:0.001231897 2:-0.19660103 3:0.25023183 4:-0.17900269 5:0.092574164 6:-0.082785949 7:-0.019832104 8:-0.003499561 9:0.009827464 10:0.01245353 11:0.11097476 12:0.002315397 13:0.0128083 14:0.002353478 15:-0.054910742 16:-0.10740296 17:-0.035573676 18:0.1005846 19:-0.065032803 20:-0.068576872 21:0.021450577 22:-0.006698797 23:0.065393455 24:0.007670213 25:0.043935496 26:0.12192664 27:0.071542509 28:-0.23163624 29:0.042424444 30:-0.056999158 31:-0.020677971 32:0.013063508 33:0.010663928 34:-0.010412547 35:0.022950564 36:0.023144992 37:0.016865464 38:-0.050205715 39:-0.097355373 40:0.052181583 41:0.026082361 42:-0.011072262 43:0.001245139 44:0.009094216 45:-0.004843766 46:0.009456875 47:-0.053883456 48:0.13107935 49:-0.059415076 50:-0.043335721 51:-0.00375787 52:0.026606584 53:-0.025643708 54:-0.016912647 55:-0.01917989 56:0.001479068 57:0.013867331 58:0.003469099 59:-0.00689818 60:0.082387261 61:0.05823845 62:0.041806441 63:-0.027486481 64:0.050507706 65:0.006193946 66:0.001769023 67:0.055587061 68:0.16508105 69:0.050328355 70:0.003667767 71:0.004327875 72:-0.005612263 73:-0.15748787 74:0.025840255 75:-0.027482914 76:-0.004621422 77:-0.006029801 78:0.038417108 79:-0.20741995 80:0.014103279 81:0.022622572 82:-0.028702134 83:0.086976185 84:-0.080612987 85:-0.016545253 86:-0.047901399 87:-0.1250008 88:-0.031540226 89:-0.00174514 90:-0.052635681 91:-0.00782887 
1 1 1 1:-0.004022852 2:-0.052865915 3:0.39838836 4:-0.078435317 5:0.049632549 6:0.00764739 7:-0.023551106 8:-0.019880455 9:-0.001885579 10:0.005808922 11:0.070916571 12:-0.026818918 13:-0.011761514 14:0.005343985 15:-0.010176241 16:-0.14495666 17:-0.091794506 18:0.12713841 19:-0.040189121 20:-0.040014099 21:-0.015705928 22:-0.019667007 23:0.034777172 24:-0.016943671 25:4.4528e-05 26:0.085275933 27:0.047703397 28:-0.10003719 29:-0.017511405 30:-0.023953654 31:0.01455506 32:0.014376733 33:0.012461295 34:-0.019311152 35:0.006972958 36:0.026441395 37:0.025085056 38:-0.059831254 39:-0.033726566 40:0.04128433 41:0.036160417 42:-0.018943928 43:0.00747737 44:0.021282917 45:0.01804772 46:0.01876545 47:-0.03151178 48:-0.012064365 49:-0.016544919 50:-0.04073536 51:-0.022474734 52:0.024637094 53:-0.006904339 54:-0.005794844 55:-0.005643387 56:-0.026772462 57:-0.05624567 58:-0.044415608 59:0.021545891 60:0.057521056 61:0.056165028 62:0.018504007 63:0.006482442 64:0.022174457 65:0.027864384 66:0.002460838 67:0.024094813 68:0.10561138 69:0.013034495 70:0.000561066 71:0.007354321 72:0.040267661 73:-0.043518685 74:0.017074728 75:-0.057533443 76:0.012329671 77:0.005460069 78:-0.053067926 79:-0.18214282 80:0.026824463 81:0.034435205 82:-0.021431955 83:-0.016468657 84:-0.019176655 85:-0.028209813 86:-0.034183614 87:-0.063444108 88:-0.012954428 89:0.008124204 90:-0.062371947 91:-0.013759055 
1 1 1 1:0.001536345 2:-0.27986583 3:0.48380977 4:-0.059145574 5:0.10250413 6:-0.044121981 7:-0.032847021 8:-0.020251604 9:-0.01332642 10:0.002159503 11:0.063176587 12:-0.020468269 13:-0.017147107 14:0.002903284 15:-0.073353134 16:-0.1492534 17:-0.087231971 18:0.08593931 19:-0.045964953 20:-0.033376936 21:-0.005916445 22:-0.012627297 23:0.044440657 24:-0.003018303 25:0.003314731 26:0.075045891 27:0.073866025 28:-0.048278403 29:0.012113134 30:-0.038152169 31:0.020525265 32:0.012072041 33:0.021061663 34:-0.003879232 35:0.007117996 36:0.008779307 37:0.0165086 38:-0.13308278 39:-0.049302034 40:0.04273396 41:0.04210661 42:0.006233516 43:-0.014581511 44:0.025939796 45:0.001668814 46:-0.002833932 47:-0.042415179 48:0.014092839 49:-0.065798238 50:-0.03771235 51:0.000398909 52:0.025372306 53:-0.014733373 54:0.001090551 55:0.006999592 56:-0.014711639 57:0.036218625 58:-0.003800571 59:0.016209882 60:0.083130002 61:0.038881436 62:0.001250415 63:-0.003521255 64:0.027030593 65:-0.011172836 66:-0.031197986 67:0.008017077 68:0.11170866 69:0.004755049 70:-0.00689141 71:2.8659e-05 72:0.023774 73:-0.045568082 74:-0.016481802 75:-0.04011412 76:-0.006104312 77:-0.002904899 78:-0.013848695 79:-0.081760429 80:-0.005305886 81:-0.007052099 82:-0.024673697 83:-0.045061477 84:0.028790591 85:-0.004249995 86:-0.036784705 87:-0.042415395 88:-0.013976415 89:0.010098582 90:0.03514361 91:0.001869954 
1 1 1 1:-0.000345478 2:0.031608451 3:0.49293318 4:0.058175046 5:0.17764644 6:-0.057205178 7:0.011395442 8:-0.006296991 9:-0.002075365 10:0.027511178 11:0.025270974 12:-0.023143692 13:-0.007937608 14:0.052593578 15:-0.089781366 16:-0.29698291 17:-0.15233237 18:0.078848116 19:-0.011426498 20:-0.056360133 21:-0.018063338 22:-0.022810537 23:0.048139211 24:-0.003240206 25:0.009195111 26:0.030361716 27:0.15672171 28:0.054817501 29:0.032890934 30:-0.051349055 31:-0.005652789 32:0.011139384 33:0.038042415 34:-0.01417495 35:-0.004852138 36:0.015092542 37:0.032424014 38:-0.2799488 39:-0.038460631 40:0.10158709 41:0.070199266 42:-0.009860721 43:-0.023638107 44:0.021905011 45:0.012510629 46:0.003914413 47:-0.055965524 48:-0.032499757 49:-0.16335979 50:-0.08700107 51:-0.033423174 52:0.029400762 53:-0.013325121 54:-0.003157602 55:0.003007335 56:-0.001720188 57:0.052565828 58:0.071502022 59:0.031834163 60:0.11415596 61:0.008665907 62:0.024477854 63:0.002409862 64:0.025091924 65:-0.076956294 66:-0.031245375 67:-0.021059537 68:0.10593912 69:0.03415484 70:0.000444541 71:-0.001114115 72:0.069781713 73:0.009514223 74:-0.029659135 75:-0.045326918 76:0.002797894 77:0.008592686 78:-0.083541207 79:-0.018000921 80:0.039660033 81:0.019858923 82:-0.028311491 83:-0.085018791 84:-0.083264232 85:-0.005741096 86:-0.022740614 87:-0.012231885 88:-0.019459069 89:0.000507641 90:-0.015205639 91:-0.008440123 
1 0 0 1:0.001058016 2:-0.2139377 3:0.1277132 4:-0.069412082 5:0.19498427 6:-0.051324006 7:-0.051022995 8:-0.054545823 9:0.002580155 10:0.026393363 11:0.020027896 12:-0.013977558 13:0.008975863 14:0.042101197 15:0.33268324 16:0.002487578 17:-0.25414911 18:0.17838493 19:-0.027551353 20:-0.044699632 21:-0.023813816 22:-0.062946334 23:0.052377414 24:-0.024002556 25:0.020806396 26:0.12286359 27:0.17194068 28:-0.2878263 29:-0.065794677 30:0.018593002 31:0.023760706 32:0.009173985 33:0.05102288 34:-0.032008272 35:-0.022723667 36:0.022320615 37:0.079236008 38:-0.27827439 39:-0.07230901 40:0.055430174 41:0.045578744 42:-0.049121141 43:-0.000776279 44:0.028473193 45:0.031295065 46:0.022916559 47:-0.074352242 48:-0.032605808 49:-0.11425969 50:-0.068388164 51:-0.093594097 52:0.062065069 53:0.006385958 54:-0.017883971 55:-0.011056358 56:-0.023907742 57:-0.068817228 58:-0.05813846 59:0.072373353 60:0.18596365 61:0.050518733 62:0.031243853 63:0.005611537 64:0.015401899 65:0.020766806 66:0.058411319 67:-0.070477121 68:0.15950504 69:0.028753435 70:0.018386232 71:0.005736862 72:0.13031133 73:-0.055333864 74:-0.073045798 75:-0.11211136 76:0.023450756 77:0.029582366 78:-0.084910661 79:-0.057609376 80:0.094597235 81:0.046782896 82:-0.060266592 83:-0.03213973 84:-0.09569227 85:-0.033900384 86:-0.046163719 87:-0.050645541 88:-0.063200787 89:0.01895583 90:-0.073049009 91:-0.020401141 
1 0 0 1:0.000568697 2:-0.17672736 3:0.42564842 4:-0.055216793 5:0.000593989 6:0.069454625 7:-0.01775514 8:-0.02992234 9:-0.013003498 10:-0.002448352 11:0.029451096 12:-0.031864926 13:-0.015327041 14:0.004169729 15:0.10203654 16:-0.10824931 17:-0.087268271 18:0.12246569 19:-0.012094479 20:-0.030473202 21:0.00639363 22:-0.001155972 23:0.006861777 24:0.006387523 25:0.008370099 26:0.12723951 27:0.045223217 28:-0.18823738 29:-0.014574305 30:-0.006777935 31:0.030566724 32:-0.000255791 33:0.008471174 34:0.008241345 35:0.01309862 36:0.012940826 37:0.032515418 38:-0.046129894 39:-0.22923023 40:0.068054341 41:0.019116476 42:-0.006958378 43:-0.014696199 44:0.023358064 45:0.003990284 46:-0.004827464 47:-0.026287908 48:-0.004803154 49:-0.12204903 50:-0.035675086 51:0.014455863 52:-0.017501639 53:0.004270481 54:0.006409436 55:3.3054e-05 56:-0.039457183 57:-0.030680828 58:-0.077324599 59:-0.00705154 60:0.021074936 61:0.076670945 62:0.013142587 63:-0.002116443 64:0.010773578 65:0.035894491 66:0.018674802 67:0.000256025 68:0.086552322 69:0.038639005 70:0.011052207 71:0.001113212 72:0.056452207 73:0.053206783 74:-0.03556015 75:-0.015039115 76:0.00766817 77:-0.002649947 78:0.017085293 79:-0.097547047 80:0.013675205 81:0.008472985 82:-0.003831926 83:-0.01730503 84:-0.022593778 85:-0.00128298 86:-0.035343338 87:-0.069557026 88:-0.041539337 89:-0.008251721 90:-0.019279337 91:-0.007766026 
1 0 0 1:0.003221606 2:-0.2509777 3:0.32123771 4:-0.068197154 5:0.082783066 6:0.072090127 7:-0.0415214 8:0.007598541 9:-0.00950421 10:-0.021216309 11:0.026545916 12:-0.028026283 13:-0.001178027 14:0.007704324 15:0.058986697 16:-0.11459089 17:-0.13895825 18:0.14478816 19:-0.000242387 20:-0.036916964 21:-0.004729047 22:-0.003264199 23:0.013216881 24:-0.007644312 25:0.006936355 26:0.13311677 27:0.11616682 28:-0.16251031 29:0.02783948 30:-0.002960264 31:0.041805495 32:0.01516447 33:0.034405395 34:-0.003342149 35:0.022988699 36:0.024034789 37:0.034471828 38:-0.045696873 39:-0.27618203 40:0.052591022 41:0.079749845 42:0.000337856 43:-0.00764921 44:0.049895573 45:0.003027825 46:0.017050378 47:-0.047767948 48:-0.00564418 49:-0.10151008 50:-0.064152718 51:0.000264462 52:0.01545773 53:0.00922777 54:-0.008081345 55:-0.008161465 56:-0.042691153 57:-0.003251272 58:-0.064832672 59:0.0160155 60:0.05441875 61:0.075567208 62:0.00889852 63:0.014336046 64:0.012294053 65:0.015159294 66:-0.010267967 67:-0.009973334 68:0.11488719 69:0.011634279 70:-0.000804695 71:-0.014500875 72:0.014792326 73:0.014862335 74:-0.038408313 75:-0.036768205 76:0.01674803 77:-0.002837845 78:0.003763192 79:-0.078388371 80:-0.011211874 81:0.052018516 82:-0.021661403 83:-0.012993978 84:0.02818628 85:-0.054455236 86:-0.040623523 87:-0.10708031 88:-0.00163077 89:0.005691563 90:-0.075148717 91:-0.015648805 
1 1 1 1:-0.002613205 2:-0.35755768 3:0.26656654 4:-0.084012657 5:0.13155988 6:-0.015706172 7:-0.032722842 8:-0.00185139 9:0.014152172 10:0.031190893 11:0.047161169 12:0.012695746 13:0.023116367 14:-0.007540912 15:0.10184459 16:-0.029945957 17:-0.17907789 18:0.1268523 19:-0.016326971 20:-0.026122771 21:-0.010246537 22:-0.006204831 23:0.047984563 24:-0.00367235 25:0.048273783 26:0.085750833 27:0.14348778 28:-0.14053613 29:-0.005080669 30:0.019880528 31:0.034532666 32:0.001999409 33:0.034883317 34:-0.022967191 35:-0.011708787 36:0.030131575 37:0.061980881 38:-0.11444122 39:-0.11686693 40:0.033866581 41:0.090464421 42:-0.027327145 43:0.013299705 44:0.035212498 45:-0.007965668 46:-0.003591359 47:-0.054084796 48:0.056247327 49:-0.13598584 50:-0.067921095 51:-0.036296532 52:0.034209408 53:0.033542681 54:-0.006481907 55:-0.020357389 56:-0.015817368 57:-0.051672891 58:-0.070527598 59:0.026896894 60:0.078472696 61:0.05819042 62:0.037374813 63:-0.010247933 64:0.016929431 65:-0.037373316 66:0.04477283 67:0.005386416 68:0.10250879 69:0.031547166 70:0.035920225 71:-0.012516379 72:0.058493823 73:-0.13137491 74:-0.025361191 75:-0.051133871 76:0.016312519 77:0.010958013 78:0.020319546 79:-0.16637194 80:0.026450438 81:0.007749585 82:-0.025683045 83:-0.00263653 84:-0.036463957 85:-0.000279554 86:-0.033024233 87:-0.12416997 88:-0.07581351 89:0.006807545 90:-0.039765015 91:-0.002523254 
1 1 1 1:-0.014112919 2:-0.25925469 3:0.074275322 4:-0.18755874 5:-0.06241687 6:0.021200815 7:-0.008047697 8:-0.033537656 9:-0.020917961 10:-0.003048493 11:0.008543564 12:-0.027765263 13:-0.019545406 14:0.030869091 15:0.066430226 16:-0.082265623 17:-0.15429725 18:0.11294122 19:-0.082416095 20:-0.023342354 21:-0.003702681 22:0.021836007 23:0.042316258 24:0.025277078 25:0.045699067 26:0.078477755 27:0.030250559 28:-0.004342099 29:-0.038420945 30:-0.055778857 31:-0.034118515 32:0.0377784 33:0.017711123 34:0.056161996 35:0.032078367 36:0.000510759 37:0.05262481 38:-0.053611878 39:-0.11789935 40:0.10410738 41:0.00201166 42:0.081067294 43:-0.010883905 44:-0.015408139 45:0.022726797 46:-0.003395281 47:-0.008530725 48:-0.063673913 49:-0.079004087 50:-0.053985629 51:0.07407023 52:0.06882485 53:-0.036899839 54:0.034044348 55:0.012395013 56:-0.025073327 57:-0.007297528 58:0.067054532 59:-0.00559819 60:0.080343246 61:0.061781719 62:0.031137073 63:0.009418828 64:0.043038849 65:-0.007780561 66:-0.12247009 67:0.018097045 68:0.060935024 69:0.071495518 70:0.01465258 71:0.02448298 72:-0.10817026 73:-0.037535839 74:-0.054924104 75:-0.020637013 76:-0.021181159 77:-0.033138849 78:-0.032009859 79:0.001016389 80:0.016161593 81:0.006561207 82:-0.038163256 83:-0.066505522 84:-0.079356171 85:-0.025245486 86:-0.03541838 87:-0.19939908 88:0.053507119 89:-0.020585321 90:-0.055368707 91:-0.001205298 
1 1 1 1:-0.002586063 2:-0.16538231 3:0.47159806 4:-0.043883573 5:0.09658096 6:0.007844333 7:-0.006004517 8:-0.028437877 9:-0.026614252 10:0.021424379 11:0.031473011 12:-0.025774295 13:-0.020090163 14:0.002499886 15:0.019383583 16:-0.12139363 17:-0.13545661 18:0.10353803 19:-0.0024115 20:-0.026984992 21:-0.00031123 22:-0.00414936 23:0.022391854 24:-0.003841317 25:0.010621666 26:0.05795458 27:0.046847865 28:-0.030160222 29:0.001930247 30:-0.012406253 31:-0.001052035 32:0.016748155 33:0.022409815 34:-0.005274787 35:-0.005785518 36:0.011792236 37:0.03217217 38:-0.1179357 39:-0.10680717 40:0.077901259 41:0.027892802 42:-0.009820235 43:-0.012551833 44:0.009766617 45:0.00796759 46:-0.008082661 47:-0.036493283 48:-0.011088176 49:-0.11170066 50:-0.057612434 51:0.013800731 52:0.018981073 53:-0.00897035 54:0.014708119 55:0.003735687 56:-0.019193381 57:-0.023329969 58:-0.008140661 59:-0.019572036 60:0.084331423 61:0.034281936 62:0.011526589 63:-0.004112467 64:0.007385573 65:-0.00090545 66:0.023806753 67:-0.028794959 68:0.07729622 69:0.023757232 70:0.011171047 71:0.010125646 72:-0.004899495 73:0.026157469 74:-0.044377308 75:-0.026641656 76:0.002634159 77:0.000497431 78:-0.039367743 79:-0.089637384 80:0.022725783 81:-0.006545084 82:-0.020124475 83:0.013425864 84:-0.035149869 85:0.017381895 86:-0.019831827 87:-0.027304463 88:-0.040310871 89:-0.004616773 90:0.011973749 91:-0.00258727 
1 1 1 1:0.004345618 2:0.14583741 3:0.25010356 4:0.08541467 5:0.082670651 6:-0.005525322 7:0.007299562 8:0.008238279 9:-0.009185587 10:-0.031126078 11:0.037724499 12:-0.028305963 13:-0.029552948 14:0.071440555 15:-0.037785642 16:-0.22589922 17:-0.15939957 18:0.12660323 19:-0.036148239 20:-0.039408643 21:-0.001778724 22:0.001349966 23:0.012230499 24:0.003751033 25:0.00735074 26:0.049068879 27:0.10241175 28:0.035888832 29:0.019035118 30:-0.026427595 31:0.021945978 32:0.018329002 33:0.022022298 34:0.01525089 35:0.016833328 36:-0.004907746 37:0.045949332 38:-0.25956979 39:-0.014050271 40:0.12298272 41:0.052507252 42:0.007096771 43:-0.024591064 44:0.024564682 45:0.006661342 46:-0.008440354 47:-0.05008572 48:-0.165187 49:-0.016027329 50:-0.096204445 51:-0.001305967 52:0.008789396 53:-0.043958291 54:-0.000505324 55:0.002463011 56:-0.031305928 57:0.02390058 58:0.053071026 59:0.030952025 60:0.034695569 61:0.038804315 62:0.03365013 63:-0.005059039 64:0.032958366 65:-0.029332502 66:-0.021731021 67:-0.012822317 68:0.078170635 69:0.034348298 70:0.001342642 71:-0.007065147 72:0.048410382 73:0.064349815 74:-0.068401784 75:-0.025618186 76:-0.036044866 77:-0.000733928 78:0.044402961 79:-0.007519581 80:0.042153142 81:-0.023749476 82:-0.011529963 83:-0.080015108 84:-0.043450866 85:9.5389e-05 86:-0.036747675 87:-0.046807654 88:0.013708261 89:0.003146986 90:0.081142806 91:0.012847103 
1 1 1 1:-0.019214721 2:-0.070146933 3:-0.037479252 4:-0.13659515 5:-0.061523121 6:-0.057735652 7:-0.065939367 8:-0.049058594 9:0.032817163 10:0.022339242 11:0.13874432 12:0.04117424 13:0.048722249 14:0.045187864 15:-0.19134733 16:-0.084492311 17:-0.099498294 18:0.050740711 19:-0.008292071 20:-0.029736528 21:0.008371321 22:-0.0069096 23:0.067549467 24:-0.047156397 25:0.051600736 26:0.015249599 27:0.093711227 28:-0.025195403 29:0.029618468 30:0.052768134 31:-0.01770951 32:-0.018251225 33:0.043301936 34:-0.068460613 35:-0.016095456 36:-0.016094679 37:0.008911085 38:-0.18134507 39:-0.025247863 40:0.00713913 41:0.001730009 42:-0.0834703 43:0.001097532 44:0.013357384 45:0.023377839 46:-0.019430446 47:0.005901274 48:0.028757002 49:-0.082755931 50:-0.025271425 51:-0.04767992 52:-0.006267697 53:0.049326077 54:-0.001415678 55:-0.029217796 56:0.019369006 57:0.001312537 58:0.033113744 59:-0.023848269 60:0.052286215 61:0.065656632 62:0.018027222 63:-0.013321863 64:0.014877008 65:-0.064038381 66:0.14018276 67:0.060396429 68:0.074300952 69:0.028671836 70:0.01199424 71:0.015235455 72:0.038624279 73:0.02259523 74:0.07214845 75:-0.046149969 76:0.020803262 77:0.015969789 78:-0.11141325 79:-0.060144722 80:-0.062003035 81:0.061638668 82:-0.033371706 83:-0.19340754 84:-0.080456637 85:-0.066591658 86:-0.038149338 87:0.013086757 88:-0.069933839 89:0.030118579 90:0.081469335 91:0.010061383 
0 1 1 1:-0.005183343 2:-1.0240273 3:-0.49667549 4:-0.20235391 5:-0.099074908 6:0.25720635 7:0.022293614 8:-0.017408291 9:-0.019130085 10:-0.011285694 11:0.1872455 12:-0.05978379 13:0.010921109 14:0.022429282 15:-0.059790961 16:0.31516606 17:-0.37578031 18:0.27883205 19:-0.22173321 20:-0.071790829 21:-0.04081076 22:0.025089826 23:-0.052420069 24:-0.047326185 25:0.037272424 26:0.10971195 27:0.33614194 28:-0.18302444 29:-0.28467774 30:-0.095401406 31:0.046965908 32:-0.030353129 33:0.038363032 34:-0.064867266 35:0.029146839 36:0.029917996 37:0.18715094 38:-0.051512614 39:-0.15155269 40:0.12091201 41:0.079886153 42:-0.094099522 43:-0.039808556 44:0.097230434 45:0.000694547 46:-0.042370312 47:-0.048291575 48:0.1025709 49:-0.11899976 50:-0.19091462 51:-0.003379694 52:-0.15280977 53:-0.079396509 54:-0.005812098 55:-0.052081309 56:-0.074574925 57:0.16181399 58:-0.15032783 59:-0.010018701 60:-0.007088765 61:0.28021786 62:0.10872933 63:0.037914235 64:0.11104591 65:-0.06758251 66:0.21740827 67:-0.014352295 68:0.24095933 69:-0.010488304 70:0.062988818 71:0.001742669 72:0.001417231 73:0.25644511 74:-0.30793753 75:-0.1260737 76:-0.022749852 77:0.019870456 78:0.057154339 79:-0.056527939 80:0.14590426 81:0.034335203 82:0.005692231 83:-0.11464459 84:-0.16999055 85:-0.011478087 86:-0.1011904 87:-0.03187697 88:-0.14151058 89:0.032978009 90:0.053955242 91:0.001838697 
1 1 1 1:-0.002094449 2:-0.24781619 3:0.092114918 4:-0.13919821 5:-0.030807564 6:0.17146814 7:-0.017467493 8:0.020259056 9:0.023830639 10:0.02307027 11:0.16773531 12:-0.036463443 13:0.007729923 14:0.023676163 15:-0.12354479 16:-0.010058062 17:-0.19615682 18:0.20326671 19:-0.000147155 20:-0.026878091 21:-0.009278146 22:-0.00949579 23:-0.005607485 24:-0.04779822 25:0.022534715 26:0.055216216 27:0.27347758 28:-0.089581005 29:-0.11249236 30:0.024164146 31:0.086522289 32:-0.027757609 33:0.014188693 34:-0.068721414 35:0.021012891 36:-0.001367396 37:0.08824417 38:-0.21140297 39:-0.14462358 40:0.017791348 41:0.069367588 42:-0.09905418 43:0.014838104 44:0.09066236 45:0.028058996 46:0.009825446 47:-0.035079535 48:-0.11316714 49:-0.16798756 50:-0.12312875 51:-0.028485689 52:-0.036981735 53:0.037110478 54:-0.000915191 55:-0.024514904 56:-0.062976226 57:-0.024371902 58:-0.041835211 59:8.0182e-05 60:0.045216493 61:0.23110087 62:0.020772189 63:-0.011259198 64:0.018246876 65:-0.030752974 66:0.14256233 67:0.0003796 68:0.19688025 69:-0.006969654 70:0.049354877 71:-0.021472296 72:0.13314211 73:0.072536044 74:-0.12129497 75:-0.08197362 76:-0.020844489 77:0.01076052 78:-0.035042424 79:-0.081222393 80:0.034396078 81:-0.008241176 82:-0.007678022 83:-0.16775045 84:-0.030431967 85:-0.000893461 86:-0.080805577 87:-0.033903051 88:-0.090892643 89:0.012261822 90:0.007216326 91:0.015843924 
1 1 1 1:-0.001313803 2:-0.27223474 3:0.089929521 4:-0.001882811 5:0.013144149 6:0.056875657 7:0.027394252 8:0.09172006 9:-0.014559603 10:0.007735673 11:0.19223623 12:-0.0355101 13:-0.00393966 14:0.024211612 15:-0.18695037 16:0.010493562 17:-0.27339459 18:0.12006366 19:-0.038904261 20:0.024619093 21:-0.020264614 22:0.010573626 23:0.007076239 24:0.003593448 25:0.018890606 26:0.081474662 27:0.38851038 28:-0.14974421 29:-0.11316925 30:0.027244085 31:0.076545075 32:0.023201993 33:0.073436119 34:-0.026102057 35:0.035925608 36:-0.006963317 37:0.12200426 38:-0.17823905 39:-0.114208 40:0.0201052 41:0.13660416 42:-0.048164986 43:0.008889846 44:0.07890404 45:0.023271188 46:-0.021147655 47:-0.030881263 48:0.035170779 49:-0.12205228 50:-0.20257401 51:-0.00612048 52:-0.046680354 53:-0.017646529 54:-0.020967398 55:-0.017836779 56:-0.03516734 57:-0.027185278 58:-0.065956727 59:0.030680493 60:0.057995893 61:0.16020408 62:0.021143408 63:-0.012817845 64:0.024519263 65:-0.1697467 66:0.067654796 67:-0.037097406 68:0.14095679 69:0.019313889 70:0.013643678 71:-0.034181852 72:0.053602431 73:0.10086383 74:-0.12810814 75:-0.057660099 76:-0.018241983 77:0.011826166 78:-0.021583162 79:-0.11875112 80:0.06243331 81:-0.003340112 82:-0.019976657 83:-0.068556391 84:-0.090357669 85:-0.007909454 86:-0.079310566 87:-0.068756223 88:-0.015836243 89:0.00592447 90:0.045771774 91:0.009354643 
1 1 1 1:-0.007413695 2:-0.28614339 3:0.23958841 4:-0.14038296 5:0.025296675 6:-0.069495723 7:-0.036524653 8:-0.000611514 9:-0.006272678 10:0.011988249 11:0.07310351 12:-0.006570311 13:0.005732935 14:0.021138838 15:-0.073291257 16:0.01596429 17:-0.13194044 18:0.10288574 19:0.0021716 20:0.01378515 21:-0.049394533 22:-0.008599672 23:0.030990215 24:-0.043219499 25:0.009411041 26:0.12132712 27:0.22836345 28:-0.27875093 29:-0.030251613 30:0.087956674 31:0.047751758 32:-0.01874299 33:0.041832522 34:-0.025666524 35:-0.008860158 36:0.005603933 37:0.036209915 38:-0.17256916 39:-0.076611511 40:-0.01436903 41:0.08297728 42:-0.060347326 43:0.010981023 44:0.058003195 45:0.024191942 46:0.00238532 47:-0.027620073 48:-0.010085776 49:-0.12676108 50:-0.048786446 51:-0.05379691 52:0.012298205 53:0.021763356 54:-0.017704275 55:-0.023787513 56:-0.006684176 57:-0.025733346 58:-0.17571569 59:0.016731897 60:0.065349184 61:0.039654501 62:-0.008972914 63:0.030147305 64:0.001012659 65:-0.066430941 66:0.092298672 67:0.023832416 68:0.087084405 69:0.004517914 70:0.035968591 71:-0.010401363 72:0.088369288 73:-0.038631834 74:0.007350949 75:-0.062163372 76:0.021842424 77:0.027169194 78:0.026960578 79:-0.14475049 80:-0.014565567 81:0.0708922 82:-0.028967675 83:-0.011534697 84:0.030213708 85:-0.039560374 86:-0.046481922 87:-0.068644002 88:-0.023370434 89:0.018211992 90:-0.037433535 91:-0.013626633 
1 1 1 1:-0.007707688 2:-0.12985031 3:0.32605976 4:-0.03835319 5:0.16224927 6:0.051104572 7:0.016434072 8:0.047246501 9:0.005064932 10:-0.000189308 11:0.12341667 12:-0.040812727 13:0.002001238 14:0.014383882 15:-0.38101897 16:-0.032779239 17:-0.26128805 18:0.18199261 19:-0.043094028 20:-0.013423293 21:-0.047832929 22:-0.012848148 23:0.009561005 24:-0.016791537 25:-0.006836011 26:0.041474435 27:0.25840774 28:-0.083938219 29:-0.12179196 30:-0.01481807 31:0.096534267 32:-0.000197616 33:0.03035545 34:-0.03886009 35:0.018085761 36:0.003505517 37:0.077855498 38:-0.20090544 39:-0.061782695 40:0.030316597 41:0.14339907 42:-0.043883141 43:0.003020307 44:0.084664233 45:0.020755485 46:0.004467564 47:-0.049169272 48:0.000688105 49:-0.096565343 50:-0.13286598 51:-0.055320237 52:0.001631006 53:-0.050138049 54:-0.011049815 55:-0.011663019 56:-0.029796783 57:0.023877062 58:-0.10540763 59:0.025239835 60:0.05956918 61:0.10400476 62:-0.002077494 63:0.020022398 64:0.033118755 65:-0.081438445 66:0.089990728 67:-0.024757784 68:0.17601043 69:0.007001815 70:0.045013692 71:-0.020297816 72:0.028343305 73:0.038418118 74:-0.10873022 75:-0.044380836 76:0.01347428 77:0.012740936 78:-0.042765532 79:-0.096110582 80:0.031491641 81:0.019807737 82:-0.010598446 83:-0.007067489 84:0.019931355 85:-0.000863945 86:-0.047636926 87:-0.063944824 88:-0.087435395 89:0.001858051 90:0.03018285 91:-0.001181253 
1 1 1 1:-0.01114434 2:0.11838406 3:0.1860366 4:-0.10212132 5:0.14243491 6:-0.003116212 7:-0.00312521 8:0.046575554 9:0.019673305 10:0.012393381 11:0.13159508 12:-0.02513022 13:0.015019791 14:0.032943603 15:-0.19646063 16:-0.10430758 17:-0.18170564 18:0.16594684 19:-0.05084715 20:-0.038204901 21:-0.038421832 22:0.001164199 23:0.010959675 24:-0.039953697 25:0.022250742 26:-0.014153462 27:0.23599125 28:-0.062543221 29:-0.075612895 30:-0.015737845 31:0.070536472 32:-0.009862047 33:0.032548752 34:-0.05806255 35:0.017034413 36:-0.019756606 37:0.07262823 38:-0.30028454 39:0.043894656 40:0.032072648 41:0.12171177 42:-0.069348268 43:-0.027017761 44:0.10697817 45:0.014310129 46:-0.022003142 47:-0.037856251 48:-0.058143366 49:-0.04042409 50:-0.094642743 51:-0.076140642 52:-0.022447363 53:-0.043858271 54:-0.017770754 55:-0.017886428 56:-0.014313275 57:-0.013348266 58:-0.081672728 59:0.002322424 60:0.050266705 61:0.10370631 62:0.031850375 63:0.002562805 64:0.031876374 65:-0.11044297 66:0.093767807 67:-0.031013114 68:0.20592874 69:0.016850976 70:0.050096288 71:-0.012055269 72:0.13796985 73:0.14045586 74:-0.097213991 75:-0.055978123 76:-0.011311244 77:0.019143673 78:-0.048959333 79:0.003954331 80:0.01249488 81:0.005123427 82:-0.01413032 83:-0.13532136 84:0.018385993 85:0.009144585 86:-0.048958823 87:-0.075877234 88:-0.060285956 89:0.001885711 90:-0.045909341 91:0.009963665 
1 1 1 1:-0.005710511 2:-0.14914961 3:-0.2893177 4:-0.1506182 5:0.29455507 6:0.075426809 7:0.063559718 8:0.024954008 9:0.016540529 10:-0.028842773 11:0.22946847 12:-0.022164438 13:-0.00388052 14:-0.003358481 15:-0.007225596 16:0.033003848 17:-0.29469606 18:0.29386935 19:-0.14028113 20:-0.089279167 21:-0.020903273 22:0.000664716 23:-0.016850479 24:-0.038983706 25:0.01563335 26:0.025908884 27:0.22606154 28:-0.10373391 29:-0.12522285 30:-0.10671756 31:0.099429689 32:0.0015262 33:0.023644723 34:-0.035718754 35:-0.001556072 36:0.028909938 37:0.086403936 38:-0.28895286 39:0.039747469 40:0.078692332 41:0.15951949 42:-0.054254849 43:-0.003308791 44:0.12475456 45:0.008978521 46:-0.005811679 47:-0.076805793 48:-0.025085822 49:-0.10641946 50:-0.096336961 51:-0.074439272 52:-0.031583123 53:-0.15232077 54:-0.02483448 55:-0.035849139 56:-0.04548572 57:-0.025321322 58:-0.10779287 59:0.031467129 60:0.013878314 61:0.16205822 62:0.032686446 63:0.011615151 64:0.085816033 65:-0.071532734 66:0.077009849 67:0.018244572 68:0.26334527 69:0.018352758 70:0.034826461 71:-0.015475504 72:0.072344005 73:0.027025156 74:-0.12119201 75:-0.087181725 76:0.029203873 77:0.010289006 78:0.045299403 79:-0.009791289 80:0.050810013 81:0.070254438 82:0.004133614 83:0.028839653 84:-0.048849072 85:-0.020464113 86:-0.073612899 87:-0.043710817 88:-0.061477147 89:0.006629849 90:-0.03468037 91:-0.005843271 
1 0 0 1:0.001132796 2:-0.29970959 3:0.28868121 4:-0.15533567 5:0.085406192 6:-0.025772752 7:0.00646162 8:0.018669482 9:0.067807131 10:-0.002115861 11:0.13131817 12:-0.031657204 13:0.019030446 14:0.015594371 15:-0.026439212 16:0.057806794 17:-0.16307655 18:0.13713692 19:-0.014574514 20:-0.008154753 21:-0.039619211 22:0.015211248 23:0.024969134 24:-0.024210909 25:-0.004007047 26:0.072450392 27:0.15009096 28:-0.23218159 29:-0.090332933 30:0.044552051 31:0.065265357 32:-0.046553977 33:0.045884557 34:-0.041931704 35:-0.001727814 36:0.001643476 37:0.080227785 38:-0.064937361 39:-0.067687958 40:0.035108645 41:0.096608736 42:-0.04276691 43:-0.01718488 44:0.085149892 45:0.01397494 46:0.002638026 47:-0.041568004 48:-0.03428809 49:-0.1823694 50:-0.076339975 51:-0.085885771 52:0.03978923 53:-0.005890401 54:-0.021928716 55:-0.046011794 56:-0.020254359 57:-0.0109955 58:-0.1780033 59:-0.018548666 60:0.053708587 61:0.077483676 62:0.004124064 63:0.030826837 64:0.029492086 65:-0.046591602 66:0.19402351 67:-0.035870072 68:0.14264846 69:0.002413757 70:0.053159595 71:-0.019369477 72:-0.033204067 73:0.043154884 74:-0.083766788 75:-0.067551792 76:0.014106878 77:0.006737133 78:-0.036462933 79:-0.14460851 80:0.050697781 81:0.071011692 82:-0.034631521 83:0.01279944 84:-0.026640443 85:-0.021640828 86:-0.058138561 87:-0.026828939 88:-0.069387086 89:0.01594083 90:-0.047681212 91:-0.002973597 
0 0 1 1:-0.00733205 2:-0.37086016 3:0.10158202 4:-0.13089335 5:0.26912951 6:-0.096699923 7:0.03056542 8:0.080995567 9:0.089565538 10:-0.020952545 11:0.060193032 12:-0.027957976 13:0.008549456 14:-0.034270074 15:-0.080021657 16:0.069039732 17:-0.27854297 18:0.13168109 19:-0.034919124 20:0.013697638 21:-0.090473898 22:-0.006609168 23:0.005995097 24:-0.032594908 25:-0.006953148 26:0.092956871 27:0.13647027 28:-0.33338234 29:-0.090967737 30:0.096245028 31:0.090035155 32:-0.06282708 33:0.029194957 34:-0.057718918 35:0.013243536 36:0.016658848 37:0.096246056 38:-0.14494577 39:0.038367145 40:0.049408466 41:0.20562558 42:-0.068876587 43:-0.031213265 44:0.092537455 45:0.039520543 46:-0.010187397 47:-0.072345808 48:0.17511813 49:-0.17212068 50:-0.11320593 51:-0.1947306 52:-0.018620478 53:-0.020284923 54:-0.030738458 55:-0.055220887 56:-0.00104646 57:-0.082121186 58:-0.18308341 59:0.051813856 60:0.053923804 61:0.027521854 62:0.020920638 63:0.052937869 64:0.017729931 65:-0.023182491 66:0.23922439 67:-0.005211692 68:0.15384744 69:0.01739187 70:0.064995863 71:-0.042517994 72:0.10965639 73:0.055879705 74:-0.10952458 75:-0.095045611 76:0.026629323 77:0.042688146 78:0.053932361 79:-0.042657021 80:0.055377267 81:0.11068758 82:-0.013059721 83:0.099789828 84:-0.016651092 85:-0.012883372 86:-0.042432263 87:-0.13008203 88:-0.098861739 89:0.014555676 90:-0.021434803 91:-0.021566914 
1 0 0 1:0.001384413 2:-0.11414414 3:0.41125238 4:-0.076794513 5:0.23431209 6:0.002286574 7:-0.007856435 8:0.071711637 9:0.028198918 10:0.020175653 11:0.075121082 12:0.005756796 13:-0.010183731 14:0.010536315 15:-0.28004166 16:-0.080890164 17:-0.20125967 18:0.16971998 19:0.006809332 20:0.012330355 21:-0.045564119 22:-0.002959255 23:0.027188919 24:-0.034406044 25:0.00046361 26:0.060822949 27:0.20100813 28:-0.10475172 29:-0.052132703 30:0.043034244 31:0.10587804 32:-0.026261395 33:0.042041074 34:-0.037219118 35:-0.011875194 36:0.018464316 37:0.054860998 38:-0.21649388 39:-0.088407874 40:0.015278017 41:0.16699648 42:-0.055417847 43:-0.025311677 44:0.092040285 45:0.019133558 46:-0.010950436 47:-0.066817984 48:0.004240652 49:-0.11052861 50:-0.075642101 51:-0.075709984 52:0.007597913 53:0.011756243 54:-0.040438905 55:-0.022343045 56:-0.028283432 57:-0.021490274 58:-0.16614318 59:0.022472795 60:0.085296094 61:0.068375655 62:0.00595443 63:0.023008537 64:0.004688124 65:-0.06005317 66:0.10485802 67:-0.031771615 68:0.16025654 69:-0.010225048 70:0.027765678 71:-0.038585771 72:0.069149554 73:0.096259795 74:-0.054405287 75:-0.079910249 76:0.020398293 77:0.017928276 78:-0.024513656 79:-0.088025637 80:0.034185905 81:0.039179575 82:-0.021391131 83:-1.606e-06 84:0.028919846 85:-0.004003755 86:-0.042666096 87:-0.05473537 88:-0.075649813 89:0.019168276 90:-0.013004092 91:-0.007419433 
1 1 1 1:-0.008912949 2:-0.062095836 3:0.31855375 4:0.028167477 5:0.050404504 6:-0.011876528 7:-0.026186327 8:0.024101498 9:0.008046702 10:-0.028150197 11:0.035772674 12:-0.002841095 13:0.015754143 14:0.035755318 15:-0.13608095 16:-0.27607408 17:-0.15289052 18:0.081432603 19:-0.069561064 20:-0.033710562 21:0.002059288 22:0.011659475 23:-0.012516146 24:0.000826859 25:0.030153004 26:0.068142757 27:0.087821461 28:0.000149405 29:0.045612779 30:-0.00188922 31:0.018797286 32:-0.018030385 33:0.010988456 34:0.038452774 35:0.012111579 36:0.014725712 37:0.030617556 38:-0.099140219 39:-0.13648002 40:0.015039891 41:0.071256854 42:0.008408216 43:-0.026656672 44:0.01269649 45:-0.016430767 46:-0.020555375 47:-0.018288435 48:-0.07795269 49:0.035413262 50:-0.089655615 51:-0.011812743 52:-0.027045101 53:-0.045190144 54:-0.024150321 55:-0.02480942 56:-0.006551841 57:0.110557 58:-0.005871736 59:0.006142645 60:-0.004429502 61:0.055709295 62:0.020891054 63:-0.008279549 64:0.038866509 65:-0.01628674 66:-0.053695627 67:-0.015173302 68:0.032101497 69:0.036100131 70:0.010797666 71:-0.008065699 72:-0.017620802 73:0.085757002 74:0.041960027 75:-0.018144106 76:0.024528474 77:-0.009503485 78:0.030157978 79:-0.11169878 80:0.031283405 81:0.042333569 82:-0.003157558 83:-0.091425568 84:-0.005873987 85:0.031818107 86:-0.026675619 87:-0.075099051 88:-0.011377222 89:0.004937347 90:-0.022738634 91:-0.006411394 
1 1 1 1:-0.003908032 2:-0.37182671 3:0.27142677 4:-0.17993453 5:0.10338907 6:-0.020833852 7:-0.028857542 8:0.014272585 9:-0.013352157 10:0.005885261 11:0.040487714 12:-0.011609253 13:0.000519539 14:-0.016657852 15:0.031906851 16:-0.0138822 17:-0.072314627 18:0.13455349 19:-0.057779033 20:-0.041824427 21:0.006045351 22:0.00890125 23:0.01758098 24:-0.010453925 25:0.028973959 26:0.096370071 27:0.062017202 28:-0.19210622 29:0.028733885 30:-0.037883334 31:0.022030622 32:-0.002695384 33:0.01492877 34:-0.004748163 35:0.005140841 36:0.033972885 37:0.031486511 38:-0.094490252 39:-0.18776494 40:0.02732975 41:0.075624004 42:-0.023603221 43:-0.036548097 44:0.024287648 45:-0.011675145 46:-0.007244177 47:-0.055310655 48:0.019977365 49:-0.042961869 50:-0.041610256 51:0.006737167 52:-0.007830692 53:-0.036803674 54:-0.017572826 55:-0.019698197 56:-0.015284216 57:0.013821462 58:-0.040134691 59:-0.021311255 60:0.036762141 61:0.051345758 62:0.027213467 63:-0.014022715 64:0.040335052 65:0.041516267 66:0.090543337 67:0.000843983 68:0.10063941 69:0.020558575 70:0.016910195 71:-0.013466772 72:0.049973588 73:0.055721838 74:-0.009383476 75:-0.06018902 76:0.033922318 77:0.000293071 78:0.069898866 79:-0.10002733 80:0.01230918 81:0.028154854 82:-0.012138002 83:0.036156088 84:-0.01002831 85:3.5943e-05 86:-0.032340635 87:-0.10726916 88:-0.095808133 89:0.013590166 90:-0.05185673 91:-0.007309272 
1 0 1 1:0.002461099 2:0.094523735 3:0.3681272 4:-0.07662566 5:0.099842019 6:-0.011142571 7:-0.023889249 8:-0.027682738 9:-0.015333117 10:0.036062174 11:0.014026321 12:-0.011065839 13:-0.017630002 14:0.070170507 15:-0.01153218 16:-0.15741754 17:-0.13697617 18:0.11467755 19:-0.027608359 20:-0.041108735 21:0.007212793 22:-0.001522112 23:0.045219619 24:0.003010989 25:0.009864783 26:0.067366824 27:0.16193441 28:-0.056655865 29:-0.023942569 30:-0.048523147 31:0.01354224 32:-0.001942626 33:0.02285891 34:0.002156009 35:-0.003007359 36:0.024514526 37:0.052020676 38:-0.26498839 39:-0.12142101 40:0.063249536 41:0.033784859 42:-0.010386508 43:-0.038315233 44:-0.0018615 45:0.001998565 46:0.00360899 47:-0.053197477 48:-0.089117728 49:-0.13957095 50:-0.056507453 51:0.017707078 52:0.033903819 53:-0.002160315 54:-0.005782283 55:-0.005839194 56:-0.024813026 57:0.08619608 58:-0.001820525 59:-0.022827851 60:0.11186434 61:0.027735693 62:0.009236563 63:-0.013055373 64:0.031370535 65:-0.035510611 66:0.058220427 67:-0.015646325 68:0.076813936 69:0.003132863 70:0.010100861 71:0.005825597 72:-0.006817397 73:0.009131797 74:-0.005690449 75:-0.057759039 76:0.009061073 77:-0.001490527 78:-0.10318994 79:-0.06491363 80:0.024042137 81:0.010223375 82:-0.036517195 83:-0.08322484 84:0.009710128 85:0.014835944 86:-0.021592259 87:-0.015812721 88:-0.058108777 89:0.014088561 90:-0.017590677 91:-0.002959125 
1 0 1 1:-0.000998879 2:-0.41247067 3:0.33079755 4:-0.10227471 5:0.083644025 6:-0.033012703 7:-0.037470892 8:-0.033996213 9:-0.012532435 10:0.034429017 11:0.038666096 12:-0.017329957 13:-0.012635675 14:-0.035875726 15:0.09513443 16:-0.10219141 17:-0.092021123 18:0.11028739 19:-0.051477745 20:-0.024734272 21:0.00885553 22:-0.006429403 23:0.057581246 24:-0.003411243 25:0.015618263 26:0.13261733 27:-0.004290058 28:-0.22370598 29:0.009753695 30:-0.036419228 31:0.006217069 32:0.012267572 33:0.027073011 34:0.013039395 35:0.004521957 36:0.004628194 37:0.030002013 38:-0.040094167 39:-0.19273826 40:0.043330275 41:0.021221846 42:0.009866754 43:-0.031041656 44:0.013366873 45:-0.003272688 46:-0.002369265 47:-0.044457383 48:0.083434843 49:-0.072126642 50:-0.016946767 51:0.012992259 52:0.025441887 53:-0.018068679 54:0.00031808 55:-0.000615702 56:-0.016639242 57:0.012784254 58:-0.091016576 59:0.022461561 60:0.11201196 61:0.03753214 62:0.014089803 63:-0.010739266 64:0.029530451 65:0.037292928 66:-0.045381203 67:-0.001525256 68:0.11471377 69:0.0035751 70:0.003698559 71:0.003175694 72:0.024193769 73:0.005055284 74:-0.023387736 75:-0.064427137 76:-0.004924794 77:-0.009721808 78:-0.017863775 79:-0.063056059 80:-0.00515275 81:0.00124606 82:-0.033591244 83:-0.03167697 84:0.021651009 85:-0.010767621 86:-0.035630606 87:-0.077096589 88:-0.011412351 89:0.013400998 90:0.00393546 91:0.004740397 
1 1 1 1:0.003737933 2:-0.12689959 3:0.28739148 4:-0.072400875 5:0.28321216 6:-0.029818656 7:0.015856555 8:-0.027902739 9:-0.002822754 10:0.063540138 11:0.019501451 12:-0.022320984 13:-0.036763888 14:0.050572306 15:-0.10275202 16:-0.080490142 17:-0.23007823 18:0.17327189 19:-0.078622177 20:-0.039716706 21:-0.00101147 22:0.022394391 23:0.066446908 24:0.00162998 25:0.007704852 26:0.036765542 27:0.17052136 28:0.019160628 29:-0.041067153 30:-0.13419928 31:-0.001492825 32:-0.000307075 33:0.032017212 34:0.032372702 35:-0.013044743 36:0.012874668 37:0.062170751 38:-0.29764229 39:-0.035104416 40:0.073720597 41:0.04261988 42:0.031186476 43:-0.086552538 44:0.007940197 45:0.000558753 46:0.002977528 47:-0.089279346 48:-0.082553715 49:-0.0283278 50:-0.059828639 51:0.037148494 52:0.073980801 53:-0.060154319 54:0.008660485 55:0.019569403 56:-0.0252489 57:0.088314079 58:0.057126559 59:0.02533208 60:0.18744989 61:0.021437418 62:0.032588255 63:-0.006682125 64:0.060157627 65:-0.022380996 66:-0.064732142 67:-0.028427958 68:0.11878575 69:0.011166847 70:0.001064777 71:0.01056156 72:-0.016191872 73:0.028603517 74:-0.051979709 75:-0.089551464 76:-0.000254978 77:-0.01543118 78:-0.063506454 79:0.022730555 80:0.038993195 81:-0.005782671 82:-0.057943664 83:-0.055698127 84:-0.022488352 85:0.015712461 86:-0.030345513 87:-0.061399162 88:-0.005841392 89:0.014485777 90:0.00876407 91:-0.001396561 
1 0 1 1:0.003772837 2:-0.32219151 3:0.13546176 4:-0.099353828 5:0.083248831 6:-0.018333344 7:0.041638494 8:0.001735265 9:0.001512468 10:0.048752952 11:0.16601601 12:-0.038985658 13:-0.038602162 14:0.020273263 15:0.075020924 16:-0.010603111 17:-0.13445966 18:0.17943136 19:-0.061993636 20:0.0221502 21:-0.011707136 22:0.037015036 23:0.097547203 24:0.016813453 25:0.003752966 26:0.17602216 27:0.22195162 28:-0.34804618 29:-0.076825276 30:0.02456196 31:0.060015529 32:-0.016127709 33:0.034748394 34:0.048761059 35:0.048534039 36:-0.000107029 37:0.073050089 38:-0.13942739 39:-0.11209245 40:0.007723486 41:0.072365403 42:-0.020589538 43:-0.03885258 44:0.037308007 45:0.036881492 46:0.004942413 47:-0.053533051 48:0.00412134 49:0.032159828 50:-0.093624741 51:-0.021308659 52:-0.009508275 53:-0.088959225 54:0.006697606 55:0.007844101 56:-0.038337275 57:-0.12407543 58:-0.13684437 59:-0.027680697 60:0.030211028 61:0.054516405 62:-0.003706528 63:-0.020720217 64:0.031559877 65:-0.12151223 66:0.006626206 67:-0.017256904 68:0.10917699 69:0.013156315 70:-0.012880574 71:-0.013723953 72:0.03700285 73:-0.073367469 74:-0.077975325 75:-0.069495007 76:-0.028749499 77:-0.001748054 78:0.020363808 79:-0.19828816 80:0.007730683 81:-0.004535848 82:-0.027000893 83:0.000836102 84:0.014413432 85:0.028329713 86:-0.066233523 87:-0.081818327 88:0.026118288 89:0.001275441 90:0.046270423 91:0.009018496 
1 1 1 1:-0.001840479 2:-0.06225631 3:0.39388749 4:-0.022681633 5:0.060402758 6:-0.004373938 7:0.02354099 8:-0.014877915 9:-0.012951921 10:0.053866915 11:0.046293009 12:-0.008404865 13:-0.005101329 14:-0.004213762 15:-0.24764036 16:-0.23417501 17:-0.081384778 18:0.11621781 19:-0.056545481 20:-0.024900496 21:0.009491004 22:0.039801605 23:0.04398305 24:-0.013912649 25:0.015215407 26:0.07348337 27:0.21966687 28:-0.14585175 29:0.019096447 30:-0.060100373 31:-0.002543096 32:-0.011513888 33:0.035080899 34:0.040887613 35:-0.002787325 36:-0.000807823 37:0.038019929 38:-0.082339659 39:-0.098780252 40:0.040846471 41:0.027944444 42:0.00453588 43:-0.045942836 44:-0.011147656 45:0.001447432 46:0.000849273 47:-0.043225128 48:0.076769747 49:0.00384286 50:-0.079556748 51:0.055575341 52:6.5175e-05 53:-0.046732903 54:0.000915053 55:-0.005584874 56:-0.016852451 57:-0.006005771 58:0.047404911 59:-0.035607513 60:0.072781675 61:0.034897149 62:0.043008864 63:0.004729399 64:0.043896627 65:-0.068657212 66:0.016942266 67:-0.017760925 68:0.075596459 69:0.006626511 70:0.023101939 71:0.007069899 72:-0.025528485 73:0.033057261 74:0.037157346 75:-0.074360825 76:-0.005633714 77:-0.016389081 78:-0.025227033 79:-0.13704649 80:0.030473465 81:0.010948712 82:-0.029920466 83:0.063845955 84:-0.017836256 85:-0.002247031 86:-0.029275429 87:-0.071971014 88:0.025410153 89:0.01488102 90:-0.041214347 91:0.003087435 
1 1 1 1:0.003677525 2:-0.2435818 3:0.32885244 4:-0.078510068 5:0.065036856 6:-0.018576825 7:-0.022050291 8:-0.02386426 9:0.007071259 10:0.032616433 11:0.073363028 12:-0.011875192 13:-0.026719589 14:0.012079746 15:-0.044343792 16:-0.13730472 17:-0.12533572 18:0.12366699 19:-0.048529997 20:-0.027044576 21:-0.004008143 22:0.019878255 23:0.05903611 24:-0.00100633 25:0.014371628 26:0.087327406 27:0.13402076 28:-0.1121432 29:-0.010652962 30:-9.7394e-05 31:0.022481278 32:-0.014403948 33:0.023332709 34:0.019825237 35:0.016335268 36:0.013499195 37:0.037332989 38:-0.16165894 39:-0.049143594 40:0.036312874 41:0.04129909 42:-0.00952284 43:-0.049736932 44:0.030486124 45:-0.003830877 46:0.000261263 47:-0.045252629 48:0.015880691 49:-0.066992886 50:-0.044266157 51:-0.012687248 52:0.001970643 53:-0.024990505 54:-0.00277141 55:0.007326387 56:-0.028084824 57:-0.016919248 58:-0.061930552 59:0.018203091 60:0.044127658 61:0.0356084 62:0.025413552 63:-0.008961041 64:0.031143311 65:-0.009082212 66:-0.018916601 67:-0.008480106 68:0.087229334 69:-0.002907231 70:-0.006053913 71:0.00211576 72:0.097374573 73:0.039858658 74:-0.01699738 75:-0.053661052 76:-0.013188695 77:0.002193707 78:0.057094831 79:-0.08671169 80:0.027413098 81:-0.007130395 82:-0.024608957 83:-0.02291395 84:-0.024310969 85:0.012130859 86:-0.045778807 87:-0.099787913 88:0.026171101 89:0.010617552 90:0.017548384 91:-0.001903365 
1 0 1 1:0.007448126 2:-0.37577495 3:0.20251711 4:-0.039689384 5:0.15857987 6:0.002212335 7:-0.034162685 8:-0.012462538 9:0.027805507 10:0.041801684 11:0.048022039 12:0.054964688 13:0.015275464 14:0.017816959 15:0.001146333 16:-0.23332798 17:-0.039218221 18:0.15360437 19:-0.039034486 20:-0.04998358 21:-0.020314982 22:0.049511015 23:0.032120053 24:-0.029458668 25:0.078177214 26:0.12854864 27:0.038357478 28:-0.15656206 29:0.10046681 30:-0.016364759 31:0.043917291 32:0.010502985 33:0.018692484 34:0.024974812 35:-0.0352934 36:0.018069848 37:0.01969943 38:-0.2151124 39:-0.18887652 40:0.11290399 41:0.07707689 42:0.018367464 43:-0.037845369 44:0.059170298 45:-0.017889375 46:-0.034139555 47:-0.055746619 48:-0.026175523 49:-0.077998199 50:-0.048088167 51:-0.049773637 52:-0.002774244 53:-0.008659868 54:-0.021255894 55:-0.008147453 56:-0.03767173 57:0.036090814 58:-0.089294069 59:-0.003965946 60:-0.021838034 61:0.081311069 62:0.060198531 63:-0.008563264 64:0.036138564 65:-0.021593001 66:-0.086650789 67:-0.025639309 68:0.14321093 69:0.034250986 70:0.029521523 71:-0.008215114 72:0.057303712 73:0.0202523 74:0.001855464 75:-0.011585577 76:0.022748666 77:-0.00316848 78:0.072083406 79:-0.088011719 80:0.099806011 81:0.058019843 82:-0.018899644 83:-0.082752749 84:-0.03772112 85:0.072416052 86:-0.058014326 87:-0.12696464 88:-0.031142894 89:0.023199111 90:-0.040185552 91:0.001569274 
1 0 1 1:0.012530101 2:-0.14692458 3:0.29782569 4:-0.027028788 5:0.17515208 6:-0.051443931 7:-0.032371879 8:0.011733403 9:0.012224738 10:0.080770493 11:0.016851593 12:0.026634919 13:0.030077279 14:0.038049851 15:-0.011457786 16:-0.26013371 17:0.019380916 18:0.14637534 19:-0.030131809 20:-0.050993055 21:0.032782122 22:0.059806876 23:0.037666548 24:-0.037914623 25:0.063851602 26:0.10985708 27:0.054586995 28:-0.25611898 29:0.082042538 30:0.009671804 31:0.008231064 32:-0.012106077 33:0.083236739 34:0.031355735 35:-0.05830539 36:-0.009280065 37:0.00239364 38:-0.24052918 39:-0.068234481 40:0.073812604 41:0.06141885 42:-0.016505571 43:-0.024289995 44:0.047952648 45:-0.041378643 46:-0.058970667 47:-0.074854769 48:-0.026700212 49:-0.070806019 50:-0.0777964 51:0.002537169 52:-0.022686698 53:-0.004675204 54:-0.04960477 55:-0.038737454 56:-0.022612978 57:-0.000379676 58:-0.019488011 59:-0.070662722 60:0.044783562 61:0.00762753 62:0.032011658 63:-0.038013197 64:0.026501734 65:-0.043806411 66:0.056622576 67:-0.065516084 68:0.10544985 69:0.049816996 70:0.012192166 71:-0.011490606 72:0.035568196 73:0.084527321 74:0.008794693 75:-0.041638818 76:0.028363639 77:-0.010797988 78:0.002980337 79:-0.071942084 80:0.069586135 81:0.045134742 82:-0.031685837 83:-0.009672002 84:-0.030426674 85:0.057779621 86:-0.036995456 87:-0.066429481 88:-0.021363895 89:0.021112595 90:-0.053350557 91:-0.002472758 
1 1 1 1:-0.014321859 2:-0.71058136 3:-0.12235351 4:-0.17139585 5:-0.070831478 6:-0.094556876 7:-0.051553637 8:-0.021573743 9:0.001871776 10:-0.007902339 11:0.011079212 12:0.032038394 13:0.047992267 14:-0.060556684 15:0.19526029 16:-0.18091819 17:0.037276767 18:0.080519013 19:-0.1010041 20:-0.078197934 21:0.056244191 22:0.006282818 23:0.03636273 24:-0.028450362 25:0.085137211 26:0.15124652 27:-0.14419262 28:-0.18186495 29:0.12690359 30:-0.034864906 31:-0.067075267 32:0.003848526 33:-0.002356588 34:0.044552851 35:-0.00282462 36:0.011462165 37:0.008171746 38:0.033745307 39:-0.13510427 40:0.092070654 41:-0.11212358 42:0.006701222 43:-0.027787153 44:-0.015998526 45:-0.028811073 46:-0.027650619 47:-0.004280926 48:0.12026534 49:-0.043493472 50:-0.083131701 51:0.004326358 52:0.004048596 53:-0.028662784 54:-0.028689496 55:-0.037623487 56:-0.003948273 57:-0.04091949 58:0.020234546 59:-0.050023228 60:0.04361083 61:0.027313672 62:0.076772831 63:-0.066376455 64:0.066685848 65:0.19341606 66:0.013964569 67:0.047498722 68:0.040402696 69:0.062190432 70:0.023048272 71:0.047298077 72:0.059366029 73:-0.033973277 74:0.055532046 75:0.012332688 76:0.04811725 77:-0.015979245 78:0.092887819 79:-0.071877107 80:0.10811967 81:0.080454402 82:-0.032147519 83:0.074187256 84:-0.074456252 85:0.10129383 86:-0.033990577 87:-0.20719193 88:-0.12560713 89:0.01494267 90:-0.051382393 91:-0.008766858 
0 1 1 1:0.014932514 2:-0.81301445 3:0.006519275 4:-0.18035632 5:0.042352267 6:-0.09687458 7:-0.047775559 8:0.005127619 9:0.031471372 10:0.007950572 11:-0.013779429 12:0.019435506 13:0.012286482 14:-0.011671456 15:0.14974581 16:-0.067337081 17:-0.019718995 18:0.13375822 19:-0.037819456 20:-0.045908317 21:0.044649221 22:0.041180871 23:0.04814706 24:-0.031529229 25:0.059929173 26:0.18215567 27:-0.017994329 28:-0.36913559 29:0.066761628 30:0.007129744 31:-0.013721759 32:0.004468739 33:0.053134255 34:0.058801837 35:-0.027015705 36:-0.01486636 37:0.023030678 38:-0.049708374 39:-0.12925051 40:0.09005525 41:0.011790101 42:-0.009046789 43:-0.025393164 44:0.03007224 45:-0.007726886 46:-0.044849895 47:-0.061924119 48:0.076925963 49:-0.032932512 50:-0.049751069 51:-0.002303139 52:0.003573366 53:0.009168411 54:-0.020640321 55:-0.044726349 56:-0.003898366 57:0.033021279 58:-0.036891978 59:0.004512643 60:0.040044602 61:-0.010651649 62:0.055986192 63:-0.040288065 64:0.041102607 65:0.028764063 66:0.013853813 67:0.049734775 68:0.050308857 69:0.047605217 70:0.012283396 71:-0.001902747 72:0.026161628 73:-0.053610858 74:0.030902848 75:-0.069874823 76:0.022070156 77:-0.01038943 78:0.079601303 79:-0.074293196 80:0.083523221 81:0.055973794 82:-0.046443406 83:0.023919407 84:-0.001679843 85:0.008792262 86:-0.03982478 87:-0.071732432 88:0.018342169 89:0.038061246 90:0.003688204 91:0.010508819 
1 1 1 1:-0.005406205 2:-0.33038017 3:0.31852668 4:0.089248464 5:0.019253992 6:-0.044638075 7:0.031756341 8:-0.009105681 9:0.015003891 10:0.006798843 11:0.012849585 12:0.010174218 13:-0.012562906 14:-0.012139258 15:0.044316188 16:-0.34830037 17:0.005724943 18:0.048168067 19:0.01523915 20:-0.030812299 21:0.0416683 22:0.007599752 23:0.021006206 24:0.00177672 25:0.024563828 26:0.049515456 27:-0.070566796 28:-0.050056115 29:0.13419291 30:-0.012554612 31:0.00551529 32:0.041081712 33:0.036984686 34:0.013272686 35:0.001121384 36:0.012993278 37:0.007699005 38:-0.119752 39:-0.090460226 40:0.15383141 41:-0.010522333 42:0.046199206 43:-0.007916884 44:0.00805808 45:0.00621276 46:-0.001599797 47:-0.012915657 48:0.024662264 49:-0.13431105 50:-0.034946352 51:0.013511376 52:0.019915052 53:-0.000485163 54:-0.006654832 55:0.030180097 56:-0.005286681 57:-0.023702152 58:-0.013649253 59:0.008389116 60:0.063417837 61:0.016095223 62:0.064058058 63:0.016569035 64:0.018331505 65:0.027333681 66:-0.047433142 67:-0.016777935 68:0.069368802 69:0.060952902 70:0.012060052 71:0.013282027 72:0.00505983 73:0.07932125 74:0.036077604 75:-0.006440051 76:0.015156683 77:-0.012234469 78:0.003952876 79:-0.025480967 80:0.12334018 81:0.029201625 82:-0.031272061 83:-0.014445703 84:-0.12166192 85:0.046916474 86:-0.025919985 87:-0.10888071 88:-0.004294463 89:0.004697693 90:0.000645927 91:-0.003860449 
1 1 1 1:-0.006578989 2:-0.33757496 3:0.1857058 4:-0.000961926 5:-0.053845145 6:-0.036350276 7:0.002346613 8:-0.010023605 9:0.021264208 10:-0.030415466 11:0.022298558 12:0.020055724 13:-0.027056329 14:0.019610414 15:-0.028406136 16:-0.35530901 17:0.10022873 18:0.096905477 19:-0.035030115 20:-0.03663433 21:0.032467958 22:0.011741398 23:0.016793231 24:0.01812627 25:0.002459346 26:0.092813089 27:-0.027228057 28:-0.18206106 29:0.14119515 30:-0.015089813 31:0.02798955 32:0.025668351 33:0.027692452 34:0.06821534 35:0.027569667 36:0.034036901 37:-0.009844002 38:-0.075531565 39:-0.11689931 40:0.062824503 41:0.002228687 42:0.076371543 43:-0.00690322 44:0.028876174 45:0.017482119 46:0.015769402 47:-0.009370433 48:-0.060922418 49:-0.063976005 50:-0.022430902 51:0.080970928 52:0.008157167 53:-0.019704059 54:-0.013219398 55:0.000367056 56:-0.016386084 57:-0.060287617 58:-0.053308725 59:0.076236956 60:0.02360086 61:0.040940333 62:0.063057557 63:0.014219765 64:0.034953933 65:-0.035586271 66:-0.17966981 67:0.041684482 68:0.085335851 69:0.067035422 70:-0.009388397 71:0.002368883 72:-0.024277434 73:0.033012241 74:0.080712028 75:0.008222396 76:0.016804904 77:-0.027124947 78:0.049947154 79:-0.041166496 80:0.091979101 81:0.058470603 82:-0.01677743 83:-0.029516352 84:-0.12475485 85:-0.020679308 86:-0.037307627 87:-0.13622469 88:0.047287725 89:0.003146321 90:-0.057113443 91:-0.020938344 
1 1 1 1:-0.00127567 2:-0.57367295 3:-0.30871928 4:-0.11441574 5:0.062483534 6:-0.025933789 7:0.005611267 8:0.045118246 9:0.046813767 10:0.002204017 11:0.005498412 12:-0.02247371 13:-0.044499677 14:-0.008844385 15:0.054377578 16:-0.22051196 17:0.25453606 18:0.21645024 19:-0.051179212 20:-0.006297407 21:0.11946812 22:0.040235631 23:0.034041759 24:-0.01024441 25:0.011520369 26:0.12926519 27:-0.22641122 28:-0.1954319 29:0.29865938 30:0.011634493 31:0.02759273 32:0.044296995 33:0.086752862 34:0.071947612 35:0.009958154 36:-0.000885559 37:-0.088323206 38:-0.20919058 39:-0.14749663 40:0.088239022 41:0.036418442 42:0.12019284 43:0.005595858 44:0.039978433 45:-0.036617558 46:-0.00278029 47:-0.064118139 48:-0.013113353 49:-0.07032676 50:0.009669195 51:0.15926838 52:0.013912113 53:-0.021079702 54:-0.005349921 55:0.02236669 56:-0.027530067 57:-0.077851363 58:-0.050953094 59:-0.003468955 60:0.11486898 61:0.0346753 62:0.070175231 63:0.013981776 64:0.049979057 65:0.019657584 66:-0.12382102 67:0.072454199 68:0.15835623 69:0.037555523 70:0.011749767 71:0.006055066 72:-0.05534881 73:0.089588292 74:0.1243258 75:-0.057285052 76:-0.012091669 77:-0.058590818 78:0.034213789 79:0.080801234 80:0.004472524 81:0.01595699 82:-0.053552546 83:-0.009515445 84:-0.056127351 85:0.006487978 86:-0.058408689 87:-0.17078821 88:0.060113464 89:0.025961356 90:0.028480351 91:0.002060525 
1 0 1 1:-0.005278823 2:-0.41509953 3:-0.22138631 4:-0.1328249 5:0.25862285 6:0.16258036 7:0.026197363 8:-0.020242892 9:0.038528405 10:-0.032963842 11:0.080735825 12:-0.030699691 13:-0.012520869 14:0.05060387 15:-0.086680673 16:-0.19184314 17:0.061294425 18:0.39040986 19:-0.14746919 20:-0.032382969 21:0.077293836 22:0.023869524 23:0.021193173 24:0.014656363 25:0.037381202 26:0.11603163 27:0.042501021 28:-0.22937 29:0.1831753 30:-0.11225718 31:0.028456626 32:0.017139265 33:0.018477816 34:0.066040516 35:0.026378963 36:0.04013985 37:-0.013463371 38:-0.36315841 39:-0.14229661 40:0.027363183 41:-0.018527165 42:0.12773629 43:-0.030194731 44:-0.010277552 45:-0.032374859 46:5.7104e-05 47:-0.084424056 48:-0.18781869 49:0.075225227 50:-0.012216245 51:0.11460935 52:0.066832133 53:-0.11602074 54:-0.004036206 55:-0.021821322 56:-0.074376151 57:0.070334107 58:-0.043645363 59:0.008927521 60:0.0948008 61:0.1479423 62:0.037688408 63:-0.039576307 64:0.084261708 65:-2.5035e-05 66:-0.10019133 67:0.05017674 68:0.22982083 69:0.039136272 70:-0.024215525 71:0.017932307 72:-0.062736928 73:0.040487796 74:0.10926045 75:-0.013762544 76:-0.005581762 77:-0.059143208 78:0.032308448 79:-0.085183032 80:0.022255929 81:0.030024853 82:-0.036684431 83:-0.053745162 84:-0.053363215 85:0.023858409 86:-0.06137583 87:-0.09078344 88:0.013152152 89:0.008228309 90:0.068929404 91:0.007904943 
1 0 1 1:0.000770819 2:-0.29374743 3:0.19567262 4:-0.070114017 5:0.17050487 6:0.084154032 7:-0.035724033 8:-0.023710532 9:0.039372385 10:-0.007923876 11:0.049029972 12:0.011268453 13:-0.008307159 14:0.026713206 15:0.022403045 16:-0.29870221 17:0.11663416 18:0.25207657 19:-0.064441629 20:-0.035310436 21:0.045925777 22:0.035774563 23:-0.015522581 24:0.014051252 25:0.027949927 26:0.12406863 27:-0.040553857 28:-0.30151305 29:0.17165534 30:-0.018753681 31:-0.001429289 32:0.024885288 33:0.007522148 34:-0.004523274 35:0.00336831 36:0.061055727 37:-0.019629048 38:-0.20797283 39:-0.22734679 40:0.015353818 41:-0.041688412 42:0.008980846 43:0.000419456 44:-0.009961395 45:-0.040962152 46:-0.010941098 47:-0.058339674 48:-0.11570743 49:0.024666982 50:-0.027401414 51:-0.020904668 52:0.000405053 53:-0.029165626 54:-0.005823625 55:-0.017174959 56:-0.053051092 57:0.00790279 58:-0.030196464 59:-0.020352261 60:-0.008452321 61:0.11283794 62:0.040409088 63:-0.01203269 64:0.041227836 65:0.09337496 66:0.004648914 67:0.045970846 68:0.16288981 69:0.065482602 70:-0.007554638 71:0.016473945 72:0.042438738 73:0.03798154 74:0.11182444 75:0.056268144 76:0.058036927 77:-0.008945643 78:0.068590976 79:-0.14956617 80:0.00943958 81:0.092240669 82:-0.007384294 83:-0.040181011 84:-0.031054134 85:0.056801498 86:-0.047891062 87:-0.17282756 88:-0.090272322 89:-0.004278623 90:-0.02739713 91:-0.022660421 
1 1 1 1:-0.019154148 2:-0.093238264 3:0.073707059 4:-0.17733458 5:0.069844872 6:-0.065329701 7:-0.022880292 8:-0.030943507 9:0.006652907 10:-0.018884066 11:-0.026807653 12:-0.000417193 13:-0.024792254 14:0.026669275 15:-0.006829509 16:-0.18586154 17:0.056902017 18:0.12941852 19:-0.033897251 20:-0.036472682 21:0.025009261 22:0.010876012 23:0.00833519 24:0.023664085 25:0.026455788 26:0.052849777 27:-0.03199812 28:-0.14964037 29:0.066426538 30:0.002675146 31:-0.007591539 32:0.031630822 33:0.023124129 34:0.019929845 35:0.026924876 36:0.025711579 37:0.003463677 38:-0.2988598 39:0.051728655 40:0.065720357 41:-0.025183979 42:-0.00147634 43:0.007694915 44:0.007911625 45:0.001619037 46:0.011919953 47:-0.02201518 48:-0.0948314 49:-0.08362098 50:-0.03422872 51:-0.022385949 52:0.016667431 53:-0.007469838 54:0.004351194 55:0.007847803 56:-0.004581288 57:-0.008325052 58:0.020153562 59:-0.033658151 60:0.039063338 61:0.009180847 62:0.057703771 63:-0.001621537 64:0.034466609 65:0.047268081 66:0.004771732 67:0.02709154 68:0.077585056 69:0.089256771 70:0.015044603 71:0.025761448 72:0.06586881 73:0.050233133 74:0.002522019 75:0.029579829 76:0.024338458 77:0.004766569 78:0.00278248 79:0.10602691 80:0.056455389 81:0.05420192 82:-0.012508454 83:-0.072948061 84:-0.1359818 85:0.030326501 86:-0.018712265 87:-0.17345907 88:-0.055794571 89:-0.010772763 90:-0.030726748 91:-0.015807826 
1 0 1 1:-0.005742353 2:-0.29651353 3:0.038789451 4:-0.14584288 5:0.1284728 6:-0.079782829 7:-0.038223173 8:0.02003595 9:0.045956533 10:-0.017306194 11:0.020874402 12:-0.01313852 13:-0.001652751 14:0.037824452 15:0.11650296 16:-0.082358494 17:-0.047341362 18:0.17665482 19:-0.050525252 20:-0.039325833 21:0.042189002 22:0.035319068 23:0.031650294 24:-0.016620301 25:0.036834896 26:0.14571089 27:0.10686792 28:-0.34385842 29:0.0035986 30:-0.00707558 31:0.038726397 32:0.012976863 33:0.03927049 34:0.03514751 35:-0.004200542 36:-0.002192271 37:0.044226274 38:-0.23271465 39:-0.060037367 40:0.077405341 41:0.032859188 42:0.006333905 43:-0.023217302 44:0.039727457 45:-0.015535585 46:-0.034913626 47:-0.062095471 48:-0.096199557 49:-0.008790926 50:-0.10290088 51:-0.038499612 52:0.011698321 53:-0.014968434 54:-0.010891722 55:-0.033801764 56:-0.016377166 57:0.022304583 58:-0.028788302 59:-0.050225083 60:0.009009679 61:0.038968168 62:0.052614659 63:-0.012790887 64:0.04869096 65:-0.089639433 66:0.020005712 67:-0.00744999 68:0.1216495 69:0.040436018 70:0.000134749 71:0.006338771 72:0.019326238 73:0.028117523 74:-0.034057356 75:-0.048548054 76:-0.015933223 77:0.004694716 78:0.053709254 79:-0.024860036 80:0.083753131 81:0.048380885 82:-0.014823051 83:-0.092528395 84:-0.042901304 85:0.021096161 86:-0.044070788 87:-0.056489542 88:-0.002875575 89:0.015678102 90:0.017096037 91:-0.000832743 
1 1 1 1:-0.002217164 2:-0.010829577 3:0.35052881 4:-0.10433366 5:-0.039453041 6:0.15419163 7:0.014806966 8:-0.02490174 9:0.040634003 10:-0.022581013 11:-0.00303435 12:-0.026412152 13:0.10795814 14:0.015005156 15:0.1489993 16:-0.10739429 17:-0.064004079 18:0.10131189 19:-0.049396321 20:-0.024736946 21:0.048391107 22:0.004052649 23:-0.035527285 24:0.022159945 25:0.033073336 26:0.10560702 27:0.009486278 28:-0.098314643 29:-0.025982453 30:-0.055710297 31:-0.082065642 32:-0.0021999 33:0.002467958 34:0.020000139 35:0.039007735 36:0.003725559 37:0.024555804 38:-0.011787525 39:-0.23869883 40:0.033641603 41:-0.11006128 42:-0.036488067 43:-0.001019906 44:-0.036122497 45:-0.014038795 46:-0.019611748 47:-0.014905054 48:-0.013148927 49:-0.025897715 50:-0.005906757 51:-0.041986637 52:-0.10819708 53:-0.029337294 54:-0.000626758 55:-0.087060504 56:-0.040951893 57:0.16885264 58:0.025921941 59:0.010398339 60:-0.059664819 61:0.032186855 62:0.01173149 63:-0.059226811 64:0.048299991 65:0.039410565 66:-0.004370703 67:0.040290955 68:0.009907352 69:0.030222667 70:0.000314046 71:0.052299578 72:-0.071202159 73:0.10883575 74:0.020302655 75:0.017989412 76:0.045376282 77:0.008929021 78:0.072383016 79:-0.078743353 80:0.029572045 81:0.099187598 82:0.030042376 83:-0.081328496 84:-0.058223747 85:-0.022975974 86:-0.01510575 87:-0.033261783 88:-0.055107232 89:-0.009565565 90:0.073254541 91:-0.019237231 
1 1 1 1:-0.013306106 2:-0.47617707 3:0.03749346 4:-0.15170938 5:-0.00657163 6:0.065872006 7:-0.029619858 8:-0.033972196 9:0.086880423 10:0.005234214 11:0.077693298 12:-0.065220073 13:0.10919003 14:-0.027682882 15:0.15919965 16:0.018615628 17:-0.16293888 18:0.15842001 19:-0.033023104 20:-0.022951227 21:-0.012115791 22:0.052423522 23:0.002460023 24:0.038638577 25:0.017892573 26:0.1481175 27:0.020912668 28:-0.2227239 29:-0.10650071 30:0.029141549 31:-0.034934726 32:-0.020933943 33:-0.029339574 34:0.03718197 35:0.064683467 36:-0.041510716 37:0.054989431 38:0.053684857 39:-0.14315282 40:0.032675132 41:-0.030444996 42:-0.083671346 43:-0.051959414 44:-0.032683995 45:0.012793865 46:-0.052379142 47:-0.018593729 48:0.095134288 49:-0.077915438 50:-0.042940717 51:-0.12982868 52:-0.1191259 53:-0.066445164 54:0.019046223 55:-0.12839936 56:-0.023175471 57:0.040780466 58:-0.070186608 59:0.057608798 60:-0.10327876 61:0.027982701 62:-0.004217901 63:0.014647597 64:0.034621112 65:0.021542946 66:0.081834301 67:0.0677417 68:0.011884809 69:0.048442796 70:0.041822605 71:0.033564363 72:0.001218258 73:0.18258783 74:-0.032930542 75:0.000678605 76:0.032974213 77:0.032022636 78:0.1377897 79:-0.013072116 80:0.02622016 81:0.17462437 82:0.034765981 83:0.018579043 84:-0.06042774 85:-0.068307184 86:-0.028457578 87:-0.10886911 88:-0.007782381 89:-0.015444589 90:0.019864319 91:-0.027340751 
1 0 0 1:-0.000608688 2:-0.080407485 3:0.38276046 4:-0.003806411 5:0.11593445 6:0.062464934 7:0.001205218 8:-0.020463184 9:0.014750795 10:-0.020098459 11:0.051201407 12:-0.003108163 13:0.047230937 14:0.013275717 15:-0.000122423 16:-0.12963195 17:-0.10241221 18:0.17147395 19:0.008112355 20:-0.015560886 21:0.001992174 22:0.007568113 23:-0.002238143 24:0.036420431 25:0.019599354 26:0.1198699 27:0.19026378 28:-0.27326387 29:-0.041176647 30:0.003192508 31:0.018269911 32:0.016542848 33:-0.003970378 34:-0.022351783 35:0.027865482 36:0.010672885 37:0.048420306 38:-0.12861379 39:-0.19330353 40:0.033123821 41:0.008458945 42:-0.048979476 43:-0.022093609 44:-0.016936058 45:0.007161521 46:-0.035691686 47:-0.043610603 48:-0.040456399 49:-0.084085666 50:-0.076257236 51:-0.07591366 52:-0.057683587 53:-0.0447753 54:-0.001180126 55:-0.032765634 56:-0.033444423 57:0.052719146 58:-0.027743626 59:-0.013142069 60:-0.050960686 61:0.005267499 62:-0.015953431 63:0.008051249 64:0.019295951 65:-0.003793933 66:0.086315088 67:0.008130289 68:0.067849129 69:0.018731792 70:0.015938751 71:0.009590914 72:0.056205068 73:0.12132773 74:-0.006794429 75:-0.010707985 76:0.069305412 77:0.020830596 78:0.069008514 79:-0.026233338 80:0.033090144 81:0.11757703 82:0.01861175 83:-0.070174232 84:-0.014232554 85:0.000532988 86:-0.017600516 87:-0.094030365 88:-0.10322189 89:-0.005411115 90:-0.006942881 91:-0.029693319 
1 0 1 1:0.000228333 2:-0.16554505 3:0.30987802 4:-0.11139868 5:0.081390843 6:-0.051568769 7:0.023916423 8:-0.029561387 9:0.040242288 10:-0.033797335 11:0.022161517 12:-0.006442588 13:0.018200796 14:0.047507234 15:0.07467366 16:-0.082884796 17:-0.065801926 18:0.064759314 19:-0.012170404 20:-0.035289537 21:-0.003557868 22:0.012129502 23:-0.023614028 24:0.026451129 25:0.01507994 26:0.13872427 27:0.073392846 28:-0.31430113 29:0.033585973 30:-0.008573334 31:-0.030109288 32:-0.003163224 33:0.002162621 34:-0.011517335 35:0.023718059 36:0.006429176 37:0.010239271 38:-0.1211403 39:-0.19982463 40:0.053085901 41:-0.005764183 42:-0.043129556 43:-0.016072262 44:-0.023355437 45:0.009436335 46:-0.012141651 47:-0.03549115 48:0.014242606 49:-0.13085042 50:-0.01814454 51:-0.098848879 52:-0.037643995 53:-0.025910474 54:-0.008126404 55:-0.034790181 56:0.003083478 57:0.057996329 58:-0.031358868 59:0.006622191 60:-0.027501576 61:0.005072806 62:0.019439703 63:0.014980962 64:0.029566389 65:0.001860155 66:0.14143813 67:0.016706487 68:0.035672456 69:0.042803057 70:0.01922947 71:0.01528622 72:0.049021896 73:0.093423232 74:0.036018848 75:-0.025435066 76:0.015730085 77:0.02415916 78:0.05611416 79:-0.077800997 80:0.037613321 81:0.092831329 82:0.004928458 83:-0.042248517 84:-0.052804746 85:0.000878158 86:-0.025904931 87:-0.05039826 88:-0.068685383 89:-0.004201572 90:0.024009144 91:-0.01754803 
