svm_type c_svc
kernel_type rbf
gamma 0.01098901098901099
nr_class 4
total_sv 688
rho -0.18262287974357605 0.056692625314979719 0.9881907969132897 0.051870769928249683 0.4755142387384978 1.2219638309561678
label 1 2 3 4
nr_sv 189 147 127 225
SV
1 0 1 1:-0.006208211 2:-0.13677853 3:0.43599635 4:-0.067224659 5:0.064616337 6:0.056908563 7:-0.027430108 8:0.02030245 9:0.000620702 10:-0.027839778 11:0.086793922 12:-0.00355413 13:0.003895957 14:0.03245442 15:0.33251166 16:-0.27188203 17:-0.074251272 18:-0.099088483 19:-0.031443633 20:0.02652888 21:-0.01739002 22:-0.003864742 23:0.041099727 24:-0.002379421 25:0.001454435 26:0.070349798 27:-0.005609393 28:0.1395985 29:0.10774542 30:0.043550413 31:-0.04685412 32:0.0011477 33:-0.019253321 34:-0.011441164 35:0.005495592 36:-0.012105132 37:0.032748152 38:0.009866222 39:0.051406279 40:-0.036256339 41:-0.007926865 42:-0.047619645 43:-0.009353322 44:-0.070087805 45:0.009391749 46:-0.022137087 47:-0.020380743 48:0.10221328 49:0.060507298 50:-0.005404603 51:0.015230027 52:0.04535763 53:-0.026058184 54:-0.003515223 55:0.000805861 56:0.060192302 57:0.044250414 58:0.009118263 59:0.034292676 60:0.004162072 61:0.14471391 62:-0.011061116 63:0.033368427 64:-0.009313928 65:0.11780819 66:-0.028032187 67:-0.001221233 68:-0.023803698 69:-0.016200455 70:0.008791608 71:-0.032680787 72:-0.020910857 73:0.02099889 74:0.025160091 75:-0.027229572 76:0.006998185 77:-0.027461007 78:-0.014919192 79:0.0351118 80:-0.019392435 81:-0.028283264 82:0.009249493 83:-0.031333994 84:-0.038506873 85:-0.02600169 86:0.0391725 87:-0.01086625 88:0.060909614 89:-0.001995626 90:0.057994906 91:0.005595229 
1 1 1 1:0.015652452 2:-0.23764525 3:0.50133014 4:-0.093841821 5:0.043811209 6:-0.034357987 7:-0.012554562 8:-0.046340499 9:-0.03017942 10:0.001210459 11:0.041108046 12:-0.018470064 13:0.007815435 14:0.038897488 15:0.035140492 16:-0.17307614 17:-0.051887035 18:-0.088847391 19:-0.014978947 20:-0.005372271 21:-0.017090833 22:0.011055232 23:-0.024470083 24:-0.003929554 25:0.007825422 26:0.11031052 27:0.071742862 28:-0.010176323 29:0.058076065 30:0.012555923 31:0.009661555 32:0.012371036 33:0.01419773 34:0.000182512 35:0.006124719 36:-0.001952081 37:-0.012719557 38:-0.012770927 39:0.037628848 40:-0.055177469 41:-0.012832767 42:-0.044976674 43:-0.027673315 44:0.006965509 45:-0.000251402 46:-0.024098286 47:-0.0220546 48:0.05196796 49:0.12190595 50:0.007102092 51:0.012278898 52:-0.003866322 53:0.001820685 54:-0.003129675 55:0.007493694 56:0.022672756 57:0.035547405 58:-0.008101011 59:-0.006059492 60:0.013126955 61:0.055586688 62:0.004672692 63:0.001783273 64:0.022906987 65:0.021744469 66:0.043299727 67:0.031601042 68:-0.052174442 69:-0.019203192 70:0.022245267 71:-0.00397213 72:0.044093039 73:-0.13102536 74:0.012235407 75:0.006125573 76:0.00654667 77:-0.016933572 78:-0.05909282 79:-0.020017963 80:-0.026167817 81:-0.017395178 82:-0.02919114 83:0.031476766 84:0.033258382 85:-0.040483348 86:0.024356857 87:0.036090024 88:0.12098645 89:-0.001199464 90:-0.00988245 91:0.019552272 
0 0 1 1:0.003395333 2:-0.42854476 3:0.3087886 4:-0.072895281 5:0.043036446 6:-0.03218906 7:-0.02185511 8:-0.013848502 9:-0.017389255 10:-0.014639618 11:0.039476726 12:-0.02048363 13:-0.009732394 14:-0.006289641 15:0.04925235 16:-0.31556699 17:0.074651562 18:-0.089754984 19:-0.022536105 20:0.026417004 21:-0.017153723 22:0.014575192 23:0.000534912 24:0.014576586 25:0.008099844 26:0.13593878 27:-0.006397407 28:-0.23237893 29:0.1242863 30:0.00161787 31:-0.0117294 32:-0.009983884 33:-0.00328402 34:-0.010238743 35:0.015569913 36:0.029641237 37:0.011504761 38:-0.056419712 39:-0.029089676 40:-0.030515909 41:0.006982801 42:-0.031200193 43:-0.01098562 44:-0.017509805 45:-0.010624803 46:-0.026169071 47:-0.069261178 48:-0.037172228 49:0.029685501 50:-0.014219177 51:0.026405187 52:0.015356816 53:0.001787747 54:0.002326865 55:-0.018651471 56:0.033700444 57:0.037763614 58:0.045352276 59:0.05723216 60:0.048792187 61:0.10479975 62:0.00666781 63:-0.002352526 64:-0.001677277 65:0.094579577 66:-0.012478966 67:0.056361347 68:-0.068439648 69:0.014167962 70:0.007294231 71:-0.028989295 72:0.003407219 73:-0.11121029 74:0.059262887 75:-0.001688544 76:0.011724303 77:-0.038180191 78:-0.034631591 79:-0.004161562 80:0.012904065 81:-0.05012659 82:-0.023575982 83:-0.095639147 84:-0.0262501 85:-0.053220935 86:0.03303789 87:0.017542347 88:0.090939358 89:-0.005436949 90:0.012703987 91:0.021521058 
0 1 1 1:0.000991295 2:-0.48680037 3:0.33739373 4:-0.13602553 5:0.085661821 6:-0.026563378 7:-0.006696628 8:-0.022412192 9:-0.03570402 10:-0.023641696 11:0.00600739 12:-0.010718806 13:-0.00373387 14:0.052910779 15:0.16702363 16:-0.18350494 17:0.078593545 18:-0.060737465 19:-0.01069238 20:0.015753718 21:-0.023676841 22:0.018527737 23:-0.016411435 24:0.008296204 25:0.007902591 26:0.12360758 27:0.047319829 28:-0.14517206 29:0.12230225 30:-0.020541459 31:0.012094963 32:-0.015895758 33:-0.000519931 34:0.006702816 35:0.009451079 36:0.02808176 37:0.038876403 38:-0.078934871 39:0.048946209 40:-0.050087109 41:-0.028754381 42:-0.008961491 43:-0.025193207 44:-0.001427348 45:-0.009749131 46:-0.028117755 47:-0.048787922 48:0.07490804 49:0.075495765 50:-0.003171986 51:-0.005940104 52:0.032174874 53:0.0090649 54:-0.007034014 55:-0.010673763 56:0.044099033 57:0.04531163 58:0.039725166 59:0.045005996 60:0.035348933 61:0.083554387 62:-0.001630525 63:-0.000305018 64:0.012266571 65:0.082325175 66:-0.015546178 67:0.051674493 68:-0.035061929 69:-0.01483363 70:0.025686275 71:-0.015928611 72:0.023694921 73:-0.12426502 74:0.03934953 75:0.019466149 76:0.018915009 77:-0.027108872 78:-0.1083634 79:0.017405534 80:-0.006109863 81:-0.051144533 82:-0.019645635 83:-0.036427513 84:-0.007491265 85:-0.04298722 86:0.030173169 87:0.03629528 88:0.088608816 89:-0.003548618 90:0.035506833 91:0.021529619 
1 0 0 1:0.005747657 2:0.071796887 3:0.42998686 4:-0.13217904 5:0.21730834 6:-0.040945504 7:-0.013226869 8:0.015750105 9:-0.028771115 10:-0.002045543 11:0.013504276 12:-0.003357187 13:0.007360522 14:0.051883984 15:0.42654091 16:-0.21843781 17:0.091623597 18:-0.089701727 19:-0.028199924 20:0.034649454 21:-0.031845633 22:0.016855614 23:-0.005842085 24:-0.000726384 25:-0.005113678 26:0.11427993 27:-0.12347173 28:-0.23841766 29:0.039107088 30:0.015839826 31:-0.037509851 32:0.001663006 33:-0.025153281 34:-0.008213051 35:0.003446993 36:0.022350015 37:0.013773746 38:-0.17539242 39:0.083201893 40:-0.04617491 41:-0.030642228 42:-0.023997527 43:-0.028902374 44:0.007093078 45:-0.002989571 46:-0.014307386 47:-0.081213452 48:0.006558103 49:0.064562805 50:-0.097540826 51:0.026678499 52:0.023981821 53:0.009802024 54:-0.009792298 55:-0.005551447 56:0.048077293 57:0.06008669 58:0.20397656 59:0.050561905 60:0.015533159 61:0.065310784 62:0.014687994 63:0.00479691 64:0.001362205 65:0.24582086 66:-0.00735353 67:0.058197267 68:-0.043081939 69:-0.02638698 70:-0.004264929 71:-0.004128561 72:0.006444755 73:-0.10771631 74:-0.021015655 75:0.033445593 76:0.037579961 77:-0.028734144 78:-0.088027969 79:0.033979587 80:-0.023798035 81:-0.099785395 82:-0.010214829 83:-0.005782548 84:-0.042097434 85:-0.018952832 86:0.025140973 87:-0.000630675 88:0.070986718 89:-0.010832712 90:0.017740145 91:0.028574314 
1 1 1 1:-0.036645744 2:-0.061039865 3:0.041889884 4:-0.1418152 5:0.1497812 6:0.1063553 7:0.080967478 8:0.015220332 9:-0.006962383 10:0.068851225 11:0.022919923 12:0.005810536 13:-0.014119328 14:-0.023449376 15:0.15851879 16:-0.19984038 17:0.18508291 18:0.1329648 19:-0.14993676 20:0.055909738 21:-0.039664909 22:0.038421281 23:-0.045428194 24:0.012331476 25:0.000890422 26:0.014468067 27:0.090352274 28:-0.32802317 29:0.15992498 30:-0.12855992 31:-0.02528161 32:-0.027151819 33:-0.007127457 34:0.009083592 35:0.026852572 36:-0.026112353 37:0.037624251 38:-0.29011363 39:-0.1858378 40:-0.10279997 41:-0.059316851 42:-0.025770765 43:-0.095910393 44:-0.04998013 45:-0.027154246 46:-0.037730046 47:-0.019190338 48:-0.21684501 49:0.19595793 50:0.00735375 51:0.042470075 52:0.11668379 53:0.019450657 54:-0.027288413 55:-0.010299381 56:0.022797173 57:0.14487973 58:0.079510868 59:0.069594666 60:0.13074477 61:-0.005292171 62:-0.031790134 63:0.025463222 64:-0.005631283 65:0.083550654 66:0.006410426 67:0.16562112 68:-0.026243985 69:0.039948903 70:0.011596625 71:-0.022286011 72:0.13415502 73:-0.25611424 74:-0.061047059 75:0.033047181 76:0.001728485 77:-0.030601965 78:-0.11614736 79:0.022008307 80:0.008421756 81:-0.032636944 82:-0.0314845 83:0.008250201 84:-0.069444746 85:-0.018399449 86:-0.000142737 87:-0.085317567 88:0.002254795 89:-0.000590609 90:-0.074973442 91:-0.004506177 
0 1 1 1:0.021451574 2:-0.40003043 3:0.38034034 4:-0.1859633 5:0.10641146 6:-0.008277263 7:-0.034248654 8:-0.020999739 9:-0.022299556 10:-0.018432742 11:0.043185495 12:-0.011327966 13:0.026297947 14:0.052939087 15:0.1894726 16:-0.081598386 17:0.080902681 18:-0.051970903 19:-0.012071146 20:-0.003586207 21:-0.011138014 22:0.01797436 23:-0.005031954 24:0.012156168 25:-0.000613088 26:0.1487018 27:0.13418423 28:-0.32777336 29:0.10411648 30:-0.018485064 31:0.000398258 32:0.003445436 33:-0.001385945 34:-0.018082475 35:0.014685425 36:0.047760069 37:0.04147866 38:-0.17862555 39:0.091331154 40:-0.006823223 41:-0.022033768 42:-0.062403202 43:-0.002584413 44:-0.020619404 45:-0.010616096 46:-0.015637124 47:-0.088462122 48:0.10245248 49:-0.008634456 50:0.017553082 51:0.006243853 52:0.000413796 53:-0.003855797 54:-0.014445121 55:-0.00750591 56:0.054443911 57:-0.003345527 58:0.041431285 59:-0.005982297 60:0.013991307 61:0.090666309 62:0.001669184 63:0.012759795 64:-0.007319812 65:0.078376688 66:0.02935764 67:-0.00866676 68:-0.069343023 69:-0.009063967 70:-0.007049216 71:-0.020168772 72:0.058961965 73:-0.035803072 74:0.011705458 75:0.003940443 76:0.04204217 77:-0.034863658 78:-0.021499922 79:0.071976036 80:-0.016189851 81:-0.11753826 82:-0.003209545 83:-0.036501739 84:-0.012231869 85:-0.011901502 86:0.056553144 87:0.033991385 88:0.1151688 89:-0.001561566 90:0.043356206 91:0.044630446 
1 0 0 1:-0.009099152 2:-0.013618673 3:0.38559011 4:-0.1094517 5:0.091700651 6:-0.021842849 7:-0.045122348 8:-0.011338166 9:-0.033736598 10:0.005052818 11:0.05179666 12:-0.017175635 13:-0.005688183 14:0.03394673 15:0.43694723 16:-0.30326039 17:0.047354866 18:-0.084976681 19:-0.001034559 20:0.017357141 21:-0.003443424 22:0.012038621 23:-0.017720761 24:0.012465657 25:0.00469239 26:0.10410475 27:-0.17858507 28:-0.20404996 29:0.077806249 30:0.015629081 31:-0.030967314 32:0.016755125 33:-0.020970425 34:-0.006260366 35:0.015825724 36:0.030206949 37:0.022504931 38:-0.062955722 39:0.03783283 40:0.016521154 41:-0.023397004 42:-0.041918188 43:-0.00864757 44:0.009129192 45:0.000555656 46:-0.016672371 47:-0.055054557 48:-0.06116809 49:-0.015754927 50:-0.069460481 51:0.010255358 52:0.020519832 53:0.001190458 54:0.000116204 55:0.006830069 56:0.040865593 57:0.014778763 58:0.17435871 59:0.011701095 60:0.027550459 61:0.073437609 62:-0.000278099 63:0.018345481 64:-0.004037639 65:0.19656576 66:0.046473939 67:0.057170585 68:-0.060814783 69:-0.021622522 70:-0.001627555 71:-0.000572607 72:0.090375118 73:-0.15420531 74:-0.034976043 75:0.011184302 76:0.02202251 77:-0.022849785 78:-0.13897642 79:0.098662101 80:-0.023393992 81:-0.07034713 82:-0.01458733 83:-0.021521632 84:0.01560861 85:-0.018510109 86:0.035697669 87:0.055519581 88:0.067685589 89:-0.004805046 90:0.026362875 91:0.01677621 
0 1 0 1:-0.005944618 2:-0.55087984 3:0.42320553 4:-0.19390976 5:0.006745237 6:-0.089399256 7:0.026448606 8:-0.012714287 9:-0.037695721 10:-0.001019323 11:0.031709451 12:-0.015308316 13:-0.001608755 14:0.036795612 15:0.092070013 16:-0.19290706 17:0.073518656 18:-0.016041305 19:-0.033110484 20:0.02783975 21:-0.018175017 22:0.002967914 23:-0.008517011 24:0.010566097 25:0.004074647 26:0.13544275 27:0.079718836 28:-0.19488539 29:0.022504512 30:0.008959811 31:-0.021184128 32:-0.006168362 33:-0.005382528 34:0.018617649 35:0.011657331 36:0.01777024 37:0.014669213 38:-0.082315773 39:0.09536206 40:-0.010571823 41:-0.024810823 42:-0.004257146 43:0.017383935 44:-0.002772858 45:-0.006247955 46:-0.016544363 47:-0.030378718 48:0.10003935 49:-0.008540504 50:-0.053890113 51:-0.001411467 52:0.011563483 53:-0.022447834 54:-0.010636648 55:0.003533241 56:0.024521682 57:-0.009996871 58:0.12165327 59:0.025406174 60:0.034753837 61:0.062156726 62:0.001169644 63:0.015258266 64:-0.012680495 65:0.10386758 66:0.024168709 67:0.032176152 68:-0.023501834 69:-0.005014881 70:0.012948764 71:-0.004563054 72:0.060581811 73:-0.085573345 74:-8.0779e-05 75:0.006492731 76:0.007411072 77:-0.014435677 78:-0.03337948 79:0.11836842 80:-0.009370464 81:-0.040339429 82:-0.012939288 83:-0.017866684 84:0.011179928 85:-0.027642187 86:0.028364759 87:0.004899896 88:0.084186859 89:0.000847045 90:0.018001396 91:0.013883621 
0 0 1 1:-0.000662941 2:-0.53129047 3:0.2579391 4:-0.053314827 5:0.18716937 6:-0.10838637 7:-0.009945522 8:-0.01181675 9:-0.047292382 10:-0.02079704 11:0.094655387 12:-0.01861091 13:0.026221082 14:0.028496554 15:0.04770213 16:-0.36112711 17:0.1274102 18:-0.042788729 19:-0.008940693 20:0.027774211 21:-0.020344075 22:0.007506294 23:0.01386682 24:0.021706512 25:0.00824114 26:0.15651687 27:-0.045377173 28:-0.25800362 29:0.10932127 30:0.027886581 31:-0.017204504 32:-0.011023237 33:-0.016347785 34:-0.005948022 35:0.001542973 36:0.027509199 37:-0.020390349 38:-0.070933267 39:0.006586818 40:-0.038460564 41:0.010291071 42:-0.016066039 43:-0.028171143 44:-0.058586564 45:-0.013239958 46:-0.032470047 47:-0.081579171 48:0.046935454 49:0.019073898 50:-0.004185407 51:0.024683855 52:0.034988686 53:-0.007609167 54:-0.012399431 55:-0.006554999 56:0.006515059 57:0.061962571 58:-0.016611006 59:0.068666682 60:0.02294701 61:0.058607802 62:0.010850737 63:0.008856308 64:-0.00616625 65:0.071439274 66:-0.027151847 67:0.031079594 68:-0.098791607 69:-0.012469224 70:-0.00582682 71:-0.040401418 72:-0.004891415 73:-0.046725042 74:-0.051692087 75:-0.010392406 76:-0.014873756 77:-0.038966194 78:-0.066113196 79:0.13023879 80:-0.039786257 81:-0.10389754 82:-0.000694859 83:-0.075889595 84:0.05997134 85:-0.10684507 86:0.052564334 87:0.042761438 88:0.14190742 89:0.007352664 90:0.018082432 91:0.034898236 
0 1 1 1:-0.007314309 2:-0.89777255 3:0.21129359 4:-0.15545523 5:-0.002724026 6:-0.11111387 7:-0.028026016 8:-0.053173535 9:-0.046245225 10:-0.005675748 11:0.12960541 12:-0.012048364 13:0.051057614 14:-0.001145509 15:-0.22718063 16:-0.26992354 17:0.13558035 18:-0.01524046 19:-0.03036751 20:0.029790128 21:-0.012155317 22:0.012497372 23:0.066698551 24:0.004913237 25:0.009499466 26:0.14360027 27:0.2292615 28:-0.30421576 29:0.0619951 30:-0.05617867 31:-0.005349165 32:0.002858788 33:0.002968803 34:0.010088962 35:-0.001121856 36:0.004648871 37:0.002517138 38:-0.061766915 39:0.047800377 40:-0.065245204 41:-0.015797541 42:-0.01312703 43:-0.056338485 44:-0.024233162 45:-0.005916114 46:-0.055228431 47:-0.04360421 48:0.13136326 49:0.049516365 50:0.008900519 51:0.019156035 52:0.064635538 53:-0.056779243 54:-0.002393182 55:-0.026754543 56:0.026879584 57:-0.034226891 58:0.041926667 59:0.081802234 60:0.020084569 61:0.11677159 62:0.010526669 63:0.008722982 64:0.00406501 65:0.045530263 66:-0.025932396 67:0.076674372 68:-0.036476005 69:-0.016313747 70:0.04531166 71:-0.029042466 72:0.071836777 73:-0.11988811 74:0.023311334 75:-0.011937105 76:-0.011445828 77:-0.046367932 78:-0.016623301 79:-0.006138654 80:-0.047258798 81:-0.098555438 82:-0.001342881 83:-0.093872949 84:0.036373828 85:-0.12118554 86:0.04371528 87:0.006899866 88:0.24260288 89:0.000524928 90:0.013087536 91:0.040697657 
0 1 1 1:0.009265769 2:-0.50325566 3:0.45597458 4:-0.24305837 5:-0.01262099 6:-0.04962752 7:-0.003181513 8:-0.025792114 9:-0.031768043 10:-0.003529773 11:0.020076949 12:-0.008805142 13:0.02102745 14:0.048387252 15:0.11357933 16:-0.10727417 17:0.054583032 18:-0.023366965 19:-0.019796018 20:0.011542914 21:-0.018772557 22:0.013709137 23:0.003484061 24:0.023245536 25:0.014815487 26:0.16390216 27:0.10108095 28:-0.19485763 29:0.022023305 30:-0.02805227 31:0.010640628 32:-0.003928467 33:-0.008259997 34:0.017117105 35:0.002987173 36:0.046885736 37:0.023156485 38:-0.089396745 39:0.038338128 40:-0.021150155 41:-0.03446652 42:-0.003273075 43:-0.027776062 44:-0.008763287 45:-0.008155989 46:-0.020057004 47:-0.033571273 48:0.039057545 49:0.046187725 50:-0.006884958 51:0.005122956 52:0.030714558 53:0.013078548 54:-0.005193389 55:0.00695985 56:0.025963254 57:0.016612599 58:0.023749482 59:0.020072134 60:0.034989621 61:0.027708869 62:0.00933517 63:0.006371221 64:0.006595219 65:0.030697985 66:0.055593289 67:0.02239437 68:-0.00979237 69:-0.015809162 70:0.001349172 71:-0.012842881 72:0.053641435 73:-0.062382802 74:-0.014669211 75:-0.016349331 76:0.03391641 77:-0.011307799 78:-0.042867545 79:0.13880411 80:-0.022327336 81:-0.05786654 82:-0.004850476 83:0.002398895 84:0.084507085 85:-0.0214277 86:0.0383582 87:0.059223086 88:0.1553842 89:0.013592144 90:0.029621704 91:0.039145138 
0 1 1 1:-0.006008585 2:-0.71967578 3:0.13003686 4:-0.31593978 5:0.16256498 6:-0.050226752 7:0.014517564 8:-0.023497507 9:-0.028196603 10:0.016963229 11:0.00374652 12:-0.008985111 13:-0.009928607 14:0.050497595 15:0.076441273 16:-0.16428609 17:0.12944449 18:-0.15282649 19:-0.053110864 20:0.009359255 21:-0.039746143 22:0.026489638 23:-0.03940478 24:0.003646068 25:-0.009147302 26:0.13504235 27:0.14177619 28:-0.28988782 29:-0.002124429 30:0.076148085 31:-0.020143008 32:-0.028527552 33:-0.025315307 34:0.005176892 35:-0.001019717 36:0.023375642 37:0.025673846 38:-0.23247667 39:0.12005304 40:0.064547598 41:-0.063277245 42:0.003096639 43:0.010254811 44:-0.00356837 45:-0.028979614 46:-0.046451405 47:-0.086851962 48:0.08865647 49:-0.13779385 50:-0.065939404 51:0.015476358 52:-0.016220661 53:-0.061139457 54:-0.013796438 55:-0.006477468 56:0.065241359 57:-0.059074864 58:0.11327785 59:0.059778124 60:0.1175007 61:0.099975154 62:0.008614147 63:0.033582315 64:-0.054890446 65:0.14138025 66:-0.10077219 67:0.063142546 68:-0.074401736 69:-0.045561794 70:-0.030064762 71:-0.009894073 72:-0.027813738 73:-0.16041619 74:-0.016224194 75:0.024515947 76:0.045808099 77:-0.040692072 78:-0.10111822 79:0.066139579 80:-0.041816231 81:-0.10110074 82:-0.034922328 83:-0.053766713 84:0.044892229 85:-0.043243028 86:0.037696853 87:0.016281711 88:0.082319982 89:-0.008184819 90:0.038750853 91:0.023201652 
1 0 0 1:-0.011952142 2:-0.26050729 3:0.45938745 4:-0.19787453 5:0.090786695 6:0.02522135 7:-0.010476997 8:0.01875761 9:-0.000293357 10:-0.010962887 11:0.030638471 12:-0.010171467 13:0.034588438 14:0.048937242 15:0.28739279 16:-0.17578624 17:0.011260445 18:-0.076344363 19:-0.034552086 20:0.029757243 21:-0.030919902 22:0.019968247 23:-0.017764319 24:0.010082111 25:0.005719167 26:0.10001998 27:0.016000383 28:-0.077812612 29:0.04614976 30:0.010248478 31:-0.014249224 32:-0.019557972 33:-0.00880925 34:-0.002630101 35:0.00119786 36:0.0202944 37:0.027323492 38:-0.10147074 39:0.097214535 40:-0.024054443 41:-0.051376719 42:-0.017001366 43:-0.005009632 44:-0.019150672 45:-0.007971792 46:-0.031200616 47:-0.03094409 48:0.1173977 49:0.055961289 50:-0.020859484 51:0.016173488 52:-0.00713648 53:-0.011629221 54:-0.006646465 55:-0.028763095 56:0.042419061 57:0.057870578 58:0.061252218 59:0.066600308 60:0.053378664 61:0.091494337 62:-0.004203755 63:0.044980798 64:-0.003234363 65:0.11386658 66:-0.11582458 67:0.002787982 68:-0.024910569 69:-0.000942979 70:0.019832805 71:-0.00480753 72:-0.070881337 73:-0.041770801 74:-0.00247197 75:-0.018584004 76:0.020844057 77:-0.031970382 78:-0.04417612 79:0.099772997 80:-0.022158677 81:-0.062155809 82:-0.013208599 83:0.004399883 84:0.026117047 85:-0.053291362 86:0.020831162 87:0.028990787 88:0.16482565 89:0.004665968 90:0.087758541 91:0.025669025 
1 1 1 1:-0.021477303 2:-0.24788344 3:0.40356681 4:-0.073867455 5:0.036860574 6:-0.040188983 7:-0.022674089 8:0.011059022 9:-0.044690102 10:-0.000988665 11:0.010504743 12:-0.002149512 13:-0.001980322 14:-0.003915516 15:0.21648654 16:-0.19664775 17:0.12410845 18:-0.061617658 19:-0.033341389 20:0.012195989 21:-0.009790605 22:0.002039701 23:-0.006309723 24:0.012282392 25:0.00958549 26:0.057150438 27:0.17095728 28:-0.15080178 29:0.051220808 30:0.020367015 31:-0.048675187 32:-0.009759681 33:-0.018295459 34:0.017760407 35:-0.006776556 36:0.005628988 37:0.016098604 38:-0.007519608 39:0.006306599 40:0.021556348 41:-0.025480749 42:-0.004380784 43:-0.002459506 44:-0.037809029 45:-0.012623783 46:-0.028909931 47:-0.034940671 48:0.034224711 49:0.00967664 50:-0.052541211 51:-0.01739944 52:0.019616392 53:-0.014784879 54:0.001787257 55:0.011856531 56:0.030715298 57:0.022706598 58:0.049426612 59:0.023876334 60:0.063145004 61:0.093281679 62:0.011655117 63:0.0192081 64:-0.020848501 65:0.051228441 66:-0.002247825 67:0.067097969 68:-0.022096809 69:-0.005190251 70:-0.017981771 71:-0.020784188 72:0.035653703 73:-0.13403527 74:0.041296389 75:-0.012408271 76:0.017337911 77:-0.013721297 78:-0.040390719 79:8.2218e-05 80:-0.037594277 81:-0.053808451 82:-0.018888947 83:-0.045904703 84:0.11353531 85:-0.029679582 86:0.005371824 87:0.065343671 88:0.042937081 89:0.004010055 90:0.009465965 91:0.009363137 
1 0 1 1:-0.010308586 2:0.38369545 3:0.43221974 4:-0.016865013 5:-0.024184909 6:-0.007559598 7:-0.009845987 8:0.043181635 9:-0.016250907 10:0.020525534 11:0.010370117 12:-0.002463664 13:0.019813482 14:0.023281755 15:0.37594795 16:-0.2771154 17:0.0116194 18:-0.037025243 19:-0.007970846 20:0.006827978 21:-0.041699808 22:0.018546334 23:-0.017732052 24:0.006179844 25:0.000121522 26:0.085834637 27:-0.098229714 28:-0.089063428 29:0.039289188 30:-0.016815387 31:-0.024198087 32:-0.004585959 33:-0.007754974 34:0.008165641 35:0.001197218 36:0.019218195 37:0.008524261 38:-0.061260976 39:0.058119081 40:-0.027591456 41:-0.027796457 42:-0.006792651 43:-0.035059687 44:-0.011944461 45:0.001092862 46:-0.037484337 47:-0.007282771 48:0.037961483 49:0.041443259 50:-0.032311421 51:0.01358621 52:0.000980186 53:0.002190929 54:-0.011557374 55:-0.020053428 56:0.023873659 57:-0.039644148 58:0.096558638 59:0.065475844 60:0.02849604 61:0.054463845 62:-0.00200497 63:0.027099119 64:0.008959749 65:0.20951636 66:-0.074024722 67:0.04261094 68:0.002781573 69:-0.008140225 70:0.01981849 71:-0.013188216 72:-0.054684121 73:-0.11306361 74:-0.038792588 75:0.009567342 76:0.006366231 77:-0.020202316 78:-0.006786248 79:0.082662918 80:-0.008533589 81:-0.037631664 82:-0.018101893 83:0.021629615 84:0.010670043 85:-0.057600785 86:0.013544943 87:0.007267089 88:0.12907423 89:-0.000231881 90:0.077446811 91:0.016720001 
1 0 0 1:-0.006619297 2:-0.23765834 3:0.46973029 4:-0.18549153 5:0.062163483 6:-0.019985955 7:-0.026191136 8:-0.024131402 9:-0.010153923 10:0.004674415 11:0.004020186 12:-0.009571785 13:0.010997753 14:0.016432928 15:0.25933093 16:-0.18145278 17:0.02561543 18:-0.095031925 19:-0.001246912 20:0.010199799 21:-0.020017024 22:0.027102042 23:-0.02074727 24:-0.002328272 25:0.000939609 26:0.10525785 27:-0.013573526 28:-0.16820933 29:0.032743063 30:-0.001739681 31:-0.012733822 32:-0.019573646 33:-0.00364491 34:0.008350135 35:0.00576881 36:0.022167137 37:0.029246753 38:-0.048167866 39:0.069463447 40:-0.018157884 41:0.003949332 42:-0.028654385 43:-0.016260829 44:-0.014149667 45:0.002872902 46:-0.037553955 47:-0.045147032 48:-0.019415876 49:0.029182313 50:-0.022400996 51:0.017635269 52:-0.028266808 53:-0.011201782 54:0.000537213 55:-0.022562651 56:0.037997853 57:0.043825295 58:-0.008652395 59:0.046899162 60:0.050434593 61:0.059477493 62:-0.007140346 63:0.004937714 64:-0.005392613 65:0.043946821 66:-0.085076191 67:0.021120595 68:-0.063218094 69:-0.013030699 70:0.008138866 71:-0.02034845 72:-0.034046669 73:-0.10140223 74:0.006817868 75:0.00454478 76:0.030532071 77:-0.02676291 78:-0.048462536 79:0.062757194 80:-0.021428203 81:-0.058664005 82:-0.020553369 83:-0.055196702 84:0.00638374 85:-0.037355345 86:0.019960908 87:0.018129006 88:0.11654274 89:-0.001777114 90:0.043530911 91:0.021916514 
1 0 0 1:-0.002202377 2:-0.24649997 3:0.38078734 4:-0.076709703 5:0.1233696 6:0.090504348 7:-0.05801959 8:-0.010776572 9:-0.030980557 10:0.02196217 11:0.027548641 12:-0.012263512 13:0.000493238 14:0.044826105 15:0.28980049 16:-0.31333101 17:-0.034619901 18:-0.13808692 19:0.023048021 20:0.002911042 21:-0.014534401 22:0.023442689 23:-0.027854642 24:-0.003508683 25:-0.005206792 26:0.10562868 27:-0.01433709 28:-0.095362581 29:0.20438476 30:-0.027959825 31:-0.027511097 32:0.000874053 33:-0.002640972 34:-0.010649038 35:0.020867212 36:0.025187062 37:0.024445688 38:-0.084328532 39:-0.21325833 40:0.01773474 41:-0.027807953 42:-0.057105444 43:-0.02589884 44:0.009766733 45:-0.003457056 46:-0.019118916 47:-0.062424347 48:-0.047345635 49:-0.064203836 50:-0.051560551 51:0.028576048 52:-0.054687858 53:5.0778e-05 54:-0.014606792 55:-0.000494381 56:0.01134615 57:-0.069428511 58:0.1327326 59:0.000929606 60:0.086768344 61:0.084198937 62:-0.008886761 63:0.022563683 64:6.9313e-05 65:0.12365421 66:0.091280051 67:-0.028269676 68:-0.094042793 69:-0.019800229 70:-0.002815567 71:0.005357147 72:0.074209213 73:0.021492319 74:0.034956656 75:0.025226219 76:-0.005211968 77:-0.014553284 78:0.023019919 79:-0.010492386 80:-0.014902244 81:-0.041601621 82:-0.017862316 83:0.006476143 84:-0.004851262 85:-0.050219651 86:0.015111677 87:0.002653577 88:0.1237558 89:-0.008344505 90:0.074948132 91:0.019726621 
1 0 1 1:-0.008588618 2:-0.22506733 3:0.37544394 4:-0.21206465 5:0.13859108 6:-0.009962792 7:-0.015333401 8:-0.017851625 9:-0.012330465 10:0.03438884 11:-0.005704734 12:-0.006744825 13:-0.0184607 14:0.052776109 15:0.24625492 16:-0.11558823 17:0.000773272 18:-0.1362195 19:-0.010501975 20:0.000537212 21:0.00043285 22:0.040372353 23:-0.038829416 24:0.020316059 25:0.005082146 26:0.13935438 27:-0.007759233 28:-0.27234471 29:0.051401485 30:0.024121234 31:-0.009033524 32:0.008874916 33:0.020438002 34:-0.011808751 35:-0.002242157 36:0.002305363 37:0.029669242 38:-0.051104508 39:0.12557708 40:-0.032004695 41:-0.018543115 42:-0.061993934 43:-0.00321952 44:-0.018248893 45:-0.012349837 46:-0.018733105 47:-0.055231545 48:0.007428896 49:-0.01062746 50:0.017364012 51:0.011976521 52:-0.036207523 53:-0.002675341 54:0.002630858 55:0.011524912 56:0.037367586 57:0.068894558 58:-0.001190235 59:0.022811016 60:0.084647074 61:0.097145163 62:-0.00096551 63:-0.000596349 64:0.000789902 65:0.078170031 66:0.066333167 67:0.020340752 68:-0.041980632 69:0.026230963 70:0.00010749 71:-0.023029532 72:0.14930184 73:-0.13734287 74:0.019200657 75:-0.038440421 76:0.015991021 77:-0.021489546 78:-0.022050904 79:0.022211678 80:-0.024989815 81:-0.03459961 82:-0.031499695 83:-0.087973811 84:0.066037208 85:-0.006839259 86:0.011490138 87:0.06968224 88:0.06595026 89:0.012137419 90:0.03560568 91:0.006771108 
1 0 0.33471757342231695 1:0.016347298 2:-0.28773647 3:0.4346894 4:-0.17026614 5:0.10912392 6:0.002470031 7:-0.037784819 8:-0.021959165 9:-0.01667569 10:0.015480495 11:0.012809354 12:-0.002908312 13:-0.006279896 14:0.055246551 15:0.27970257 16:-0.19780226 17:0.089648262 18:-0.089379303 19:0.018028405 20:0.003987157 21:-0.01248067 22:0.027594149 23:-0.03446025 24:0.014769961 25:0.011019531 26:0.14974508 27:0.019697964 28:-0.13298164 29:0.039393052 30:-0.029962894 31:-0.014205002 32:-0.00380131 33:0.002055611 34:-0.00533467 35:0.01757618 36:0.028211012 37:-0.018771186 38:-0.04878974 39:-0.084474526 40:-0.016602281 41:0.006584712 42:-0.050073259 43:-0.023172081 44:-0.015595228 45:-0.005369157 46:-0.014454016 47:-0.07160534 48:-0.047845755 49:0.039524548 50:0.009470729 51:0.024828296 52:-0.043475848 53:0.024945537 54:-0.013256388 55:-0.000258597 56:0.014324733 57:-0.00456896 58:0.044937309 59:0.020095153 60:0.073577203 61:0.053092401 62:-0.005009217 63:-0.006826674 64:0.018623633 65:0.071632743 66:0.070099652 67:0.000509121 68:-0.073883325 69:-0.032482047 70:0.007866308 71:-0.018215738 72:0.045034643 73:-0.007714936 74:-0.056675363 75:-0.002589055 76:-0.000586417 77:-0.018566608 78:-0.013515625 79:0.047864154 80:-0.041588802 81:-0.046232525 82:-0.020851491 83:-0.031026036 84:0.05246697 85:-0.036219992 86:0.037327193 87:0.06734433 88:0.075982347 89:0.009047827 90:0.015227913 91:0.020228451 
1 0 0 1:0.004803929 2:-0.052998628 3:0.51342553 4:0.006265041 5:0.002869514 6:0.070867613 7:-0.03883459 8:-0.014170048 9:-0.023867821 10:-0.007507294 11:0.010450833 12:-0.00411571 13:-0.006782625 14:0.10085367 15:0.38905904 16:-0.33575422 17:0.018550208 18:-0.12197086 19:0.008735589 20:-0.001845874 21:0.00616197 22:0.005810894 23:-0.005181028 24:-0.008930376 25:0.007308241 26:0.1421321 27:-0.15125506 28:-0.093427517 29:0.089256912 30:-0.006706422 31:-0.050229017 32:-0.000320796 33:0.008610723 34:0.0025971 35:0.001856663 36:0.018045163 37:-0.020809503 38:-0.12131225 39:-0.047584545 40:-0.005551032 41:0.034746017 42:-0.040785905 43:-0.008060568 44:-0.01967443 45:0.002560805 46:-0.01192346 47:-0.034050461 48:0.020518364 49:-0.008226954 50:-0.00531493 51:0.012908211 52:-0.002415926 53:0.00261585 54:0.013604357 55:0.004267352 56:0.027129345 57:-0.004894618 58:0.057911675 59:0.030322121 60:0.01220488 61:0.08034052 62:0.000614872 63:0.00038154 64:0.002536242 65:0.042633928 66:0.04583665 67:0.013278224 68:-0.058224134 69:-0.04325103 70:-0.001533297 71:-0.015047737 72:0.027011493 73:-0.040994644 74:-0.024205677 75:0.00928265 76:0.014397298 77:-0.015913654 78:-0.02109113 79:0.029251663 80:-0.060505476 81:-0.027370164 82:-0.00692426 83:0.039003257 84:0.067504704 85:-0.032087937 86:0.02288189 87:0.055793777 88:0.091009378 89:0.004396934 90:0.045638215 91:0.018419456 
0 0 1 1:0.003870117 2:-0.3942318 3:0.2971279 4:-0.19573925 5:-0.034109641 6:-0.085858054 7:-0.048966363 8:-0.007936368 9:-0.029797861 10:-0.00463965 11:-0.018489128 12:-0.009175787 13:-0.015812825 14:0.045260131 15:0.22014619 16:-0.20879553 17:0.079741649 18:0.003715858 19:0.004775261 20:0.03992964 21:-0.004212094 22:0.014476226 23:-0.041671641 24:-0.00628153 25:0.022721047 26:0.15793805 27:0.038546141 28:-0.13900858 29:0.042219449 30:-0.005985031 31:-0.0214203 32:0.007845021 33:0.015398007 34:-0.005605543 35:0.00215482 36:0.00766998 37:-0.012448806 38:0.022517709 39:-0.013244225 40:0.00767055 41:0.015760407 42:-0.034513671 43:-0.004548456 44:-0.00406646 45:-0.009940134 46:-0.017451543 47:-0.037724011 48:0.037332192 49:-0.01722906 50:0.003580583 51:-0.011923212 52:0.000785034 53:0.005432089 54:0.024223516 55:0.008086167 56:-6.799e-05 57:0.01701789 58:0.089525767 59:0.058132127 60:0.050436042 61:0.04164914 62:0.008870277 63:0.013779451 64:-0.004135108 65:0.12607911 66:0.044697054 67:0.036181141 68:-0.005922755 69:-0.017055452 70:0.005464324 71:-0.021577036 72:0.045789838 73:-0.10158409 74:-0.065770112 75:0.014059925 76:-0.003590779 77:-0.024560643 78:-0.052218031 79:0.050870698 80:-0.034694128 81:-0.008478086 82:-0.032857593 83:-0.021751491 84:0.064116105 85:-0.023068989 86:0.020891596 87:0.10402077 88:0.083267443 89:-0.001847716 90:0.028202046 91:0.01076421 
0 0 1 1:0.012677906 2:-0.38666055 3:0.38686776 4:-0.15302499 5:-0.027554683 6:-0.068555541 7:-0.036244482 8:-0.033302389 9:-0.00861226 10:-9.6627e-05 11:0.081088983 12:0.021599958 13:-0.005542085 14:0.042234335 15:0.16363475 16:-0.22199729 17:0.038517267 18:-0.067183673 19:0.016499836 20:-0.002123164 21:-0.022775203 22:0.011598949 23:-0.016797202 24:0.031958915 25:0.023900153 26:0.16999736 27:0.023014415 28:-0.09436474 29:0.031245859 30:-0.014419359 31:-0.018824557 32:0.003285563 33:-0.003230683 34:0.00909652 35:0.003969199 36:0.010016293 37:-0.005729747 38:-0.026053175 39:0.027414044 40:-0.026206004 41:0.013545539 42:0.001783436 43:-0.017862797 44:-0.02852295 45:-0.012963688 46:-0.01844584 47:-0.029784594 48:-0.001972462 49:0.019345831 50:0.003555414 51:0.013204088 52:-0.001826854 53:0.02051859 54:-0.004901381 55:-0.003758602 56:0.02402111 57:-0.025918048 58:0.005808723 59:0.072050393 60:0.033049788 61:0.076279886 62:0.021816662 63:0.007082143 64:0.011408585 65:0.058486503 66:0.029808318 67:0.026250763 68:-0.06569726 69:-0.022869663 70:0.003643707 71:-0.028776191 72:0.007319076 73:-0.068160266 74:-0.05370165 75:-0.003273511 76:-0.010952875 77:-0.017931841 78:-0.021941008 79:0.13336757 80:-0.092566162 81:-0.007555571 82:-0.015201915 83:-0.019953486 84:0.17308578 85:-0.038034938 86:0.058533706 87:0.11715206 88:0.10623159 89:0.030451421 90:0.039707687 91:0.014870885 
1 0 1 1:-0.007780538 2:-0.15393235 3:0.39534926 4:-0.12127916 5:-0.041487798 6:-0.010814427 7:-0.049880657 8:-0.022234349 9:0.012123724 10:0.009517246 11:0.043563545 12:-0.004807028 13:0.017795416 14:0.059776526 15:0.3247675 16:-0.1834863 17:-0.024379876 18:-0.082191236 19:0.005477841 20:0.013491508 21:0.011362018 22:0.029816829 23:-0.033299323 24:0.027988018 25:0.02278769 26:0.10582711 27:0.11147439 28:-0.047475588 29:0.053567562 30:-0.018292531 31:-0.035316914 32:0.021455467 33:0.032842934 34:-0.012925332 35:0.006594201 36:0.036565453 37:0.041843191 38:-0.0372294 39:0.037925113 40:0.013340598 41:0.008069846 42:-0.013652807 43:0.005802232 44:-0.017732346 45:-0.019690273 46:-0.008886916 47:-0.025042996 48:0.056998089 49:-0.042316023 50:0.021695277 51:-0.026538676 52:-0.024956021 53:0.00142838 54:0.000598801 55:-0.003514755 56:0.03818645 57:-0.017486194 58:0.02762875 59:0.10583496 60:0.031552732 61:0.096828587 62:0.003959094 63:0.016782539 64:0.001711888 65:0.1081435 66:-0.089749254 67:0.016417047 68:-0.036320668 69:0.001065245 70:0.005238487 71:-0.01286539 72:0.015811939 73:-0.029713266 74:-0.02987472 75:-0.005279561 76:0.013476937 77:-0.019815458 78:-0.004657414 79:0.10688726 80:-0.056844294 81:-0.023320228 82:-0.011012579 83:-0.003132303 84:0.11496083 85:-0.015378332 86:0.032735791 87:0.10748571 88:0.16198267 89:0.013863679 90:0.11755507 91:0.026292615 
1 0 1 1:0.001825634 2:-0.16783059 3:0.31812736 4:-0.070839792 5:-0.037910409 6:-0.035812825 7:-0.023122204 8:-0.04156227 9:-0.025879543 10:-0.011559791 11:0.05177103 12:0.009960918 13:0.004678305 14:0.090927593 15:0.28818089 16:-0.26595187 17:0.011488868 18:-0.072263084 19:-0.021878181 20:0.019371243 21:-0.03493071 22:0.010222069 23:-0.018968698 24:0.019740431 25:0.034317512 26:0.12957621 27:0.050384529 28:-0.028193807 29:0.10280316 30:0.035186291 31:-0.024968673 32:0.005299319 33:0.012678943 34:-0.000416629 35:0.005180902 36:0.034289546 37:0.001344954 38:-0.096327782 39:0.003606291 40:-0.039761789 41:0.04580389 42:-0.016620371 43:-0.003583311 44:-0.017460058 45:-0.015866105 46:-0.011904816 47:-0.031100709 48:0.064608514 49:0.025564013 50:-0.008842822 51:0.013414623 52:-0.011090818 53:-0.010758356 54:0.013288636 55:-0.00510137 56:0.024980975 57:-0.028499214 58:0.057058368 59:0.057762735 60:0.02957689 61:0.069260828 62:0.031093435 63:0.006878634 64:-0.00630277 65:0.1000705 66:0.004869699 67:0.002878186 68:-0.0500248 69:-0.04087 70:0.005465259 71:-0.03248965 72:-0.007582987 73:-0.028275302 74:-0.060046878 75:0.00263431 76:-0.012215906 77:-0.026229113 78:-0.059960533 79:0.11709475 80:-0.10639385 81:-0.012269749 82:-0.012636218 83:0.061534882 84:0.14952523 85:-0.052862626 86:0.050403889 87:0.125429 88:0.13495712 89:0.02040893 90:0.10436501 91:0.021082096 
1 0 1 1:-0.011017067 2:-0.26493007 3:0.33051202 4:-0.004719271 5:0.058192562 6:-0.04141745 7:-0.036341984 8:-0.041145287 9:0.001658497 10:-0.013774448 11:0.006769535 12:-0.015967503 13:-0.012525056 14:0.014781991 15:0.13400398 16:-0.41279596 17:0.004447638 18:-0.14130628 19:-0.012225559 20:0.006894769 21:-0.023524126 22:0.014274868 23:-0.046820816 24:-0.01235479 25:0.008825091 26:0.1137104 27:-0.059296992 28:-0.021492716 29:0.099867225 30:0.026281394 31:0.006935351 32:0.003816741 33:0.014937389 34:-0.016089629 35:0.011983274 36:0.005995976 37:-0.014917756 38:0.049396496 39:-0.026752876 40:0.003935268 41:0.01054092 42:0.020228788 43:-0.003830473 44:-0.003891895 45:-0.011524037 46:-0.018266739 47:-0.039927624 48:-0.017268978 49:-0.013884046 50:0.032714341 51:-0.026563909 52:-0.003190553 53:-0.011871104 54:-0.005017152 55:-0.011958881 56:0.025162518 57:-0.035737533 58:-0.025472252 59:0.12889677 60:0.042701934 61:0.046720788 62:0.011179272 63:0.002553182 64:-0.004118553 65:0.047381237 66:-0.083304934 67:0.049997915 68:-0.065229788 69:-0.031200495 70:0.005084719 71:-0.025205368 72:-0.074066497 73:-0.11256728 74:-0.095421329 75:0.010592544 76:-0.005904531 77:-0.029217545 78:-0.034333125 79:0.063747004 80:-0.051118739 81:0.004301419 82:-0.028045995 83:-0.029825632 84:0.054250877 85:-0.041672461 86:0.021390609 87:0.060029946 88:0.078562841 89:0.002077765 90:0.056783352 91:0.003393697 
1 0 1 1:-0.007698558 2:-0.23968026 3:0.11618301 4:0.042582676 5:0.075992636 6:0.010172882 7:-0.054930449 8:-0.060357951 9:-0.010826911 10:-0.030465037 11:0.046596102 12:0.004010089 13:0.022310734 14:0.071146347 15:0.11189446 16:-0.39323273 17:-0.000804158 18:-0.14999641 19:-0.047865573 20:0.017981265 21:-0.027463356 22:0.016987471 23:-0.04649188 24:0.004940505 25:0.032343257 26:0.081954695 27:-0.16525744 28:0.039731551 29:0.17590374 30:0.059508145 31:-0.059372395 32:0.010400329 33:0.019989364 34:-0.036688078 35:0.016925136 36:0.035174817 37:0.025434241 38:-0.21908146 39:-0.08559294 40:-0.023442101 41:0.036488291 42:-0.018072177 43:0.005269319 44:-0.019568272 45:-0.033987116 46:-0.02476971 47:-0.046067085 48:-0.012062691 49:-0.007116583 50:-0.016220741 51:0.025546847 52:-0.02497136 53:-0.042286027 54:0.004083376 55:-0.028945733 56:0.045665 57:-0.11479297 58:0.066653378 59:0.13647839 60:0.055052798 61:0.12799162 62:0.003778851 63:0.002744774 64:-0.019309714 65:0.057960715 66:-0.094498686 67:-0.005001665 68:-0.12186822 69:-0.060095623 70:-0.014557713 71:-0.027285527 72:-0.058968272 73:-0.020094264 74:-0.041712008 75:0.004281334 76:0.001084495 77:-0.053501517 78:-0.058309838 79:-0.049670778 80:-0.11664806 81:-0.063989364 82:-0.014578743 83:0.040461238 84:0.1383933 85:-0.091136292 86:0.028729061 87:0.14282431 88:0.12565172 89:0.016167482 90:0.11711155 91:0.038916808 
1 0 0 1:-0.002358998 2:-0.024379285 3:0.37199005 4:-0.13614334 5:-0.02662297 6:-0.070666492 7:-0.052757505 8:-0.034133315 9:-0.028009009 10:-0.033091504 11:0.018816568 12:-0.014107522 13:0.016096072 14:0.052159958 15:0.34969512 16:-0.2774947 17:0.025336986 18:-0.064346261 19:-0.005276989 20:0.015171991 21:-0.026547156 22:0.013481645 23:-0.017102296 24:-0.012239644 25:0.012547174 26:0.13265997 27:-0.024621272 28:-0.077645719 29:0.0524414 30:0.002564863 31:-0.02002085 32:0.01245732 33:0.006469193 34:0.001219826 35:0.005684092 36:0.006907287 37:0.005654462 38:-0.005015952 39:0.02732528 40:-0.008446697 41:0.017572029 42:-0.038106516 43:-0.005104907 44:-0.011333579 45:0.006113108 46:-0.017690063 47:-0.025033576 48:0.053872958 49:0.024606427 50:-0.020909933 51:0.02681198 52:0.010552232 53:-0.001710322 54:0.004485753 55:-0.002533376 56:0.020936625 57:0.039214622 58:0.092293076 59:0.054153189 60:0.017069051 61:0.080122493 62:0.00951874 63:0.021809524 64:0.010253819 65:0.14308146 66:-0.026436009 67:0.022667542 68:-0.052911546 69:-0.022182062 70:0.021278501 71:-0.010235961 72:0.00793721 73:-0.068205841 74:-0.007345162 75:0.01661643 76:-0.001154631 77:-0.029049775 78:-0.035740178 79:0.006934325 80:-0.035703789 81:-0.012902129 82:-0.015151227 83:-0.069235757 84:0.040240705 85:-0.049081258 86:0.019645885 87:0.060607705 88:0.15048017 89:0.000467418 90:0.11622448 91:0.024504658 
1 0 0 1:0.000192307 2:-0.19256905 3:0.45545113 4:-0.063080169 5:0.0012776 6:-0.042730313 7:-0.047096852 8:-0.0291322 9:-0.010576216 10:-0.013169531 11:-0.002880404 12:-0.001888473 13:-0.00623608 14:0.047847364 15:0.29216722 16:-0.25179914 17:-0.014078056 18:-0.066246927 19:-0.006866585 20:0.015636696 21:-0.02319124 22:-0.009203433 23:-0.010640015 24:0.011168119 25:0.010378563 26:0.13398017 27:-0.078674041 28:-0.024418637 29:0.09026771 30:-0.00490108 31:-0.027971344 32:0.006569136 33:0.01360876 34:0.015993105 35:0.009477333 36:0.004828458 37:0.013993397 38:0.026536522 39:-0.045266114 40:-0.014137567 41:0.032969955 42:-0.000265993 43:-0.0086196 44:-0.016534112 45:0.002395796 46:-0.007137509 47:-0.0214667 48:-0.004742605 49:0.011796243 50:-0.031175684 51:-0.030286878 52:-0.00669371 53:-0.003532888 54:-0.009056541 55:0.007870574 56:0.011188508 57:0.017280489 58:0.052450188 59:0.070644617 60:0.038177475 61:0.045343373 62:0.000691704 63:-0.000766921 64:0.004274388 65:0.099685654 66:0.053080834 67:-0.00632618 68:-0.026388541 69:-0.01901919 70:0.001957741 71:-0.01869542 72:0.023134686 73:-0.023376076 74:-0.012754789 75:0.001197283 76:-0.006297431 77:-0.000880234 78:-0.008918272 79:0.031132553 80:-0.045569953 81:0.00431663 82:-0.012896409 83:-0.043594431 84:0.090285502 85:-0.024735229 86:0.013855139 87:0.036360003 88:0.098242201 89:0.015534893 90:0.033565048 91:0.014080259 
1 0 0 1:-0.002114141 2:-0.24192859 3:0.45475888 4:-0.15135008 5:0.004910033 6:-0.031774007 7:-0.046417858 8:-0.033917706 9:0.014961621 10:0.008203879 11:0.065732583 12:-0.005997866 13:0.011700894 14:0.025580077 15:0.25230044 16:-0.21801771 17:-0.000260206 18:-0.086645402 19:0.000179732 20:0.011078409 21:-0.00982797 22:0.008556256 23:0.002976055 24:0.000210018 25:0.015777463 26:0.10234954 27:0.005415991 28:-0.046345465 29:0.057505209 30:-0.011600299 31:-0.019923428 32:0.012182879 33:-0.005697947 34:-0.008633244 35:0.002394221 36:0.010347836 37:0.020563889 38:-0.050865017 39:-0.00330512 40:-0.009445296 41:-0.000763138 42:0.001524646 43:-0.01172022 44:-0.006585992 45:0.002997602 46:-0.028985681 47:-0.034854896 48:0.037526157 49:-0.000946955 50:-0.028391331 51:-0.011963382 52:0.03293122 53:0.005072691 54:0.010559901 55:-0.001163561 56:0.029680777 57:-0.003886703 58:0.030262932 59:0.040552609 60:0.013522284 61:0.080599323 62:0.003280447 63:0.019291561 64:0.004688589 65:0.057660814 66:-0.076439992 67:0.03444935 68:-0.055869322 69:-0.021842737 70:0.011502311 71:-0.012420114 72:-0.059324391 73:-0.062062401 74:-0.028265234 75:-0.00488636 76:-0.008004937 77:-0.016480947 78:-0.032837752 79:0.13357857 80:-0.04479133 81:-0.021797089 82:-0.012473932 83:0.052354682 84:0.056408316 85:-0.046148822 86:0.034206167 87:0.062090345 88:0.10084929 89:0.002672835 90:0.040555432 91:0.013882454 
1 1 1 1:-0.021858437 2:-0.29473645 3:0.2451912 4:-0.27881679 5:0.076032437 6:-0.080865048 7:-0.01903899 8:-0.054028425 9:-0.034464717 10:-0.04350552 11:-0.018339336 12:0.002881814 13:0.004188941 14:0.044426546 15:0.27722076 16:-0.18281691 17:-0.026770573 18:-0.10769084 19:0.006348873 20:-0.029017968 21:0.007225605 22:0.004179904 23:-0.010409448 24:-0.00589697 25:0.03821085 26:0.10014141 27:0.008798182 28:0.005529163 29:0.070550159 30:0.001462454 31:-0.002887585 32:-0.021318128 33:0.032376632 34:-0.00312002 35:0.007738177 36:-0.017077081 37:0.035870954 38:0.098812856 39:-0.019233726 40:-0.02548971 41:0.039254628 42:-0.010285598 43:-0.0146172 44:-0.028987164 45:-0.025983537 46:-0.003060831 47:-0.031783026 48:-0.019246837 49:0.11604803 50:0.061887804 51:-0.002877843 52:-0.009137666 53:0.022645608 54:-0.018617898 55:-0.008620282 56:0.015877716 57:0.087977819 58:-0.13858679 59:0.083789542 60:0.024252256 61:0.054077692 62:0.029332174 63:-0.015437057 64:0.020965097 65:-0.046346523 66:-0.091566518 67:-0.026891986 68:-0.030577948 69:-0.041700561 70:0.011302209 71:-0.051302336 72:-0.034577005 73:-0.005459732 74:-0.012073773 75:0.001320943 76:-0.013754549 77:-0.046925362 78:0.002221534 79:0.001721208 80:-0.070663244 81:-0.00978893 82:-0.003518039 83:-0.077434063 84:0.17209829 85:-0.019293776 86:0.009548263 87:0.15755846 88:0.081807829 89:0.020630546 90:0.058995564 91:0.007094216 
1 0 0 1:-0.010577489 2:-0.12408514 3:0.43061185 4:-0.080210827 5:0.0429697 6:-0.027054224 7:-0.029367596 8:-0.04260559 9:-0.024830423 10:-0.020780226 11:0.035523348 12:-0.007712545 13:-0.006429005 14:0.037106201 15:0.29527545 16:-0.27892685 17:0.005165032 18:-0.090216272 19:-0.005862868 20:0.013591736 21:-0.012161213 22:0.001063373 23:-0.010027079 24:0.000808537 25:0.022075126 26:0.096579209 27:-0.067181267 28:-0.099024415 29:0.10390247 30:0.015345811 31:-0.020268461 32:-0.004986954 33:0.013357376 34:-0.01236208 35:0.003841391 36:0.021438306 37:0.022477295 38:-0.032076541 39:-0.036109403 40:-0.015245528 41:0.051577743 42:-0.014707563 43:0.001930804 44:-0.014692984 45:0.003577097 46:-0.000207577 47:-0.040242247 48:-0.02859943 49:0.022446351 50:-0.004649936 51:0.000185347 52:-0.008008612 53:0.011525354 54:0.007890806 55:-0.000301497 56:0.014165178 57:0.041719917 58:0.030980404 59:0.044010159 60:0.012919886 61:0.057205353 62:0.005022496 63:-0.00664747 64:-0.005317864 65:0.063635319 66:-0.038454361 67:-0.004939044 68:-0.071991205 69:-0.02961739 70:-0.001077441 71:-0.022493962 72:-0.007403496 73:-0.025133308 74:-0.028115597 75:-0.011706847 76:-0.020377822 77:-0.018128028 78:0.021890732 79:0.12112927 80:-0.062305752 81:-0.006176722 82:-0.003128197 83:0.025512423 84:0.10977162 85:-0.048862793 86:0.024112571 87:0.08432316 88:0.10482405 89:0.012887401 90:0.046055868 91:0.011892606 
1 0 1 1:-0.005964437 2:0.061277732 3:0.26256764 4:-0.055176891 5:0.012272487 6:0.008236381 7:-0.014892587 8:-0.031660073 9:-0.049945157 10:-0.014520163 11:0.000289215 12:-0.000276673 13:-0.002255919 14:0.069704443 15:0.25597662 16:-0.18874849 17:-0.054519907 18:-0.09188766 19:-0.01004919 20:-0.008741236 21:-0.015553882 22:0.005208257 23:-0.024027659 24:-0.008791042 25:0.021151237 26:0.12114624 27:-0.075109057 28:-0.002318258 29:0.15935402 30:0.031522579 31:-0.018174646 32:-0.013338568 33:0.029068319 34:0.020512054 35:0.000270148 36:0.000725698 37:0.024593934 38:-0.065369099 39:0.05394198 40:-0.061803743 41:0.028452206 42:-0.00798807 43:-0.017468791 44:-0.028106378 45:-0.011504366 46:-0.006417288 47:-0.019476341 48:0.026653772 49:0.089440316 50:0.01947841 51:-0.019939058 52:-0.010619195 53:0.000597816 54:0.011018305 55:0.010770132 56:0.031991038 57:0.087381259 58:-0.042173594 59:0.040123533 60:0.004972183 61:0.085184358 62:0.011040608 63:0.012321127 64:0.015047217 65:0.0107636 66:0.003394449 67:-0.019517992 68:-0.052475166 69:-0.047134243 70:-0.018933 71:-0.031352788 72:0.005776082 73:-0.093499452 74:0.033556312 75:-0.000923963 76:0.00426219 77:-0.020577237 78:-0.076144263 79:0.036682475 80:-0.074147031 81:-0.012714672 82:-0.014143324 83:-0.009962182 84:0.091362022 85:0.004681632 86:0.02302376 87:0.11723168 88:-0.0121749 89:0.008874794 90:-0.06020689 91:0.000871055 
0 1 1 1:-0.041346557 2:-0.53600657 3:-0.039168723 4:-0.18890151 5:-0.001104708 6:-0.16127939 7:-0.067979053 8:0.031697929 9:0.03284293 10:0.060960598 11:0.1592747 12:0.04511426 13:0.014431817 14:0.07726635 15:0.25315371 16:-0.18681587 17:-0.076947555 18:-0.069497772 19:-0.032184411 20:0.043023948 21:-0.066940181 22:0.061927147 23:-0.020343887 24:0.06981612 25:-0.039382901 26:0.01641703 27:-0.021196777 28:0.03492127 29:0.12523423 30:0.009093036 31:-0.014000099 32:-0.043989215 33:-0.08260709 34:-0.11499119 35:0.024256129 36:-0.025870871 37:0.020543672 38:-0.000368742 39:0.00329711 40:-0.044236097 41:-0.10653855 42:0.029199425 43:-0.075636417 44:0.005638468 45:-0.040411893 46:-0.055916555 47:0.031425241 48:0.099890761 49:0.056108452 50:-0.064960204 51:-0.099314809 52:0.09001302 53:0.031096054 54:-0.058421362 55:-0.013492802 56:0.011205521 57:0.022608746 58:0.20557052 59:0.22996293 60:0.022926275 61:-0.021792663 62:0.006382995 63:0.064932659 64:-0.002523509 65:0.17140503 66:-0.21071245 67:0.083816014 68:0.15546122 69:-0.070397653 70:-0.003525954 71:-0.00579399 72:-0.16394328 73:-0.25688705 74:-0.21342047 75:0.11738826 76:0.036195029 77:-0.079498924 78:-0.19839549 79:0.042985782 80:-0.059545312 81:-0.094376877 82:3.9554e-05 83:0.1599827 84:0.026656685 85:0.007102205 86:0.051385608 87:0.074265681 88:0.08982864 89:-0.010198626 90:0.066771679 91:-0.002460739 
0 1 1 1:9.0422e-05 2:-0.31252488 3:0.33577398 4:-0.22652549 5:0.25548455 6:-0.10788075 7:-0.036611762 8:-0.017094251 9:-0.022854043 10:-0.02169051 11:0.052973535 12:-0.005097689 13:0.020208176 14:0.022710875 15:0.12925834 16:-0.13062213 17:0.091706179 18:-0.084960461 19:0.007622699 20:-0.009544077 21:-0.017106779 22:0.011578745 23:-0.005051308 24:0.005762502 25:-0.021125641 26:0.11187558 27:0.1575713 28:-0.23953003 29:-0.005578985 30:0.077935405 31:0.005284616 32:0.009738207 33:-0.006426283 34:-0.019741101 35:0.030114485 36:0.031606432 37:0.019236099 38:-0.22142024 39:0.13695349 40:0.0592159 41:-0.065404221 42:-0.031311754 43:-0.001138494 44:-0.001119076 45:-0.001012786 46:-0.033281732 47:-0.089952052 48:0.13164841 49:-0.11331869 50:0.018261056 51:0.011710519 52:0.019576648 53:-0.029915303 54:-0.030466631 55:-0.012938973 56:0.041080818 57:-0.11047097 58:0.060734969 59:0.052028682 60:0.019523643 61:0.073959261 62:-0.000565514 63:0.029300271 64:-0.026516227 65:0.11004715 66:-0.039055191 67:0.008708262 68:-0.1177203 69:-0.005317708 70:-0.03165387 71:-0.008066875 72:-0.021966405 73:-0.11547291 74:-0.049653932 75:0.036643378 76:0.0338935 77:-0.028430223 78:-0.099814415 79:0.079966106 80:0.016815543 81:-0.11199172 82:-0.009589724 83:0.033874691 84:-0.088332586 85:-0.016439464 86:0.036903132 87:-0.016592383 88:0.099127717 89:-0.013704683 90:0.066602975 91:0.027564505 
0 1 1 1:-0.009017029 2:-0.67880464 3:0.30742997 4:-0.33580759 5:0.18363628 6:-0.073698625 7:-0.018852379 8:-0.00574718 9:-0.04970124 10:0.038142066 11:0.01351207 12:-0.002173415 13:-0.018205663 14:0.026194755 15:-0.012523063 16:0.10164409 17:-0.02159805 18:-0.068661556 19:0.018266119 20:0.01163736 21:-0.015351593 22:-0.006053826 23:-0.006963493 24:0.017046947 25:-0.014034064 26:0.08020737 27:0.28610223 28:-0.19189537 29:0.046825454 30:-0.050485376 31:-0.034947831 32:0.018703457 33:-0.044483889 34:0.02290833 35:0.038099259 36:-0.008567569 37:0.088923432 38:-0.11693708 39:0.14185968 40:0.010826338 41:-0.016636565 42:-0.021695131 43:-0.022964429 44:-0.00873722 45:-0.00683886 46:-0.033596419 47:-0.079967074 48:0.16033094 49:0.054355323 50:-0.016203931 51:-0.049003698 52:0.03573028 53:0.024626188 54:-0.028511791 55:0.001480201 56:0.050316211 57:-0.042021632 58:0.15080017 59:0.006349649 60:0.075141609 61:0.081327721 62:0.011671627 63:0.022665484 64:0.022319777 65:0.096708477 66:0.054364622 67:0.020598298 68:-0.086933084 69:-0.003554717 70:-0.013668748 71:-0.016095664 72:0.065121152 73:-0.20731863 74:0.078996696 75:0.015524074 76:0.003232813 77:-0.006690186 78:-0.095135808 79:0.008127007 80:0.001311275 81:-0.003447953 82:-0.022176163 83:-0.020493785 84:-0.047670446 85:0.01257172 86:0.022988861 87:-0.00143233 88:0.024257842 89:-0.006819417 90:0.007639742 91:-0.013176609 
0 1 1 1:-0.005012714 2:-0.43537122 3:0.33972457 4:-0.26764068 5:0.02322045 6:-0.085482784 7:-0.03044272 8:-0.002491968 9:0.013550974 10:0.006698795 11:0.042589866 12:0.003568204 13:-0.006412813 14:0.021520166 15:0.17786613 16:-0.079662286 17:0.049845774 18:0.006524834 19:-0.021395678 20:0.027200576 21:-0.048767697 22:0.009361232 23:-0.025612326 24:0.020905858 25:-0.002993404 26:0.10398672 27:0.0739775 28:-0.19039913 29:0.052353855 30:-0.019587113 31:-0.054572895 32:-0.028878303 33:-0.037714798 34:0.005707551 35:0.035617419 36:7.0422e-05 37:0.04800047 38:-0.13137355 39:-0.025847949 40:-0.027225919 41:-0.044684745 42:0.011189916 43:-0.014412673 44:0.01367593 45:0.020844886 46:-0.018382045 47:-0.043079145 48:0.017208012 49:0.010005273 50:-0.04434666 51:-0.004186018 52:0.051762369 53:0.010506575 54:-0.039814424 55:-0.011952308 56:0.019838892 57:0.033556756 58:0.17299713 59:0.076720305 60:0.069464862 61:0.052911744 62:-0.013842156 63:0.012332479 64:-0.003381222 65:0.16184703 66:-0.032226 67:0.016037818 68:-0.060024232 69:0.023750827 70:-0.001867208 71:-0.008061556 72:-0.069371849 73:-0.14407454 74:-0.014571632 75:0.012226633 76:-0.00852829 77:-0.011765947 78:-0.11848914 79:0.096561067 80:0.014087734 81:0.003640702 82:-0.018708993 83:0.002603865 84:-0.04642792 85:0.009604584 86:0.042540248 87:-0.049654678 88:0.052641589 89:0.007559046 90:0.021151295 91:-0.007837003 
0 1 1 1:-0.008156327 2:-0.61563176 3:0.26983759 4:-0.081245847 5:0.078048609 6:-0.011742986 7:0.018828638 8:-0.05928468 9:-0.037300963 10:0.01347616 11:0.074212804 12:0.0193747 13:-0.029668162 14:0.014119201 15:-0.007791002 16:-0.22349265 17:0.048150651 18:-0.049244002 19:0.01174959 20:-0.003176109 21:-0.013476731 22:0.018939946 23:-0.020810263 24:0.03973135 25:-0.004479254 26:0.10613529 27:0.20629582 28:-0.26397371 29:0.16289079 30:0.06206752 31:-0.041845582 32:0.012890592 33:0.00038655 34:-0.004039814 35:0.014005133 36:-0.004944078 37:0.048121568 38:-0.11055628 39:-0.056925964 40:0.030988092 41:0.014612967 42:-0.044102486 43:-0.021421716 44:-0.017644105 45:-0.022358244 46:0.005050518 47:-0.074054196 48:0.12810186 49:-0.19921337 50:-0.026811732 51:-0.005651753 52:0.039417949 53:-0.039904367 54:-0.028005956 55:0.010162022 56:0.024030764 57:-0.13393542 58:0.065382138 59:0.035127971 60:0.027053574 61:0.084903404 62:0.019029824 63:-0.004174292 64:-0.026864178 65:0.051016938 66:0.021750834 67:0.086317137 68:-0.12094489 69:-0.004886535 70:-0.013751723 71:-0.024263194 72:0.028775699 73:-0.15868704 74:0.023149025 75:0.011348021 76:0.010761192 77:-0.025755592 78:-0.039424185 79:0.047200482 80:-0.024084138 81:0.009980802 82:-0.024417771 83:0.013181563 84:-0.003175091 85:0.034730427 86:0.042557348 87:0.046818532 88:-0.030883703 89:0.001847327 90:-0.022974946 91:-0.015255751 
0 1 0 1:-0.012034735 2:-0.5073626 3:0.5015862 4:-0.06086706 5:0.019189648 6:-0.046662919 7:-0.003382192 8:0.014905309 9:-0.02879153 10:0.019546155 11:0.042329129 12:-0.003722317 13:-0.019547097 14:0.015377886 15:0.058459844 16:-0.23408048 17:0.039887823 18:-0.038944028 19:-0.017426455 20:-0.026639685 21:0.002739181 22:-0.011302228 23:-0.031632729 24:0.015442361 25:-0.012068721 26:0.10186573 27:0.049558919 28:-0.23981827 29:0.063353166 30:0.054678943 31:-0.036979221 32:0.001753734 33:-0.019886456 34:0.01487211 35:0.012030785 36:-0.003784718 37:0.038364198 38:-0.092734121 39:0.087728046 40:0.075299397 41:-0.013017363 42:-0.023223117 43:0.04540832 44:-0.010370395 45:-0.010353875 46:-0.006437276 47:-0.037223533 48:0.052717995 49:-0.2326515 50:-0.091816075 51:-0.018090827 52:0.006782766 53:-0.043192148 54:-0.033011779 55:0.001145428 56:0.028383475 57:-0.09290833 58:0.14758946 59:-0.007089847 60:0.037502013 61:0.059583798 62:-0.000351828 63:0.011283468 64:-0.030197559 65:0.10231541 66:0.054002214 67:0.064117901 68:-0.062256146 69:0.007124003 70:-0.008815373 71:-0.006135823 72:0.066139258 73:-0.17568195 74:-0.000506715 75:0.011689188 76:0.010719785 77:-0.011013716 78:-0.057313103 79:0.12117422 80:0.018351302 81:-0.012270097 82:-0.018058125 83:-0.039286621 84:-0.031796843 85:0.002413613 86:0.024993695 87:-0.010000196 88:0.00662137 89:-0.005859515 90:-0.007639664 91:-0.003168296 
0 1 0 1:-0.026290445 2:-0.68041551 3:0.2885021 4:-0.17854461 5:0.1543266 6:0.071251675 7:-0.042917568 8:-0.007833616 9:-0.032968815 10:0.089946225 11:0.036786955 12:0.032251969 13:-0.030514797 14:0.015409053 15:0.069482923 16:-0.16713855 17:0.11493708 18:-0.12242736 19:-0.014063591 20:-0.02387088 21:-0.006387427 22:0.011655077 23:-0.095718578 24:-0.005843189 25:-0.004030229 26:0.069596231 27:0.16040157 28:-0.25523248 29:0.004794995 30:0.067677677 31:-0.02735805 32:0.013719058 33:-0.041847751 34:-0.014766934 35:0.060523715 36:-0.003479779 37:0.041571185 38:-0.15544622 39:0.15974201 40:0.058695391 41:-0.044678334 42:-0.051957518 43:0.049983177 44:0.022246795 45:-0.025830992 46:-0.004921538 47:-0.0549182 48:0.14115684 49:-0.1850885 50:-0.080720641 51:-0.003930035 52:-0.063557714 53:-0.035295729 54:-0.056998581 55:0.002935513 56:0.0648458 57:-0.10902545 58:0.19288799 59:0.012279943 60:0.13710357 61:0.13200711 62:0.027712921 63:-0.003929969 64:-0.023232978 65:0.13291931 66:0.025724301 67:0.1245225 68:-0.10334136 69:0.013891608 70:-0.013522368 71:-0.005714037 72:0.042932693 73:-0.27304658 74:-0.050023403 75:0.045439303 76:-0.005550808 77:-0.024416531 78:-0.13034077 79:0.086195812 80:0.031202722 81:-0.010699564 82:-0.041757356 83:-0.02198478 84:-0.14493988 85:0.0211257 86:0.021732366 87:-0.052860059 88:-0.004202287 89:-0.015006381 90:-0.014531858 91:-0.009598281 
0 1 1 1:-0.009096001 2:-0.47002068 3:0.50886208 4:-0.12035161 5:0.10455559 6:-0.020292109 7:-0.002730402 8:-0.014365116 9:-0.010027088 10:0.008574648 11:0.03573006 12:0.006809941 13:-0.001205529 14:0.004191794 15:0.000277268 16:-0.15908404 17:0.042835135 18:-0.052532945 19:-0.011328056 20:-0.011601984 21:-0.003648386 22:0.010616475 23:-0.0373386 24:0.024910398 25:-0.003695408 26:0.10304935 27:0.15646946 28:-0.16982874 29:0.039599787 30:0.034272932 31:-0.020828661 32:0.022358762 33:-0.002313362 34:0.011685302 35:0.008011366 36:0.022263486 37:0.029394884 38:-0.078798778 39:0.031803738 40:0.031708501 41:-0.032310165 42:-0.018799691 43:0.017436219 44:0.012931205 45:-0.007242159 46:0.005317939 47:-0.039705753 48:0.049375724 49:-0.02775906 50:-0.025770312 51:-0.010397503 52:-0.012616141 53:0.004467593 54:-0.028061191 55:0.01112386 56:0.027710004 57:-0.024115546 58:0.11485295 59:0.038076222 60:0.047509968 61:0.060738571 62:0.007310999 63:0.008536279 64:-0.00283341 65:0.067989513 66:0.060739372 67:0.040287528 68:-0.074506484 69:0.03066059 70:0.005559988 71:-0.00075088 72:0.055616803 73:-0.08958216 74:-0.021872722 75:-0.015863655 76:-0.002764246 77:-0.002849953 78:-0.001474181 79:0.12985544 80:0.011136481 81:-0.026109902 82:-0.015612743 83:-0.013879695 84:-0.03009389 85:-0.000210867 86:0.027478544 87:-0.001315747 88:0.082363144 89:0.00503419 90:0.025622832 91:0.008154072 
1 0 1 1:-0.03107802 2:-0.086617984 3:0.19571747 4:0.037381735 5:0.15224518 6:-0.070049189 7:0.024981136 8:0.037274025 9:-0.043354999 10:0.013825525 11:0.12131721 12:0.003202953 13:-0.008162289 14:-0.040836774 15:0.07732565 16:-0.30768567 17:0.15198828 18:-0.066875041 19:0.017233713 20:0.006295716 21:-0.0054276 22:-0.004346769 23:-0.040454797 24:0.041950405 25:-0.021474903 26:0.043971602 27:-0.029107608 28:-0.25720277 29:0.047239155 30:0.096823327 31:-0.016995681 32:0.023427745 33:-0.050051462 34:0.008119224 35:0.030631054 36:0.007922165 37:0.057008281 38:-0.26937568 39:0.12347747 40:0.097852036 41:-0.04483775 42:-0.028684562 43:0.01165196 44:-0.018365856 45:-0.008713022 46:-0.033200122 47:-0.041943517 48:0.11085083 49:-0.16681841 50:-0.08505962 51:-0.001484742 52:0.014414399 53:-0.059181251 54:-0.052867878 55:0.003064096 56:0.044186521 57:-0.17644899 58:0.2025703 59:0.041700233 60:0.093070798 61:0.13192071 62:0.007839626 63:0.02434662 64:-0.019116389 65:0.21721357 66:0.08694011 67:0.094134115 68:-0.13508126 69:0.040256117 70:-0.037964843 71:-0.017230308 72:0.013436588 73:-0.16351397 74:-0.064654276 75:0.01016526 76:0.003490801 77:-0.010638084 78:-0.16582571 79:0.085672155 80:0.053839706 81:-0.068572834 82:-0.0147855 83:-0.059021305 84:-0.063755214 85:-0.039412342 86:0.033620488 87:-0.089137822 88:0.058678053 89:0.005834021 90:0.070916206 91:-0.003518644 
0 1 1 1:-0.014026248 2:-0.47149908 3:0.01678706 4:-0.21016425 5:0.37620711 6:0.033319265 7:-0.009008071 8:0.022563223 9:-0.053150274 10:0.11313028 11:0.099993162 12:0.013196602 13:0.00010864 14:-0.0457348 15:-0.21097359 16:-0.27820328 17:0.13945337 18:-0.26251534 19:-0.066137016 20:-0.022429584 21:-0.027546169 22:0.03056238 23:-0.11879763 24:-0.033523295 25:-0.027718112 26:0.066284426 27:0.20211639 28:-0.1928848 29:0.06807787 30:0.1045308 31:-0.031134956 32:0.043948825 33:0.00353046 34:-0.02477186 35:0.025813133 36:-0.003480837 37:0.043950014 38:-0.24227305 39:0.079409085 40:0.033346936 41:-0.014041016 42:-0.079125606 43:0.007457321 44:-0.050494228 45:0.021376738 46:-0.033552524 47:-0.12271472 48:0.088995628 49:-0.093727671 50:-0.035762776 51:0.075351797 52:-0.10658867 53:-0.061430175 54:-0.056848135 55:0.017747644 56:0.087860093 57:-0.18519054 58:0.091769844 59:0.03306793 60:0.19337791 61:0.18275699 62:0.009164309 63:0.041523747 64:-0.021755952 65:0.22557414 66:0.062792227 67:0.096116327 68:-0.25774327 69:0.001610757 70:-0.000310067 71:-0.049617458 72:0.03073612 73:-0.19985907 74:-0.05662322 75:0.050942928 76:-0.02039508 77:-0.044942942 78:0.032337226 79:-0.001768327 80:0.042203471 81:-0.057604764 82:-0.074118666 83:-0.095585667 84:-0.12457298 85:-0.055969726 86:0.06645564 87:-0.12539592 88:0.10052358 89:-0.014036473 90:0.046429746 91:-4.7304e-05 
0 0 1 1:-0.017500583 2:-0.48893726 3:0.15997893 4:-0.10475674 5:0.24197039 6:-0.088480413 7:0.022691848 8:0.10991152 9:-0.04972361 10:-0.00011168 11:0.052067459 12:0.04351468 13:-0.005251724 14:-0.017213423 15:-0.013579885 16:-0.22483227 17:0.17766526 18:-0.06683778 19:0.016867081 20:-0.065887704 21:-0.021599211 22:0.010642793 23:-0.022079863 24:-0.005178769 25:-0.033271618 26:0.11578441 27:-0.058222704 28:-0.33901343 29:0.067297578 30:0.1421092 31:-0.03227488 32:0.026563492 33:-0.071830742 34:0.005193742 35:0.055604361 36:-0.002522869 37:0.041856881 38:-0.012672323 39:0.14164239 40:0.20136774 41:-0.10124832 42:-0.055697724 43:0.042449452 44:-0.017051533 45:0.004093404 46:-0.036989294 47:-0.092394285 48:0.097950406 49:-0.27517918 50:-0.17417723 51:0.022666546 52:0.007015975 53:-0.050841626 54:-0.10495403 55:0.007119891 56:0.040073629 57:-0.17718273 58:0.31166765 59:0.039239172 60:0.093077414 61:0.12353802 62:0.046333916 63:0.060006361 64:-0.050070547 65:0.23092103 66:0.035491586 67:0.078682899 68:-0.11708278 69:0.001185251 70:-0.059348997 71:0.008422012 72:0.0475851 73:-0.18398783 74:0.042801365 75:0.089042373 76:-0.00171235 77:-0.029717023 78:-0.092384286 79:0.003462742 80:0.0885332 81:-0.078522824 82:-0.029994944 83:-0.1664495 84:-0.16679367 85:-0.065516248 86:0.03029062 87:-0.04767061 88:0.084508292 89:-0.029956939 90:0.056318011 91:0.007908284 
0 1 1 1:-0.00778245 2:-0.51706338 3:0.43272397 4:-0.15710831 5:0.13117617 6:-0.097295783 7:-0.053146239 8:0.002351681 9:-0.014878711 10:0.013444826 11:0.013342667 12:-0.008495106 13:-0.018056829 14:0.009601992 15:0.034975842 16:-0.18873177 17:0.057077292 18:-0.048552718 19:0.009648388 20:-0.01857426 21:0.017625999 22:-0.01854863 23:-0.030822026 24:0.024513911 25:0.010105116 26:0.097753197 27:0.13201657 28:-0.19866933 29:0.031470653 30:0.008578304 31:0.00846573 32:-0.003358287 33:-0.022936266 34:-0.003394753 35:0.010493649 36:0.016057823 37:0.022221839 38:-0.10961423 39:0.056029443 40:0.035611592 41:-0.035410497 42:-0.012669684 43:0.005781021 44:-0.000263871 45:-0.024627985 46:-0.019310508 47:-0.058779452 48:0.10327128 49:-0.052407041 50:-0.050577108 51:-0.020573204 52:0.018329037 53:0.008411496 54:-0.030539483 55:0.002611265 56:0.02296821 57:-0.035110258 58:0.14398438 59:-0.015797377 60:0.076107875 61:0.039817084 62:0.006762865 63:-0.003152814 64:-0.005150299 65:0.10410634 66:0.10760152 67:0.064480022 68:-0.065358415 69:0.003460599 70:0.000141028 71:-0.002697604 72:0.088168629 73:-0.19795385 74:0.01918257 75:-0.01359299 76:0.016068768 77:-0.00924416 78:-0.076212101 79:0.037461977 80:0.009039946 81:-0.02673232 82:-0.032145735 83:-0.05079313 84:0.012649378 85:-0.015193587 86:0.019384988 87:0.021600457 88:0.050170559 89:0.005333082 90:0.00018358 91:0.007189783 
1 0.58132436549240596 1 1:-0.00910241 2:-0.231856 3:0.34059864 4:-0.17328151 5:0.014806163 6:-0.083417498 7:0.044638619 8:0.020687021 9:-0.024000222 10:-0.038306087 11:0.054454364 12:0.011828489 13:-0.023438074 14:0.051260315 15:0.23580784 16:-0.19104987 17:-0.044807203 18:-0.036794934 19:-0.017515978 20:-0.028170843 21:0.005716763 22:-0.000344685 23:0.004826348 24:0.043936547 25:0.014205099 26:0.12440402 27:0.01191591 28:0.053025723 29:0.044452433 30:0.077768967 31:-0.003708566 32:0.012098562 33:0.019430162 34:0.044480473 35:0.002868627 36:0.020155495 37:0.028181566 38:0.14199758 39:0.097572848 40:-0.079441428 41:-0.056284465 42:-0.010931506 43:-0.035207283 44:-0.057146929 45:-0.018428147 46:-0.003834148 47:0.003944817 48:0.096027195 49:0.12353025 50:-0.00107599 51:-0.04828136 52:0.032864839 53:0.010639243 54:-0.041292749 55:0.005436535 56:0.034441475 57:0.20489581 58:-0.04640691 59:-0.002240582 60:-0.025680389 61:0.073607676 62:0.00680391 63:-0.002976417 64:0.011700284 65:-0.07139878 66:0.16467974 67:0.020666985 68:0.034501277 69:0.029936744 70:-0.006007144 71:-0.027220447 72:0.10327208 73:-0.040142111 74:0.012419014 75:0.022342056 76:0.03746682 77:0.007574708 78:-0.083668232 79:0.11930516 80:-0.014275079 81:-0.009690142 82:0.005520997 83:0.034850173 84:0.063691646 85:0.003096249 86:0.031949285 87:0.085112333 88:0.009517511 89:0.010100135 90:-0.029613582 91:0.005740688 
0 0 1 1:-0.013120445 2:-0.39467883 3:0.23510981 4:-0.035712216 5:-0.076136746 6:-0.083596602 7:-0.001697564 8:-0.006329243 9:-0.039856415 10:-0.009448204 11:0.041450873 12:-0.015479803 13:0.002093192 14:0.002810052 15:0.057678036 16:-0.32997719 17:0.10722186 18:-0.025038512 19:-0.024206113 20:0.013871754 21:-0.008254844 22:0.004578464 23:-0.000937847 24:0.019632146 25:0.022588382 26:0.11305631 27:0.067013085 28:-0.16224717 29:0.077242762 30:-0.012283332 31:-0.03953075 32:-0.01703627 33:0.003052396 34:0.005988149 35:-0.00115827 36:0.033179127 37:-0.004953869 38:-0.14926219 39:-0.002834098 40:-0.07116165 41:0.025068745 42:-0.027907958 43:-0.017230064 44:-0.067471452 45:-0.003547052 46:-0.029217172 47:-0.024893606 48:0.045287549 49:0.015456356 50:0.029771449 51:0.010045148 52:0.012392832 53:-0.011255923 54:-0.013665384 55:-0.009038846 56:0.022248359 57:0.060079675 58:0.005517528 59:0.065637156 60:0.007476985 61:0.074960902 62:-0.002394432 63:-0.005332524 64:-0.012044332 65:0.15341587 66:0.02340888 67:0.036230594 68:-0.013699409 69:-0.004769341 70:0.015474005 71:-0.046713606 72:0.044820558 73:-0.094994023 74:-0.050906528 75:0.006654267 76:-0.008416009 77:-0.027546521 78:-0.072509721 79:0.054650981 80:-0.038582824 81:-0.025233587 82:-0.010591092 83:-0.14869121 84:0.050968349 85:-0.079108804 86:0.031205965 87:-0.015715869 88:0.1507944 89:0.003197892 90:0.024819886 91:0.01663498 
1 0 0 1:-0.001182833 2:-0.17317043 3:0.4474875 4:-0.067823477 5:-0.040386438 6:-0.053509101 7:-0.018325783 8:-0.010905738 9:-0.021699421 10:-0.020711342 11:0.017182726 12:-0.002872807 13:0.018349389 14:0.05093601 15:0.34161162 16:-0.22621591 17:-0.005099826 18:-0.047263797 19:-0.003290526 20:0.027295897 21:-0.010689437 22:0.014661924 23:0.006839869 24:0.03388476 25:0.031922236 26:0.12180046 27:-0.011043518 28:0.009098203 29:0.05091507 30:0.005000737 31:-0.031193905 32:-0.00551448 33:0.015161671 34:0.012072698 35:0.000295733 36:0.047653105 37:0.006127485 38:-0.005106891 39:0.007011593 40:-0.045222018 41:0.012540543 42:-0.006708293 43:-0.010098339 44:-0.009944571 45:-0.015933044 46:-0.003597194 47:-0.010883627 48:0.04508049 49:0.097665422 50:-0.019193092 51:-0.017226957 52:0.014513055 53:0.01508087 54:-0.007508616 55:-0.01211135 56:0.020427877 57:0.088007294 58:0.095393628 59:0.05628768 60:-0.006122225 61:0.046359781 62:0.006250619 63:0.009876301 64:0.012021647 65:0.11910153 66:0.038992718 67:-0.002353092 68:-0.011538675 69:-0.000633631 70:0.021737713 71:-0.012988547 72:0.045640118 73:0.030145479 74:-0.053192824 75:-0.015203116 76:0.01525694 77:-0.012798703 78:-0.005103451 79:0.10518122 80:-0.052859932 81:-0.01686948 82:0.009179727 83:0.014815917 84:0.095229328 85:-0.042854253 86:0.033133864 87:0.059956443 88:0.13699596 89:0.02189916 90:0.076894157 91:0.026751544 
0 0 1 1:0.002587788 2:-0.38469228 3:0.40957186 4:-0.13639185 5:-0.048685063 6:-0.055258539 7:-0.03671227 8:-0.026547372 9:-0.026432948 10:-0.027491139 11:0.01256417 12:-0.008209073 13:0.015586466 14:0.035961319 15:0.18415764 16:-0.26031348 17:-0.008697158 18:-0.074227914 19:0.025783375 20:0.005336056 21:-0.005623711 22:0.015304884 23:0.001623109 24:0.010764267 25:0.021677645 26:0.15213293 27:-0.048154395 28:-0.025273593 29:0.026287844 30:-0.013913585 31:-0.00360582 32:-0.00279453 33:0.012244477 34:0.002781268 35:0.009390637 36:0.024198961 37:-0.005422669 38:0.038063299 39:0.011238296 40:-0.012578201 41:0.019581076 42:-0.040262252 43:-0.012090977 44:-0.016651101 45:0.011035103 46:-0.016828774 47:-0.012155429 48:0.032089852 49:0.016269438 50:0.041607745 51:0.015320485 52:0.008759568 53:0.015979473 54:0.009445384 55:0.00011868 56:0.020382268 57:0.034934215 58:-0.017948776 59:0.032369941 60:0.00142552 61:0.05632668 62:0.005069376 63:0.005337832 64:0.008606812 65:0.053396903 66:0.054149244 67:-0.015067914 68:-0.023165045 69:-0.017313251 70:0.00590453 71:-0.029089868 72:0.02988779 73:0.000460763 74:-0.065065287 75:0.002513393 76:0.010521815 77:-0.017821807 78:-0.042260431 79:0.1001967 80:-0.044245183 81:-0.019577147 82:0.005716013 83:-0.015346413 84:0.12168478 85:-0.03001046 86:0.03407881 87:0.085799813 88:0.12102359 89:0.017618403 90:0.045934692 91:0.021105116 
1 0 1 1:0.002119434 2:-0.29921055 3:0.29667127 4:-0.12104551 5:-0.015476385 6:0.000932013 7:-0.010199292 8:-0.012210338 9:-0.052263174 10:-0.030698454 11:0.013350041 12:-0.012137636 13:0.011058427 14:0.074687995 15:0.22331415 16:-0.27106363 17:0.04799879 18:-0.084412761 19:0.00061087 20:-0.014281104 21:0.00420907 22:0.008133116 23:-0.003842827 24:0.014963394 25:0.036204949 26:0.12807369 27:-0.082145922 28:-0.071474649 29:0.036452737 30:0.025059363 31:-0.051363956 32:0.006980603 33:0.028211001 34:0.007538324 35:-0.008994364 36:0.045713603 37:0.012302853 38:-0.14980231 39:0.097515769 40:-0.056396164 41:0.036300026 42:-0.044538032 43:0.00253037 44:-0.047472503 45:-0.008703096 46:-0.01647551 47:-0.035921339 48:0.1171686 49:0.12234007 50:0.072838567 51:0.001047302 52:0.018464515 53:0.026519781 54:-0.005132305 55:-0.009247268 56:0.063283458 57:0.038977548 58:-0.074828617 59:0.041667826 60:-0.024559425 61:0.11171796 62:0.016161645 63:-0.023962516 64:0.014639506 65:-0.02249526 66:0.031595543 67:-0.005322552 68:-0.034375262 69:0.018235719 70:0.013141877 71:-0.050562393 72:0.065810107 73:0.017116865 74:-0.052614972 75:-0.016063686 76:0.052370302 77:-0.030345408 78:0.003802555 79:0.090037391 80:-0.035782535 81:-0.027676269 82:0.00084972 83:0.001971866 84:0.0908508 85:-0.016660798 86:0.041280057 87:0.068241365 88:0.10232145 89:0.018933436 90:0.008532676 91:0.030974859 
1 0 1 1:-0.002999731 2:-0.29745787 3:0.40384653 4:-0.055676967 5:-0.073381655 6:-0.059002675 7:-0.043515205 8:0.021442976 9:0.00944089 10:-0.023489231 11:0.040963344 12:-0.004439444 13:0.010117129 14:0.035908315 15:0.17236964 16:-0.2234402 17:0.022645166 18:-0.039637085 19:0.037200008 20:0.003807005 21:0.03834603 22:0.015914429 23:-0.025770312 24:0.041830249 25:0.031540595 26:0.14475547 27:0.058219936 28:-0.093933105 29:0.036494002 30:-0.036712594 31:-0.0482275 32:0.021019774 33:0.02738381 34:-0.029178916 35:0.001378726 36:0.057150926 37:0.009046297 38:-0.038467538 39:0.13348046 40:0.04103785 41:-0.004813041 42:-0.046937857 43:-0.007002981 44:-0.030858383 45:-0.020824952 46:-0.021804163 47:-0.014880662 48:0.10912123 49:-0.037103686 50:-0.04215426 51:-0.018118834 52:-0.009808613 53:0.002797832 54:-0.028140198 55:-0.016508359 56:0.037780818 57:-0.023651334 58:0.006551534 59:0.035369076 60:0.004390505 61:0.066973932 62:-0.004748612 63:-0.026581226 64:0.00741675 65:0.10067189 66:0.003919192 67:-0.005058557 68:-0.010982623 69:0.022305746 70:-0.00127023 71:-0.024161292 72:0.055761497 73:-0.024069654 74:-0.056796737 75:-0.016850874 76:0.048002332 77:-0.022232015 78:-0.011022028 79:0.19233084 80:-0.029056543 81:-0.02886074 82:-0.005851934 83:0.020996906 84:0.10141381 85:-0.018165888 86:0.036663968 87:0.027751455 88:0.089706965 89:0.022214266 90:-0.02336731 91:0.024536198 
0 0 1 1:-0.007100674 2:-0.39676854 3:0.26033112 4:-0.12546529 5:0.022425398 6:-0.038535882 7:-0.019811768 8:0.004630634 9:-0.016299771 10:-0.044331618 11:0.042559482 12:0.009240377 13:0.006268713 14:0.036598451 15:0.039507158 16:-0.35665131 17:-0.021534679 18:-0.10559042 19:-0.018399693 20:0.038491998 21:0.023127005 22:-7.504e-05 23:0.003482026 24:0.033371367 25:0.014951052 26:0.098087065 27:0.054637019 28:-0.02675874 29:0.018286718 30:0.012463233 31:-0.080215029 32:0.016639756 33:0.013750628 34:-0.022427637 35:-0.004515275 36:0.060479864 37:0.019606004 38:-0.12468337 39:0.091380835 40:-0.058393765 41:0.023211587 42:-0.059207965 43:-0.023124296 44:-0.061782043 45:-0.010606165 46:-0.007603705 47:-0.042946696 48:0.13558425 49:0.024275599 50:-0.01315207 51:-0.021358715 52:0.037954055 53:-0.01464574 54:-0.016250886 55:-0.019014174 56:0.064713575 57:-0.050644681 58:-0.021757711 59:0.050208572 60:-0.021458056 61:0.13102247 62:0.014038369 63:-0.026967017 64:-0.008698712 65:0.040572681 66:-0.017445475 67:0.018559352 68:-0.051140781 69:-0.004995339 70:-0.006596386 71:-0.053996235 72:0.020328213 73:-0.052602485 74:-0.035827193 75:-0.010309045 76:0.071471132 77:-0.038278487 78:-0.051008929 79:0.076331541 80:-0.085197747 81:-0.063300714 82:0.002839072 83:-0.037048306 84:0.13478784 85:0.003419727 86:0.045393828 87:0.024219055 88:0.036396548 89:0.01937796 90:0.024454549 91:0.021561502 
0 0 1 1:0.005293646 2:-0.350611 3:0.42722929 4:-0.14634037 5:-0.044965077 6:-0.085788108 7:-0.031677768 8:0.00472941 9:-0.017167071 10:-0.026571626 11:0.047659613 12:-0.00584477 13:-0.000505466 14:0.035402469 15:0.2231102 16:-0.22837843 17:-0.000867321 18:-0.013152431 19:0.01037429 20:0.013004337 21:0.016840197 22:0.013339994 23:-0.007996381 24:0.03028959 25:0.017679879 26:0.14030386 27:-0.006488313 28:0.016261194 29:0.044616815 30:0.002985408 31:-0.03749397 32:0.010306162 33:0.013593422 34:-0.011772069 35:0.000958124 36:0.045005284 37:0.003792142 38:0.026760966 39:0.0567379 40:-0.001448851 41:0.031574722 42:-0.042860031 43:-0.001851984 44:-0.044085607 45:-0.003832654 46:-0.009575852 47:-0.004852191 48:0.057524983 49:0.023243191 50:-0.008756489 51:0.002855567 52:0.021381706 53:0.006189803 54:-0.001901219 55:-0.003489672 56:0.016602619 57:0.027957717 58:0.003095681 59:0.00744485 60:-0.008638169 61:0.060651507 62:-0.000546122 63:-0.025014143 64:0.006918672 65:0.095071808 66:0.0395118 67:0.007725906 68:-0.020195084 69:-0.005558628 70:0.00051685 71:-0.043752898 72:0.060174558 73:-0.042231206 74:-0.02560487 75:-0.004935495 76:0.022769578 77:-0.026632646 78:-0.051989574 79:0.13158926 80:-0.054110534 81:-0.025963517 82:-0.001517181 83:-0.012484975 84:0.12996969 85:-0.015171763 86:0.043307479 87:0.085655071 88:0.080893926 89:0.020962816 90:-0.004935145 91:0.025588164 
0 0 1 1:0.011830966 2:-0.40770695 3:0.25886121 4:0.13478211 5:-0.019502787 6:-0.068563171 7:-0.029779393 8:0.004283838 9:-0.02448871 10:0.004110375 11:0.1264313 12:-0.014762276 13:-0.018596578 14:0.10781053 15:0.024122922 16:-0.34534234 17:0.067998134 18:-0.087936908 19:-0.023813611 20:0.007232669 21:0.016922899 22:0.001262307 23:0.058568038 24:0.024272203 25:0.020971576 26:0.17420235 27:-0.040636811 28:-0.048916504 29:0.09910278 30:0.008659512 31:0.047119517 32:-0.007158715 33:-0.023723178 34:0.037746854 35:0.016623689 36:0.01660102 37:-0.016372118 38:-0.2020026 39:0.054766659 40:-0.1001316 41:-0.037958577 42:0.029650992 43:-0.030173006 44:-0.039289638 45:-0.018155824 46:-0.018816728 47:-0.027652087 48:0.15744214 49:0.023881702 50:-0.048655272 51:-0.031210752 52:0.021933757 53:-0.029144175 54:-0.028484633 55:-0.010446392 56:0.02961638 57:-0.012434963 58:-0.054454517 59:0.071859352 60:0.032222435 61:0.085301757 62:-0.001689173 63:-0.01843925 64:0.00683055 65:0.052711982 66:0.01464598 67:0.097567007 68:-0.027958605 69:-0.007401785 70:0.007820752 71:-0.030299978 72:0.040003821 73:-0.001175365 74:0.068842627 75:0.001239682 76:0.014882104 77:-0.025419516 78:-0.11091257 79:0.15144817 80:-0.013507733 81:-0.015402451 82:6.64e-07 83:0.028329641 84:0.053559605 85:-0.037283342 86:0.06139617 87:0.075967968 88:0.034669168 89:0.014752049 90:0.036332209 91:0.013239059 
0 0 1 1:0.010436893 2:-0.62538916 3:0.15923631 4:0.14304481 5:-0.063818701 6:-0.12117709 7:-0.01333888 8:0.016988795 9:-0.044447567 10:-0.039539404 11:0.17199367 12:-0.012461998 13:-0.035589155 14:0.085420452 15:0.10368743 16:-0.39015448 17:0.092835769 18:-0.03079113 19:-0.016255897 20:0.053186473 21:0.005282961 22:-0.023832936 23:0.070954598 24:0.024360683 25:0.011259345 26:0.15526481 27:-0.021380119 28:-0.036195256 29:0.10128115 30:0.015147511 31:-0.065905042 32:0.036835182 33:-0.020489991 34:-0.014998063 35:0.018846083 36:0.019394699 37:-0.011012633 38:-0.093018189 39:0.11011472 40:-0.047259543 41:0.036574408 42:-0.020261705 43:-0.035118882 44:-0.10362643 45:-0.009952021 46:-0.009844536 47:-0.027875476 48:0.1456441 49:-0.051371895 50:-0.14634702 51:-0.033797596 52:0.051269241 53:-0.094763413 54:-0.025910752 55:0.00090778 56:0.041754805 57:-0.049028762 58:0.041243613 59:0.010025175 60:-0.003367209 61:0.12137213 62:-0.021670179 63:-0.031408213 64:-0.01609393 65:0.038986798 66:0.029752081 67:0.059263684 68:-0.026317257 69:-0.010891915 70:-0.008256497 71:-0.050607931 72:0.056982066 73:0.019249108 74:0.056761153 75:-0.010782272 76:0.035460349 77:-0.024787128 78:-0.017435435 79:0.11828408 80:-0.015079263 81:-0.024376454 82:0.015861779 83:0.035866342 84:0.005242204 85:0.006344769 86:0.069483362 87:-0.014589491 88:-0.036792863 89:0.007219116 90:-0.049582075 91:0.003990719 
0 1 1 1:-0.009228538 2:-0.55343795 3:0.25913709 4:-0.12052948 5:-0.059920736 6:-0.063777938 7:0.049880415 8:-0.019554811 9:-0.039505515 10:-0.039505634 11:0.08654201 12:-0.018052403 13:-0.017403914 14:0.031292859 15:0.11486647 16:-0.28363588 17:-0.092021689 18:-0.080048829 19:-0.008250983 20:0.040529799 21:-0.033367332 22:-0.00682419 23:0.040496405 24:0.007593622 25:0.016282188 26:0.11771885 27:-0.053203717 28:0.17080209 29:0.059616525 30:0.033753935 31:-0.01420279 32:-0.021149294 33:0.005694773 34:0.027447289 35:0.006379347 36:-0.008091711 37:0.018900972 38:0.10563099 39:0.000170132 40:-0.16026186 41:0.011061586 42:-0.018835504 43:-0.010716668 44:-0.054533426 45:-0.011727048 46:-0.011620966 47:0.021387486 48:0.03543612 49:0.16904554 50:-0.038296256 51:-0.045238208 52:0.02052534 53:-0.002497664 54:-0.002008204 55:-0.013196335 56:0.033324879 57:0.12998193 58:-0.038526662 59:0.058960777 60:-0.017000815 61:0.086501472 62:0.002098762 63:0.005568599 64:0.034449752 65:0.085996859 66:0.017353598 67:-0.012390194 68:0.003667292 69:0.013272366 70:0.032080717 71:-0.04121184 72:0.020337107 73:0.035324056 74:0.040015254 75:-0.001429623 76:0.002708347 77:-0.022710612 78:-0.00896496 79:0.05944797 80:-0.009684857 81:0.02315117 82:0.017871959 83:-0.079139248 84:0.006030083 85:-0.039875939 86:0.044133868 87:0.04861201 88:0.023778291 89:0.003555271 90:0.0362202 91:-0.00505563 
0 1 1 1:0.014462458 2:-0.50412929 3:0.1694462 4:-0.14141679 5:-0.093814515 6:-0.12346409 7:-0.027564945 8:-0.02046258 9:-0.0586849 10:-0.037777677 11:0.10010708 12:-0.007088447 13:-0.008216172 14:0.10000497 15:0.20483661 16:-0.24722642 17:0.080140747 18:-0.014772516 19:0.007930301 20:0.054568235 21:-0.016336666 22:-0.000838067 23:0.067156635 24:0.033260394 25:0.032920334 26:0.17791762 27:-0.032414977 28:-0.14998524 29:0.056115355 30:-0.014693815 31:-0.034595314 32:0.019187439 33:0.00872885 34:0.022560846 35:0.028114911 36:0.012703595 37:0.009668762 38:-0.15383837 39:0.17233732 40:-0.015621881 41:0.005368305 42:-0.014387655 43:-0.008048663 44:-0.05154679 45:-0.007175259 46:-0.007451296 47:-0.022211559 48:0.1905518 49:-0.053739622 50:-0.070277862 51:-0.032916501 52:0.050740398 53:-0.046827897 54:-0.020688618 55:0.001008824 56:0.04271939 57:-0.053049088 58:0.024705021 59:0.028286222 60:-0.035575513 61:0.093372636 62:-0.019076301 63:-0.018075984 64:-0.010302209 65:0.044988919 66:0.050692722 67:-0.062514514 68:-0.024657115 69:-0.010678354 70:-0.013530872 71:-0.040855035 72:0.047199041 73:0.12129902 74:-0.025334669 75:-0.014019726 76:0.012520389 77:-0.018972687 78:0.033349458 79:0.19043784 80:-0.04374408 81:-0.021953089 82:0.0516451 83:0.078224525 84:0.056666154 85:0.010109712 86:0.081199773 87:0.074187495 88:-0.036544863 89:0.019940421 90:-0.004064778 91:-0.004968096 
1 0 1 1:-0.01248242 2:-0.2225489 3:0.25603136 4:0.14223725 5:-0.038302675 6:-0.001839341 7:0.00589122 8:-0.037628796 9:-0.056225248 10:0.016925171 11:0.11210075 12:-0.003722982 13:0.032805797 14:0.043284632 15:0.05397192 16:-0.40023741 17:-0.095801324 18:-0.071318477 19:0.01007287 20:0.005950568 21:-0.032046098 22:0.018971801 23:0.048612911 24:-0.023780955 25:0.015888659 26:0.089332826 27:-0.19168271 28:0.1665732 29:0.11766656 30:0.053986005 31:-0.022576185 32:-0.004735895 33:0.006896153 34:0.035993353 35:0.011871834 36:-0.054965328 37:0.021945553 38:-0.049146675 39:0.02312512 40:-0.14445959 41:0.033096179 42:-0.030882489 43:-0.047719561 44:-0.06608361 45:-0.010277075 46:-0.029889602 47:0.009994537 48:0.10311919 49:0.12482785 50:-0.015648784 51:-0.007742949 52:0.007324491 53:-0.006462241 54:0.013446648 55:-0.004947464 56:0.050746366 57:0.06134098 58:-0.072988093 59:0.051104102 60:-0.03136326 61:0.11406536 62:0.005354145 63:-0.006199762 64:0.022837445 65:0.050593585 66:0.055204771 67:0.099285901 68:-0.006993403 69:-0.040891752 70:0.000159191 71:-0.050903153 72:0.018292999 73:-0.057432026 74:0.06316939 75:0.001064755 76:0.010078806 77:-0.023568975 78:-0.18442328 79:0.019274635 80:-0.060394727 81:-0.024209624 82:0.001869124 83:-0.15857197 84:0.009978585 85:-0.001679351 86:0.034191724 87:0.077702112 88:-0.057350356 89:-0.012213849 90:0.069543995 91:-0.007499531 
0 0 1 1:-0.005247975 2:-0.49169815 3:0.019191829 4:0.11503228 5:-0.14175853 6:-0.094644614 7:-0.041030582 8:-0.073369361 9:-0.015299573 10:0.001433292 11:0.060303088 12:0.00411292 13:0.000446592 14:0.10168202 15:0.20116705 16:-0.43645954 17:0.060700316 18:-0.04857995 19:-0.004260446 20:0.007427759 21:-0.032830946 22:0.070472769 23:0.084084876 24:-0.055809058 25:0.039159313 26:0.13674709 27:-0.25100276 28:-0.013908742 29:0.040794801 30:0.011788095 31:-0.037631266 32:-0.024502549 33:0.027266877 34:0.09251292 35:-0.008302731 36:-0.04449632 37:-0.03481758 38:-0.097791761 39:0.057078972 40:-0.11101949 41:0.063815571 42:-0.029197702 43:-0.041282699 44:-0.041184995 45:-0.02271826 46:-0.052681796 47:-0.01418444 48:0.065287597 49:0.026185969 50:0.045011077 51:-0.003751446 52:0.036718599 53:-0.045137983 54:0.018864036 55:-0.027712408 56:0.044297244 57:0.03000905 58:-0.071056567 59:0.14431894 60:-0.029359926 61:0.11525054 62:0.030035904 63:-0.014029378 64:0.009832982 65:0.014735012 66:0.062002324 67:0.090163529 68:-0.021999186 69:-0.055984601 70:0.028092021 71:-0.069282204 72:0.049196415 73:-0.016194768 74:0.062034011 75:0.017308092 76:2.5363e-05 77:-0.032252647 78:-0.10952031 79:-0.068135634 80:-0.10118459 81:-0.001092872 82:0.01056492 83:-0.18156309 84:0.082759753 85:-0.072462671 86:0.031119365 87:0.13346405 88:0.060944024 89:-0.006212707 90:0.091574654 91:0.002804915 
1 1 1 1:-0.001324808 2:-0.20394717 3:-0.026714161 4:-0.073386155 5:-0.070266619 6:-0.0956368 7:0.037782006 8:-0.034153104 9:-0.065326005 10:0.007826386 11:0.1028634 12:-0.030434107 13:-0.013583202 14:0.083214015 15:0.10679324 16:-0.2375744 17:0.016590973 18:-0.044666588 19:0.030730143 20:0.044249594 21:-0.023184415 22:0.01667314 23:0.080735512 24:0.023011152 25:-0.001961249 26:0.10043436 27:-0.11340845 28:0.071566269 29:-0.014654011 30:0.003104015 31:-0.024644583 32:0.018809842 33:-0.005358658 34:0.038864665 35:0.024549205 36:-0.018571878 37:-0.017478682 38:-0.074304171 39:0.10344527 40:-0.14840093 41:0.036234409 42:-0.015169634 43:-0.026931837 44:-0.063339747 45:-0.003278962 46:-0.014868808 47:0.005627393 48:0.1422668 49:0.10750657 50:-0.005329754 51:-0.0005967 52:0.046143252 53:-0.014900869 54:-0.000434658 55:0.017400945 56:0.056881674 57:0.17965445 58:-0.003838615 59:0.029936342 60:0.008541961 61:0.12227811 62:-0.008825144 63:-0.000884443 64:0.034807693 65:0.11914702 66:0.11071812 67:0.015676841 68:0.009297276 69:0.011241715 70:-0.00095339 71:-0.049609318 72:0.11272836 73:0.028899387 74:-0.003013536 75:-0.012953418 76:0.015441933 77:-0.013432052 78:-0.059276689 79:-0.08744292 80:-0.010263372 81:-0.016719095 82:0.02431413 83:-0.13965659 84:-0.029452479 85:0.02100596 86:0.04233364 87:0.039450593 88:0.007404942 89:-0.001715053 90:-0.000709385 91:-0.00788372 
1 1 1 1:-0.015776685 2:-0.41394791 3:-0.011654495 4:0.034335237 5:-0.078550942 6:-0.08849778 7:0.083779007 8:-0.038535103 9:-0.049955539 10:0.000695429 11:0.01587069 12:-0.018946491 13:-0.016485628 14:0.093357541 15:0.079108454 16:-0.26945901 17:0.15989617 18:-0.054986898 19:0.063759305 20:0.007775065 21:-0.034521192 22:0.022161148 23:0.025651855 24:0.018197695 25:0.012446103 26:0.12652242 27:0.000443659 28:-0.069722302 29:-0.046458062 30:-0.070011057 31:-0.033888716 32:-0.025175087 33:0.030874781 34:0.051468879 35:0.040703837 36:-0.011027035 37:-0.023677567 38:-0.21802379 39:0.18550685 40:-0.22200708 41:0.055284359 42:-0.036880843 43:-0.052308995 44:-0.063627429 45:0.006746327 46:0.014959777 47:-0.016685246 48:0.19823209 49:0.12586604 50:0.052319352 51:0.035121329 52:-0.003563103 53:0.02757079 54:-0.012224241 55:0.011634197 56:0.060304314 57:0.11850208 58:-0.11575045 59:0.08572688 60:0.025847275 61:0.11052123 62:-0.024254195 63:-0.004881181 64:0.047376554 65:0.021560345 66:0.11082261 67:0.12474103 68:0.018475387 69:0.006205461 70:-0.023023954 71:-0.07479918 72:0.080511644 73:-0.009629853 74:0.001627857 75:-0.008424196 76:-0.014451591 77:-0.029508475 78:-0.040852603 79:0.054106273 80:0.034965023 81:0.003858799 82:-0.009918162 83:-0.034361105 84:0.023276744 85:0.068963766 86:0.030142458 87:0.11255052 88:-0.076543242 89:0.001058818 90:-0.014746097 91:-0.030812027 
0 0 1 1:-0.003967446 2:-0.39747786 3:0.15606758 4:0.27889413 5:-0.07658086 6:-0.050985597 7:0.035016719 8:-0.031891134 9:-0.019877898 10:0.047658768 11:0.004107672 12:0.001220445 13:-0.016117077 14:0.10044876 15:0.18449882 16:-0.52447855 17:0.070098527 18:-0.10892201 19:0.011817618 20:0.026484651 21:-0.044084683 22:0.040499058 23:0.059164222 24:0.008659352 25:0.015624312 26:0.13654284 27:-0.23839393 28:-0.021046679 29:0.013088606 30:-0.013931377 31:0.050584603 32:-0.058545902 33:-0.049809609 34:0.031118009 35:0.029691625 36:0.006407853 37:-0.038230561 38:-0.13933675 39:0.10600934 40:-0.2278139 41:-0.021741943 42:-0.018112903 43:-0.076894678 44:-0.03919401 45:-0.009769528 46:-0.021600667 47:-0.019071491 48:0.21309803 49:0.13942875 50:-0.033219427 51:0.014014706 52:-0.030062579 53:-0.021798613 54:-0.01107094 55:-0.02255776 56:0.050847657 57:0.14982066 58:-0.02697813 59:0.20486634 60:0.0186029 61:0.055290144 62:-0.025827387 63:-0.008141623 64:0.021222925 65:0.070150442 66:-0.086538032 67:0.13466188 68:-0.008883509 69:-0.02273923 70:0.022498144 71:-0.030301739 72:-0.082585074 73:-0.097297601 74:0.013370603 75:-0.027430447 76:0.011262456 77:-0.052345887 78:-0.16793507 79:-0.025177447 80:-0.004234245 81:-0.003199462 82:-0.00754096 83:-0.057398472 84:-0.029950414 85:-0.068168938 86:0.024379076 87:0.030093258 88:0.071535349 89:-0.003312694 90:0.048393454 91:0.006705839 
1 0 1 1:-0.031348266 2:-0.34818506 3:0.16787399 4:0.069431171 5:-0.056771088 6:-0.063486874 7:-0.040381819 8:-0.035316747 9:-0.059574325 10:-0.045753419 11:-0.01902803 12:-0.024043426 13:0.004342114 14:0.038796857 15:0.15964516 16:-0.44413015 17:-0.004643398 18:-0.000471038 19:0.039148089 20:0.037212621 21:-0.007306773 22:-0.015357919 23:0.033638958 24:-0.026771937 25:0.020222999 26:0.069954626 27:-0.18838866 28:0.073887356 29:0.10318174 30:0.006156256 31:0.017212471 32:0.006125415 33:-0.001642083 34:0.022056896 35:0.00266828 36:-0.051511429 37:0.021450402 38:-0.11656032 39:0.053225197 40:-0.040869668 41:0.010714557 42:0.011075811 43:-0.01568868 44:-0.030170621 45:-0.003975972 46:-0.014040038 47:0.008280171 48:0.07124918 49:0.036215775 50:0.001526703 51:-0.012935031 52:0.016992604 53:-0.017080724 54:0.007723652 55:0.014545438 56:0.029305942 57:0.054257274 58:0.017961813 59:0.098687805 60:-0.017025627 61:0.080506139 62:-0.007742992 63:0.0069628 64:0.005694997 65:0.099479444 66:-0.001543446 67:-0.047431581 68:0.031993616 69:-0.024003044 70:-0.017383263 71:-0.02918509 72:0.037142385 73:0.053425234 74:0.043157421 75:-0.017993024 76:-0.039644964 77:-0.031239145 78:-0.03273607 79:-0.091647193 80:-0.023459356 81:-0.008385611 82:0.022276789 83:-0.14479221 84:-0.010368888 85:0.032696549 86:0.001692329 87:0.07867036 88:-0.078442149 89:-0.012968145 90:-0.020292446 91:-0.036657821 
1 0 1 1:-0.004357023 2:-0.24444917 3:0.38925749 4:-0.047116883 5:-0.081944443 6:-0.090165623 7:-0.038228061 8:-0.01325911 9:-0.043504491 10:-0.046625141 11:0.042387929 12:0.005683501 13:-0.005181915 14:0.072571605 15:0.32457405 16:-0.22232989 17:0.049890157 18:-0.034941573 19:-0.002698145 20:0.018707266 21:-0.003567101 22:-0.001751247 23:0.015701935 24:0.011956003 25:0.020399788 26:0.13523944 27:-0.006737667 28:-0.13219866 29:0.039798062 30:0.00549636 31:-0.018004566 32:-0.001413911 33:0.018746238 34:0.003170491 35:0.007301599 36:-0.003008614 37:0.005767292 38:-0.090035528 39:0.088250414 40:-0.034886304 41:0.03113869 42:-0.008657852 43:-0.002409692 44:-0.034334857 45:-0.016959976 46:-0.00579997 47:-0.024768643 48:0.089373328 49:-0.039628599 50:-0.054044809 51:-0.013833893 52:0.026608177 53:-0.008305663 54:-0.018364688 55:0.006135789 56:0.029532602 57:-0.043493543 58:0.01272046 59:0.036120437 60:-0.024775112 61:0.051114246 62:-0.001969203 63:-0.008868841 64:-0.003096749 65:0.044975128 66:0.020489395 67:-0.010020348 68:-0.039215259 69:-0.032436248 70:-0.019075716 71:-0.026823914 72:0.04543972 73:0.039822388 74:-0.00637096 75:0.003760402 76:-0.003395133 77:-0.023791157 78:0.024641763 79:0.12081993 80:-0.018736709 81:-0.003271165 82:0.009823976 83:0.051816668 84:0.022645583 85:0.017118186 86:0.033294227 87:0.057381183 88:-0.018804446 89:-0.006015954 90:0.012774511 91:-0.014813663 
1 0 1 1:-0.006651837 2:-0.18409516 3:0.38297707 4:0.001673341 5:-0.018991446 6:-0.073594332 7:0.047119398 8:0.036527555 9:-0.03345507 10:-0.003044233 11:-0.013837782 12:0.059505083 13:-0.008769047 14:0.0178365 15:0.29906383 16:-0.3673324 17:0.024066478 18:-0.009191945 19:-0.023573251 20:0.063331284 21:-0.006230864 22:-0.002696177 23:0.019631755 24:0.059119243 25:0.000631731 26:0.097633779 27:-0.13623183 28:0.005062017 29:0.07140515 30:-0.057757229 31:-0.015129648 32:0.022691987 33:-0.006223064 34:0.016636292 35:0.034451123 36:-0.01716424 37:-0.015827935 38:0.068963572 39:-0.078979187 40:-0.11001006 41:-0.035906989 42:0.00158804 43:-0.063920848 44:-0.059844151 45:-0.031519879 46:-0.00934185 47:-0.009333463 48:-0.026441962 49:0.19017865 50:0.002572949 51:-0.017437641 52:0.039792258 53:-0.040309969 54:-0.064867944 55:-0.007106922 56:0.009351178 57:0.065203138 58:0.023348976 59:0.025104348 60:0.038811769 61:0.022248415 62:-0.055531297 63:0.021634752 64:0.046519585 65:-0.048775434 66:0.078958407 67:0.089325331 68:0.06342148 69:-0.015928283 70:0.007551878 71:-0.005992706 72:0.060857031 73:-0.13767837 74:0.046506301 75:0.033453792 76:-0.006245542 77:-0.002381832 78:-0.073161095 79:-0.091489919 80:0.025750911 81:-0.004079176 82:-0.032609578 83:-0.04082717 84:-0.038298309 85:0.013071372 86:-0.028370544 87:0.042078353 88:-0.027939264 89:-0.023393938 90:-0.059908558 91:-0.016378669 
0 1 1 1:-0.026628207 2:-0.56467712 3:-0.040788781 4:-0.16464891 5:0.058845084 6:-0.093786694 7:-0.022163928 8:0.088059805 9:-0.016963584 10:0.006460964 11:-0.0136515 12:0.067672938 13:-0.040758152 14:0.024388643 15:-0.14394747 16:-0.21556155 17:0.054877341 18:-0.030050885 19:-0.01492625 20:0.042681202 21:0.066055991 22:-0.003317864 23:-0.048154544 24:0.066491663 25:-0.003028601 26:0.082064986 27:-0.049750194 28:-0.054472823 29:0.14861229 30:-0.022271728 31:0.005639229 32:0.033738203 33:0.021503028 34:-0.010409788 35:0.021403998 36:-0.006325137 37:-0.000801717 38:-0.048834614 39:-0.066689484 40:-0.065941006 41:-0.10330451 42:-0.056159284 43:-0.029326733 44:-0.10473116 45:-0.070568494 46:-0.030551042 47:-0.02309853 48:-0.05832947 49:-0.000829713 50:-0.029027756 51:-0.077799782 52:0.031580843 53:-0.014538625 54:-0.13781644 55:0.019313559 56:0.000605301 57:0.0130173 58:0.062304746 59:-0.019833818 60:0.071390904 61:0.033280123 62:-0.02061799 63:0.012491811 64:0.019854015 65:0.048958056 66:0.21790427 67:0.094707876 68:0.063124985 69:-0.041210692 70:0.001687402 71:-0.003860956 72:0.18760446 73:-0.17054944 74:0.035289671 75:0.12332111 76:0.015927095 77:-0.006546521 78:-0.083953641 79:-0.074172825 80:0.001601408 81:-0.02797175 82:-0.060491849 83:-0.10892804 84:0.001620762 85:-0.000247682 86:-0.025120661 87:0.041123621 88:-0.02697104 89:-0.02884238 90:-0.035444029 91:-0.002818166 
0 0 1 1:-0.001416294 2:-0.36478057 3:0.20906067 4:-0.020353829 5:0.022847071 6:-0.099017709 7:-0.004420781 8:0.015025351 9:-0.049188364 10:-0.004078786 11:0.039200123 12:0.017170252 13:-0.019385425 14:0.052706085 15:0.26099142 16:-0.36016083 17:0.086050086 18:-0.032995056 19:0.004035749 20:0.072903082 21:-0.008282646 22:0.010903178 23:-0.002570553 24:0.046714883 25:0.00350002 26:0.1051006 27:-0.092962541 28:-0.056572445 29:0.039799567 30:-0.023236921 31:-0.0130447 32:0.012081405 33:-0.010790208 34:0.015051718 35:0.020034753 36:-0.005765073 37:-0.029812891 38:-0.10366518 39:0.020465501 40:-0.11193994 41:-0.019977145 42:-0.02590842 43:-0.039819255 44:-0.046248242 45:-0.022897845 46:-0.024586029 47:-0.048549511 48:0.066038214 49:0.10481755 50:-0.14838313 51:-0.01188413 52:-0.002046274 53:-0.035273716 54:-0.064155854 55:0.004678885 56:0.023085572 57:0.083516128 58:0.1882944 59:0.002046966 60:0.046421293 61:0.073384218 62:-0.039709467 63:0.016978871 64:0.030164653 65:0.1791786 66:0.12395202 67:0.090527765 68:-0.024054734 69:0.001107394 70:0.00885709 71:0.02272843 72:0.094862655 73:-0.059179399 74:0.084779881 75:0.009556157 76:0.018470015 77:-0.005102552 78:-0.082321823 79:-0.081713513 80:0.063022181 81:-0.029825944 82:-0.033111118 83:-0.042307768 84:-0.05078667 85:-0.01740532 86:-0.014110292 87:0.008570259 88:0.004832665 89:-0.025124557 90:-0.016941398 91:0.00354826 
0 0 1 1:-0.003794367 2:-0.67230743 3:0.19418651 4:0.071320698 5:-0.083585978 6:-0.03461808 7:-0.033584647 8:0.071833663 9:-0.054613732 10:-0.012171518 11:0.009582741 12:0.013386349 13:-0.006086868 14:0.053667344 15:0.072116621 16:-0.42941952 17:0.052511174 18:-0.075103946 19:-0.01702475 20:0.047999695 21:0.00566093 22:0.010966332 23:-0.014343264 24:0.011998088 25:0.01700674 26:0.13371332 27:0.031183191 28:-0.074219294 29:0.10102906 30:-0.022779969 31:-0.03387022 32:0.011786649 33:-0.000943392 34:0.024804473 35:-0.005898417 36:0.003205483 37:-0.056006294 38:-0.085603192 39:-0.034778275 40:-0.082978852 41:-0.007588034 42:-0.025673106 43:-0.025087126 44:-0.045749873 45:-0.023042917 46:-0.038320795 47:-0.014910608 48:0.098787412 49:0.092711039 50:-0.13888705 51:-0.01523597 52:-0.001435101 53:0.010267645 54:-0.057821598 55:0.006660841 56:0.022981955 57:0.04764545 58:0.23270604 59:-0.002483668 60:0.022175545 61:0.077732079 62:-0.004714394 63:0.01289268 64:0.023922818 65:0.14738101 66:0.13360474 67:0.074440792 68:-0.010199369 69:-0.014533311 70:-0.007190117 71:0.008419369 72:0.11043835 73:-0.064185679 74:0.005790845 75:0.027703827 76:0.027893128 77:-0.008936732 78:-0.064378165 79:-0.03453299 80:-0.000484453 81:-0.014364835 82:-0.028475083 83:-0.024453606 84:-0.030136986 85:-0.050215017 86:0.010739084 87:0.012770277 88:0.023352921 89:-0.006149974 90:-0.026102841 91:0.015280958 
1 0 1 1:0.006363485 2:-0.24017225 3:0.37111726 4:-0.045491412 5:-0.032051746 6:-0.065878667 7:-0.00239408 8:0.04633949 9:-0.023209851 10:0.005685586 11:-0.009383548 12:0.01038402 13:-0.018713642 14:0.046457719 15:0.19492757 16:-0.31869221 17:-0.03433419 18:-0.046282046 19:0.026471751 20:0.047784261 21:0.011653197 22:0.006400935 23:-0.032791059 24:0.024651153 25:0.006954121 26:0.14545378 27:-0.027600989 28:-0.037805282 29:0.037210111 30:-0.022881983 31:0.002910911 32:0.005135754 33:-0.000819893 34:0.026123401 35:-0.007057608 36:0.015719896 37:-0.020511255 38:-0.080097623 39:-0.005987245 40:-0.058431711 41:-0.005618451 42:-0.010622484 43:-0.046251278 44:-0.027729336 45:-0.027954813 46:-0.027693734 47:-0.014549593 48:0.036510848 49:0.039427489 50:-0.073062338 51:-0.029124497 52:-0.018787511 53:-0.003797395 54:-0.055596985 55:0.003489229 56:0.015723499 57:-0.003127693 58:0.14738122 59:0.012734232 60:0.041718844 61:0.026235953 62:-0.011643728 63:0.002981101 64:0.029421786 65:0.12818006 66:0.10068889 67:0.014345784 68:-0.022755174 69:0.003309837 70:0.015410018 71:0.020619854 72:0.063832209 73:-0.068073697 74:0.016681179 75:-0.018488597 76:0.020447349 77:0.008535386 78:-0.060552135 79:0.008458645 80:0.039418902 81:-0.025004623 82:-0.025737585 83:-0.038554668 84:-0.060924247 85:-0.021804951 86:0.002138407 87:-0.005572561 88:0.026085872 89:-0.017907249 90:0.019680928 91:0.008135085 
0 0 1 1:0.001503511 2:-0.29395402 3:0.51999187 4:0.018198725 5:0.073118538 6:-0.034311198 7:-0.013226886 8:0.014715538 9:-0.007045249 10:0.000308776 11:-0.014174319 12:0.002733049 13:-0.015729997 14:0.027290586 15:0.05864184 16:-0.26298451 17:0.011195105 18:0.011845029 19:0.027768515 20:0.016296225 21:0.010366405 22:-0.00094689 23:-0.020664463 24:0.020545553 25:0.008684833 26:0.12818789 27:0.026355622 28:-0.068657912 29:0.038826767 30:0.007164998 31:-0.016587416 32:0.008076754 33:0.029987423 34:0.036406208 35:0.001762185 36:0.008500041 37:-0.007367992 38:-0.09171246 39:0.075397439 40:-0.032350544 41:0.020551445 42:-0.028537143 43:-0.007200567 44:-0.012338486 45:-0.008337288 46:-0.008510482 47:-0.032442544 48:0.097097985 49:0.017305024 50:-0.047563173 51:-0.048536554 52:-0.00075652 53:-0.001034567 54:-0.026950518 55:0.012812888 56:0.007473969 57:-0.021141924 58:0.051731735 59:-0.024212521 60:0.012583423 61:0.034578409 62:-0.004067485 63:0.003817649 64:0.011907487 65:0.046246409 66:0.1584982 67:0.039019853 68:-0.016571689 69:0.011179524 70:0.008679792 71:-0.010060667 72:0.090042189 73:-0.095838457 74:0.003730593 75:-0.005197496 76:0.016320629 77:0.014643983 78:-0.032059025 79:0.071434081 80:-0.000891065 81:-0.013281833 82:-0.017197764 83:0.004960929 84:0.04079799 85:-0.006301919 86:0.007913318 87:0.056008067 88:0.025881205 89:0.00550322 90:-0.00131082 91:0.005115765 
1 0 1 1:0.022471005 2:-0.21236636 3:0.28808919 4:-0.02369844 5:0.11823378 6:-0.063991442 7:0.018604822 8:0.059025459 9:-0.017107768 10:-0.037562586 11:0.042738479 12:0.023327839 13:-0.024735378 14:0.087481044 15:0.085128613 16:-0.30445617 17:0.097204372 18:-0.068757728 19:-0.035251167 20:0.050298784 21:0.029439485 22:-0.002998418 23:-0.007709833 24:0.047635607 25:0.00104374 26:0.17603791 27:-0.056068689 28:-0.17804934 29:0.088055387 30:-0.056771636 31:0.023452193 32:0.038714539 33:0.011273531 34:-0.002514741 35:0.015719498 36:0.008107701 37:-0.033514541 38:-0.28006363 39:0.031655941 40:-0.11144209 41:-0.10826186 42:-0.013682601 43:-0.031029996 44:-0.071867324 45:-0.047018629 46:-0.009128319 47:-0.075107284 48:0.061555166 49:0.078386351 50:-0.014826722 51:-0.063104019 52:0.024940848 53:-0.036595564 54:-0.068082362 55:0.011528171 56:0.02713274 57:0.091178805 58:0.050312404 59:-0.015673297 60:0.042801093 61:0.057283938 62:-0.032047331 63:0.011030165 64:0.021374267 65:0.13820384 66:0.12180085 67:0.035939995 68:0.026681891 69:-0.019682217 70:-0.001442949 71:-0.004892346 72:0.11532161 73:-0.056201402 74:0.010838355 75:0.060345009 76:0.026124395 77:-7.1089e-05 78:-0.086765133 79:0.031508263 80:6.493e-05 81:-0.033756867 82:-0.020777775 83:-0.092711121 84:0.010480151 85:0.02088232 86:0.027619421 87:-0.005022797 88:0.02069925 89:-0.007560176 90:0.013091709 91:0.003716881 
